svm_type c_svc
kernel_type linear
nr_class 2
total_sv 12
rho 3.408298962178248
label 1 -1
probA -2.1970129967338856
probB 1.1487792249530917
nr_sv 5 7
SV
0.71077143707875645 1:-0.77430828 2:1.3777495 3:1.7843719 4:-0.70604215 5:1.0402262 6:0.035845489 7:-0.84557132 8:0.9959827 9:0.27458305 
1 1:-0.071634041 2:1.3208918 3:2.268217 4:-0.69500367 5:0.6631344 6:0.50756318 7:-0.68478498 8:0.5770504 9:0.56599895 
1 1:0.0021246757 2:1.367399 3:2.3288314 4:-0.60307151 5:0.59021992 6:0.42106701 7:-0.63401305 8:0.56371468 9:0.47994991 
1 1:-0.16727733 2:1.4047462 3:2.2692611 4:-0.83182916 5:0.8176623 6:0.57608113 7:-0.84258945 8:0.72141225 9:0.67938788 
1 1:0.075832935 2:1.6249343 3:2.4776151 4:-0.74533453 5:0.76117853 6:0.47884009 7:-0.76933289 8:0.69970657 9:0.55892039 
-1 1:-0.57954575 2:-0.48876881 3:-0.34663668 4:0.3564924 5:0.48213095 6:-1.3364122 7:-0.39798364 8:1.0822203 9:-0.78908412 
-0.082183745259764213 1:-0.6600256 2:-0.56864378 3:-0.29228355 4:0.35616646 5:0.44590462 6:-1.2883518 7:-0.36755151 8:1.0292479 9:-0.77332737 
-0.4091804106776859 1:-0.01758584 2:1.637205 3:2.7674283 4:-0.87124661 5:0.4603982 6:1.1216981 7:-0.67076607 8:0.2622124 9:1.0080386 
-1 1:0.19276005 2:1.7874378 3:2.9218546 4:-0.85100451 5:0.57701943 6:0.92899792 7:-0.73252659 8:0.39633206 9:0.93621887 
-1 1:0.2755568 2:1.7783265 3:2.835349 4:-0.87469429 5:0.52901959 6:1.0387048 7:-0.69674006 8:0.27969241 9:1.0361052 
-1 1:0.24687567 2:1.7625401 3:2.8508724 4:-0.74703703 5:0.41780196 6:0.9316432 7:-0.59047268 8:0.27227146 9:0.82532645 
-0.21940728114130603 1:-1.0428231 2:1.8223542 3:3.0896159 4:-3.3021851 5:2.6894522 6:3.0149322 7:-2.4918317 8:0.5723419 9:4.3461884 
