svm_type c_svc
kernel_type linear
nr_class 2
total_sv 145
rho 3.5358258869004708
label 1 -1
probA -1.8350187562348796
probB -0.10612713169835131
nr_sv 72 73
SV
1 1:0.92965324 2:0.36312504 3:0.34616159 4:0.65349141 5:-1.011885 6:0.031300656 7:1.0166355 8:-1.0985997 9:-0.47815036 
1 1:0.93941188 2:0.40915746 3:0.31721361 4:0.70323955 5:-1.124883 6:0.080749628 7:1.135696 8:-1.2533538 9:-0.49508403 
1 1:0.84415268 2:0.25250815 3:-0.17420889 4:0.14095413 5:-0.046948632 6:-0.21737306 7:0.032769505 8:0.13451723 9:-0.26979505 
1 1:0.63611583 2:-0.085534522 3:-0.39543687 4:0.52847648 5:-0.39505979 6:-0.52863934 7:0.41968014 8:-0.18551733 9:-0.59857968 
1 1:0.84157338 2:0.28481868 3:-0.17389754 4:0.20591535 5:-0.014034331 6:-0.38901012 7:0.023285419 8:0.21671154 9:-0.37303673 
1 1:0.90814102 2:0.30819117 3:-0.18255123 4:0.30147998 5:-0.14090585 6:-0.41207235 7:0.14870903 8:0.080945458 9:-0.43168178 
1 1:0.87026524 2:0.28864344 3:-0.20450211 4:0.65191825 5:-0.32314427 6:-0.86705532 7:0.38002604 8:-0.021697623 9:-0.76101885 
1 1:0.74379637 2:-0.012872423 3:-0.23630541 4:0.2039048 5:-0.24061629 6:-0.088465875 7:0.19901711 8:-0.096673482 9:-0.27083087 
1 1:0.32440496 2:0.52090635 3:-0.35209965 4:0.23617731 5:-0.22916815 6:-0.16731646 7:0.19744913 8:-0.061072595 9:-0.3208513 
1 1:0.46403315 2:0.4918949 3:-0.3000543 4:0.28816716 5:-0.39289383 6:-0.055908125 7:0.35554403 8:-0.29092346 9:-0.3068699 
1 1:0.43581622 2:-0.053685225 3:0.15035202 4:-0.071674542 5:-0.075593831 6:0.24090652 7:-0.015566727 8:-0.0069701827 9:0.0429379 
1 1:0.5227196 2:-0.063471445 3:0.11485797 4:-0.050812219 5:-0.14801129 6:0.29440524 7:0.051264173 8:-0.10319879 9:0.047447856 
1 1:0.27856028 2:-0.060382487 3:0.17927547 4:-0.11857057 5:-0.00081072917 6:0.23583155 7:-0.09392261 8:0.090478804 9:0.060665373 
1 1:0.47431225 2:-0.01096347 3:0.10797996 4:0.005672078 5:-0.18521915 6:0.23132432 7:0.10038834 8:-0.12579913 9:-0.021291521 
1 1:0.66859227 2:0.10316154 3:0.0966124 4:0.17561836 5:-0.31288136 6:0.062097568 7:0.25497427 8:-0.23453399 9:-0.18129355 
1 1:0.91801542 2:0.2555822 3:0.19222009 4:0.19177078 5:-0.33435063 6:0.05823273 7:0.27581247 8:-0.26319407 9:-0.1819 
1 1:1.0318361 2:0.33114171 3:0.083716155 4:0.37499211 5:-0.43104418 6:-0.17779883 7:0.41338769 8:-0.31383538 9:-0.39334927 
1 1:0.85590761 2:0.029353479 3:-0.041298503 4:0.45783385 5:-0.62950714 6:-0.08197919 7:0.61480088 8:-0.60071221 9:-0.38444944 
1 1:0.67305788 2:-0.032643489 3:-0.099910806 4:0.48114617 5:-0.62261565 6:-0.13713372 7:0.61725021 8:-0.60347548 9:-0.38542709 
1 1:1.0405242 2:0.26562178 3:0.23312312 4:0.24925461 5:-0.56377521 6:0.24475967 7:0.49640279 8:-0.60665853 9:-0.12833082 
1 1:0.72243399 2:0.06737794 3:0.070281963 4:0.41287975 5:-0.50687243 6:-0.15352854 7:0.49184425 8:-0.41591034 9:-0.40436191 
1 1:0.40939369 2:-0.15323863 3:-0.48742908 4:0.058276719 5:-0.13892598 6:0.0666295 7:0.103103 8:-0.08690925 9:-0.085177787 
1 1:0.62419139 2:0.021837146 3:-0.36663332 4:0.39498287 5:-0.29145218 6:-0.40006728 7:0.31792785 8:-0.15964718 9:-0.42484688 
1 1:0.71387129 2:-0.081893391 3:-0.11474853 4:0.32157267 5:-0.52379438 6:0.049314486 7:0.48797973 8:-0.53549395 9:-0.21727648 
1 1:0.92935913 2:0.15438603 3:0.017222648 4:0.22813966 5:-0.34672466 6:0.0024555667 7:0.31200376 8:-0.30178354 9:-0.19969965 
1 1:0.68198184 2:0.2147105 3:-0.2552689 4:0.71940617 5:-0.562631 6:-0.68715623 7:0.61695489 8:-0.37616986 9:-0.72508616 
1 1:0.26255018 2:0.097980599 3:-0.11980925 4:0.32546824 5:-0.11036896 6:-0.49951321 7:0.11554497 8:0.16532011 9:-0.48874328 
1 1:0.29841714 2:0.10683224 3:-0.052785452 4:0.20254692 5:-0.20433038 6:-0.13327206 7:0.16425932 8:-0.048033656 9:-0.27106972 
1 1:0.41583114 2:0.21947993 3:-0.0012220511 4:0.29831831 5:-0.2141827 6:-0.30990591 7:0.19530778 8:-0.019957285 9:-0.3779296 
1 1:0.94377873 2:0.2326369 3:0.26862795 4:0.58482682 5:-0.84978552 6:-0.044980261 7:0.85991 8:-0.88590466 9:-0.46930889 
1 1:0.79007629 2:0.056741587 3:-0.035835103 4:0.43746709 5:-0.61439311 6:-0.06145611 7:0.59635094 8:-0.56742816 9:-0.3957518 
1 1:0.63353657 2:-0.014783432 3:-0.11537185 4:0.99838503 5:-1.140868 6:-0.48241379 7:1.2310539 8:-1.1706679 9:-0.81797334 
1 1:0.41159187 2:-0.1212614 3:-0.13431533 4:0.76312387 5:-0.7652686 6:-0.50844702 7:0.81900261 8:-0.66660959 9:-0.71217758 
1 1:0.37256821 2:-0.14182798 3:-0.15845678 4:0.71225714 5:-0.72682624 6:-0.45809892 7:0.7703331 8:-0.62694325 9:-0.66993529 
1 1:0.3670958 2:-0.17106325 3:-0.19953694 4:0.71616814 5:-0.73411602 6:-0.45629734 7:0.77857082 8:-0.63574629 9:-0.67395766 
1 1:0.69817146 2:0.0020303821 3:-0.062555936 4:0.87720011 5:-1.0669064 6:-0.33939763 7:1.1306606 8:-1.0957375 9:-0.72052119 
1 1:0.66548835 2:-0.013982015 3:-0.040630014 4:0.81157122 5:-1.0508437 6:-0.2305436 7:1.0980218 8:-1.0945579 9:-0.65413682 
1 1:0.14070182 2:-0.52220307 3:-0.42090479 4:0.084175292 5:-0.14664516 6:0.025480229 7:0.085029589 8:-0.022178015 9:-0.14434266 
1 1:0.32387694 2:-0.32632021 3:-0.41249526 4:0.29524481 5:-0.32316128 6:-0.16118516 7:0.29181091 8:-0.19230604 9:-0.32142412 
1 1:0.38079571 2:-0.35946221 3:-0.72358405 4:0.32156195 5:-0.4213327 6:-0.084772914 7:0.38819388 8:-0.3264866 9:-0.32180539 
1 1:0.389719 2:-0.34538631 3:-0.68053857 4:0.75059 5:-0.7417893 6:-0.51437405 7:0.7910087 8:-0.64393002 9:-0.68767712 
1 1:0.54155439 2:-0.19251353 3:-0.43798429 4:0.80130451 5:-0.79516467 6:-0.54487562 7:0.85594771 8:-0.70326755 9:-0.73444268 
0.053098478930451436 1:0.605792 2:-0.084944697 3:-0.33927579 4:0.81438194 5:-0.84423801 6:-0.5065251 7:0.90574693 8:-0.77538224 9:-0.73046876 
1 1:0.48677946 2:-0.14450482 3:-0.39960506 4:0.60742473 5:-0.69387194 6:-0.29377093 7:0.71101792 8:-0.63005062 9:-0.54143256 
1 1:0.46117111 2:-0.1750757 3:-0.44741042 4:0.75625172 5:-0.74063515 6:-0.52708907 7:0.79244606 8:-0.64771122 9:-0.68501791 
1 1:0.45737805 2:-0.12438778 3:-0.44872764 4:0.70505192 5:-0.74421393 6:-0.4210818 7:0.78438156 8:-0.66915911 9:-0.63607169 
1 1:0.50869368 2:-0.023974192 3:-0.141172 4:0.51649343 5:-0.6955493 6:-0.11162471 7:0.68614597 8:-0.67869312 9:-0.41668192 
1 1:0.51464081 2:-0.063736884 3:-0.18455595 4:0.56391629 5:-0.69351518 6:-0.20813576 7:0.69569492 8:-0.65414899 9:-0.47336275 
1 1:0.49053686 2:-0.052125671 3:-0.12197452 4:0.39921707 5:-0.67308331 6:0.091057319 7:0.6328714 8:-0.68876923 9:-0.29035991 
1 1:0.48850398 2:-0.04557809 3:-0.15487029 4:0.39046895 5:-0.56915813 6:-0.027654496 7:0.53915168 8:-0.5246163 9:-0.34040807 
1 1:0.52382546 2:-0.049046592 3:-0.090538011 4:0.37155339 5:-0.59858537 6:0.048295239 7:0.56181168 8:-0.57704067 9:-0.30924339 
1 1:0.50409999 2:-0.090908436 3:-0.16846203 4:0.30967417 5:-0.49383015 6:0.033642156 7:0.45352423 8:-0.44413038 9:-0.28210382 
1 1:0.50821198 2:-0.12156937 3:-0.29884907 4:0.33017952 5:-0.48904265 6:-0.013203614 7:0.4554981 8:-0.42871121 9:-0.30930772 
1 1:0.55122488 2:-0.11911761 3:-0.29678344 4:0.46118845 5:-0.53829633 6:-0.20800058 7:0.53598057 8:-0.45053488 9:-0.44468639 
0.94032615344440962 1:0.9254455 2:0.02232092 3:0.17231657 4:0.48688294 5:-1.1420362 6:0.53136519 7:1.0794446 8:-1.3706504 9:-0.20203772 
1 1:0.61868539 2:0.029873664 3:0.26802924 4:0.3431758 5:-0.77655507 6:0.33739226 7:0.71036411 8:-0.87033601 9:-0.18036103 
1 1:0.62659013 2:-0.12414402 3:-0.001016664 4:0.31987514 5:-0.76463707 6:0.36790465 7:0.69252863 8:-0.86033272 9:-0.15809516 
1 1:0.56224175 2:-0.26728691 3:-0.25439779 4:0.32375179 5:-0.76683383 6:0.36310812 7:0.69717603 8:-0.85829153 9:-0.17085465 
1 1:0.72565408 2:0.0091756947 3:0.2374449 4:0.80981556 5:-1.1447204 6:-0.10419722 7:1.1830889 8:-1.243299 9:-0.60909336 
1 1:0.76000862 2:0.057590783 3:0.21063445 4:0.71806353 5:-1.179448 6:0.12283154 7:1.1909477 8:-1.3241796 9:-0.50442458 
1 1:0.68155511 2:0.018675963 3:0.31227411 4:0.60415124 5:-1.2233254 6:0.40569088 7:1.1866784 8:-1.4461164 9:-0.3129712 
1 1:0.93558848 2:0.48834105 3:0.12944917 4:0.80813541 5:-0.88511754 6:-0.44065753 7:0.9414929 8:-0.83805599 9:-0.71128449 
1 1:0.63607363 2:-0.58395602 3:-0.35567577 4:0.2896337 5:-0.52477543 6:0.11380496 7:0.47386591 8:-0.50507459 9:-0.23334427 
1 1:0.54643161 2:-0.52508693 3:-0.5260401 4:0.30269204 5:-0.52144953 6:0.083609694 7:0.47118426 8:-0.48754104 9:-0.25399261 
1 1:0.62255087 2:-0.51456079 3:-0.39379101 4:0.239637 5:-0.5377375 6:0.2297128 7:0.46737625 8:-0.54258124 9:-0.16364644 
1 1:0.61159526 2:-0.61022822 3:-0.20712796 4:0.10688283 5:-0.49765806 6:0.4399714 7:0.39024172 8:-0.55521839 9:0.016329386 
1 1:0.58572986 2:-0.65277193 3:-0.2780122 4:0.34067886 5:-0.54866073 6:0.044050516 7:0.50342033 8:-0.51283738 9:-0.28343348 
1 1:0.87034016 2:0.27697796 3:0.66438545 4:1.764289 5:-1.4238928 6:-1.6276771 7:1.6732004 8:-1.3984242 9:-1.4002314 
1 1:1.1087571 2:0.65381654 3:0.85499702 4:1.7628323 5:-1.190136 6:-1.9307507 7:1.4418406 8:-1.0525183 9:-1.4349686 
1 1:0.61938525 2:-0.10676325 3:-0.30804217 4:-0.038550597 5:0.11513805 6:-0.074287399 7:-0.16665101 8:0.31887107 9:-0.12937906 
1 1:0.65195254 2:-0.10751859 3:-0.35119815 4:0.045080439 5:-0.030107705 6:-0.049683927 7:-0.022920663 8:0.14231027 9:-0.16517928 
1 1:0.74560075 2:-0.094742575 3:-0.31893407 4:0.32372531 5:-0.17752545 6:-0.40816515 7:0.17515283 8:0.051884859 9:-0.44339321 
-1 1:0.27926011 2:-0.42905737 3:-0.57504514 4:0.50977749 5:-0.35910033 6:-0.53870062 7:0.3870011 8:-0.14487742 9:-0.59118315 
-1 1:0.20597126 2:-0.38120929 3:-0.44522369 4:0.45133163 5:-0.31362308 6:-0.48256135 7:0.33372152 8:-0.107644 9:-0.53567288 
-1 1:0.40360633 2:-0.41622059 3:-0.37217505 4:0.71904826 5:-0.72451767 6:-0.47455998 7:0.77048667 8:-0.61986312 9:-0.68085488 
-1 1:0.37745098 2:-0.3963183 3:-0.27988024 4:0.64080856 5:-0.68005567 6:-0.37792035 7:0.70931707 8:-0.58166287 9:-0.61031746 
-1 1:0.29040832 2:-0.35108087 3:-0.23392346 4:0.51375442 5:-0.64184867 6:-0.17649121 7:0.6411483 8:-0.57554587 9:-0.47713716 
-1 1:0.14316155 2:-0.50424453 3:-0.75956723 4:0.37304861 5:-0.097596417 6:-0.61039112 7:0.11403032 8:0.20585159 9:-0.54625615 
-1 1:0.31212955 2:-0.47164013 3:-0.74941857 4:0.51658919 5:-0.28598148 6:-0.64788359 7:0.31658723 8:-0.020394901 9:-0.63050782 
-1 1:0.54752266 2:-0.32321853 3:-0.67297921 4:0.80712112 5:-0.55290882 6:-0.87346695 7:0.63171285 8:-0.31985046 9:-0.84021096 
-1 1:0.5096806 2:-0.30422211 3:-0.68088221 4:0.77842442 5:-0.48744503 6:-0.90236023 7:0.56320694 8:-0.22816351 9:-0.83442461 
-1 1:0.49330667 2:-0.30508954 3:-0.69164173 4:0.79735626 5:-0.4653725 6:-0.96871585 7:0.54542275 8:-0.18621481 9:-0.86008803 
-1 1:0.21127236 2:-0.10512514 3:-0.78336341 4:0.59628096 5:-0.25662182 6:-0.84401946 7:0.30861511 8:0.060022063 9:-0.73424584 
-1 1:0.20242523 2:-0.11364051 3:-0.79650035 4:0.60235013 5:-0.29012553 6:-0.81217834 7:0.34095737 8:0.010199627 9:-0.72719295 
-1 1:0.15774101 2:-0.13879939 3:-0.76522651 4:0.70483325 5:-0.31924995 6:-0.97686993 7:0.38928923 8:0.0064131088 9:-0.82244221 
-1 1:0.15315404 2:-0.09923443 3:-0.81916009 4:0.64192573 5:-0.25879872 6:-0.93150008 7:0.32092384 8:0.070761564 9:-0.77602365 
-1 1:0.251705 2:0.048479876 3:-0.81814745 4:0.78025678 5:-0.31636627 6:-1.1299056 7:0.40230568 8:0.037490617 9:-0.89614367 
-1 1:0.29228592 2:0.11536455 3:-0.8096417 4:0.68825242 5:-0.25003005 6:-1.0346565 7:0.32217693 8:0.10362392 9:-0.82783496 
-1 1:0.51626063 2:0.28675159 3:-0.76224826 4:0.67843487 5:-0.26158249 6:-1.0001072 7:0.33067116 8:0.084984054 9:-0.81766721 
-1 1:0.50033411 2:0.26433966 3:-0.1964812 4:0.55645886 5:-0.16622313 6:-0.88353229 7:0.2161665 8:0.18465661 9:-0.72778923 
-1 1:0.49150636 2:0.24859763 3:-0.14557538 4:0.56701544 5:-0.16542255 6:-0.90547135 7:0.21763204 8:0.18999977 9:-0.73884799 
-1 1:0.51606288 2:0.27564482 3:-0.13924263 4:0.58573141 5:-0.17279441 6:-0.93286101 7:0.22805796 8:0.18614188 9:-0.75484223 
-1 1:0.4796647 2:0.24415208 3:-0.14399826 4:0.55343796 5:-0.15826136 6:-0.8879749 7:0.2081119 8:0.19512166 9:-0.72663725 
-1 1:0.48962379 2:0.23513838 3:-0.15600798 4:0.56489014 5:-0.17273723 6:-0.89169149 7:0.22385221 8:0.1779544 9:-0.73380392 
-1 1:0.50236435 2:0.22032222 3:-0.18057268 4:0.55987105 5:-0.19831341 6:-0.84828305 7:0.2460538 8:0.13595223 9:-0.71728406 
-1 1:0.45814647 2:0.19513563 3:-0.1743614 4:0.49882987 5:-0.17642859 6:-0.75612837 7:0.21308924 8:0.14421517 9:-0.66082316 
-1 1:0.097392542 2:-0.4602562 3:-0.80035155 4:0.53583929 5:-0.31596015 6:-0.64674098 7:0.35548995 8:-0.069241862 9:-0.63861357 
-1 1:0.053264132 2:-0.49320605 3:-0.72172522 4:0.46729357 5:-0.28801131 6:-0.54767201 7:0.3127364 8:-0.056600768 9:-0.56826717 
-1 1:0.11647905 2:-0.45029698 3:-0.8145972 4:0.44840863 5:-0.2836877 6:-0.5159582 7:0.3051579 8:-0.060983763 9:-0.54588182 
-1 1:0.145681 2:-0.31375856 3:-0.63651177 4:0.25609691 5:-0.27084125 6:-0.15219236 7:0.24243362 8:-0.13569695 9:-0.3030672 
-1 1:0.2668397 2:-0.22751303 3:-0.47346527 4:0.43816679 5:-0.47823072 6:-0.24105911 7:0.47970026 8:-0.39035069 9:-0.41726776 
-0.85393055970720078 1:0.37569998 2:-0.047247748 3:-0.2863122 4:0.39833879 5:-0.16552269 6:-0.57153339 7:0.18059177 8:0.10803406 9:-0.53880495 
-1 1:0.39316929 2:-0.12582765 3:-0.56656177 4:0.55739118 5:-0.29107033 6:-0.72196909 7:0.33057898 8:-0.0089460919 9:-0.67686165 
-1 1:0.413826 2:-0.10217321 3:-0.60083148 4:0.57988681 5:-0.32510879 6:-0.72193561 7:0.36699037 8:-0.052266633 9:-0.68803847 
-1 1:0.44957109 2:-0.086866426 3:-0.58280461 4:0.5903388 5:-0.34394273 6:-0.71796872 7:0.38672189 8:-0.077283793 9:-0.69178759 
-1 1:0.52460515 2:-0.013226187 3:-0.50933973 4:0.6464965 5:-0.38162173 6:-0.77978667 7:0.43411929 8:-0.11278813 9:-0.73760419 
-1 1:0.60701635 2:0.032619201 3:-0.46840346 4:0.68860178 5:-0.45129577 6:-0.77191799 7:0.50834519 8:-0.2044889 9:-0.75531328 
-1 1:0.18992345 2:-0.41820164 3:-0.7034356 4:0.31491384 5:-0.2569761 6:-0.28673723 7:0.23713283 8:-0.074300125 9:-0.38390991 
-1 1:0.3819731 2:-0.26257613 3:-0.35847756 4:0.32899463 5:-0.30469325 6:-0.25214741 7:0.28658545 8:-0.13644704 9:-0.394134 
-1 1:0.31339472 2:-0.39636661 3:-0.91631251 4:0.4219066 5:-0.099381292 6:-0.70474371 7:0.14127289 8:0.19459058 9:-0.58628135 
-1 1:0.27123989 2:-0.045587662 3:-0.48824083 4:0.46476139 5:-0.14972541 6:-0.72365857 7:0.18231392 8:0.16753788 9:-0.63147785 
-1 1:0.26165653 2:-0.050999968 3:-0.46020699 4:0.45821721 5:-0.19236957 6:-0.65489231 7:0.21935927 8:0.098979114 9:-0.60619685 
-1 1:0.60292085 2:0.00083588539 3:-0.34205917 4:-0.026415575 5:0.17393272 6:-0.17525665 7:-0.20678926 8:0.40366743 9:-0.17250965 
-1 1:1.0566374 2:0.54148106 3:0.88496428 4:0.28512373 5:-0.77083001 6:0.44478255 7:0.68873183 8:-0.88904467 9:-0.10718568 
-1 1:1.2259086 2:0.4579818 3:0.84661325 4:0.4526485 5:-1.1332531 6:0.58761839 7:1.0595676 8:-1.3759153 9:-0.15265273 
-1 1:0.9882754 2:0.32566656 3:0.8668015 4:0.36260453 5:-1.0966866 6:0.7179525 7:1.000816 8:-1.3578223 9:-0.057063649 
-1 1:0.98616235 2:0.15237814 3:0.64948978 4:0.38729806 5:-1.0781568 6:0.64483158 7:0.99470635 8:-1.3083061 9:-0.11843218 
-1 1:0.90250806 2:-0.045181551 3:0.92080568 4:0.68442519 5:-1.1700119 6:0.17705039 7:1.1711359 8:-1.3228308 9:-0.4650764 
-1 1:0.93030219 2:0.084330872 3:0.71437933 4:0.42544854 5:-1.1403605 6:0.65074912 7:1.0610033 8:-1.3991494 9:-0.12086913 
-1 1:0.91036301 2:0.13313833 3:0.84671101 4:0.36321646 5:-1.2303255 6:0.89165692 7:1.1197344 8:-1.5556684 9:-0.0091920464 
-1 1:0.95237036 2:0.15159562 3:0.45509407 4:0.41960511 5:-1.1666339 6:0.69670149 7:1.0839278 8:-1.4291013 9:-0.12389793 
-1 1:0.99259963 2:0.20340796 3:0.83943072 4:0.31363457 5:-1.1252332 6:0.85222662 7:1.006647 8:-1.429034 9:0.037364915 
-1 1:0.87693398 2:0.12079137 3:0.58168393 4:0.094590228 5:-0.89234657 6:0.98089249 7:0.73001471 8:-1.1920508 9:0.26021421 
-1 1:1.0313507 2:0.078947893 3:0.80748983 4:0.45615149 5:-1.2955447 6:0.79310408 7:1.2085243 8:-1.6086157 9:-0.11532496 
-1 1:0.86831219 2:-0.010062943 3:0.63536076 4:0.19109762 5:-0.81814493 6:0.69278676 7:0.69933079 8:-1.0050759 9:0.044381949 
-1 1:0.83408278 2:0.058934643 3:0.43220622 4:0.09633754 5:-0.61060479 6:0.6086724 7:0.4911597 8:-0.73169571 9:0.069797057 
-1 1:0.87460107 2:0.28829168 3:0.42749841 4:-0.19915097 5:-1.0248985 6:1.7356917 7:0.71969884 8:-1.5497564 9:0.81723784 
-1 1:1.3571866 2:0.28517022 3:1.1103932 4:-0.089785982 5:-0.66359805 6:1.0463673 7:0.46544525 8:-0.91780278 9:0.40209085 
-1 1:1.4451411 2:1.0490191 3:1.3023563 4:0.030857529 5:-0.55965628 6:0.67157094 7:0.4206252 8:-0.70039075 9:0.17021073 
-1 1:-0.14300981 2:-0.64669284 3:-1.4725888 4:-0.16668797 5:0.27735211 6:-0.033023174 7:-0.3307594 8:0.48075516 9:-0.029058173 
-0.13382894733193285 1:-0.15995742 2:-1.4785309 3:-0.92180795 4:0.27070708 5:-0.21532161 6:-0.25377329 7:0.19318641 8:-0.0227693 9:-0.36929059 
-1 1:0.11166258 2:-1.0620721 3:-0.89147871 4:0.30041626 5:-0.17771172 6:-0.36179331 7:0.16783467 8:0.050174729 9:-0.42555273 
-1 1:0.079353953 2:-1.1121377 3:-0.91806513 4:0.27698786 5:-0.12698901 6:-0.38181832 7:0.11773566 8:0.11714341 9:-0.42119711 
-1 1:-0.012158973 2:-1.110059 3:-0.94934918 4:0.1895749 5:-0.051534439 6:-0.30759016 7:0.02992332 8:0.190886 9:-0.34823603 
-1 1:0.86090137 2:0.018364294 3:0.40234124 4:0.25912672 5:-1.0059437 6:0.80396225 7:0.88529827 8:-1.2659678 9:0.046633156 
-1 1:1.0091419 2:0.97447083 3:0.44136855 4:0.0075164674 5:-0.71201038 6:0.91717342 7:0.54409884 8:-0.95248097 9:0.2897741 
-1 1:0.88351157 2:0.042271128 3:0.64774918 4:0.17304977 5:-0.9411014 6:0.88943655 7:0.79300546 8:-1.2050231 9:0.14810795 
-1 1:0.95973978 2:0.49591435 3:1.1243503 4:0.68294557 5:-1.4764658 6:0.58108567 7:1.4466 8:-1.8036257 9:-0.32050141 
-0.0056651253357273305 1:0.97002631 2:0.57601127 3:1.1806999 4:0.7419686 5:-1.5523981 6:0.56366577 7:1.5332253 8:-1.8985763 9:-0.35923544 
-1 1:1.0291117 2:0.65972517 3:1.0832846 4:0.88238304 5:-1.7121322 6:0.49485958 7:1.7248571 8:-2.0718852 9:-0.49992276 
-1 1:1.0297554 2:0.71440171 3:1.1740957 4:0.68669842 5:-1.5831462 6:0.71328924 7:1.5432227 8:-1.9605739 9:-0.28730006 
-1 1:0.87062131 2:0.45454041 3:0.97564193 4:0.71119326 5:-1.5400141 6:0.60836038 7:1.5138961 8:-1.8867569 9:-0.33656937 
-1 1:0.88595305 2:0.44878151 3:0.98083442 4:0.73166976 5:-1.5806896 6:0.62107663 7:1.5552867 8:-1.9397113 9:-0.34372096 
-1 1:1.2229275 2:0.92588213 3:1.0375173 4:0.22617707 5:-0.61260679 6:0.35434354 7:0.53170122 8:-0.68650038 9:-0.082511507 
-1 1:1.110133 2:0.94261187 3:0.70576968 4:0.06814246 5:-0.50689302 6:0.52872496 7:0.38596871 8:-0.62023815 9:0.12258587 
