svm_type c_svc
kernel_type linear
nr_class 2
total_sv 210
rho 5.0135708052302235
label 1 -1
probA -1.82790294602398
probB 0.50223740247705195
nr_sv 104 106
SV
1 1:-0.10528612 2:-1.1310713 3:-0.9610643 4:0.17008085 5:-0.024173483 6:-0.30482375 7:0.0015588303 8:0.22394472 9:-0.33849933 
1 1:-0.38200802 2:-1.2456217 3:-0.99190237 4:0.078612492 5:0.10703809 6:-0.29554848 7:-0.1337273 8:0.37887881 9:-0.28795564 
1 1:-0.37681107 2:-1.2532205 3:-1.0072952 4:0.013821989 5:0.14455707 6:-0.216437 7:-0.18130385 8:0.40145542 9:-0.22241219 
1 1:-0.41182417 2:-1.2696066 3:-1.0117547 4:-0.044285621 5:0.21824872 6:-0.19789597 7:-0.25744281 8:0.48198111 9:-0.18397957 
1 1:-0.4281835 2:-1.3000424 3:-0.99776015 4:-0.18218453 5:0.36375909 6:-0.11545104 7:-0.40911192 8:0.62257813 9:-0.077765424 
1 1:-0.44263986 2:-1.3464674 3:-0.97524437 4:-0.45582622 5:0.60512377 6:0.1101651 7:-0.66597701 8:0.81089309 9:0.17666592 
1 1:-0.47153097 2:-1.3709511 3:-0.97765538 4:-0.55851064 5:0.70819139 6:0.17847331 7:-0.76655564 8:0.88785375 9:0.27146577 
1 1:-0.46779984 2:-1.3941701 3:-1.0053438 4:-0.5311145 5:0.78421188 6:0.024756407 7:-0.81891589 8:1.0304531 9:0.16732411 
1 1:-0.41761361 2:-1.328722 3:-0.96127347 4:-0.44334581 5:0.64377078 6:0.034882905 7:-0.69196575 8:0.87655532 9:0.13263468 
1 1:-0.35189235 2:-1.3415874 3:-0.85047273 4:-0.55409039 5:0.67352774 6:0.21509582 7:-0.74246096 8:0.84614936 9:0.28358706 
1 1:-0.63941104 2:-1.207167 3:-1.0190691 4:-0.0089329104 5:0.14996318 6:-0.1784815 7:-0.19158535 8:0.39743209 9:-0.19492136 
1 1:-0.66790497 2:-1.2091737 3:-1.0418561 4:-0.0075394211 5:0.13252597 6:-0.15841621 7:-0.17669131 8:0.37099699 9:-0.18644708 
1 1:-0.69396183 2:-1.2160068 3:-1.0600608 4:-0.029641539 5:0.077125177 6:-0.042164451 7:-0.13531553 8:0.27246716 9:-0.12534151 
1 1:-0.65950498 2:-1.1520821 3:-1.0499184 4:-0.005711815 5:0.067858912 6:-0.077392484 7:-0.12109325 8:0.27136304 9:-0.15338501 
1 1:-0.90065862 2:-1.3107609 3:-0.96413852 4:0.095240597 5:0.10675684 6:-0.32808698 7:-0.12876522 8:0.38646949 9:-0.30967975 
1 1:-1.0223933 2:-1.4041445 3:-1.0237434 4:0.067119034 5:0.18124254 6:-0.3699269 7:-0.19945577 8:0.48690275 9:-0.31242506 
1 1:-1.138949 2:-1.44636 3:-1.018054 4:-0.02612061 5:0.25961989 6:-0.2879934 7:-0.28708443 8:0.55405471 9:-0.22998135 
1 1:-1.1075422 2:-1.353575 3:-0.68581906 4:-0.060399867 5:0.027607726 6:0.083517221 7:-0.10679595 8:0.17184118 9:-0.034254093 
1 1:-1.1754526 2:-1.4426718 3:-1.0591106 4:-0.23157907 5:0.57523694 6:-0.29449661 7:-0.58950104 8:0.91317337 9:-0.13613029 
1 1:-1.4373728 2:-1.4785388 3:-0.7189682 4:-0.028061438 5:0.30614464 6:-0.34504721 7:-0.32815633 8:0.62203787 9:-0.24599315 
1 1:-1.3074942 2:-1.5044288 3:-0.99776885 4:-0.31987667 5:0.70439129 6:-0.28880357 7:-0.70707624 8:1.0473509 9:-0.091494793 
1 1:-1.5423499 2:-1.5440553 3:-0.8008761 4:-0.076460785 5:0.46549481 6:-0.45783411 7:-0.46827058 8:0.84200857 9:-0.28272786 
1 1:-1.3265988 2:-1.5534333 3:-1.0667891 4:-0.36947751 5:0.71797378 6:-0.20842239 7:-0.72673424 8:1.031788 9:-0.027151021 
1 1:-1.6370843 2:-1.6099027 3:-0.88820817 4:-0.1959202 5:0.45849875 6:-0.21226998 7:-0.4940457 8:0.75440636 9:-0.09776881 
1 1:-1.2908302 2:-1.5283277 3:-1.0284952 4:-0.34689677 5:0.70067617 6:-0.23046887 7:-0.71352901 8:1.0312575 9:-0.053929495 
1 1:-1.5442635 2:-1.6034974 3:-0.91828718 4:-0.24998323 5:0.49094958 6:-0.14775437 7:-0.52998865 8:0.77398029 9:-0.052021477 
1 1:-1.1390738 2:-1.467382 3:-0.93085147 4:-0.25683255 5:0.60262778 6:-0.28037153 7:-0.61692632 8:0.93859087 9:-0.11691579 
1 1:-1.617903 2:-1.6582701 3:-1.0590872 4:-0.12341683 5:0.5119156 6:-0.42566785 7:-0.51578441 8:0.88103003 9:-0.24193326 
1 1:-1.5545114 2:-1.6502176 3:-1.1100066 4:-0.0618472 5:0.45880033 6:-0.47799185 7:-0.4606517 8:0.83827466 9:-0.29304654 
1 1:-0.96559337 2:-1.4400689 3:-0.78535675 4:-0.19650741 5:0.55199958 6:-0.33348796 7:-0.56190511 8:0.89650611 9:-0.16880017 
1 1:-1.2624823 2:-1.4913698 3:-1.0347546 4:0.022603423 5:0.29128157 6:-0.42585794 7:-0.29976016 8:0.62843482 9:-0.314861 
1 1:-1.2890947 2:-1.4752584 3:-1.0982877 4:0.032003963 5:0.27741872 6:-0.42631676 7:-0.28684346 8:0.61396788 9:-0.32017429 
1 1:-1.2001355 2:-1.428793 3:-1.0534399 4:0.060037364 5:0.25031614 6:-0.44632053 7:-0.25832642 8:0.5882627 9:-0.34123775 
1 1:-1.3980378 2:-1.5093394 3:-1.0777734 4:0.066367489 5:0.28632503 6:-0.5059785 7:-0.28822499 8:0.64791434 9:-0.36810737 
1 1:-1.4066134 2:-1.4867248 3:-1.0813814 4:0.15377079 5:0.25861359 6:-0.6426769 7:-0.2450139 8:0.65026004 9:-0.46184429 
1 1:-1.398032 2:-1.4763533 3:-1.0288252 4:0.083255399 5:0.28117054 6:-0.53265272 7:-0.27987141 8:0.64913963 9:-0.38738404 
1 1:-1.4795493 2:-1.5080316 3:-1.0485405 4:0.077882379 5:0.31019938 6:-0.5600145 7:-0.30639701 8:0.69107238 9:-0.39477138 
1 1:-1.4307232 2:-1.4960613 3:-1.0251803 4:0.078696049 5:0.2632901 6:-0.50022677 7:-0.26644495 8:0.61993724 9:-0.37170279 
1 1:-1.4236919 2:-1.4930192 3:-1.0279643 4:0.084633968 5:0.26571612 6:-0.51515311 7:-0.26725366 8:0.62671641 9:-0.3801626 
1 1:-1.3799089 2:-1.4993998 3:-1.0446119 4:0.015850008 5:0.21077921 6:-0.3071263 7:-0.2358562 8:0.50438438 9:-0.26259034 
1 1:-1.3935101 2:-1.5002685 3:-1.0429069 4:-0.015902932 5:0.1043959 6:-0.10504654 7:-0.1545989 8:0.32137879 9:-0.15829809 
1 1:-1.4008225 2:-1.4879338 3:-1.0833277 4:0.017069198 5:-0.2195471 6:0.2537004 7:0.11503312 8:-0.14807397 9:-0.018524689 
1 1:-1.4508321 2:-1.5165427 3:-1.0449405 4:-0.040373616 5:-0.23044054 6:0.38163635 7:0.11610178 8:-0.21798428 9:0.083899439 
1 1:-1.4366754 2:-1.5110984 3:-1.0587399 4:0.031927414 5:-0.29303146 6:0.32047753 7:0.19047968 8:-0.26882747 9:0.0047093282 
1 1:-1.3779937 2:-1.5323637 3:-1.0522752 4:0.048756301 5:-0.21596706 6:0.18630661 7:0.1344881 8:-0.13963556 9:-0.071779247 
1 1:-1.4504458 2:-1.5141549 3:-1.007388 4:0.023756658 5:0.29141147 6:-0.42831018 7:-0.3043091 8:0.62817652 9:-0.30497608 
1 1:-1.4427412 2:-1.514234 3:-1.0312075 4:-0.19960179 5:0.5322774 6:-0.30155057 7:-0.54542392 8:0.85585472 9:-0.14235814 
1 1:-1.3983418 2:-1.5120132 3:-1.0718439 4:-0.14271907 5:0.51648624 6:-0.39345154 7:-0.52242442 8:0.8762132 9:-0.22085803 
1 1:-1.4639705 2:-1.5107184 3:-1.088175 4:-0.091390316 5:0.44227197 6:-0.39789335 7:-0.45225169 8:0.79537688 9:-0.24636806 
1 1:-1.1917705 2:-1.3070777 3:-0.99894846 4:0.090163087 5:0.22638034 6:-0.47460983 7:-0.23202689 8:0.56860676 9:-0.3667267 
1 1:-1.2481644 2:-1.2807837 3:-0.98597656 4:0.10774675 5:0.18589466 6:-0.45641714 7:-0.19172549 8:0.51436691 9:-0.36967977 
1 1:-1.3274607 2:-1.3492185 3:-0.97637522 4:0.068502079 5:0.23045344 6:-0.43707438 7:-0.24032704 8:0.56378581 9:-0.34217891 
1 1:-1.2638588 2:-1.3111292 3:-1.0192457 4:0.10058478 5:0.14784642 6:-0.39244373 7:-0.16205141 8:0.45277861 9:-0.33944221 
1 1:-0.57251492 2:-1.1731674 3:-0.73298151 4:-0.016509483 5:0.062190204 6:-0.048604588 7:-0.11964489 8:0.25680558 9:-0.13461671 
1 1:-0.68495171 2:-1.2500872 3:-0.79759971 4:0.018409694 5:0.086132873 6:-0.14904652 7:-0.13136018 8:0.31323183 9:-0.19462493 
1 1:-0.71059041 2:-1.2589747 3:-0.82528845 4:-0.0074036849 5:0.10410446 6:-0.12148488 7:-0.15287776 8:0.32681745 9:-0.1700335 
1 1:-0.47233226 2:-1.0966212 3:-0.71605944 4:-0.012737999 5:0.049130453 6:-0.038974798 7:-0.10793049 8:0.23865154 9:-0.13190003 
1 1:-0.75676855 2:-1.2555394 3:-0.85759123 4:0.019860338 5:0.076193192 6:-0.13890759 7:-0.12282528 8:0.29808007 9:-0.18976379 
1 1:-0.74110286 2:-1.243404 3:-0.7971812 4:0.01607121 5:0.12894797 6:-0.20045793 7:-0.16850438 8:0.37704777 9:-0.2125995 
1 1:-0.73731041 2:-1.2664743 3:-0.82260627 4:-0.0081128792 5:0.10023137 6:-0.11501204 7:-0.14967206 8:0.32052159 9:-0.16730219 
1 1:-0.75814414 2:-1.2852524 3:-0.7853523 4:0.0089970672 5:0.12427117 6:-0.18033708 7:-0.16553414 8:0.36760882 9:-0.20467134 
1 1:-0.78731508 2:-1.2988984 3:-0.8359478 4:-0.037075217 5:0.09424093 6:-0.049855614 7:-0.1537007 8:0.29295563 9:-0.11762418 
1 1:-0.84890384 2:-1.3205515 3:-0.83946039 4:-0.012740565 5:0.13619921 6:-0.15293104 7:-0.18095754 8:0.37270694 9:-0.18009892 
1 1:-0.88610973 2:-1.3283805 3:-0.87479681 4:-0.041018025 5:0.18514818 6:-0.16103829 7:-0.22897653 8:0.43371021 9:-0.17115622 
1 1:-1.0095601 2:-1.3537354 3:-0.85411527 4:-0.028121199 5:0.20390392 6:-0.21110955 7:-0.24170498 8:0.46944322 9:-0.19807123 
1 1:-1.0044106 2:-1.3837028 3:-0.84288854 4:-0.095723157 5:0.23857035 6:-0.12270066 7:-0.2871809 8:0.48430007 9:-0.12535746 
1 1:-1.0583731 2:-1.4116167 3:-0.89348472 4:-0.096856343 5:0.27331698 6:-0.16593679 7:-0.31634464 8:0.53695088 9:-0.1432812 
1 1:-1.0730405 2:-1.4086465 3:-0.88046446 4:-0.10765667 5:0.28320058 6:-0.15749953 7:-0.32697589 8:0.54601467 9:-0.13465148 
1 1:-1.1001937 2:-1.4480516 3:-0.89070119 4:-0.13208121 5:0.27721806 6:-0.10133364 7:-0.32762728 8:0.52227653 9:-0.097755434 
1 1:-1.1309675 2:-1.4577086 3:-0.907425 4:-0.16022019 5:0.30881117 6:-0.086998441 7:-0.36037673 8:0.55409972 9:-0.077013293 
1 1:-1.0503036 2:-1.3832623 3:-0.78384278 4:-0.11303687 5:0.27723405 6:-0.13904286 7:-0.32334963 8:0.53302458 9:-0.12277703 
1 1:-0.90735421 2:-1.2190191 3:-0.84154964 4:-0.10920166 5:0.18249652 6:-0.02263391 7:-0.24307439 8:0.38696285 9:-0.071739041 
1 1:-0.95173511 2:-1.2905901 3:-0.83585812 4:-0.2034309 5:0.32261237 6:-0.019549434 7:-0.38201543 8:0.54347998 9:-0.015933658 
1 1:-0.98288847 2:-1.3491256 3:-0.82891135 4:-0.38326958 5:0.58393481 6:-0.0056891925 7:-0.62841497 8:0.82025285 9:0.084224285 
1 1:-0.99037268 2:-1.3479977 3:-0.80261341 4:-0.46414036 5:0.63258725 6:0.090672551 7:-0.68341008 8:0.83778155 9:0.17281451 
1 1:-1.0086656 2:-1.373164 3:-0.79030166 4:-0.48733941 5:0.6628461 6:0.096978112 7:-0.70658287 8:0.85872467 9:0.18984787 
1 1:-1.0399186 2:-1.390149 3:-0.79506959 4:-0.45240642 5:0.61458812 6:0.091009825 7:-0.65867274 8:0.80786415 9:0.16594882 
1 1:-1.0755672 2:-1.4118905 3:-0.81564523 4:-0.4771003 5:0.64181244 6:0.10424543 7:-0.68336742 8:0.83011143 9:0.18420757 
1 1:-1.0986287 2:-1.4080997 3:-0.80538488 4:-0.46280997 5:0.61281536 6:0.11391851 7:-0.65568707 8:0.79190455 9:0.18360614 
1 1:-1.061568 2:-1.4175316 3:-0.73319377 4:-0.43268982 5:0.59843928 6:0.07312782 7:-0.63983757 8:0.78995617 9:0.15342888 
1 1:-1.0697926 2:-1.4033768 3:-0.71408466 4:-0.54269385 5:0.70207351 6:0.15517977 7:-0.74443797 8:0.87625545 9:0.24264636 
1 1:-1.0738306 2:-1.3972062 3:-0.72285863 4:-0.59296394 5:0.63030407 6:0.34859961 7:-0.70575706 8:0.73495835 9:0.37340132 
1 1:-1.0736602 2:-1.3768204 3:-0.70677438 4:-0.72166453 5:0.69021653 6:0.52487749 7:-0.78959405 8:0.73446816 9:0.54918804 
1 1:-1.0610414 2:-1.3629001 3:-0.83188623 4:-0.15265822 5:0.34619251 6:-0.15089056 7:-0.38863197 8:0.61314535 9:-0.10640703 
1 1:-1.0679195 2:-1.3577763 3:-0.80892441 4:-0.19557493 5:0.29802098 6:-0.0029093834 7:-0.36171723 8:0.51270556 9:-0.012247412 
1 1:-1.0538013 2:-1.3501731 3:-0.78755739 4:-0.18618625 5:0.33097664 6:-0.064623885 7:-0.38515999 8:0.56977665 9:-0.048733768 
1 1:-1.0650566 2:-1.3487765 3:-0.77987727 4:-0.2117111 5:0.34175091 6:-0.028212911 7:-0.4003247 8:0.57003391 9:-0.017454753 
1 1:-1.1008073 2:-1.3771951 3:-0.81908608 4:-0.22809691 5:0.36373073 6:-0.02455443 7:-0.42088453 8:0.59491728 9:-0.011775842 
1 1:-1.0802065 2:-1.3608475 3:-0.72469812 4:-0.33959747 5:0.36907783 6:0.18910378 7:-0.45694832 8:0.52813622 9:0.16349693 
1 1:-1.0879853 2:-1.3858875 3:-0.78338919 4:-0.28868101 5:0.41963011 6:0.022175184 7:-0.48097343 8:0.64198196 9:0.043235037 
1 1:-1.0628968 2:-1.3415724 3:-0.67088867 4:-0.76659297 5:0.76425199 6:0.51688727 7:-0.86351981 8:0.81755165 9:0.57917043 
1 1:-1.0491309 2:-1.3506257 3:-0.72389239 4:-0.76111705 5:1.0222064 6:0.16842287 7:-1.0399863 8:1.2085813 9:0.36226514 
1 1:-1.065237 2:-1.2921897 3:-0.74661732 4:-0.48281052 5:0.55369962 6:0.23087366 7:-0.62670803 8:0.70435837 9:0.25415381 
1 1:-1.00403 2:-1.2786887 3:-0.78480484 4:-0.32728866 5:0.45472891 6:0.052639164 7:-0.51148495 8:0.66499305 9:0.072496009 
1 1:-1.0600649 2:-1.3724192 3:-0.81974667 4:-0.24553519 5:0.39761826 6:-0.034398747 7:-0.45199314 8:0.63503199 9:-0.0068721631 
1 1:-1.0346082 2:-1.3779509 3:-0.82651928 4:-0.25453453 5:0.39127807 6:-0.0082908168 7:-0.44930416 8:0.6201615 9:0.0097742656 
1 1:-0.99944501 2:-1.3796489 3:-0.84436553 4:-0.22322593 5:0.32853096 6:0.011877791 7:-0.39149397 8:0.5421193 9:0.0058946103 
1 1:-0.97427787 2:-1.3547358 3:-0.80098202 4:-0.15098567 5:0.2839067 6:-0.072676709 7:-0.33696295 8:0.51717726 9:-0.070628831 
1 1:-0.90783363 2:-1.3231316 3:-0.78110485 4:-0.080211451 5:0.2021389 6:-0.10571406 7:-0.25252895 8:0.43342504 9:-0.12155153 
1 1:-0.92279892 2:-1.3590581 3:-0.82722309 4:-0.14457495 5:0.23749391 6:-0.024615254 7:-0.29773697 8:0.44889219 9:-0.050310742 
1 1:-0.94512631 2:-1.3659701 3:-0.82128394 4:-0.12561369 5:0.25812258 6:-0.08913927 7:-0.30904226 8:0.49434704 9:-0.09475088 
1 1:-1.0616129 2:-1.3749308 3:-0.73739299 4:-0.26793779 5:0.42526754 6:-0.02625376 7:-0.47877765 8:0.66344029 9:0.0065271717 
1 1:-0.71929159 2:-1.4938631 3:-0.97610616 4:-0.52362103 5:0.23292945 6:0.73148181 7:-0.40838807 8:0.18182084 9:0.5805353 
1 1:-0.866763 2:-1.5289544 3:-0.97621709 4:-0.59245645 5:0.33966941 6:0.72799708 7:-0.508653 8:0.29405205 9:0.62188026 
-1 1:-0.47472102 2:-0.8893225 3:-0.82728297 4:-0.0035287679 5:0.036512601 6:-0.040684562 7:-0.096241759 8:0.21900754 9:-0.12689927 
-1 1:-0.42273897 2:-0.90151952 3:-0.99929864 4:-0.059256596 5:0.046391182 6:0.056669691 7:-0.11670632 8:0.19911046 9:-0.054383115 
-1 1:-0.33483476 2:-0.8649236 3:-1.078671 4:0.030247246 5:0.082954653 6:-0.16831287 7:-0.1219738 8:0.30388757 9:-0.20023549 
-1 1:-0.20802335 2:-0.70036794 3:-0.81852581 4:0.3805171 5:-0.4954604 6:-0.10442047 7:0.46684571 8:-0.41829452 9:-0.34859545 
-1 1:-0.17788456 2:-0.69980761 3:-0.80012852 4:0.32681355 5:-0.50494821 6:0.014275782 7:0.46442362 8:-0.45090246 9:-0.29472413 
-0.43292679778050064 1:1.3198745 2:-0.034429928 3:-1.5400793 4:1.0117358 5:-1.4306848 6:-0.12950322 7:1.5017408 8:-1.6217925 9:-0.70783988 
-1 1:1.8021098 2:-0.015085859 3:-0.64227699 4:1.5431722 5:-2.0806272 6:-0.33051515 7:2.247154 8:-2.4281694 9:-1.0571304 
-1 1:1.9000401 2:0.098788882 3:-0.69673646 4:1.8192786 5:-2.296862 6:-0.59390062 7:2.515711 8:-2.6763607 9:-1.2463398 
-1 1:1.1945683 2:-0.15289563 3:-0.64301191 4:0.99723371 5:-1.3841886 6:-0.16166123 7:1.4611545 8:-1.5410994 9:-0.74389235 
-0.3257060022378907 1:0.89546433 2:-0.28505754 3:-0.34531248 4:0.8484427 5:-1.2556205 6:-0.035485956 7:1.2992328 8:-1.3939314 9:-0.62610738 
-1 1:0.93781006 2:-0.30270947 3:-0.30352543 4:0.89428908 5:-1.3083371 6:-0.057215888 7:1.3575167 8:-1.4670807 9:-0.63830074 
-1 1:0.70095154 2:-0.57807419 3:-0.3539814 4:0.25436355 5:-0.70467789 6:0.41907192 7:0.61514779 8:-0.80447235 9:-0.080145572 
-1 1:0.66385003 2:-0.53806971 3:-0.40517226 4:0.27123671 5:-0.64502952 6:0.30760864 7:0.56388162 8:-0.70448139 9:-0.12278715 
-1 1:0.62459553 2:-0.5921544 3:-0.49982847 4:0.53886131 5:-0.61067951 6:-0.26697337 7:0.6137747 8:-0.51985372 9:-0.50335166 
-1 1:0.63607363 2:-0.58395602 3:-0.35567577 4:0.2896337 5:-0.52477543 6:0.11380496 7:0.47386591 8:-0.50507459 9:-0.23334427 
-1 1:0.54643161 2:-0.52508693 3:-0.5260401 4:0.30269204 5:-0.52144953 6:0.083609694 7:0.47118426 8:-0.48754104 9:-0.25399261 
-1 1:0.62255087 2:-0.51456079 3:-0.39379101 4:0.239637 5:-0.5377375 6:0.2297128 7:0.46737625 8:-0.54258124 9:-0.16364644 
-1 1:0.61159526 2:-0.61022822 3:-0.20712796 4:0.10688283 5:-0.49765806 6:0.4399714 7:0.39024172 8:-0.55521839 9:0.016329386 
-1 1:0.58572986 2:-0.65277193 3:-0.2780122 4:0.34067886 5:-0.54866073 6:0.044050516 7:0.50342033 8:-0.51283738 9:-0.28343348 
-1 1:-0.80299698 2:-1.1339152 3:-0.70273896 4:-0.028961768 5:0.36263144 6:-0.41719912 7:-0.37477791 8:0.71021717 9:-0.2806507 
-1 1:-0.79988659 2:-1.1344671 3:-0.71292285 4:-0.047862832 5:0.3623913 6:-0.37948007 7:-0.37889702 8:0.69947165 9:-0.25596393 
-1 1:-0.79149052 2:-1.1355908 3:-0.71063774 4:-0.0485451 5:0.37095516 6:-0.38933883 7:-0.38553378 8:0.7123217 9:-0.26134275 
-1 1:-0.80401838 2:-1.133855 3:-0.66807029 4:-0.03145627 5:0.37704506 6:-0.43112807 7:-0.38733151 8:0.73113516 9:-0.28575273 
-1 1:-0.78202062 2:-1.1373646 3:-0.65276375 4:-0.010189839 5:0.37548257 6:-0.4711687 7:-0.38096377 8:0.74155404 9:-0.31464571 
-1 1:-0.73362191 2:-1.1241244 3:-0.67705387 4:-0.056479058 5:0.37028023 6:-0.37275433 7:-0.38696717 8:0.70579131 9:-0.24857383 
-1 1:-0.73357554 2:-1.1308519 3:-0.6648068 4:-0.15236425 5:0.40012452 6:-0.22206208 7:-0.43354434 8:0.69293086 9:-0.13206795 
-1 1:-0.73284362 2:-1.1210337 3:-0.81274034 4:-0.064010702 5:0.35187075 6:-0.33375385 7:-0.37253948 8:0.66863311 9:-0.22307339 
-1 1:-0.65140495 2:-1.0637554 3:-0.69622463 4:-0.026337746 5:0.34452141 6:-0.3986884 7:-0.35822955 8:0.68172447 9:-0.27255044 
-1 1:-0.76134955 2:-1.1235298 3:-0.73025885 4:-0.14438253 5:0.38084339 6:-0.2126213 7:-0.41553618 8:0.6704163 9:-0.13596505 
-1 1:-0.727613 2:-1.1294194 3:-0.61023743 4:-0.10308398 5:0.31611289 6:-0.20962655 7:-0.35323074 8:0.59796051 9:-0.15759367 
-1 1:-0.68100316 2:-1.0948703 3:-0.58241642 4:-0.0157184 5:0.2949144 6:-0.35477489 7:-0.31533587 8:0.61507052 9:-0.26233236 
-1 1:-0.63610748 2:-1.0949412 3:-0.58758922 4:-0.017635978 5:0.28688907 6:-0.34047598 7:-0.30825409 8:0.60193305 9:-0.25745248 
-1 1:-0.41216165 2:-0.91640245 3:-0.57166115 4:0.13490303 5:0.16368976 6:-0.48109551 7:-0.16855301 8:0.4935406 9:-0.38688733 
-1 1:-0.5118373 2:-0.99904783 3:-0.65739289 4:0.028131978 5:0.22901371 6:-0.35529853 7:-0.24862294 8:0.53460233 9:-0.28116936 
-1 1:-0.19787706 2:-0.76711932 3:-0.73453687 4:0.092035704 5:0.19864604 6:-0.44201521 7:-0.20797271 8:0.52596907 9:-0.3531237 
-0.34413068765947141 1:-0.19814721 2:-0.77813426 3:-0.6907217 4:0.042351799 5:0.18900052 6:-0.33106731 7:-0.2128241 8:0.4841693 9:-0.28041982 
-1 1:-0.24469703 2:-0.79167349 3:-0.70075455 4:0.072158767 5:0.15453079 6:-0.3449383 7:-0.17593557 8:0.44797521 9:-0.30326122 
-1 1:-0.20426313 2:-0.80075552 3:-0.71617728 4:0.10721589 5:0.15713271 6:-0.41772103 7:-0.17014927 8:0.47110798 9:-0.34997275 
-1 1:-0.23685865 2:-0.79359552 3:-0.7367443 4:0.1348855 5:0.13123411 6:-0.43858073 7:-0.14131722 8:0.44624958 9:-0.37296158 
-1 1:-0.21913104 2:-0.77741428 3:-0.73423794 4:0.15996794 5:0.11658525 6:-0.46904485 7:-0.12288145 8:0.43673028 9:-0.39720537 
-1 1:-0.21113429 2:-0.76522472 3:-0.73593873 4:0.15381064 5:0.12043616 6:-0.46190003 7:-0.12779601 8:0.43902986 9:-0.39038618 
-1 1:-0.18256929 2:-0.74153445 3:-0.74285154 4:0.21411291 5:0.077185546 6:-0.52462747 7:-0.076686529 8:0.40232426 9:-0.44215538 
-1 1:-0.15913112 2:-0.72732554 3:-0.77427625 4:0.23324058 5:0.11891803 6:-0.61710287 7:-0.10826588 8:0.47673594 9:-0.48761125 
-1 1:-0.19517976 2:-0.77679831 3:-0.7815076 4:0.19740329 5:0.15935382 6:-0.59910681 7:-0.1514673 8:0.52069575 9:-0.46321372 
-1 1:-0.20017581 2:-0.78265347 3:-0.70126139 4:0.22420857 5:-0.017264 6:-0.42098474 7:0.0079400136 8:0.25675697 9:-0.40094315 
-1 1:-0.20388144 2:-0.80807113 3:-0.74954048 4:0.18498162 5:0.11979524 6:-0.52274775 7:-0.12023523 8:0.45296542 9:-0.42703467 
-1 1:-0.2456091 2:-0.82208041 3:-0.77513784 4:0.16329717 5:0.097045694 6:-0.45005865 7:-0.1052119 8:0.40785755 9:-0.39087729 
-1 1:-0.20108471 2:-0.79014726 3:-0.75575418 4:0.21929467 5:0.033930196 6:-0.47826658 7:-0.037951882 8:0.33869462 9:-0.42778056 
-1 1:-0.23754589 2:-0.79161936 3:-0.77157905 4:0.1819447 5:0.073489988 6:-0.45613039 7:-0.080703645 8:0.38142815 9:-0.40248619 
-1 1:-0.25939326 2:-0.81636483 3:-0.76613902 4:0.15628727 5:0.080953279 6:-0.41512343 7:-0.093507079 8:0.37859069 9:-0.37150476 
-1 1:-0.28321748 2:-0.82261368 3:-0.75058225 4:0.1075142 5:0.112377 6:-0.35973216 7:-0.13071793 8:0.40138452 9:-0.32793022 
-1 1:-0.24017857 2:-0.87479477 3:-0.69124591 4:0.067720339 5:0.19805584 6:-0.39312321 7:-0.21220185 8:0.51098055 9:-0.32185545 
-1 1:-0.27841754 2:-0.87284869 3:-0.78744771 4:0.028670944 5:0.19124883 6:-0.30693598 7:-0.21782161 8:0.4760869 9:-0.25788562 
-1 1:-0.29263545 2:-0.83558479 3:-0.7613241 4:0.091534227 5:0.20142469 6:-0.44465968 7:-0.21017856 8:0.52752872 9:-0.35085264 
-1 1:-0.29579847 2:-0.85097707 3:-0.68456344 4:0.025427841 5:0.20020956 6:-0.31224635 7:-0.22381237 8:0.48660601 9:-0.26112389 
-1 1:-0.31986248 2:-0.86898861 3:-0.56068708 4:-0.089680645 5:0.24148065 6:-0.13846783 7:-0.28831536 8:0.48455963 9:-0.12337725 
-1 1:-0.28826967 2:-0.87079025 3:-0.73371661 4:0.033380031 5:0.14287036 6:-0.25293421 7:-0.17514994 8:0.4031439 9:-0.2377893 
-1 1:-0.37765873 2:-0.8566174 3:-0.81692968 4:0.083528071 5:0.19334659 6:-0.41824255 7:-0.20550928 8:0.51266548 9:-0.33835196 
-1 1:-0.5284828 2:-1.0058812 3:-0.88846555 4:-0.016247791 5:0.28121416 6:-0.33579546 7:-0.30326749 8:0.59444129 9:-0.25664944 
-1 1:-0.53370775 2:-0.97034497 3:-0.80490548 4:-0.015486568 5:0.29231665 6:-0.35183357 7:-0.31241939 8:0.61121399 9:-0.26264882 
-1 1:-0.17809014 2:-0.87127465 3:-0.69467236 4:0.18989096 5:0.013051158 6:-0.39274951 7:-0.022794336 8:0.28638425 9:-0.38112131 
-1 1:-0.31075877 2:-0.97720648 3:-0.82684346 4:0.204206 5:0.11708215 6:-0.55724126 7:-0.11205754 8:0.45687922 9:-0.44996876 
-1 1:-0.22012122 2:-0.82769809 3:-0.75185784 4:0.058851801 5:0.24474438 6:-0.43668163 7:-0.2532036 8:0.57560428 9:-0.33298467 
-1 1:-0.33701872 2:-0.88110898 3:-0.83066158 4:-0.022320993 5:0.27326503 6:-0.3133724 7:-0.29692595 8:0.57710701 9:-0.24394133 
-1 1:-0.94976631 2:-1.1845197 3:-0.57836281 4:-0.44968745 5:0.84211473 6:-0.21217277 7:-0.84800133 8:1.1609772 9:0.032660795 
-1 1:-0.76968119 2:-1.0517436 3:-0.74368101 4:-0.28923221 5:0.58479741 6:-0.19291585 7:-0.61136179 8:0.88485058 9:-0.04808559 
-1 1:-0.74780735 2:-1.0744831 3:-0.66140026 4:-0.24532973 5:0.54220297 6:-0.22404736 7:-0.56778998 8:0.84813613 9:-0.084102773 
-1 1:-0.59675394 2:-0.96210249 3:-0.67418952 4:-0.098755384 5:0.34420119 6:-0.25495657 7:-0.37497566 8:0.64281417 9:-0.17933573 
-1 1:-0.95980199 2:-1.2001035 3:-0.64085277 4:-0.3427554 5:0.56627182 6:-0.062747258 7:-0.61017949 8:0.82979672 9:0.0318612 
-1 1:-0.93963311 2:-1.1956799 3:-0.68464645 4:-0.32544131 5:0.57862317 6:-0.11317769 7:-0.61565209 8:0.8571294 9:0.0023711364 
-1 1:-0.89939068 2:-1.176524 3:-0.68316923 4:-0.31952843 5:0.51613389 6:-0.043089034 7:-0.56686358 8:0.76930563 9:0.031971865 
-1 1:-0.91923543 2:-1.1626245 3:-0.62915603 4:-0.31773224 5:0.56292419 6:-0.10788587 7:-0.60234992 8:0.84151962 9:-0.0020362202 
-1 1:-0.85757386 2:-1.132924 3:-0.59188243 4:-0.28316925 5:0.51921472 6:-0.11907534 7:-0.56013414 8:0.79840774 9:-0.025645057 
-1 1:-0.92663794 2:-1.1157912 3:-0.63499423 4:-0.28586728 5:0.65445008 6:-0.29074097 7:-0.66647121 8:0.99867466 9:-0.10341053 
-1 1:-0.93212457 2:-1.1320901 3:-0.66103 4:-0.30704383 5:0.66689031 6:-0.26511568 7:-0.67992109 8:1.0043233 9:-0.08378295 
-1 1:-2.8626559 2:-2.4584569 3:-1.2354011 4:-1.1691379 5:0.91339438 6:1.1183064 7:-1.0766635 8:0.68907448 9:1.2165475 
-1 1:-2.8114401 2:-2.3580037 3:-1.1956055 4:-1.2011024 5:0.95935616 6:1.1214055 7:-1.1220193 8:0.73771831 9:1.2384315 
-1 1:-2.4926014 2:-1.9866326 3:-1.0299405 4:-1.0434144 5:0.99899583 6:0.75746176 7:-1.1034269 8:0.95214403 9:0.87861574 
-1 1:-2.5878014 2:-2.1766994 3:-1.0762653 4:-0.94618909 5:0.86076397 6:0.7459823 7:-0.98233629 8:0.82678511 9:0.8134386 
-1 1:-2.7576634 2:-2.2158197 3:-1.3711657 4:-1.0962169 5:1.0181064 6:0.83694342 7:-1.1270699 8:0.93292621 9:0.9567517 
-1 1:-2.8523368 2:-2.2019085 3:-1.30917 4:-1.0676081 5:1.023581 6:0.77316181 7:-1.1227871 8:0.96615459 9:0.89806633 
-1 1:-2.6947069 2:-2.1869057 3:-1.2871183 4:-0.53132783 5:1.0606072 6:-0.3365858 7:-1.0217688 8:1.4296179 9:-0.0066642893 
-1 1:-2.6712206 2:-2.3553035 3:-1.2804545 4:-0.49118836 5:1.0787085 6:-0.43971304 7:-1.0214179 8:1.4801252 9:-0.083006234 
-1 1:-2.8195855 2:-2.6534114 3:-1.4406159 4:-0.62213661 5:1.4644662 6:-0.68547481 7:-1.3123879 8:1.9300825 9:-0.14904099 
-1 1:-2.7113938 2:-2.2912507 3:-1.489272 4:-0.59834961 5:1.2530841 6:-0.44037261 7:-1.1646978 8:1.6300418 9:-0.0082604168 
-1 1:-3.3536144 2:-2.7106802 3:-1.5125958 4:-1.1740054 5:1.1812872 6:0.77730323 7:-1.2532939 8:1.1024925 9:0.96646918 
-1 1:-3.178424 2:-2.5410867 3:-1.3523043 4:-1.0075875 5:1.1915812 6:0.43449294 7:-1.2206738 8:1.2645242 9:0.65579712 
-1 1:-3.007566 2:-2.4989195 3:-1.5489598 4:-0.74518665 5:1.2699463 6:-0.18736137 7:-1.2150589 8:1.5849776 9:0.16435553 
-1 1:-3.1779394 2:-2.6431507 3:-1.8566669 4:-0.70230273 5:1.362163 6:-0.39292681 7:-1.2718236 8:1.7215214 9:0.078475422 
-1 1:-3.3315935 2:-2.8394177 3:-1.7815434 4:-0.69849713 5:1.4357847 6:-0.49681895 7:-1.3111463 8:1.8223616 9:0.0096243243 
-1 1:-3.3173156 2:-2.913914 3:-1.6726405 4:-0.74662958 5:1.5375829 6:-0.53480631 7:-1.3800436 8:1.9357867 9:-0.016314077 
-1 1:-3.2024431 2:-2.6606741 3:-1.6242942 4:-0.65682847 5:1.431264 6:-0.57336321 7:-1.3094652 8:1.8603447 9:-0.050746576 
-1 1:-3.0481802 2:-2.4830356 3:-1.2762857 4:-1.2556771 5:1.1637606 6:0.96186948 7:-1.2695922 8:1.0015831 9:1.1515613 
-1 1:-2.9280028 2:-2.5719848 3:-1.442755 4:-1.0794064 5:1.423188 6:0.27347835 7:-1.3897755 8:1.5445254 9:0.5897231 
-1 1:-3.0416104 2:-2.6453025 3:-1.6364666 4:-1.0469273 5:1.5907356 6:-0.010094195 7:-1.4719861 8:1.7918883 9:0.39107873 
-1 1:-2.904606 2:-2.5849888 3:-1.6677564 4:-0.99232893 5:1.6218528 6:-0.15887141 7:-1.4724648 8:1.862993 9:0.28563469 
-1 1:-3.3801616 2:-2.9859981 3:-1.7728329 4:-1.0237209 5:0.94372097 6:0.79083632 7:-1.0394849 8:0.82599977 9:0.93394148 
-1 1:-3.2993849 2:-3.0034128 3:-1.7605097 4:-0.79960274 5:0.88771405 6:0.4206175 7:-0.94917617 8:0.92750477 9:0.59342278 
-1 1:-3.3271334 2:-2.7874732 3:-1.6477776 4:-0.66414222 5:0.70446428 6:0.39239388 7:-0.78878256 8:0.76308638 9:0.50465224 
-1 1:-3.0763645 2:-2.8189466 3:-1.7395537 4:-0.65285282 5:0.68370929 6:0.39721792 7:-0.77984697 8:0.7531846 9:0.50081753 
-0.89723651232213619 1:-2.7797232 2:-2.1908648 3:-1.1042533 4:-1.4643339 5:1.1936044 6:1.3357346 7:-1.3230417 8:0.8051584 9:1.5572117 
-1 1:-2.8090937 2:-2.137237 3:-1.3064316 4:-1.0503727 5:1.150707 6:0.57266248 7:-1.178684 8:1.0839162 9:0.83849133 
-1 1:-2.6299398 2:-2.1598942 3:-0.98320327 4:-0.50172229 5:0.9489119 6:-0.24898029 7:-0.93857755 8:1.2859855 9:0.034648315 
-1 1:-2.5090258 2:-2.1326523 3:-0.87091787 4:-0.45758151 5:0.93108774 6:-0.31300437 7:-0.91046916 8:1.2899258 9:-0.029941025 
-1 1:-2.5914905 2:-2.1647344 3:-1.0980198 4:-0.4065614 5:0.86141729 6:-0.32278263 7:-0.85068181 8:1.2205475 9:-0.050918839 
-1 1:-3.4779999 2:-3.2294115 3:-1.6424598 4:-0.44973637 5:0.63794937 6:0.055149113 7:-0.69174849 8:0.85751349 9:0.1606866 
