svm_type c_svc
kernel_type linear
nr_class 2
total_sv 1167
rho 1.9393104450406327
label 1 -1
probA -1.5436064497051407
probB 0.42225899287182317
nr_sv 583 584
SV
1 1:-0.5713338 2:-0.79929383 3:-0.57609875 4:-0.096447254 5:0.38904449 6:-0.31821817 7:-0.40950257 8:0.70989243 9:-0.20765893 
1 1:-0.59368933 2:-0.8168927 3:-0.56699857 4:-0.1048641 5:0.393228 6:-0.30703709 7:-0.41501794 8:0.71060552 9:-0.19721026 
1 1:-0.58848106 2:-0.81499815 3:-0.53511033 4:-0.11454018 5:0.38743164 6:-0.28030171 7:-0.41224242 8:0.69502411 9:-0.17968027 
1 1:-0.57808167 2:-0.80239034 3:-0.5159518 4:-0.07183165 5:0.38567166 6:-0.36251725 7:-0.40126028 8:0.71688092 9:-0.23533071 
1 1:-0.56513482 2:-0.80118249 3:-0.54561034 4:-0.078256374 5:0.34697702 6:-0.29915679 7:-0.37110212 8:0.65560541 9:-0.20657217 
1 1:-0.59259035 2:-0.80062674 3:-0.60119447 4:-0.081329502 5:0.37319248 6:-0.32738766 7:-0.39343082 8:0.69420833 9:-0.21773797 
1 1:-0.53425771 2:-0.76288863 3:-0.57071299 4:-0.040008917 5:0.34714411 6:-0.37506625 7:-0.36293069 8:0.67872338 9:-0.25824179 
1 1:-0.54656241 2:-0.74648138 3:-0.57473225 4:-0.029864965 5:0.33900044 6:-0.3844819 7:-0.3546404 8:0.67373868 9:-0.26808995 
1 1:-0.53863409 2:-0.752878 3:-0.58821838 4:0.012415158 5:0.30233573 6:-0.42016403 7:-0.31433002 8:0.64091179 9:-0.30311689 
1 1:-0.52782639 2:-0.74198038 3:-0.5390942 4:-0.0040296881 5:0.29873936 6:-0.38291292 7:-0.31528101 8:0.62626134 9:-0.27919953 
1 1:-0.5208518 2:-0.73738927 3:-0.51890088 4:-0.0018387084 5:0.28810724 6:-0.37333279 7:-0.30576868 8:0.61033692 9:-0.27522263 
1 1:-0.52943318 2:-0.73601019 3:-0.50249473 4:-0.00045967401 5:0.28124154 6:-0.36707558 7:-0.29940469 8:0.6009007 9:-0.27438474 
1 1:-0.545648 2:-0.74370266 3:-0.49925626 4:0.012730797 5:0.27342904 6:-0.38295369 7:-0.28998078 8:0.59553939 9:-0.28603615 
1 1:-0.53331857 2:-0.73296854 3:-0.45964466 4:-0.0079980465 5:0.25420579 6:-0.31677116 7:-0.27875057 8:0.55369577 9:-0.24684523 
1 1:-0.50746266 2:-0.72492525 3:-0.47271783 4:0.031545364 5:0.24052663 6:-0.3771224 7:-0.25776366 8:0.55546357 9:-0.2933126 
1 1:-0.49247809 2:-0.71791988 3:-0.50547968 4:0.052108796 5:0.23098238 6:-0.40532478 7:-0.24481484 8:0.55196378 9:-0.31511076 
1 1:-0.47804291 2:-0.71268432 3:-0.51693058 4:0.099579881 5:0.22526448 6:-0.49178492 7:-0.22924931 8:0.56948821 9:-0.37384586 
1 1:-0.44028767 2:-0.7095516 3:-0.54968948 4:0.10689754 5:0.20844321 6:-0.48424959 7:-0.2134558 8:0.54781231 9:-0.3743742 
1 1:-0.41327674 2:-0.68492767 3:-0.63129204 4:0.11268891 5:0.18116263 6:-0.46000396 7:-0.18861736 8:0.50795876 9:-0.3665766 
1 1:-0.4041948 2:-0.68667593 3:-0.63868906 4:0.14225124 5:0.1707531 6:-0.5048824 7:-0.17344005 8:0.50920578 9:-0.40013383 
1 1:-0.40991735 2:-0.69126558 3:-0.60502027 4:0.14062967 5:0.16459669 6:-0.49361542 7:-0.16817212 8:0.49946232 9:-0.39654743 
1 1:-0.41980074 2:-0.70412001 3:-0.60901182 4:0.14669687 5:0.14683872 6:-0.48237946 7:-0.15178894 8:0.47406909 9:-0.39274219 
1 1:-0.42238796 2:-0.70186203 3:-0.5793906 4:0.122792 5:0.15974993 6:-0.45197138 7:-0.16806424 8:0.4811326 9:-0.36933315 
1 1:-0.42476011 2:-0.70351793 3:-0.5682978 4:0.15270335 5:0.17067369 6:-0.52546293 7:-0.17075586 8:0.51452365 9:-0.41369929 
1 1:-0.42604987 2:-0.69767132 3:-0.57340009 4:0.13574466 5:0.17995885 6:-0.50405513 7:-0.18245704 8:0.52025705 9:-0.39784995 
1 1:-0.43130663 2:-0.69459998 3:-0.57886723 4:0.13392758 5:0.17349622 6:-0.49200045 7:-0.17744369 8:0.50935056 9:-0.39199091 
1 1:-0.39359184 2:-0.66668139 3:-0.54836232 4:0.15513017 5:0.15271471 6:-0.50675963 7:-0.15477832 8:0.48872726 9:-0.40844354 
1 1:-0.4048998 2:-0.66363889 3:-0.55679893 4:0.15153681 5:0.14626041 6:-0.49120066 7:-0.14990434 8:0.47645478 9:-0.40024863 
1 1:-0.38967655 2:-0.64603636 3:-0.5328506 4:0.15197467 5:0.14362006 6:-0.4886113 7:-0.14715304 8:0.47283495 9:-0.40057449 
1 1:-0.3882255 2:-0.61758135 3:-0.52524628 4:0.14751852 5:0.12454754 6:-0.45482934 7:-0.13164573 8:0.44057256 9:-0.3846573 
1 1:-0.39288279 2:-0.60288194 3:-0.52564908 4:0.17825408 5:0.082515196 6:-0.46063954 7:-0.088064259 8:0.39191 9:-0.4028084 
1 1:-0.39419361 2:-0.60276349 3:-0.53283418 4:0.18018916 5:0.082322275 6:-0.4642165 7:-0.087673289 8:0.39163883 9:-0.40321882 
1 1:-0.38081318 2:-0.59836831 3:-0.51184923 4:0.17893656 5:0.078627854 6:-0.45690214 7:-0.084560905 8:0.38462733 9:-0.39922132 
1 1:-0.40189643 2:-0.61741876 3:-0.49489325 4:0.16045781 5:0.099995567 6:-0.44830063 7:-0.10795506 8:0.40691152 9:-0.38373333 
1 1:-0.43015363 2:-0.64788012 3:-0.47890988 4:0.12971203 5:0.12836237 6:-0.42458382 7:-0.13999341 8:0.43567902 9:-0.35990161 
1 1:-0.44560505 2:-0.64593089 3:-0.444052 4:0.1139059 5:0.12987575 6:-0.3952847 7:-0.1452353 8:0.42998444 9:-0.34043171 
1 1:-0.44977408 2:-0.6480558 3:-0.42571743 4:0.093104441 5:0.12576239 6:-0.34873528 7:-0.14700078 8:0.4117786 9:-0.30949129 
1 1:-0.45853914 2:-0.6395793 3:-0.43479873 4:0.11078632 5:0.12451643 6:-0.38209649 7:-0.14174721 8:0.41946005 9:-0.33195991 
1 1:-0.46607635 2:-0.62098008 3:-0.44087202 4:0.11174856 5:0.12450633 6:-0.38398752 7:-0.14133719 8:0.4197055 9:-0.33318349 
1 1:-0.44523522 2:-0.60272316 3:-0.44039248 4:0.11897317 5:0.10769457 6:-0.3762805 7:-0.12424141 8:0.39874792 9:-0.3375063 
1 1:-0.44557365 2:-0.61358454 3:-0.44740895 4:0.10807751 5:0.11119952 6:-0.35930579 7:-0.12971475 8:0.39836716 9:-0.32550791 
1 1:-0.43899228 2:-0.6094723 3:-0.44114339 4:0.098169302 5:0.10617354 6:-0.33311935 7:-0.12809379 8:0.38594072 9:-0.31029015 
1 1:-0.43011355 2:-0.61659343 3:-0.4508955 4:0.096802105 5:0.12007413 6:-0.34860771 7:-0.14092239 8:0.40611933 9:-0.31371115 
1 1:-0.42217683 2:-0.62046489 3:-0.42427952 4:0.101803 5:0.14900859 6:-0.39637568 7:-0.16412447 8:0.45464033 9:-0.33790061 
1 1:-0.4157998 2:-0.62088407 3:-0.39780221 4:0.10087215 5:0.17804697 6:-0.4325409 7:-0.1891831 8:0.49904165 9:-0.35204645 
1 1:-0.4358254 2:-0.6364962 3:-0.40186916 4:0.084602834 5:0.19020778 6:-0.4162612 7:-0.20399031 8:0.50865684 9:-0.33552266 
1 1:-0.44848289 2:-0.64443922 3:-0.39943562 4:0.08590416 5:0.21646809 6:-0.45320772 7:-0.22602313 8:0.54920703 9:-0.3502213 
1 1:-0.46774844 2:-0.64410793 3:-0.38546893 4:0.069953315 5:0.21254322 6:-0.41650426 7:-0.22620995 8:0.53581386 9:-0.3297817 
1 1:-0.47210562 2:-0.65133699 3:-0.39624072 4:0.08368375 5:0.21977877 6:-0.45314681 7:-0.22895732 8:0.55403956 9:-0.35132896 
1 1:-0.49114454 2:-0.6655446 3:-0.401143 4:0.093403124 5:0.23529606 6:-0.49269127 7:-0.23977725 8:0.58236333 9:-0.37113735 
1 1:-0.50165632 2:-0.68287626 3:-0.41579548 4:0.070108031 5:0.23941415 6:-0.45198089 7:-0.24851858 8:0.57674596 9:-0.34447615 
1 1:-0.52282859 2:-0.67859406 3:-0.41177928 4:0.038704054 5:0.2432611 6:-0.39486833 7:-0.25930624 8:0.56473626 9:-0.30397287 
1 1:-0.51839422 2:-0.68734031 3:-0.4012082 4:0.029248272 5:0.25782873 6:-0.39522264 7:-0.27341689 8:0.58140799 9:-0.29946714 
1 1:-0.52517574 2:-0.69322082 3:-0.4162477 4:0.018018908 5:0.24883259 6:-0.36122527 7:-0.26810397 8:0.56247537 9:-0.28221854 
1 1:-0.54164478 2:-0.69330378 3:-0.42297083 4:0.034910064 5:0.24410869 6:-0.38846951 7:-0.25999114 8:0.56476489 9:-0.30258564 
1 1:-0.55555943 2:-0.6986654 3:-0.43241965 4:0.045175618 5:0.24907341 6:-0.41528294 7:-0.26223057 8:0.57811313 9:-0.31789196 
1 1:-0.51594087 2:-0.70787248 3:-0.4281124 4:0.023458829 5:0.24473722 6:-0.36663045 7:-0.2637516 8:0.55936022 9:-0.28664297 
1 1:-0.52005732 2:-0.71091017 3:-0.40131327 4:0.023050109 5:0.22952358 6:-0.34590899 7:-0.25131295 8:0.53595394 9:-0.27757594 
1 1:-0.52398507 2:-0.72864343 3:-0.38431462 4:0.043595233 5:0.22542381 6:-0.38120124 7:-0.24267289 8:0.54114629 9:-0.30338946 
1 1:-0.52921466 2:-0.74464473 3:-0.4142441 4:0.045559848 5:0.24284589 6:-0.40789232 7:-0.25666076 8:0.5683384 9:-0.31488907 
1 1:-0.53505452 2:-0.75661581 3:-0.42417242 4:0.04862158 5:0.22809108 6:-0.39463935 7:-0.24382715 8:0.54778661 9:-0.31091989 
1 1:-0.53189618 2:-0.75039719 3:-0.43825753 4:0.033000206 5:0.23191528 6:-0.3687304 7:-0.25093305 8:0.54475105 9:-0.29153841 
1 1:-0.52705522 2:-0.76019561 3:-0.48131446 4:0.061267777 5:0.22615837 6:-0.4171362 7:-0.23943887 8:0.55144227 9:-0.32555518 
1 1:-0.51561048 2:-0.75218248 3:-0.4885545 4:0.043673765 5:0.22537766 6:-0.38129625 7:-0.24275764 8:0.54022842 9:-0.30183845 
1 1:-0.50181803 2:-0.73692061 3:-0.49187399 4:0.071762921 5:0.18693242 6:-0.38656432 7:-0.2036324 8:0.49674455 9:-0.31843734 
1 1:-0.50561985 2:-0.74218808 3:-0.50036376 4:0.093351394 5:0.18465042 6:-0.42630054 7:-0.19660702 8:0.5045772 9:-0.34483188 
1 1:-0.52095329 2:-0.7489329 3:-0.51259721 4:0.096402475 5:0.19031075 6:-0.43974717 7:-0.20086052 8:0.51497786 9:-0.35152026 
1 1:-0.51826554 2:-0.75027655 3:-0.51741583 4:0.088714079 5:0.19057075 6:-0.42487233 7:-0.20288242 8:0.51187293 9:-0.34265043 
1 1:-0.50379448 2:-0.74331613 3:-0.49899671 4:0.065899385 5:0.19858101 6:-0.39020697 7:-0.21524245 8:0.51199202 9:-0.31702079 
1 1:-0.4937218 2:-0.73917042 3:-0.48777103 4:0.064265993 5:0.18924299 6:-0.37475231 7:-0.20817893 8:0.49555953 9:-0.30717015 
1 1:-0.49715229 2:-0.73615298 3:-0.48967163 4:0.066388778 5:0.19276216 6:-0.38355937 7:-0.21037273 8:0.50259093 9:-0.31311542 
1 1:-0.49597856 2:-0.73323717 3:-0.47879141 4:0.075430879 5:0.19515524 6:-0.40458569 7:-0.2105635 8:0.50992614 9:-0.3236979 
1 1:-0.48727753 2:-0.72409818 3:-0.48295424 4:0.060477121 5:0.2025106 6:-0.38461975 7:-0.22025628 8:0.51356063 9:-0.30890003 
1 1:-0.48878097 2:-0.71545622 3:-0.48875858 4:0.066365892 5:0.19607756 6:-0.38785349 7:-0.21303177 8:0.50775142 9:-0.31528856 
1 1:-0.49033224 2:-0.7158621 3:-0.49994628 4:0.053768354 5:0.1898561 6:-0.35478022 7:-0.21065962 8:0.49162523 9:-0.29610078 
1 1:-0.49656349 2:-0.71996197 3:-0.4887603 4:0.058938652 5:0.18459107 6:-0.3581209 7:-0.20495001 8:0.48668476 9:-0.30062667 
1 1:-0.48187523 2:-0.71754072 3:-0.4561219 4:0.059434664 5:0.18932223 6:-0.36529495 7:-0.20867215 8:0.49408982 9:-0.30394014 
1 1:-0.46097233 2:-0.70819092 3:-0.43502261 4:0.067922039 5:0.16829151 6:-0.35456486 7:-0.18900773 8:0.46602476 9:-0.30298644 
1 1:-0.4461057 2:-0.70462202 3:-0.43872161 4:0.080998746 5:0.16752843 6:-0.37944456 7:-0.18537588 8:0.47177695 9:-0.31918083 
1 1:-0.43639495 2:-0.68876485 3:-0.4127442 4:0.090056139 5:0.15268337 6:-0.37793873 7:-0.17076752 8:0.4539155 9:-0.32294475 
1 1:-0.42947493 2:-0.6675089 3:-0.43411722 4:0.10516913 5:0.16606175 6:-0.42535747 7:-0.17875524 8:0.48129969 9:-0.34726033 
1 1:-0.4334343 2:-0.66577419 3:-0.45977871 4:0.099159941 5:0.13432877 6:-0.37193122 7:-0.1534016 8:0.42924096 9:-0.32226736 
1 1:-0.42991208 2:-0.68324882 3:-0.50823288 4:0.11085805 5:0.1256476 6:-0.38371899 7:-0.14347325 8:0.4210813 9:-0.33078293 
1 1:-0.43495276 2:-0.7019088 3:-0.50385197 4:0.093486183 5:0.13134235 6:-0.35679417 7:-0.1525038 8:0.42067734 9:-0.31132227 
1 1:-0.46289477 2:-0.72330405 3:-0.49123527 4:0.11559038 5:0.14022486 6:-0.41216385 7:-0.15410623 8:0.44676238 9:-0.3470256 
1 1:-0.42237726 2:-0.72698997 3:-0.48459448 4:0.12337714 5:0.13270044 6:-0.41772519 7:-0.14538545 8:0.43962702 9:-0.3545531 
1 1:-0.42667952 2:-0.72529984 3:-0.49007952 4:0.12333542 5:0.12684293 6:-0.40997593 7:-0.13997191 8:0.43058374 9:-0.3523189 
1 1:-0.41621649 2:-0.71918323 3:-0.46561311 4:0.12072519 5:0.13500013 6:-0.41548703 7:-0.14765756 8:0.44233822 9:-0.35386756 
1 1:-0.41665039 2:-0.72922562 3:-0.44935576 4:0.11915234 5:0.1259348 6:-0.40050909 7:-0.13997155 8:0.42833197 9:-0.34894875 
1 1:-0.39574813 2:-0.72310208 3:-0.44951716 4:0.15304278 5:0.12437594 6:-0.4655371 7:-0.13121967 8:0.44240633 9:-0.3882921 
1 1:-0.39780883 2:-0.71969767 3:-0.4699717 4:0.14982278 5:0.12499583 6:-0.45997616 7:-0.13211381 8:0.44274497 9:-0.38693205 
1 1:-0.40979822 2:-0.71248252 3:-0.47294826 4:0.15645589 5:0.14459495 6:-0.49875554 7:-0.14744728 8:0.47677524 9:-0.40585873 
1 1:-0.4222957 2:-0.72681038 3:-0.47661817 4:0.16890146 5:0.14633647 6:-0.52566442 7:-0.14627337 8:0.48552942 9:-0.42141485 
1 1:-0.42247445 2:-0.71936921 3:-0.47282241 4:0.16344739 5:0.14061358 6:-0.50738046 7:-0.14273592 8:0.47253906 9:-0.40935457 
1 1:-0.4407403 2:-0.72589412 3:-0.4756746 4:0.14205073 5:0.135603 6:-0.45847882 7:-0.14340482 8:0.45241237 9:-0.37782831 
1 1:-0.43105197 2:-0.72109244 3:-0.46966865 4:0.13152598 5:0.14177294 6:-0.44572623 7:-0.15111762 8:0.45541549 9:-0.36621953 
1 1:-0.42624273 2:-0.72583099 3:-0.47403259 4:0.11881849 5:0.1436782 6:-0.42307216 7:-0.15517096 8:0.45114916 9:-0.35136941 
1 1:-0.43545594 2:-0.72098794 3:-0.46213004 4:0.14002789 5:0.12623993 6:-0.44222067 7:-0.13531736 8:0.43704047 9:-0.37170338 
1 1:-0.40565103 2:-0.71893755 3:-0.46847177 4:0.131681 5:0.13370863 6:-0.43547792 7:-0.14347589 8:0.44412939 9:-0.36528032 
1 1:-0.37020413 2:-0.71611082 3:-0.48343344 4:0.14564426 5:0.12313261 6:-0.44926825 7:-0.13106857 8:0.43573258 9:-0.378617 
1 1:-0.35888531 2:-0.70994155 3:-0.47536594 4:0.18226527 5:0.10611807 6:-0.49947057 7:-0.10851089 8:0.42791671 9:-0.41401746 
1 1:-0.3655285 2:-0.70581242 3:-0.50186207 4:0.18821189 5:0.097621536 6:-0.50011796 7:-0.099524471 8:0.4177247 9:-0.41752383 
1 1:-0.36802653 2:-0.71535429 3:-0.5417841 4:0.17760708 5:0.1118372 6:-0.49773771 7:-0.11416741 8:0.4348243 9:-0.41254719 
1 1:-0.37911887 2:-0.72484743 3:-0.56801441 4:0.16843575 5:0.11984933 6:-0.49007468 7:-0.12351269 8:0.44262443 9:-0.40471086 
1 1:-0.39470573 2:-0.72778409 3:-0.57159017 4:0.15444955 5:0.12652209 6:-0.47113008 7:-0.132667 8:0.44403832 9:-0.38771312 
1 1:-0.39886732 2:-0.74021302 3:-0.58839629 4:0.1420208 5:0.1399849 6:-0.46415491 7:-0.14726249 8:0.45910545 9:-0.37979297 
1 1:-0.36467623 2:-0.73897656 3:-0.58373925 4:0.11367635 5:0.1406568 6:-0.40894137 7:-0.15474145 8:0.443547 9:-0.34088584 
1 1:-0.37430588 2:-0.73986941 3:-0.57363232 4:0.13395308 5:0.14638641 6:-0.45656781 7:-0.15373675 8:0.46470756 9:-0.37466094 
1 1:-0.39893654 2:-0.75556792 3:-0.59435108 4:0.18972353 5:0.12359106 6:-0.5371001 7:-0.12138676 8:0.45861361 9:-0.43308559 
1 1:-0.38296639 2:-0.76846157 3:-0.56273205 4:0.20089109 5:0.12602397 6:-0.56238477 7:-0.12021424 8:0.46747509 9:-0.44879943 
1 1:-0.40451186 2:-0.76591138 3:-0.56542451 4:0.14958975 5:0.13055749 6:-0.46679447 7:-0.13551584 8:0.43775154 9:-0.3723534 
1 1:-0.40365555 2:-0.76321205 3:-0.57762681 4:0.12710026 5:0.13991297 6:-0.43453339 7:-0.14680642 8:0.44311351 9:-0.35680536 
1 1:-0.37211853 2:-0.75831308 3:-0.57904336 4:0.13714305 5:0.12556908 6:-0.43563359 7:-0.13271277 8:0.42679117 9:-0.36179863 
1 1:-0.3446633 2:-0.74744647 3:-0.54584885 4:0.17157041 5:0.080951932 6:-0.44536662 7:-0.087555256 8:0.37870094 9:-0.3840973 
1 1:-0.33540785 2:-0.73389448 3:-0.55130884 4:0.23614739 5:0.041697094 6:-0.52178354 7:-0.039501805 8:0.35484348 9:-0.4487191 
1 1:-0.3199261 2:-0.72902843 3:-0.54315823 4:0.24615428 5:0.052878278 6:-0.55622159 7:-0.046294349 8:0.37684511 9:-0.46747252 
1 1:-0.31979227 2:-0.71320353 3:-0.52143403 4:0.25111747 5:0.042793067 6:-0.55284343 7:-0.036079092 8:0.36314166 9:-0.46828811 
1 1:-0.34141482 2:-0.72955959 3:-0.52813619 4:0.24466241 5:0.036875238 6:-0.53232338 7:-0.033183713 8:0.34967721 9:-0.45417748 
1 1:-0.32323593 2:-0.70411546 3:-0.52089417 4:0.24592683 5:0.046567231 6:-0.54751116 7:-0.040971629 8:0.36590775 9:-0.46221325 
1 1:-0.32467975 2:-0.69486877 3:-0.52809303 4:0.25005719 5:0.040227533 6:-0.54738722 7:-0.034543547 8:0.35736694 9:-0.46284962 
1 1:-0.3182069 2:-0.67823734 3:-0.53383 4:0.25363305 5:0.028252074 6:-0.5387895 7:-0.023076342 8:0.33948531 9:-0.46002457 
1 1:-0.30375819 2:-0.66966244 3:-0.54285573 4:0.23875352 5:0.010046017 6:-0.48551398 7:-0.011180111 8:0.30163197 9:-0.42819777 
1 1:-0.27655696 2:-0.64975383 3:-0.5526772 4:0.26788849 5:-0.005701371 6:-0.52256015 7:0.01080753 8:0.29220205 9:-0.45999173 
1 1:-0.56362589 2:-0.8187668 3:-0.59137732 4:0.0047608666 5:0.18451974 6:-0.25081105 7:-0.21823382 8:0.45484995 9:-0.22523329 
1 1:-0.55344497 2:-0.85307531 3:-0.62647085 4:-0.0036185739 5:0.16611445 6:-0.21013829 7:-0.2060184 8:0.41603424 9:-0.19263228 
1 1:-0.59794047 2:-0.88665024 3:-0.66588968 4:0.029885156 5:0.14808951 6:-0.2528491 7:-0.18446912 8:0.40557615 9:-0.22197178 
1 1:-0.57212583 2:-0.89451779 3:-0.64432103 4:0.01237374 5:0.14129321 6:-0.209299 7:-0.18182021 8:0.38848151 9:-0.20191213 
1 1:-0.64007111 2:-0.9278711 3:-0.62015085 4:0.076204109 5:0.15060224 6:-0.34780198 7:-0.17467673 8:0.4337157 9:-0.28454323 
1 1:-0.25536442 2:-0.66123788 3:-0.58094965 4:0.32788352 5:-0.038022023 6:-0.59898542 7:0.052107968 8:0.26991423 9:-0.51286289 
1 1:-0.2123171 2:-0.63794832 3:-0.58047314 4:0.27269209 5:-0.02094385 6:-0.512116 7:0.023442283 8:0.26539898 9:-0.4462492 
1 1:-0.24134388 2:-0.6550755 3:-0.56528944 4:0.2569826 5:-0.017508405 6:-0.48552385 7:0.015873656 8:0.26655108 9:-0.43217047 
1 1:-0.25970876 2:-0.65803134 3:-0.54984561 4:0.19602837 5:0.011458151 6:-0.40281026 7:-0.023744152 8:0.27959635 9:-0.36897661 
1 1:-0.27527468 2:-0.66130657 3:-0.54719871 4:0.20015662 5:0.024945428 6:-0.42863301 7:-0.034848597 8:0.30367337 9:-0.38183359 
1 1:-0.28086692 2:-0.65720812 3:-0.55367315 4:0.1782285 5:0.027698831 6:-0.38884165 7:-0.042589938 8:0.29564359 9:-0.353649 
1 1:-0.26676417 2:-0.65078609 3:-0.53576299 4:0.16598277 5:0.021813106 6:-0.35690402 7:-0.041155191 8:0.27841166 9:-0.33084862 
1 1:-0.28976261 2:-0.64292772 3:-0.53881179 4:0.19778951 5:0.015151687 6:-0.41112986 7:-0.027866698 8:0.28480449 9:-0.36816524 
1 1:-0.27846625 2:-0.64313981 3:-0.5167117 4:0.21790847 5:0.016942007 6:-0.45328808 7:-0.024831731 8:0.29621992 9:-0.39159117 
1 1:-0.27578373 2:-0.65669734 3:-0.53194117 4:0.22454429 5:-0.013698116 6:-0.42631639 7:0.0033099876 8:0.25489633 9:-0.38849023 
1 1:-0.26138518 2:-0.65169263 3:-0.52136438 4:0.26556741 5:-0.016214404 6:-0.50420663 7:0.016044914 8:0.27532327 9:-0.44566 
1 1:-0.79752811 2:-0.78738521 3:-0.55354336 4:-0.61237584 5:0.66552175 6:0.34092005 7:-0.75187954 8:0.77456147 9:0.41042002 
1 1:-0.84773448 2:-0.73095235 3:-0.48212144 4:-0.57576069 5:0.67592741 6:0.25483996 7:-0.74881947 8:0.80624071 9:0.35660684 
1 1:-0.6437067 2:-0.64176758 3:-0.44998559 4:-0.4727917 5:0.55336361 6:0.21148645 7:-0.62680117 8:0.69114849 9:0.27412344 
1 1:-0.94996021 2:-0.80388214 3:-0.59810688 4:-0.62070909 5:0.68928619 6:0.32630688 7:-0.76615628 8:0.78820667 9:0.41980324 
1 1:-0.95605531 2:-0.82469921 3:-0.66475688 4:-0.58228655 5:0.66504301 6:0.2820007 7:-0.73940785 8:0.78413442 9:0.37004827 
1 1:-0.8418798 2:-0.78737832 3:-0.6210071 4:-0.59187567 5:0.68768848 6:0.27133744 7:-0.76086081 8:0.80793965 9:0.37920602 
1 1:-0.79414576 2:-0.75973471 3:-0.64843304 4:-0.61471267 5:0.64765448 6:0.36893043 7:-0.74092848 8:0.73636502 9:0.444734 
0.049905292891833 1:-0.73712456 2:-0.72454304 3:-0.62585833 4:-0.59105671 5:0.65965025 6:0.30641502 7:-0.74145572 8:0.7743852 9:0.38891879 
1 1:-0.76444863 2:-0.69930688 3:-0.49949279 4:-0.56846505 5:0.6448366 6:0.28109577 7:-0.72566652 8:0.76754666 9:0.36618798 
1 1:-0.6044251 2:-0.64513568 3:-0.48113011 4:-0.58042172 5:0.60189907 6:0.36095718 7:-0.70219746 8:0.70128987 9:0.41637041 
1 1:-0.65684105 2:-0.70448513 3:-0.57523433 4:-0.53755895 5:0.58205738 6:0.30210295 7:-0.6718081 8:0.70214121 9:0.35164251 
1 1:-0.79108169 2:-0.74151515 3:-0.59186928 4:-0.53282593 5:0.61759305 6:0.24622499 7:-0.70461526 8:0.75797561 9:0.33656046 
1 1:-0.83086835 2:-0.72716258 3:-0.51292673 4:-0.54550871 5:0.63648587 6:0.24659573 7:-0.71713978 8:0.7837497 9:0.32412811 
1 1:-0.69352986 2:-0.72513266 3:-0.50238826 4:-0.44233158 5:0.57042834 6:0.12887119 7:-0.63301613 8:0.74390375 9:0.20812591 
1 1:-0.64090886 2:-0.7076403 3:-0.54555173 4:-0.43818975 5:0.56909051 6:0.12242566 7:-0.62952798 8:0.74457669 9:0.19983523 
1 1:-0.63785979 2:-0.70690577 3:-0.52593055 4:-0.38873066 5:0.49569848 6:0.12060767 7:-0.56425163 8:0.66919806 9:0.17637878 
1 1:-0.6192946 2:-0.69493963 3:-0.49663917 4:-0.33340456 5:0.49439278 6:0.012827686 7:-0.54806869 8:0.70752121 9:0.085218917 
1 1:-0.6700084 2:-0.70289888 3:-0.56328911 4:-0.35765939 5:0.46049162 6:0.10519945 7:-0.53098043 8:0.64758315 9:0.13926544 
1 1:-0.68824081 2:-0.70120311 3:-0.50805197 4:-0.31092174 5:0.43807686 6:0.042044721 7:-0.50099271 8:0.6445708 9:0.081160108 
1 1:-0.6760823 2:-0.6984185 3:-0.53470523 4:-0.29395671 5:0.44295217 6:0.0020902305 7:-0.49894966 8:0.65845986 9:0.056102316 
1 1:-0.6707326 2:-0.68092212 3:-0.56919528 4:-0.25274755 5:0.43705995 6:-0.07174954 7:-0.4849913 8:0.67825988 9:-0.0026835271 
1 1:-0.69057774 2:-0.69273638 3:-0.59272638 4:-0.27333784 5:0.40752222 6:0.0076590587 7:-0.466806 8:0.61547754 9:0.053330249 
1 1:-0.62629378 2:-0.70188008 3:-0.59791366 4:-0.2584978 5:0.40852148 6:-0.023016927 7:-0.46417655 8:0.62947517 9:0.026885507 
1 1:-0.61624388 2:-0.71642727 3:-0.58091763 4:-0.30919295 5:0.38661219 6:0.10598384 7:-0.457015 8:0.56192165 9:0.11305947 
1 1:-0.65256467 2:-0.71220965 3:-0.54024294 4:-0.3027699 5:0.37066792 6:0.1141417 7:-0.44399973 8:0.54144713 9:0.11653367 
1 1:-0.65797355 2:-0.72510592 3:-0.57590453 4:-0.29208269 5:0.36175772 6:0.10465424 7:-0.43536068 8:0.53513681 9:0.10794174 
1 1:-0.62260791 2:-0.70511682 3:-0.51632593 4:-0.24390775 5:0.36694837 6:0.0025233572 7:-0.42778649 8:0.57373263 9:0.034348897 
1 1:-0.64012243 2:-0.70191118 3:-0.48585542 4:-0.26540644 5:0.36327029 6:0.049882849 7:-0.43211725 8:0.55574241 9:0.070322883 
1 1:-0.64927356 2:-0.69637099 3:-0.48538802 4:-0.29768049 5:0.37899181 6:0.09317504 7:-0.45133609 8:0.56226548 9:0.10068711 
1 1:-0.66020386 2:-0.70624129 3:-0.49756585 4:-0.32825455 5:0.3985049 6:0.12814032 7:-0.47418707 8:0.56833098 9:0.13932026 
1 1:-0.67653571 2:-0.69495876 3:-0.47946164 4:-0.28446306 5:0.3804484 6:0.065111581 7:-0.44948551 8:0.57136098 9:0.083207143 
1 1:-0.6839599 2:-0.68984085 3:-0.53530483 4:-0.23336173 5:0.3614493 6:-0.011149408 7:-0.42184666 8:0.5736978 9:0.021998594 
1 1:-0.66686984 2:-0.67814118 3:-0.54561748 4:-0.21053177 5:0.3578675 6:-0.051641229 7:-0.41270052 8:0.58428449 9:-0.012946933 
1 1:-0.65970469 2:-0.65559301 3:-0.53352888 4:-0.19330972 5:0.36319905 6:-0.092701534 7:-0.41285866 8:0.60470415 9:-0.043184877 
1 1:-0.65170552 2:-0.63549961 3:-0.54556656 4:-0.23778357 5:0.35427968 6:0.0069853678 7:-0.41632866 8:0.56048034 9:0.030263405 
1 1:-0.64602806 2:-0.62139302 3:-0.47802513 4:-0.20874146 5:0.35155669 6:-0.046924208 7:-0.40723517 8:0.57407693 9:-0.0090779709 
1 1:-0.63063968 2:-0.62397528 3:-0.42396489 4:-0.22352252 5:0.33730777 6:0.00097707464 7:-0.40049474 8:0.54331321 9:0.022901074 
1 1:-0.61629408 2:-0.61888077 3:-0.40444886 4:-0.23577637 5:0.34355899 6:0.017045122 7:-0.40852267 8:0.54611488 9:0.035469433 
1 1:-0.61798565 2:-0.62502956 3:-0.40554287 4:-0.22299307 5:0.34924542 6:-0.015695492 7:-0.40997269 8:0.56297648 9:0.013255345 
1 1:-0.61121764 2:-0.63777129 3:-0.37920991 4:-0.18757466 5:0.34649072 6:-0.082182105 7:-0.39872006 8:0.58207998 9:-0.038838191 
1 1:-0.61338906 2:-0.6483728 3:-0.48601997 4:-0.20970918 5:0.35138362 6:-0.044782581 7:-0.40859052 8:0.57463043 9:-0.0070765728 
1 1:-0.59056024 2:-0.63011436 3:-0.5575393 4:-0.20081735 5:0.34894658 6:-0.059189541 7:-0.40485702 8:0.57670865 9:-0.01798325 
1 1:-0.59898602 2:-0.62103362 3:-0.56034883 4:-0.2143156 5:0.33926784 6:-0.019808659 7:-0.39833077 8:0.55198874 9:0.005395437 
1 1:-0.58835054 2:-0.60382797 3:-0.5454762 4:-0.20179355 5:0.35218869 6:-0.061501154 7:-0.4053921 8:0.57917981 9:-0.020565327 
1 1:-0.56402695 2:-0.60936744 3:-0.55200821 4:-0.19630645 5:0.34517246 6:-0.063176689 7:-0.39921371 8:0.57452298 9:-0.026494642 
1 1:-0.60828335 2:-0.60978211 3:-0.50332617 4:-0.1996187 5:0.33566715 6:-0.044180651 7:-0.39412613 8:0.5547955 9:-0.007585622 
1 1:-0.61297875 2:-0.61545328 3:-0.48536401 4:-0.17689633 5:0.34161944 6:-0.096938414 7:-0.39255637 8:0.57671935 9:-0.043683232 
1 1:-0.60459298 2:-0.62743155 3:-0.44510642 4:-0.24892805 5:0.36584468 6:0.013902998 7:-0.42890089 8:0.56575693 9:0.048615382 
1 1:-0.62426291 2:-0.63244116 3:-0.45062997 4:-0.20932131 5:0.34925429 6:-0.04276316 7:-0.40635288 8:0.56888062 9:-0.0031413669 
1 1:-0.6219263 2:-0.6239039 3:-0.42193578 4:-0.23356059 5:0.36648656 6:-0.017348972 7:-0.42468795 8:0.57860523 9:0.02058483 
1 1:-0.58599628 2:-0.62006309 3:-0.38991621 4:-0.24212251 5:0.3733467 6:-0.0093841353 7:-0.42991642 8:0.58119687 9:0.027622287 
1 1:-0.56969654 2:-0.61506354 3:-0.40020048 4:-0.22652171 5:0.35929013 6:-0.021859556 7:-0.41499437 8:0.57068152 9:0.012206255 
1 1:-0.56409642 2:-0.63405968 3:-0.42255939 4:-0.22795819 5:0.34800165 6:-0.0042416941 7:-0.40533454 8:0.5535566 9:0.017672348 
1 1:-0.57755257 2:-0.64095237 3:-0.49230149 4:-0.21702644 5:0.35550065 6:-0.035690559 7:-0.40948864 8:0.5718474 9:-0.0010351038 
1 1:-0.60002945 2:-0.64333596 3:-0.47122668 4:-0.23211535 5:0.38586127 6:-0.045567953 7:-0.43680419 8:0.60738529 9:0.0028000862 
1 1:-0.62351191 2:-0.63414729 3:-0.4621648 4:-0.25710414 5:0.41553612 6:-0.034956166 7:-0.4672212 8:0.63696454 9:0.022031231 
1 1:-0.65571502 2:-0.63172743 3:-0.48705786 4:-0.22355657 5:0.38550776 6:-0.062042883 7:-0.43843396 8:0.61704232 9:-0.0082534865 
1 1:-0.65234679 2:-0.62175498 3:-0.50738541 4:-0.23830293 5:0.39757001 6:-0.048648056 7:-0.45203039 8:0.6233212 9:0.010736619 
1 1:-0.60987078 2:-0.59519896 3:-0.54734761 4:-0.20470168 5:0.36787733 6:-0.076280361 7:-0.41788052 8:0.6006505 9:-0.026630881 
1 1:-0.60409779 2:-0.61040073 3:-0.58728407 4:-0.12289447 5:0.29877785 6:-0.14773284 7:-0.34381168 8:0.54656694 9:-0.10032482 
1 1:-0.49476623 2:-0.60537799 3:-0.58927279 4:-0.11155569 5:0.25510737 6:-0.11301321 7:-0.30563038 8:0.48640823 9:-0.089990579 
1 1:-0.39819893 2:-0.55327769 3:-0.50486563 4:-0.12562104 5:0.17528041 6:0.01930456 7:-0.24487766 8:0.35539629 9:-0.020718742 
1 1:-0.56347234 2:-0.66172894 3:-0.59692109 4:-0.20333342 5:0.31992396 6:-0.016223584 7:-0.3831449 8:0.52660527 9:0.011686087 
1 1:-0.62624474 2:-0.67712941 3:-0.68096902 4:-0.22786466 5:0.33996982 6:0.0060857847 7:-0.40273822 8:0.53505942 9:0.039941408 
1 1:-0.62073771 2:-0.65795222 3:-0.66762845 4:-0.22379597 5:0.33116795 6:0.0095544195 7:-0.39467056 8:0.52086281 9:0.044348281 
1 1:-0.62366964 2:-0.67612102 3:-0.70583743 4:-0.18789541 5:0.34227856 6:-0.07603419 7:-0.3952686 8:0.55876202 9:-0.011137998 
1 1:-0.60719865 2:-0.65767627 3:-0.7556228 4:-0.22277734 5:0.35188887 6:-0.019582331 7:-0.41096828 8:0.55604873 9:0.025704961 
1 1:-0.56067954 2:-0.65301621 3:-0.67430677 4:-0.2671248 5:0.34822469 6:0.072976108 7:-0.41769389 8:0.52555203 9:0.085401593 
1 1:-0.57217806 2:-0.70144092 3:-0.62610457 4:-0.21085113 5:0.34226734 6:-0.030590723 7:-0.39734925 8:0.54911283 9:0.007651247 
1 1:-0.58642199 2:-0.70926254 3:-0.59834085 4:-0.2384883 5:0.34959024 6:0.014517882 7:-0.41192687 8:0.54104113 9:0.050172829 
1 1:-0.52693009 2:-0.6496365 3:-0.51286753 4:-0.1854723 5:0.31762947 6:-0.048567108 7:-0.37346237 8:0.52363837 9:-0.0040897595 
1 1:-0.53040226 2:-0.6500979 3:-0.45772425 4:-0.15199051 5:0.32535051 6:-0.12493256 7:-0.37181625 8:0.55945461 9:-0.061143649 
1 1:-0.57321813 2:-0.6418911 3:-0.45750421 4:-0.24209311 5:0.31466226 6:0.067367738 7:-0.38368686 8:0.48676695 9:0.072455535 
1 1:-0.62042228 2:-0.66807991 3:-0.48052917 4:-0.2467092 5:0.30027039 6:0.095339894 7:-0.37494734 8:0.45835737 9:0.096736309 
1 1:-0.57323099 2:-0.6543742 3:-0.45565672 4:-0.21204452 5:0.31327563 6:0.0097172455 7:-0.37543299 8:0.49093246 9:0.048985574 
1 1:-0.52179167 2:-0.62375844 3:-0.52260566 4:-0.23524451 5:0.30012025 6:0.072848059 7:-0.37241215 8:0.4603668 9:0.088434686 
1 1:-0.58649228 2:-0.63767864 3:-0.58154783 4:-0.18832839 5:0.32502912 6:-0.052600133 7:-0.37952618 8:0.53534641 9:-0.0089553144 
1 1:-0.64552236 2:-0.63632271 3:-0.62382864 4:-0.17359652 5:0.32450551 6:-0.081068816 7:-0.37514196 8:0.54794314 9:-0.03696689 
1 1:-0.62870687 2:-0.63040758 3:-0.58433019 4:-0.20778557 5:0.33332896 6:-0.024958242 7:-0.39144485 8:0.54174314 9:0.0063551537 
1 1:-0.62489091 2:-0.60096384 3:-0.61547667 4:-0.215223 5:0.32912877 6:-0.0047422581 7:-0.3906823 8:0.53139638 9:0.020252025 
1 1:-0.62132265 2:-0.59348299 3:-0.49476307 4:-0.20035352 5:0.33776473 6:-0.045471907 7:-0.39556384 8:0.55339838 9:-0.0024921843 
1 1:-0.57776375 2:-0.58489707 3:-0.50965467 4:-0.22847757 5:0.33033931 6:0.019903761 7:-0.39447203 8:0.5226065 9:0.041323439 
1 1:-0.55491159 2:-0.5776552 3:-0.5273728 4:-0.19084145 5:0.33904205 6:-0.065967893 7:-0.39095733 8:0.56231657 9:-0.025461143 
1 1:-0.57374816 2:-0.58357102 3:-0.51546694 4:-0.15591602 5:0.32036795 6:-0.11064256 7:-0.36674475 8:0.5539785 9:-0.06353531 
1 1:-0.6055809 2:-0.5811384 3:-0.51110131 4:-0.15686234 5:0.33301149 6:-0.12531852 7:-0.37631273 8:0.5717633 9:-0.070181015 
1 1:-0.64215943 2:-0.58131563 3:-0.56400199 4:-0.15826162 5:0.35817134 6:-0.15548025 7:-0.39544855 8:0.61118256 9:-0.089235622 
1 1:-0.64540982 2:-0.60561599 3:-0.52704418 4:-0.19257161 5:0.38366095 6:-0.12094412 7:-0.42394272 8:0.62906112 9:-0.056503491 
1 1:-0.6661536 2:-0.60651458 3:-0.54328419 4:-0.22115303 5:0.36753014 6:-0.04326913 7:-0.41801212 8:0.59046855 9:-0.011113738 
1 1:-0.66221355 2:-0.63587083 3:-0.51718582 4:-0.15746469 5:0.36784505 6:-0.16971895 7:-0.40320866 8:0.62887941 9:-0.099524525 
1 1:-0.64440808 2:-0.64565417 3:-0.52906195 4:-0.19515452 5:0.3551124 6:-0.078466371 7:-0.40186737 8:0.58804538 9:-0.041196751 
1 1:-0.62113635 2:-0.64705901 3:-0.50768314 4:-0.23269492 5:0.40646081 6:-0.071383047 7:-0.45248948 8:0.6382241 9:-0.010614378 
1 1:-0.71033135 2:-0.6873401 3:-0.57300361 4:-0.30528468 5:0.4295415 6:0.042060776 7:-0.48362542 8:0.62011363 9:0.081509237 
1 1:-0.67182671 2:-0.67121708 3:-0.52297436 4:-0.30877947 5:0.45551947 6:0.01497518 7:-0.50607846 8:0.65866531 9:0.070679796 
1 1:-0.58769626 2:-0.63095456 3:-0.4981304 4:-0.2542792 5:0.42262671 6:-0.049827278 7:-0.46874076 8:0.64948416 9:0.0064622653 
1 1:-0.57096235 2:-0.62302731 3:-0.49881752 4:-0.25267063 5:0.43866008 6:-0.073996136 7:-0.48065719 8:0.67329705 9:-0.0043038611 
1 1:-0.58938626 2:-0.61684201 3:-0.47879026 4:-0.2748998 5:0.40907765 6:0.0087142841 7:-0.46174188 8:0.61132055 9:0.048979292 
1 1:-0.56357181 2:-0.62704865 3:-0.50113129 4:-0.29668478 5:0.41629418 6:0.042380738 7:-0.47076075 8:0.60925284 9:0.070906165 
1 1:-0.56669594 2:-0.61514989 3:-0.48091891 4:-0.28077788 5:0.39379405 6:0.040351045 7:-0.45194429 8:0.58632075 9:0.06594638 
1 1:-0.57286732 2:-0.62605085 3:-0.41732629 4:-0.26862067 5:0.39994957 6:0.008235472 7:-0.45561764 8:0.60595882 9:0.044218265 
1 1:-0.5902305 2:-0.62791714 3:-0.44469108 4:-0.26962719 5:0.42480505 6:-0.022305154 7:-0.47165503 8:0.63622959 9:0.032389342 
1 1:-0.57471259 2:-0.61690992 3:-0.41548435 4:-0.28627556 5:0.41024524 6:0.029698414 7:-0.46408079 8:0.60035877 9:0.070272714 
1 1:-0.60094585 2:-0.59552694 3:-0.40364481 4:-0.28310422 5:0.41656872 6:0.015145811 7:-0.46478464 8:0.60893739 9:0.058900187 
1 1:-0.60517359 2:-0.59484965 3:-0.46429557 4:-0.27958114 5:0.38938601 6:0.043752246 7:-0.44273608 8:0.57089748 9:0.069808088 
1 1:-0.61946128 2:-0.59773548 3:-0.49049874 4:-0.25306358 5:0.40343708 6:-0.027116306 7:-0.45005562 8:0.61519338 9:0.018780582 
1 1:-0.65249429 2:-0.60331934 3:-0.62225494 4:-0.26587776 5:0.42179431 6:-0.025784531 7:-0.46416826 8:0.63020797 9:0.025771193 
1 1:-0.66434828 2:-0.59025468 3:-0.70349859 4:-0.201068 5:0.41799815 6:-0.14907276 7:-0.44440712 8:0.66834414 9:-0.072580059 
1 1:-0.60392422 2:-0.56403175 3:-0.64906263 4:-0.20514556 5:0.35908729 6:-0.063896948 7:-0.39904859 8:0.56663945 9:-0.015037802 
1 1:-0.5627386 2:-0.54606522 3:-0.58287274 4:-0.18838291 5:0.32117491 6:-0.047447586 7:-0.36879145 8:0.53128718 9:-0.025292943 
1 1:-0.58991581 2:-0.55373222 3:-0.52332047 4:-0.21712141 5:0.35757942 6:-0.038223443 7:-0.40429358 8:0.56790554 9:-0.0059815083 
1 1:-0.59345277 2:-0.55858176 3:-0.45981619 4:-0.21209849 5:0.37390506 6:-0.069531747 7:-0.41833118 8:0.60352068 9:-0.029986527 
1 1:-0.62527487 2:-0.5596495 3:-0.44402716 4:-0.21575266 5:0.37619756 6:-0.065300811 7:-0.42342141 8:0.60586327 9:-0.022864918 
1 1:-0.58696446 2:-0.54628736 3:-0.39117774 4:-0.15000338 5:0.3466705 6:-0.15677004 7:-0.38433 8:0.60240309 9:-0.09930848 
1 1:-0.56699922 2:-0.56520888 3:-0.34383619 4:-0.19763365 5:0.33848373 6:-0.051795535 7:-0.39061056 8:0.56144159 9:-0.024875348 
1 1:-0.51931452 2:-0.55327556 3:-0.34084828 4:-0.14165033 5:0.32399681 6:-0.1436237 7:-0.36484052 8:0.57007467 9:-0.091607286 
1 1:-0.49240857 2:-0.54059442 3:-0.36661055 4:-0.18222914 5:0.32698461 6:-0.067229885 7:-0.37588412 8:0.5505604 9:-0.039335297 
1 1:-0.4505284 2:-0.54086817 3:-0.45625744 4:-0.18957515 5:0.31930932 6:-0.042646378 7:-0.37243993 8:0.53137446 9:-0.017805513 
1 1:-0.45920394 2:-0.5406205 3:-0.47984408 4:-0.17481682 5:0.31563385 6:-0.067042037 7:-0.36465639 8:0.53241154 9:-0.035610178 
1 1:-0.44463241 2:-0.51795132 3:-0.47857019 4:-0.16082729 5:0.31742824 6:-0.097075599 7:-0.35821161 8:0.53733735 9:-0.056440888 
1 1:-0.40024505 2:-0.49229494 3:-0.50612203 4:-0.14946854 5:0.31180396 6:-0.11219286 7:-0.3550818 8:0.54441151 9:-0.07356597 
1 1:-0.41328507 2:-0.50249431 3:-0.46720774 4:-0.13206555 5:0.29059666 6:-0.11887543 7:-0.33363003 8:0.52426733 9:-0.088201837 
1 1:-0.43584434 2:-0.51614371 3:-0.4593714 4:-0.085869003 5:0.27413381 6:-0.18874959 7:-0.30929226 8:0.52778145 9:-0.14428009 
1 1:-0.45682482 2:-0.53521001 3:-0.46690323 4:-0.056311743 5:0.2575877 6:-0.22558602 7:-0.28824726 8:0.52153665 9:-0.17887391 
1 1:-0.46871136 2:-0.52466252 3:-0.507063 4:-0.077319785 5:0.27281396 6:-0.20394077 7:-0.30643504 8:0.52939316 9:-0.15265872 
1 1:-0.50252753 2:-0.51102953 3:-0.51995332 4:-0.089365894 5:0.27455483 6:-0.18238039 7:-0.31142419 8:0.52533565 9:-0.13616723 
1 1:-0.4858577 2:-0.50626382 3:-0.52860428 4:-0.07298619 5:0.29428347 6:-0.24061755 7:-0.32193446 8:0.56873882 9:-0.17919603 
1 1:-0.49447387 2:-0.52070247 3:-0.5338669 4:-0.1062619 5:0.29838624 6:-0.18013572 7:-0.33391187 8:0.55107322 9:-0.12774167 
1 1:-0.53414136 2:-0.52004112 3:-0.51788323 4:-0.12758318 5:0.31668932 6:-0.16189772 7:-0.35543396 8:0.56422223 9:-0.10248725 
1 1:-0.54633477 2:-0.55767095 3:-0.54517755 4:-0.1839361 5:0.33788261 6:-0.078115864 7:-0.38479063 8:0.56447104 9:-0.041562532 
1 1:-0.4590695 2:-0.5484893 3:-0.48474524 4:-0.17280262 5:0.26910851 6:-0.010132666 7:-0.326899 8:0.46323899 9:-0.010897106 
1 1:-0.44313783 2:-0.53153376 3:-0.50256043 4:-0.19302858 5:0.26788945 6:0.03148959 7:-0.33266434 8:0.45060011 9:0.020061364 
1 1:-0.46111577 2:-0.51816019 3:-0.53914196 4:-0.23035598 5:0.27731697 6:0.093020225 7:-0.35101114 8:0.44420167 9:0.067948213 
1 1:-0.53209803 2:-0.22914216 3:-0.80663457 4:0.0047114683 5:0.22064265 6:-0.29799333 7:-0.24970443 8:0.50659361 9:-0.23698225 
1 1:-0.52567276 2:-0.23297938 3:-0.73928154 4:-0.051674672 5:0.18983984 6:-0.14608981 7:-0.23944333 8:0.42344007 9:-0.13392702 
1 1:-0.55241616 2:-0.24395794 3:-0.79412829 4:-0.10201817 5:0.26197595 6:-0.14087778 7:-0.31052561 8:0.49814317 9:-0.097336426 
1 1:-0.62564833 2:-0.29405508 3:-0.88406036 4:-0.057943433 5:0.23882823 6:-0.19780333 7:-0.28018012 8:0.49183909 9:-0.1512611 
0.73269576229946387 1:-0.60791363 2:-0.31827539 3:-0.99521241 4:-0.043146748 5:0.24158109 6:-0.23068872 7:-0.27788398 8:0.50409657 9:-0.17440487 
1 1:-0.61872377 2:-0.34541465 3:-1.1058625 4:0.015977142 5:0.17100572 6:-0.25531973 7:-0.20727363 8:0.43326768 9:-0.21580974 
1 1:-0.25960056 2:-0.275748 3:-0.62925631 4:0.046890737 5:0.1372335 6:-0.27229367 7:-0.16448709 8:0.40055044 9:-0.25617108 
1 1:-0.56862425 2:-0.32379747 3:-0.72986783 4:-0.18657249 5:0.30457995 6:-0.029309799 7:-0.35682641 8:0.51679629 9:-0.028583305 
1 1:-0.56563428 2:-0.39642236 3:-0.79247962 4:-0.064120238 5:0.27219429 6:-0.22925127 7:-0.30715619 8:0.54880017 9:-0.18020519 
1 1:-0.52609476 2:-0.38693312 3:-0.75369232 4:-0.067218238 5:0.27199219 6:-0.22285588 7:-0.30926724 8:0.54469017 9:-0.16964462 
1 1:-0.4541471 2:-0.40459058 3:-0.68317309 4:-0.070457557 5:0.19070185 6:-0.11004721 7:-0.24310007 8:0.41563415 9:-0.11460626 
1 1:-0.41644799 2:-0.39915376 3:-0.58009098 4:-0.015034892 5:0.20357104 6:-0.23657132 7:-0.23717803 8:0.47090653 9:-0.20971412 
1 1:-0.39439737 2:-0.41060067 3:-0.62189732 4:-0.0050268745 5:0.14661157 6:-0.18182463 7:-0.18680733 8:0.39020635 9:-0.19408103 
1 1:-0.41755768 2:-0.40135382 3:-0.54530852 4:0.012886251 5:0.14292613 6:-0.21245052 7:-0.18041552 8:0.39175353 9:-0.20974334 
1 1:-0.38903944 2:-0.40196255 3:-0.55688585 4:0.014433966 5:0.14327679 6:-0.21597238 7:-0.17891423 8:0.3949618 9:-0.21768084 
1 1:-0.33837726 2:-0.36407728 3:-0.64441943 4:0.029240736 5:0.13254953 6:-0.23123406 7:-0.16671593 8:0.38389437 9:-0.22658316 
1 1:-0.37366436 2:-0.35601292 3:-0.60597097 4:-0.0005021232 5:0.13631734 6:-0.17730524 7:-0.177779 8:0.37260096 9:-0.18657712 
1 1:-0.32035249 2:-0.30573508 3:-0.61395842 4:-0.013649727 5:0.13801619 6:-0.15351002 7:-0.18178746 8:0.36691758 9:-0.16969939 
1 1:-0.35879059 2:-0.31588761 3:-0.69116739 4:0.029920243 5:0.20232466 6:-0.32390508 7:-0.22441761 8:0.49354246 9:-0.27024398 
1 1:-0.34516176 2:-0.29818435 3:-0.63839204 4:0.010806333 5:0.20668752 6:-0.29178952 7:-0.23261041 8:0.4878221 9:-0.24457393 
1 1:-0.37394008 2:-0.33662083 3:-0.65582461 4:-0.058307145 5:0.24724242 6:-0.20809659 7:-0.28406218 8:0.50935126 9:-0.16937095 
1 1:-0.39103026 2:-0.32107176 3:-0.67581779 4:-0.14009041 5:0.2280789 6:-0.021167068 7:-0.28949966 8:0.43439483 9:-0.045807885 
1 1:-0.42388804 2:-0.32076812 3:-0.60130904 4:-0.085052533 5:0.22945245 6:-0.13188345 7:-0.27612652 8:0.46551646 9:-0.12032019 
1 1:-0.43633315 2:-0.33501887 3:-0.64743539 4:-0.070147315 5:0.25319099 6:-0.19245107 7:-0.29205462 8:0.5088723 9:-0.15196559 
1 1:-0.5812188 2:-0.33941738 3:-0.61547642 4:-0.10440454 5:0.25956124 6:-0.13299468 7:-0.30746401 8:0.49978562 9:-0.10618783 
1 1:-0.46679214 2:-0.30626924 3:-0.58407373 4:-0.076252418 5:0.24376294 6:-0.16802917 7:-0.28588859 8:0.49568841 9:-0.14510413 
1 1:-0.40717873 2:-0.2756339 3:-0.49349849 4:-0.004464496 5:0.26664385 6:-0.34004373 7:-0.28750059 8:0.57174921 9:-0.255601 
1 1:-0.41324755 2:-0.28696122 3:-0.5066849 4:-0.06443243 5:0.2469295 6:-0.19556523 7:-0.28616009 8:0.50605064 9:-0.16004947 
1 1:-0.39989523 2:-0.29407578 3:-0.55513335 4:-0.04057542 5:0.25363108 6:-0.25154913 7:-0.28596077 8:0.52814959 9:-0.19354769 
1 1:-0.36114053 2:-0.24939336 3:-0.43941216 4:-0.13889461 5:0.22799007 6:-0.023417245 7:-0.28853282 8:0.43255246 9:-0.045068645 
1 1:-0.46169028 2:-0.27570579 3:-0.45791783 4:-0.16423902 5:0.24919924 6:-0.0010212545 7:-0.31273793 8:0.45061027 9:-0.021560494 
1 1:-0.53618132 2:-0.32749866 3:-0.48244052 4:-0.082982315 5:0.23918913 6:-0.14872436 7:-0.28521435 8:0.48105437 9:-0.12460485 
1 1:-0.52170709 2:-0.36231229 3:-0.64425794 4:-0.090536046 5:0.29071784 6:-0.20121989 7:-0.33097429 8:0.55519756 9:-0.1400495 
1 1:-0.31415346 2:-0.35851505 3:-0.78880546 4:-0.35733677 5:0.30994483 6:0.30160657 7:-0.41809192 8:0.41301226 9:0.25470433 
1 1:-0.32973228 2:-0.33520228 3:-0.70778352 4:-0.18436841 5:0.32544246 6:-0.060977837 7:-0.38715408 8:0.53831547 9:0.0025271871 
1 1:-0.59520954 2:-0.4344361 3:-0.67371018 4:-0.074233628 5:0.30789413 6:-0.25596344 7:-0.33812648 8:0.59578228 9:-0.18587081 
1 1:-0.55218413 2:-0.36948177 3:-0.49852999 4:-0.043000752 5:0.26720157 6:-0.26451141 7:-0.29962158 8:0.54946848 9:-0.19693801 
1 1:-0.72731824 2:-0.45661314 3:-0.80945064 4:0.04710609 5:0.24537805 6:-0.41426656 7:-0.25892881 8:0.57394869 9:-0.31855192 
1 1:-0.72849426 2:-0.49796659 3:-0.88010171 4:0.060212974 5:0.24472983 6:-0.43935632 7:-0.25535691 8:0.58021549 9:-0.33539148 
1 1:-0.43548986 2:-0.015901563 3:-0.35116111 4:-0.22311697 5:0.31840838 6:0.024911256 7:-0.38441333 8:0.53025026 9:0.0088780548 
1 1:-0.40437678 2:-0.00027098229 3:-0.35103051 4:-0.23483164 5:0.31224148 6:0.056165936 7:-0.3821012 8:0.5134666 9:0.029175363 
1 1:-0.40133932 2:0.020452666 3:-0.36738377 4:-0.21148713 5:0.24105709 6:0.10313856 7:-0.31818266 8:0.41782412 9:0.038888951 
1 1:-0.28167571 2:0.013121749 3:-0.37281548 4:-0.11130508 5:0.13468967 6:0.044101451 7:-0.2042085 8:0.31399489 9:-0.043658822 
1 1:-0.30824464 2:-0.082314689 3:-0.38601799 4:-0.11782932 5:0.25718487 6:-0.10331702 7:-0.30673401 8:0.49847762 9:-0.10575401 
1 1:-0.20817366 2:-0.14478446 3:-0.34418 4:-0.085705227 5:0.20716933 6:-0.10142616 7:-0.25760361 8:0.43902929 9:-0.11934509 
1 1:-0.26056836 2:-0.18292217 3:-0.35146631 4:-0.11064684 5:0.22859932 6:-0.080116316 7:-0.28367949 8:0.45771293 9:-0.092867618 
1 1:-0.52639713 2:-0.46280835 3:-0.19155129 4:-0.31946637 5:0.46188559 6:0.027791911 7:-0.5241847 8:0.68790122 9:0.064719838 
1 1:-0.80299698 2:-1.1339152 3:-0.70273896 4:-0.028961768 5:0.36263144 6:-0.41719912 7:-0.37477791 8:0.71021717 9:-0.2806507 
1 1:-0.79988659 2:-1.1344671 3:-0.71292285 4:-0.047862832 5:0.3623913 6:-0.37948007 7:-0.37889702 8:0.69947165 9:-0.25596393 
1 1:-0.79149052 2:-1.1355908 3:-0.71063774 4:-0.0485451 5:0.37095516 6:-0.38933883 7:-0.38553378 8:0.7123217 9:-0.26134275 
1 1:-0.80401838 2:-1.133855 3:-0.66807029 4:-0.03145627 5:0.37704506 6:-0.43112807 7:-0.38733151 8:0.73113516 9:-0.28575273 
1 1:-0.78202062 2:-1.1373646 3:-0.65276375 4:-0.010189839 5:0.37548257 6:-0.4711687 7:-0.38096377 8:0.74155404 9:-0.31464571 
1 1:-0.73362191 2:-1.1241244 3:-0.67705387 4:-0.056479058 5:0.37028023 6:-0.37275433 7:-0.38696717 8:0.70579131 9:-0.24857383 
1 1:-0.73357554 2:-1.1308519 3:-0.6648068 4:-0.15236425 5:0.40012452 6:-0.22206208 7:-0.43354434 8:0.69293086 9:-0.13206795 
1 1:-0.73284362 2:-1.1210337 3:-0.81274034 4:-0.064010702 5:0.35187075 6:-0.33375385 7:-0.37253948 8:0.66863311 9:-0.22307339 
1 1:-0.65140495 2:-1.0637554 3:-0.69622463 4:-0.026337746 5:0.34452141 6:-0.3986884 7:-0.35822955 8:0.68172447 9:-0.27255044 
1 1:-0.76134955 2:-1.1235298 3:-0.73025885 4:-0.14438253 5:0.38084339 6:-0.2126213 7:-0.41553618 8:0.6704163 9:-0.13596505 
1 1:-0.727613 2:-1.1294194 3:-0.61023743 4:-0.10308398 5:0.31611289 6:-0.20962655 7:-0.35323074 8:0.59796051 9:-0.15759367 
1 1:-0.68100316 2:-1.0948703 3:-0.58241642 4:-0.0157184 5:0.2949144 6:-0.35477489 7:-0.31533587 8:0.61507052 9:-0.26233236 
1 1:-0.63610748 2:-1.0949412 3:-0.58758922 4:-0.017635978 5:0.28688907 6:-0.34047598 7:-0.30825409 8:0.60193305 9:-0.25745248 
1 1:-0.41216165 2:-0.91640245 3:-0.57166115 4:0.13490303 5:0.16368976 6:-0.48109551 7:-0.16855301 8:0.4935406 9:-0.38688733 
1 1:-0.5118373 2:-0.99904783 3:-0.65739289 4:0.028131978 5:0.22901371 6:-0.35529853 7:-0.24862294 8:0.53460233 9:-0.28116936 
1 1:-0.17056252 2:-0.74648508 3:-0.73552825 4:0.12441607 5:0.17106456 6:-0.46999469 7:-0.17649265 8:0.50079149 9:-0.38116379 
1 1:-0.19787706 2:-0.76711932 3:-0.73453687 4:0.092035704 5:0.19864604 6:-0.44201521 7:-0.20797271 8:0.52596907 9:-0.3531237 
1 1:-0.23428034 2:-0.77293632 3:-0.70835419 4:0.047389948 5:0.22663533 6:-0.3902966 7:-0.24269636 8:0.54567471 9:-0.31011947 
1 1:-0.19814721 2:-0.77813426 3:-0.6907217 4:0.042351799 5:0.18900052 6:-0.33106731 7:-0.2128241 8:0.4841693 9:-0.28041982 
1 1:-0.24245579 2:-0.7887975 3:-0.70524892 4:0.031451007 5:0.18800289 6:-0.30818914 7:-0.21405954 8:0.47664269 9:-0.26657288 
1 1:-0.24469703 2:-0.79167349 3:-0.70075455 4:0.072158767 5:0.15453079 6:-0.3449383 7:-0.17593557 8:0.44797521 9:-0.30326122 
1 1:-0.20426313 2:-0.80075552 3:-0.71617728 4:0.10721589 5:0.15713271 6:-0.41772103 7:-0.17014927 8:0.47110798 9:-0.34997275 
1 1:-0.23685865 2:-0.79359552 3:-0.7367443 4:0.1348855 5:0.13123411 6:-0.43858073 7:-0.14131722 8:0.44624958 9:-0.37296158 
1 1:-0.21913104 2:-0.77741428 3:-0.73423794 4:0.15996794 5:0.11658525 6:-0.46904485 7:-0.12288145 8:0.43673028 9:-0.39720537 
1 1:-0.21113429 2:-0.76522472 3:-0.73593873 4:0.15381064 5:0.12043616 6:-0.46190003 7:-0.12779601 8:0.43902986 9:-0.39038618 
1 1:-0.18256929 2:-0.74153445 3:-0.74285154 4:0.21411291 5:0.077185546 6:-0.52462747 7:-0.076686529 8:0.40232426 9:-0.44215538 
1 1:-0.15913112 2:-0.72732554 3:-0.77427625 4:0.23324058 5:0.11891803 6:-0.61710287 7:-0.10826588 8:0.47673594 9:-0.48761125 
1 1:-0.20151126 2:-0.74055726 3:-0.73458533 4:0.20445558 5:0.16616945 6:-0.62198386 7:-0.15571127 8:0.53501551 9:-0.47578887 
1 1:-0.19517976 2:-0.77679831 3:-0.7815076 4:0.19740329 5:0.15935382 6:-0.59910681 7:-0.1514673 8:0.52069575 9:-0.46321372 
1 1:-0.20017581 2:-0.78265347 3:-0.70126139 4:0.22420857 5:-0.017264 6:-0.42098474 7:0.0079400136 8:0.25675697 9:-0.40094315 
1 1:-0.20388144 2:-0.80807113 3:-0.74954048 4:0.18498162 5:0.11979524 6:-0.52274775 7:-0.12023523 8:0.45296542 9:-0.42703467 
1 1:-0.2456091 2:-0.82208041 3:-0.77513784 4:0.16329717 5:0.097045694 6:-0.45005865 7:-0.1052119 8:0.40785755 9:-0.39087729 
1 1:-0.20108471 2:-0.79014726 3:-0.75575418 4:0.21929467 5:0.033930196 6:-0.47826658 7:-0.037951882 8:0.33869462 9:-0.42778056 
1 1:-0.23754589 2:-0.79161936 3:-0.77157905 4:0.1819447 5:0.073489988 6:-0.45613039 7:-0.080703645 8:0.38142815 9:-0.40248619 
1 1:-0.25939326 2:-0.81636483 3:-0.76613902 4:0.15628727 5:0.080953279 6:-0.41512343 7:-0.093507079 8:0.37859069 9:-0.37150476 
1 1:-0.28321748 2:-0.82261368 3:-0.75058225 4:0.1075142 5:0.112377 6:-0.35973216 7:-0.13071793 8:0.40138452 9:-0.32793022 
1 1:-0.24017857 2:-0.87479477 3:-0.69124591 4:0.067720339 5:0.19805584 6:-0.39312321 7:-0.21220185 8:0.51098055 9:-0.32185545 
1 1:-0.27841754 2:-0.87284869 3:-0.78744771 4:0.028670944 5:0.19124883 6:-0.30693598 7:-0.21782161 8:0.4760869 9:-0.25788562 
1 1:-0.29263545 2:-0.83558479 3:-0.7613241 4:0.091534227 5:0.20142469 6:-0.44465968 7:-0.21017856 8:0.52752872 9:-0.35085264 
1 1:-0.3265364 2:-0.83418232 3:-0.67036736 4:0.0092235477 5:0.21826451 6:-0.30380996 7:-0.2417025 8:0.50091671 9:-0.24519211 
1 1:-0.29579847 2:-0.85097707 3:-0.68456344 4:0.025427841 5:0.20020956 6:-0.31224635 7:-0.22381237 8:0.48660601 9:-0.26112389 
1 1:-0.31986248 2:-0.86898861 3:-0.56068708 4:-0.089680645 5:0.24148065 6:-0.13846783 7:-0.28831536 8:0.48455963 9:-0.12337725 
1 1:-0.28826967 2:-0.87079025 3:-0.73371661 4:0.033380031 5:0.14287036 6:-0.25293421 7:-0.17514994 8:0.4031439 9:-0.2377893 
1 1:-0.37765873 2:-0.8566174 3:-0.81692968 4:0.083528071 5:0.19334659 6:-0.41824255 7:-0.20550928 8:0.51266548 9:-0.33835196 
1 1:-0.44412305 2:-0.8851119 3:-0.74309429 4:-0.074485276 5:0.34103256 6:-0.2988392 7:-0.36635554 8:0.64496962 9:-0.20056137 
1 1:-0.5284828 2:-1.0058812 3:-0.88846555 4:-0.016247791 5:0.28121416 6:-0.33579546 7:-0.30326749 8:0.59444129 9:-0.25664944 
1 1:-0.53370775 2:-0.97034497 3:-0.80490548 4:-0.015486568 5:0.29231665 6:-0.35183357 7:-0.31241939 8:0.61121399 9:-0.26264882 
1 1:-0.17809014 2:-0.87127465 3:-0.69467236 4:0.18989096 5:0.013051158 6:-0.39274951 7:-0.022794336 8:0.28638425 9:-0.38112131 
1 1:-0.31075877 2:-0.97720648 3:-0.82684346 4:0.204206 5:0.11708215 6:-0.55724126 7:-0.11205754 8:0.45687922 9:-0.44996876 
1 1:-0.22012122 2:-0.82769809 3:-0.75185784 4:0.058851801 5:0.24474438 6:-0.43668163 7:-0.2532036 8:0.57560428 9:-0.33298467 
1 1:-0.33701872 2:-0.88110898 3:-0.83066158 4:-0.022320993 5:0.27326503 6:-0.3133724 7:-0.29692595 8:0.57710701 9:-0.24394133 
1 1:-0.59675394 2:-0.96210249 3:-0.67418952 4:-0.098755384 5:0.34420119 6:-0.25495657 7:-0.37497566 8:0.64281417 9:-0.17933573 
1 1:-0.79212695 2:-0.57715664 3:-0.45357117 4:-0.013795305 5:0.29253915 6:-0.35547177 7:-0.31198562 8:0.6102384 9:-0.26209407 
1 1:-1.0299245 2:-0.68774513 3:-0.35710657 4:-0.11643785 5:0.41931561 6:-0.31827809 7:-0.44033973 8:0.7481491 9:-0.20054059 
1 1:-1.0167803 2:-0.67414017 3:-0.39575171 4:-0.1627165 5:0.4495234 6:-0.26623175 7:-0.47598715 8:0.76758302 9:-0.15520074 
1 1:-0.73441076 2:-0.78013889 3:-0.56695573 4:-0.17816331 5:0.29804464 6:-0.037397503 7:-0.35743056 8:0.52265584 9:-0.03609357 
1 1:-0.66727881 2:-0.68793359 3:-0.71095511 4:-0.20076227 5:0.3612804 6:-0.075441867 7:-0.41544898 8:0.60464262 9:-0.037684155 
1 1:-0.3400503 2:-0.62855306 3:-0.47178115 4:0.086579067 5:0.11546772 6:-0.3223474 7:-0.13708829 8:0.39288615 9:-0.30190679 
1 1:-0.711994 2:-0.70030402 3:-0.62841177 4:-0.25818465 5:0.48677945 6:-0.12606582 7:-0.50778848 8:0.71612322 9:-0.011763954 
1 1:-0.69174488 2:-0.71057686 3:-0.58900619 4:-0.23072008 5:0.50509007 6:-0.20438369 7:-0.51676831 8:0.75792267 9:-0.05558755 
1 1:-0.61032822 2:-0.67508229 3:-0.59809641 4:-0.21675474 5:0.44723379 6:-0.15629461 7:-0.46958645 8:0.68122636 9:-0.039289876 
1 1:-0.57515617 2:-0.6597333 3:-0.56257126 4:-0.1616832 5:0.42699748 6:-0.23879322 7:-0.44483699 8:0.68272822 9:-0.09321541 
1 1:-0.54031215 2:-0.6572409 3:-0.68522535 4:-0.12842789 5:0.38414484 6:-0.24851629 7:-0.399111 8:0.64185726 9:-0.12750829 
1 1:-0.57230355 2:-0.66898938 3:-0.67898378 4:-0.13013207 5:0.40280771 6:-0.26957096 7:-0.41435024 8:0.65976543 9:-0.12249699 
1 1:-0.57378826 2:-0.66315265 3:-0.7470193 4:-0.12218063 5:0.36310897 6:-0.23334632 7:-0.38317266 8:0.60505264 9:-0.10569138 
1 1:-0.5280501 2:-0.65548048 3:-0.58776941 4:-0.13355313 5:0.3822347 6:-0.23587344 7:-0.39517847 8:0.63079724 9:-0.11916266 
1 1:-0.5133072 2:-0.66565039 3:-0.52877565 4:-0.18246407 5:0.3888767 6:-0.14777341 7:-0.40999499 8:0.61110434 9:-0.058745338 
1 1:-0.5550576 2:-0.66016431 3:-0.54942509 4:-0.15182727 5:0.4081627 6:-0.23364565 7:-0.42196353 8:0.6690149 9:-0.12044675 
1 1:-0.49007588 2:-0.64232985 3:-0.5656497 4:-0.065378128 5:0.30510087 6:-0.26983224 7:-0.31652375 8:0.54694558 9:-0.15786925 
1 1:-0.59884002 2:-0.6343435 3:-0.57786326 4:-0.15919581 5:0.41595566 6:-0.22926344 7:-0.40119702 8:0.64098027 9:-0.1218398 
1 1:-0.61196941 2:-0.63219491 3:-0.57600632 4:-0.13462975 5:0.45729361 6:-0.33198491 7:-0.40340592 8:0.69702778 9:-0.20113051 
1 1:-0.6525468 2:-0.61765435 3:-0.6119874 4:-0.20848174 5:0.487792 6:-0.22575195 7:-0.42940748 8:0.66802495 9:-0.10342172 
1 1:-0.67709481 2:-0.62321899 3:-0.599516 4:-0.19085433 5:0.4435478 6:-0.19405267 7:-0.38962683 8:0.60382705 9:-0.090380278 
1 1:-0.64472421 2:-0.61854881 3:-0.65441989 4:-0.21949941 5:0.51552114 6:-0.24024197 7:-0.44982111 8:0.69074658 9:-0.094811946 
1 1:-0.57270366 2:-0.60954189 3:-0.62313856 4:-0.12863822 5:0.41799142 6:-0.29240069 7:-0.38795804 8:0.64065456 9:-0.1489954 
1 1:-0.49940873 2:-0.59340525 3:-0.60138266 4:-0.14560228 5:0.44147406 6:-0.28956487 7:-0.41333777 8:0.65463146 9:-0.1169255 
1 1:-0.61262513 2:-0.60584541 3:-0.62691848 4:-0.17574022 5:0.41374882 6:-0.19363401 7:-0.41490097 8:0.6145645 9:-0.053681419 
1 1:-0.5723957 2:-0.58768147 3:-0.55981762 4:-0.18194061 5:0.37874312 6:-0.13554582 7:-0.3803755 8:0.55921571 9:-0.042914184 
1 1:-0.63682572 2:-0.6279751 3:-0.59287269 4:-0.28961659 5:0.52990285 6:-0.12030555 7:-0.51012714 8:0.68917122 9:0.033466259 
1 1:-0.64520665 2:-0.60390632 3:-0.61473911 4:-0.26452069 5:0.54507977 6:-0.18983428 7:-0.50238843 8:0.71886524 9:-0.027144146 
1 1:-0.68833058 2:-0.61748565 3:-0.59981732 4:-0.23994645 5:0.52949536 6:-0.21806817 7:-0.48178525 8:0.70804342 9:-0.053963661 
1 1:-0.67520237 2:-0.62824042 3:-0.58908217 4:-0.2109921 5:0.52754471 6:-0.27281497 7:-0.47825872 8:0.72789234 9:-0.091040871 
1 1:-0.64975853 2:-0.63369764 3:-0.57482754 4:-0.26093384 5:0.52873008 6:-0.17553299 7:-0.50418015 8:0.71952173 9:-0.024385761 
1 1:-0.62040389 2:-0.63045982 3:-0.55642327 4:-0.28877175 5:0.56720357 6:-0.1707991 7:-0.52844175 8:0.73813334 9:-0.0015886837 
1 1:-0.58426965 2:-0.6186383 3:-0.58603585 4:-0.22023809 5:0.48938444 6:-0.20457072 7:-0.46458588 8:0.69019723 9:-0.063160514 
1 1:-0.46982018 2:-0.60304029 3:-0.66138948 4:-0.21272614 5:0.51936883 6:-0.25868223 7:-0.48808098 8:0.72169496 9:-0.061254395 
1 1:-0.43116986 2:-0.58977616 3:-0.68282625 4:-0.1667225 5:0.41831235 6:-0.2174529 7:-0.41612968 8:0.62434379 9:-0.06575542 
1 1:-0.42742587 2:-0.56595253 3:-0.69056862 4:0.0016359838 5:0.29993535 6:-0.39569053 7:-0.2926585 8:0.57351204 9:-0.24747016 
1 1:-0.50471515 2:-0.56344561 3:-0.63175038 4:-0.16836046 5:0.4404157 6:-0.24314175 7:-0.42540473 8:0.65845291 9:-0.097450204 
1 1:-0.49625735 2:-0.5697176 3:-0.67146586 4:-0.13600292 5:0.44172613 6:-0.30889169 7:-0.41959401 8:0.69047388 9:-0.15751838 
1 1:-0.54254712 2:-0.59724396 3:-0.71019561 4:-0.12831509 5:0.39320718 6:-0.2606009 7:-0.38150084 8:0.62845094 9:-0.14420935 
1 1:-0.5262435 2:-0.60992931 3:-0.69265392 4:-0.12598545 5:0.40639236 6:-0.28246884 7:-0.38898627 8:0.6426912 9:-0.14989728 
1 1:-0.63310108 2:-0.6213658 3:-0.58230922 4:-0.16304873 5:0.42815224 6:-0.2376023 7:-0.41818827 8:0.64796474 9:-0.096817535 
1 1:-0.47830321 2:-0.60576731 3:-0.54143367 4:-0.064024959 5:0.33022128 6:-0.30538938 7:-0.33944618 8:0.59101787 9:-0.17598294 
1 1:-0.48439843 2:-0.60698801 3:-0.57357718 4:-0.044156813 5:0.30181428 6:-0.307527 7:-0.31851666 8:0.56117936 9:-0.17501593 
1 1:-0.49969298 2:-0.60671641 3:-0.63500167 4:-0.13157545 5:0.41271812 6:-0.27968594 7:-0.41019845 8:0.65747527 9:-0.12773764 
1 1:-0.50045555 2:-0.58223784 3:-0.67349899 4:-0.26922534 5:0.55945239 6:-0.19050177 7:-0.47035969 8:0.68390312 9:-0.041682448 
1 1:-0.62140918 2:-0.57962217 3:-0.79480008 4:-0.25596309 5:0.52873666 6:-0.18537861 7:-0.48968902 8:0.7074947 9:-0.036639035 
1 1:-0.63311055 2:-0.58765994 3:-0.88012887 4:-0.2061254 5:0.43696409 6:-0.16388816 7:-0.45217677 8:0.65332138 9:-0.0338679 
1 1:-0.69399701 2:-0.56772123 3:-0.88697722 4:-0.21823025 5:0.44558478 6:-0.15121628 7:-0.46380548 8:0.65870664 9:-0.0176487 
1 1:-0.71991494 2:-0.58653435 3:-0.85165872 4:-0.33892937 5:0.57126572 6:-0.076855225 7:-0.55111595 8:0.71457046 9:0.081028935 
1 1:-0.47818915 2:-0.62621883 3:-0.75828384 4:-0.037975619 5:0.2958016 6:-0.31188963 7:-0.31793579 8:0.59214797 9:-0.22258872 
1 1:-0.52963967 2:-0.63943551 3:-0.64751749 4:-0.043935322 5:0.25825555 6:-0.25095278 7:-0.29058847 8:0.53020225 9:-0.18695781 
1 1:-0.54089884 2:-0.59716581 3:-0.58630405 4:-0.064028373 5:0.31258159 6:-0.28229464 7:-0.33885665 8:0.60352397 9:-0.19593547 
1 1:-0.6475124 2:-0.67274939 3:-0.63244245 4:-0.1589232 5:0.33602152 6:-0.12517986 7:-0.38366985 8:0.58857699 9:-0.079989263 
1 1:-0.5507955 2:-0.60071527 3:-0.66870774 4:-0.053170202 5:0.27438592 6:-0.25378968 7:-0.30716839 8:0.55324489 9:-0.18683343 
1 1:-0.70789081 2:-0.69161001 3:-0.77395101 4:-0.14374598 5:0.32284213 6:-0.13796515 7:-0.36962136 8:0.57843029 9:-0.094133148 
1 1:-0.69664158 2:-0.68331389 3:-0.74188859 4:-0.1264047 5:0.29037127 6:-0.1297831 7:-0.3394523 8:0.5370862 9:-0.095234647 
1 1:-0.74198786 2:-0.70850969 3:-0.69540989 4:-0.050212111 5:0.27455669 6:-0.25986718 7:-0.31061939 8:0.54731037 9:-0.17074373 
1 1:-0.68944685 2:-0.67813179 3:-0.54957989 4:-0.1440864 5:0.2521723 6:-0.044794128 7:-0.31090378 8:0.4694341 9:-0.053569423 
1 1:-0.64993182 2:-0.66542575 3:-0.47261008 4:-0.045638261 5:0.23255397 6:-0.21394279 7:-0.27081897 8:0.49547347 9:-0.17624795 
1 1:-0.68712363 2:-0.72137426 3:-0.46678019 4:-0.078301857 5:0.28865495 6:-0.222731 7:-0.32749225 8:0.56252439 9:-0.15828829 
1 1:-0.6845871 2:-0.7323087 3:-0.36355629 4:0.03089781 5:0.28301952 6:-0.43145841 7:-0.29563699 8:0.61602788 9:-0.30489711 
1 1:-0.66590637 2:-0.70771738 3:-0.51088637 4:-0.002677796 5:0.28405931 6:-0.36637406 7:-0.3043866 8:0.59717092 9:-0.25839897 
1 1:-0.66923524 2:-0.66478258 3:-0.52872286 4:0.010124924 5:0.262839 6:-0.36393578 7:-0.28361142 8:0.57293451 9:-0.26549604 
1 1:-0.73593067 2:-0.66079771 3:-0.58067471 4:-0.0017132105 5:0.25378319 6:-0.32865557 7:-0.27843476 8:0.55092583 9:-0.24335805 
1 1:-0.7265455 2:-0.66134301 3:-0.67225725 4:-0.014693513 5:0.25269769 6:-0.3015471 7:-0.28014242 8:0.54331524 9:-0.22839941 
1 1:-0.71664796 2:-0.67363106 3:-0.67789379 4:-0.047649396 5:0.31138711 6:-0.31314481 7:-0.33539508 8:0.61689722 9:-0.223183 
1 1:-0.77039818 2:-0.68314763 3:-0.74550836 4:-0.09554987 5:0.31205432 6:-0.21922425 7:-0.34785141 8:0.58915988 9:-0.15565128 
1 1:-0.72997616 2:-0.67869444 3:-0.71113846 4:-0.11578417 5:0.356091 6:-0.23681918 7:-0.38865876 8:0.63847259 9:-0.14426588 
1 1:-0.70990037 2:-0.68060858 3:-0.70194789 4:-0.12717629 5:0.34616309 6:-0.20128014 7:-0.38248601 8:0.62098091 9:-0.13096968 
1 1:-0.65465834 2:-0.61029316 3:-0.62622844 4:-0.12452314 5:0.34026822 6:-0.19881508 7:-0.37639404 8:0.61061951 9:-0.12817883 
1 1:-0.65369093 2:-0.57708769 3:-0.66215959 4:-0.085291041 5:0.2678326 6:-0.18164592 7:-0.30954963 8:0.52518234 9:-0.13985184 
1 1:-0.60341322 2:-0.60695177 3:-0.58443803 4:-0.11962773 5:0.23273755 6:-0.067759748 7:-0.29110955 8:0.45132512 9:-0.06779098 
1 1:-0.68468452 2:-0.63047125 3:-0.66315666 4:-0.17067226 5:0.27632715 6:-0.023796824 7:-0.34139871 8:0.48714643 9:-0.016410849 
1 1:-0.70870969 2:-0.67774911 3:-0.72864924 4:-0.16968835 5:0.29380303 6:-0.048617546 7:-0.35371808 8:0.5146881 9:-0.031917605 
1 1:-0.75519795 2:-0.73416575 3:-0.74151513 4:-0.1268344 5:0.27487117 6:-0.10864519 7:-0.3276561 8:0.51164111 9:-0.081774083 
1 1:-0.74243319 2:-0.71043131 3:-0.71175616 4:-0.12324551 5:0.24270137 6:-0.073641552 7:-0.29975272 8:0.4645025 9:-0.069470429 
1 1:-0.62687669 2:-0.7122578 3:-0.57185736 4:-0.10527371 5:0.24644479 6:-0.11410693 7:-0.29741661 8:0.48260181 9:-0.10144285 
1 1:-0.65496209 2:-0.73501378 3:-0.51202861 4:-0.10256732 5:0.27324135 6:-0.15453592 7:-0.31854643 8:0.52822554 9:-0.12562203 
1 1:-0.6390262 2:-0.69671183 3:-0.61491309 4:-0.038597287 5:0.2344297 6:-0.23033178 7:-0.27244743 8:0.50031517 9:-0.18009573 
1 1:-0.60269398 2:-0.66213825 3:-0.68920713 4:-0.073843041 5:0.26808123 6:-0.20462665 7:-0.30962955 8:0.53229685 9:-0.15033535 
1 1:-0.67088265 2:-0.64357781 3:-0.82676301 4:-0.019120707 5:0.28667861 6:-0.33726227 7:-0.31248494 8:0.58975928 9:-0.23039432 
1 1:-0.7869647 2:-0.65898891 3:-0.85932535 4:-0.15517055 5:0.30694153 6:-0.09454444 7:-0.36114761 8:0.54375492 9:-0.059917546 
1 1:-0.68618866 2:-0.62375431 3:-0.79430386 4:-0.21523025 5:0.30635849 6:0.025075326 7:-0.37479995 8:0.51066491 9:0.018124367 
1 1:-0.52473267 2:-0.57281383 3:-0.69950312 4:0.0046433476 5:0.28886289 6:-0.38714966 7:-0.30868394 8:0.60504763 9:-0.26121748 
1 1:-0.51096835 2:-0.57769379 3:-0.75062233 4:0.015869398 5:0.28902171 6:-0.40957362 7:-0.30664946 8:0.60759239 9:-0.269275 
1 1:-0.40244224 2:-0.48561282 3:-0.68021123 4:-0.1305286 5:0.45013498 6:-0.33073129 7:-0.43169867 8:0.69910578 9:-0.14516558 
1 1:-0.44651257 2:-0.46550378 3:-0.67113222 4:-0.18882895 5:0.50334302 6:-0.28499852 7:-0.46523114 8:0.71575999 9:-0.10008056 
1 1:-0.45724933 2:-0.43563915 3:-0.65407403 4:-0.19902261 5:0.50947264 6:-0.27284838 7:-0.48389782 8:0.7293663 9:-0.081472853 
1 1:-0.44974237 2:-0.48502181 3:-0.61903888 4:-0.3002549 5:0.55549218 6:-0.13274559 7:-0.53626056 8:0.74307392 9:0.0073410809 
1 1:-0.38669744 2:-0.45473141 3:-0.64705469 4:-0.20049971 5:0.46596772 6:-0.21298314 7:-0.46434571 8:0.69042786 9:-0.064007238 
1 1:-0.65345113 2:-0.62489488 3:-0.74436544 4:-0.083243704 5:0.33771674 6:-0.27716652 7:-0.36651262 8:0.63484235 9:-0.1850729 
1 1:-0.56046186 2:-0.59763336 3:-0.63083373 4:-0.1024145 5:0.31172069 6:-0.20520264 7:-0.34972639 8:0.5810099 9:-0.13953583 
1 1:-0.51738482 2:-0.50835818 3:-0.6987714 4:-0.061337005 5:0.26843474 6:-0.22983848 7:-0.3034392 8:0.5402861 9:-0.17522079 
1 1:-0.60048873 2:-0.52466865 3:-0.69612614 4:-0.027714676 5:0.25576591 6:-0.27979444 7:-0.28571673 8:0.53733109 9:-0.20780193 
1 1:-0.74071095 2:-0.53263561 3:-0.85196115 4:-0.055448774 5:0.32093594 6:-0.31020818 7:-0.34740238 8:0.61389962 9:-0.19362417 
0.038930545946864362 1:-0.5899687 2:-0.51927628 3:-0.63868242 4:0.094552988 5:0.2880274 6:-0.56398508 7:-0.28299359 8:0.66120605 9:-0.39892827 
1 1:-0.43945577 2:-0.49905614 3:-0.59993971 4:-0.26189659 5:0.50923633 6:-0.14811303 7:-0.49346855 8:0.70532022 9:-0.025492123 
1 1:-0.46796347 2:-0.50381645 3:-0.65241654 4:-0.25885327 5:0.53392804 6:-0.18645383 7:-0.50897535 8:0.73595674 9:-0.038976452 
1 1:-0.44284354 2:-0.487981 3:-0.55444431 4:-0.25159336 5:0.53570938 6:-0.20315256 7:-0.51178887 8:0.74795185 9:-0.051058429 
1 1:-0.44644856 2:-0.46856569 3:-0.5347725 4:-0.26615954 5:0.57630639 6:-0.22746248 7:-0.53480231 8:0.78269639 9:-0.055018475 
1 1:-0.49819288 2:-0.49057654 3:-0.52434526 4:-0.24458429 5:0.55507786 6:-0.24237405 7:-0.51714854 8:0.75742116 9:-0.054042862 
1 1:-0.42149694 2:-0.48678867 3:-0.64708543 4:-0.19521496 5:0.47414576 6:-0.23414547 7:-0.46049955 8:0.70378978 9:-0.092040828 
1 1:-0.45722287 2:-0.53385189 3:-0.70477093 4:-0.20091726 5:0.50211195 6:-0.25946475 7:-0.47458022 8:0.72474747 9:-0.094013765 
1 1:-0.95980199 2:-1.2001035 3:-0.64085277 4:-0.3427554 5:0.56627182 6:-0.062747258 7:-0.61017949 8:0.82979672 9:0.0318612 
1 1:-0.89939068 2:-1.176524 3:-0.68316923 4:-0.31952843 5:0.51613389 6:-0.043089034 7:-0.56686358 8:0.76930563 9:0.031971865 
1 1:-0.91923543 2:-1.1626245 3:-0.62915603 4:-0.31773224 5:0.56292419 6:-0.10788587 7:-0.60234992 8:0.84151962 9:-0.0020362202 
1 1:-0.85757386 2:-1.132924 3:-0.59188243 4:-0.28316925 5:0.51921472 6:-0.11907534 7:-0.56013414 8:0.79840774 9:-0.025645057 
1 1:-0.95741473 2:-0.64262026 3:-0.43710206 4:-0.6485262 5:0.61512344 6:0.47842534 7:-0.72427655 8:0.69313915 9:0.47467348 
1 1:-0.90455741 2:-0.57307354 3:-0.47450332 4:-0.59341222 5:0.54277742 6:0.46404739 7:-0.6568386 8:0.623872 9:0.43755472 
1 1:-0.86517143 2:-0.60605239 3:-0.50375883 4:-0.57239579 5:0.51398643 6:0.46013994 7:-0.62954667 8:0.5954819 9:0.42306863 
1 1:-0.83633654 2:-0.63421636 3:-0.4971251 4:-0.56630978 5:0.56961688 6:0.37528308 7:-0.67017622 8:0.68531047 9:0.37343069 
1 1:-0.82708195 2:-0.60389041 3:-0.50551517 4:-0.56982304 5:0.54560766 6:0.41366058 7:-0.65309814 8:0.64616041 9:0.3963789 
1 1:-0.8118485 2:-0.64322531 3:-0.50568068 4:-0.55442701 5:0.55007588 6:0.37734391 7:-0.65219927 8:0.66421617 9:0.36747265 
1 1:-0.8161454 2:-0.62664834 3:-0.48935887 4:-0.56257904 5:0.52211326 6:0.43007589 7:-0.63293571 8:0.61498364 9:0.40095096 
1 1:-0.83821793 2:-0.6036764 3:-0.48593327 4:-0.568386 5:0.55738202 6:0.39540566 7:-0.66126114 8:0.66488255 9:0.38539638 
1 1:-0.8232378 2:-0.56807274 3:-0.47693263 4:-0.56735949 5:0.56001653 6:0.38992599 7:-0.66292923 8:0.66976691 9:0.38156752 
1 1:-0.78615673 2:-0.59860714 3:-0.4753645 4:-0.55821921 5:0.57646265 6:0.35031184 7:-0.6730106 8:0.70118124 9:0.35559042 
1 1:-0.79673795 2:-0.57321012 3:-0.48003055 4:-0.55024686 5:0.53387143 6:0.39028096 7:-0.63884637 8:0.6421097 9:0.3726849 
1 1:-0.82332805 2:-0.55748627 3:-0.47200862 4:-0.58319532 5:0.49379098 6:0.50794507 7:-0.61799907 8:0.55629968 9:0.45761271 
1 1:-0.80738012 2:-0.51253268 3:-0.49682136 4:-0.57991434 5:0.5423263 6:0.43792587 7:-0.65292403 8:0.6335943 9:0.41482679 
1 1:-0.83979463 2:-1.0276836 3:-0.55138293 4:-0.84361473 5:0.83493606 6:0.57679545 7:-0.93756062 8:0.87355973 9:0.64992486 
1 1:-0.76621427 2:-1.0596628 3:-0.30538261 4:-1.0056679 5:0.91329639 6:0.79493149 7:-1.0372697 8:0.8547194 9:0.88632281 
1 1:-0.72627114 2:-1.0373742 3:-0.56045804 4:-1.0326969 5:0.98893689 6:0.74941801 7:-1.0953025 8:0.94762005 9:0.86842423 
1 1:-0.24451226 2:-0.3030312 3:-0.20918881 4:0.14797585 5:0.081703374 6:-0.3996571 7:-0.096430735 8:0.37226885 9:-0.35593635 
1 1:-0.23462449 2:-0.31671656 3:-0.2450094 4:0.15167404 5:0.092670149 6:-0.42132977 7:-0.10470645 8:0.3914298 9:-0.36734041 
1 1:-0.24206541 2:-0.31371546 3:-0.24381411 4:0.131248 5:0.099161695 6:-0.3894037 7:-0.11488157 8:0.39110863 9:-0.34561381 
1 1:-0.24995894 2:-0.30912778 3:-0.25338186 4:0.12965231 5:0.1165378 6:-0.40898887 7:-0.12990888 8:0.41714738 9:-0.35321648 
1 1:-0.25583806 2:-0.30410671 3:-0.2616661 4:0.14367022 5:0.11426112 6:-0.43375009 7:-0.12517811 8:0.42145697 9:-0.36954583 
1 1:-0.2562038 2:-0.314466 3:-0.25969051 4:0.1673971 5:0.089558398 6:-0.44837246 7:-0.097693673 8:0.3963199 9:-0.38930365 
1 1:-0.26337979 2:-0.31731349 3:-0.25776161 4:0.16403424 5:0.10627446 6:-0.46359652 7:-0.11256703 8:0.42096929 9:-0.3951479 
1 1:-0.27339856 2:-0.32371608 3:-0.28352939 4:0.16927767 5:0.1165051 6:-0.48736368 7:-0.11955483 8:0.43936371 9:-0.40809365 
1 1:-0.30654985 2:-0.34700149 3:-0.33191816 4:0.20243088 5:0.11213553 6:-0.54725387 7:-0.10901516 8:0.44934499 9:-0.44504258 
1 1:-0.31220569 2:-0.34968039 3:-0.31198638 4:0.23225845 5:0.12868173 6:-0.62793865 7:-0.11575639 8:0.49036039 9:-0.4923667 
1 1:-0.31379398 2:-0.35406373 3:-0.32144589 4:0.21205453 5:0.12227763 6:-0.57957348 7:-0.11526774 8:0.47050652 9:-0.46366583 
1 1:-0.32858053 2:-0.36117909 3:-0.33396487 4:0.20527067 5:0.13040039 6:-0.57677999 7:-0.12366428 8:0.47925829 9:-0.4592351 
1 1:-0.34268729 2:-0.37348014 3:-0.34112188 4:0.19800955 5:0.14293282 6:-0.57881368 7:-0.13613942 8:0.49509755 9:-0.45689814 
1 1:-0.36126384 2:-0.38588981 3:-0.35479314 4:0.17772577 5:0.14923955 6:-0.54692725 7:-0.14603421 8:0.4943401 9:-0.43510376 
1 1:-0.38396321 2:-0.3877158 3:-0.3622797 4:0.15250391 5:0.16517229 6:-0.51786764 7:-0.16481489 8:0.50077087 9:-0.40551627 
1 1:-0.39004245 2:-0.38899771 3:-0.35179755 4:0.1501011 5:0.1795568 6:-0.53193993 7:-0.17562307 8:0.52126025 9:-0.41362116 
1 1:-0.39997909 2:-0.39022913 3:-0.36973184 4:0.19247786 5:0.17163406 6:-0.60543269 7:-0.16326851 8:0.5335146 9:-0.45776239 
1 1:-0.41576476 2:-0.39306054 3:-0.36566199 4:0.19593432 5:0.1582347 6:-0.59473496 7:-0.15015284 8:0.51779189 9:-0.46161127 
1 1:-0.42679144 2:-0.40483218 3:-0.3744474 4:0.18364104 5:0.16880561 6:-0.58424278 7:-0.1616514 8:0.5263231 9:-0.45037328 
1 1:-0.43197521 2:-0.40325205 3:-0.37892366 4:0.17555052 5:0.16978043 6:-0.56950775 7:-0.16468969 8:0.52594516 9:-0.44346353 
1 1:-0.43731126 2:-0.40991037 3:-0.35077832 4:0.1710054 5:0.18747118 6:-0.5836679 7:-0.18110298 8:0.55094692 9:-0.44661986 
1 1:-0.43194746 2:-0.41660646 3:-0.35535658 4:0.17406066 5:0.18132187 6:-0.58166555 7:-0.17517313 8:0.54313475 9:-0.44730668 
1 1:-0.42606533 2:-0.41918065 3:-0.34673666 4:0.18422672 5:0.17888741 6:-0.59859754 7:-0.17057832 8:0.54401983 9:-0.45822568 
1 1:-0.43489357 2:-0.42680214 3:-0.38650658 4:0.19334612 5:0.16521409 6:-0.59874807 7:-0.15619467 8:0.52610902 9:-0.46144653 
1 1:-0.43045566 2:-0.43487566 3:-0.3845914 4:0.20595703 5:0.18562923 6:-0.65042542 7:-0.17152821 8:0.56473335 9:-0.48725037 
1 1:-0.4410819 2:-0.43039014 3:-0.39476905 4:0.19574959 5:0.17401623 6:-0.6150253 7:-0.16339029 8:0.54151107 9:-0.46947879 
1 1:-0.439903 2:-0.4219699 3:-0.35382712 4:0.15763997 5:0.20030692 6:-0.5740183 7:-0.19364481 8:0.55796851 9:-0.43094363 
1 1:-0.46314128 2:-0.43102403 3:-0.36851183 4:0.10490329 5:0.23824159 6:-0.51930511 7:-0.23505582 8:0.58448855 9:-0.38417721 
1 1:-0.47221767 2:-0.43603771 3:-0.34086352 4:0.1532544 5:0.23379774 6:-0.60917435 7:-0.22153862 8:0.6064329 9:-0.44525196 
1 1:-0.47737713 2:-0.44074693 3:-0.36762379 4:0.13695704 5:0.25198418 6:-0.60072589 7:-0.23913167 8:0.6235505 9:-0.4341424 
1 1:-0.50119129 2:-0.44740847 3:-0.39630171 4:0.14196486 5:0.2119475 6:-0.55823361 7:-0.20322345 8:0.56358602 9:-0.41935268 
1 1:-0.51646534 2:-0.47196055 3:-0.4317561 4:0.12445538 5:0.2212431 6:-0.53574947 7:-0.21293638 8:0.56325219 9:-0.39857217 
1 1:-0.56836678 2:-0.52326507 3:-0.41355458 4:0.099555298 5:0.23610021 6:-0.50591879 7:-0.2311213 8:0.56992424 9:-0.37058984 
1 1:-0.51201157 2:-0.48430913 3:-0.40219428 4:0.089358146 5:0.23510782 6:-0.48443998 7:-0.23372407 8:0.56702241 9:-0.36081118 
1 1:-0.5245359 2:-0.48045354 3:-0.40845766 4:0.11579199 5:0.21532154 6:-0.51085431 7:-0.2112992 8:0.55073376 9:-0.3832506 
1 1:-0.48272101 2:-0.45331123 3:-0.37421415 4:0.15441635 5:0.19015206 6:-0.55434747 7:-0.18222814 8:0.53679339 9:-0.42308272 
1 1:-0.45990271 2:-0.41589174 3:-0.37534361 4:0.17079893 5:0.18537456 6:-0.5805151 7:-0.17469725 8:0.53568407 9:-0.43714669 
1 1:-0.408882 2:-0.39416717 3:-0.37567069 4:0.18676008 5:0.12659251 6:-0.535164 7:-0.12321818 8:0.4584684 9:-0.42904417 
1 1:-0.39311828 2:-0.39345699 3:-0.37553494 4:0.20823588 5:0.10923738 6:-0.55494852 7:-0.1045935 8:0.4461161 9:-0.44944144 
1 1:-0.4056673 2:-0.3952518 3:-0.38528512 4:0.20397974 5:0.11460774 6:-0.55355482 7:-0.109828 8:0.45128219 9:-0.44624535 
1 1:-0.39996408 2:-0.39871223 3:-0.38553271 4:0.2302593 5:0.12251296 6:-0.61590828 7:-0.11076203 8:0.47671051 9:-0.48236118 
1 1:-0.38758213 2:-0.3915412 3:-0.39629389 4:0.25654337 5:0.1112603 6:-0.6531956 7:-0.095795077 8:0.47403217 9:-0.50960294 
1 1:-0.37458086 2:-0.38233872 3:-0.37317433 4:0.22813881 5:0.11738248 6:-0.60499678 7:-0.10734131 8:0.47018042 9:-0.47972817 
1 1:-0.35830296 2:-0.38074829 3:-0.37285569 4:0.2351869 5:0.13075587 6:-0.63644875 7:-0.11772126 8:0.4948422 9:-0.49497328 
1 1:-0.35060588 2:-0.38321035 3:-0.34777669 4:0.24856912 5:0.11229001 6:-0.6387625 7:-0.0987938 8:0.47351245 9:-0.50256355 
1 1:-0.34179341 2:-0.37993165 3:-0.36046082 4:0.25341112 5:0.10240928 6:-0.63541214 7:-0.089157046 8:0.46085907 9:-0.50374317 
1 1:-0.32915507 2:-0.38750347 3:-0.35536771 4:0.25675266 5:0.09515181 6:-0.6325259 7:-0.081947271 8:0.45091565 9:-0.50391202 
1 1:-0.31919514 2:-0.39296299 3:-0.36491988 4:0.25024544 5:0.087187069 6:-0.60922351 7:-0.076672438 8:0.43494818 9:-0.49102271 
1 1:-0.3237517 2:-0.38808 3:-0.36649631 4:0.25041191 5:0.097192419 6:-0.62264861 7:-0.085489496 8:0.45083986 9:-0.49640234 
1 1:-0.31964475 2:-0.36919315 3:-0.35920679 4:0.25394676 5:0.094774983 6:-0.6264799 7:-0.082685686 8:0.44895288 9:-0.49943193 
1 1:-0.32235538 2:-0.37431305 3:-0.37507611 4:0.24379585 5:0.10604744 6:-0.62114562 7:-0.094802012 8:0.46184533 9:-0.49343283 
1 1:-0.31824599 2:-0.36416159 3:-0.37672752 4:0.26671258 5:0.10793413 6:-0.66896669 7:-0.091396265 8:0.47624207 9:-0.52209594 
1 1:-0.30843104 2:-0.37175604 3:-0.38957817 4:0.27039792 5:0.11040074 6:-0.67948833 7:-0.092663307 8:0.48135854 9:-0.52710968 
1 1:-0.30194195 2:-0.36193393 3:-0.35942497 4:0.26384153 5:0.10136337 6:-0.65468472 7:-0.086260328 8:0.46428822 9:-0.51492498 
1 1:-0.30113661 2:-0.35960827 3:-0.35201269 4:0.27372051 5:0.098324996 6:-0.67025814 7:-0.081291671 8:0.46498508 9:-0.52634282 
1 1:-0.29243276 2:-0.34708998 3:-0.31432744 4:0.24835421 5:0.11205437 6:-0.63802878 7:-0.098443761 8:0.4730813 9:-0.502649 
1 1:-0.28833478 2:-0.33420498 3:-0.32236024 4:0.26043449 5:0.085331119 6:-0.6269582 7:-0.072872139 8:0.43875242 9:-0.50465272 
1 1:-0.27088821 2:-0.32989775 3:-0.32393984 4:0.26320755 5:0.093539418 6:-0.64318958 7:-0.079429986 8:0.45249297 9:-0.51152939 
1 1:-0.26538536 2:-0.33124236 3:-0.32421892 4:0.25813887 5:0.09797647 6:-0.63896629 7:-0.084591594 8:0.45671769 9:-0.50707626 
1 1:-0.26131029 2:-0.3236364 3:-0.31601535 4:0.25830082 5:0.10322661 6:-0.6461585 7:-0.08896228 8:0.46470268 9:-0.50990371 
1 1:-0.24616953 2:-0.31754242 3:-0.32650081 4:0.25659829 5:0.10542798 6:-0.64567055 7:-0.091272779 8:0.46772577 9:-0.50960491 
1 1:-0.24888424 2:-0.3274996 3:-0.3516471 4:0.27820886 5:0.096640452 6:-0.67693562 7:-0.078696169 8:0.46485591 9:-0.5315689 
1 1:-0.25895385 2:-0.32505191 3:-0.33947221 4:0.26820672 5:0.094867012 6:-0.65482046 7:-0.079268271 8:0.45692442 9:-0.51850092 
1 1:-0.26395642 2:-0.32387009 3:-0.29843279 4:0.258399 5:0.10221622 6:-0.64503034 7:-0.087800141 8:0.46356214 9:-0.51062289 
1 1:-0.26470257 2:-0.32814809 3:-0.31600515 4:0.23520601 5:0.10570112 6:-0.60369325 7:-0.095882116 8:0.45734364 9:-0.48443854 
1 1:-0.26729623 2:-0.33880187 3:-0.32072466 4:0.24880014 5:0.095577254 6:-0.61734493 7:-0.084175815 8:0.44822786 9:-0.49523518 
1 1:-0.26602772 2:-0.3358229 3:-0.31051989 4:0.25089621 5:0.09950203 6:-0.62662999 7:-0.086971014 8:0.45551357 9:-0.50030544 
1 1:-0.2584648 2:-0.33414892 3:-0.3052037 4:0.24970724 5:0.10126943 6:-0.62659035 7:-0.08884527 8:0.45763142 9:-0.49956238 
1 1:-0.25704489 2:-0.34122155 3:-0.34899575 4:0.23734779 5:0.10483368 6:-0.60679641 7:-0.09460089 8:0.45680936 9:-0.48631393 
1 1:-0.26249822 2:-0.34072636 3:-0.35639638 4:0.23521599 5:0.1088502 6:-0.60783473 7:-0.098664548 8:0.46221238 9:-0.48591725 
1 1:-0.26169709 2:-0.32771885 3:-0.35187512 4:0.24538344 5:0.10739976 6:-0.62605742 7:-0.095615262 8:0.465379 9:-0.49702463 
1 1:-0.26059346 2:-0.32773019 3:-0.35924697 4:0.26915139 5:0.10528694 6:-0.67032822 7:-0.088412099 8:0.47361387 9:-0.52439252 
1 1:-0.25602924 2:-0.32835439 3:-0.37389674 4:0.25212008 5:0.1119924 6:-0.64540023 7:-0.098040332 8:0.47498683 9:-0.50634394 
1 1:-0.26393495 2:-0.32252955 3:-0.36687142 4:0.24307716 5:0.11640742 6:-0.63328319 7:-0.10364253 8:0.47713425 9:-0.49786114 
1 1:-0.26688528 2:-0.32879343 3:-0.38398368 4:0.17706339 5:0.10480316 6:-0.48745514 7:-0.11288321 8:0.41244811 9:-0.38173153 
1 1:-0.26734919 2:-0.33012267 3:-0.38504416 4:0.22117356 5:0.10765216 6:-0.57847702 7:-0.10262933 8:0.44315091 9:-0.44910379 
1 1:-0.24877054 2:-0.32297199 3:-0.35675986 4:0.24582743 5:0.093548971 6:-0.60880724 7:-0.082456277 8:0.4426286 9:-0.49044353 
1 1:-0.24732678 2:-0.32336095 3:-0.36453356 4:0.23329028 5:0.094612568 6:-0.58538866 7:-0.086549141 8:0.43129978 9:-0.46493835 
1 1:-0.23103069 2:-0.31549931 3:-0.34851656 4:0.27196818 5:0.067936625 6:-0.62701601 7:-0.053984235 8:0.41630017 9:-0.51048001 
1 1:-0.23359238 2:-0.32016279 3:-0.33702365 4:0.27150693 5:0.080025792 6:-0.64192632 7:-0.064687676 8:0.43443992 9:-0.51528621 
1 1:-0.21310356 2:-0.30608047 3:-0.33019454 4:0.2791527 5:0.082621765 6:-0.66045489 7:-0.065475135 8:0.44242147 9:-0.52559034 
1 1:-0.20190432 2:-0.29826632 3:-0.33501746 4:0.26523151 5:0.080829328 6:-0.63055914 7:-0.067060389 8:0.43301542 9:-0.50819947 
1 1:-0.21071549 2:-0.29382279 3:-0.36320623 4:0.25013071 5:0.075700433 6:-0.59396199 7:-0.066147364 8:0.41648311 9:-0.48535707 
1 1:-0.19245905 2:-0.29269153 3:-0.34762194 4:0.28841776 5:0.065851677 6:-0.6568404 7:-0.048980989 8:0.42149069 9:-0.52869705 
1 1:-0.18744275 2:-0.28254454 3:-0.35133647 4:0.29805253 5:0.055057958 6:-0.66177985 7:-0.03744202 8:0.40995017 9:-0.53551447 
1 1:-0.18935562 2:-0.28952006 3:-0.36011593 4:0.31563024 5:0.046923338 6:-0.68591857 7:-0.026576339 8:0.40548103 9:-0.55151189 
1 1:-0.19782507 2:-0.29483813 3:-0.36247552 4:0.32622887 5:0.044348811 6:-0.7035233 7:-0.022039532 8:0.40684817 9:-0.56303143 
1 1:-0.1959853 2:-0.29728924 3:-0.36536504 4:0.33596037 5:0.048371334 6:-0.72804663 7:-0.023587964 8:0.41758817 9:-0.57587602 
1 1:-0.19961276 2:-0.3021321 3:-0.35972022 4:0.32487267 5:0.044564717 6:-0.70112201 7:-0.02247074 8:0.40615482 9:-0.56109311 
1 1:-0.21479858 2:-0.31220804 3:-0.37959495 4:0.32273024 5:0.043500383 6:-0.69548912 7:-0.022099393 8:0.40418129 9:-0.55891412 
1 1:-0.22324096 2:-0.32116427 3:-0.36891348 4:0.30881499 5:0.048355012 6:-0.67430524 7:-0.029493396 8:0.40519643 9:-0.54499498 
-1 1:-0.55702098 2:-0.47601219 3:-0.70013125 4:-0.15237336 5:0.18030526 6:0.065669872 7:-0.25355338 8:0.36021109 9:-0.0098114735 
-1 1:-0.50458154 2:-0.50492499 3:-0.6773737 4:-0.071745493 5:0.11856719 6:-0.013083805 7:-0.18116847 8:0.31181724 9:-0.088506812 
-1 1:-0.54122982 2:-0.57463121 3:-0.7211821 4:-0.11968038 5:0.095335864 6:0.11218483 7:-0.17465106 8:0.24341928 9:0.00027623199 
-1 1:-0.5921557 2:-0.63703761 3:-0.65312466 4:-0.18490221 5:0.11827409 6:0.21123416 7:-0.2106145 8:0.23805315 9:0.08340153 
-1 1:-0.42744576 2:-0.51078114 3:-0.64655974 4:-0.14124146 5:0.022785483 6:0.24981239 7:-0.11950728 8:0.11673289 9:0.074784274 
-1 1:-0.32982835 2:-0.44884368 3:-0.59870528 4:-0.18591239 5:-0.0036468088 6:0.37281139 7:-0.11049861 8:0.050355063 9:0.15534142 
-1 1:-0.60854894 2:-0.58923612 3:-0.63531545 4:-0.22438453 5:0.10260283 6:0.30988028 7:-0.2107504 8:0.19218239 9:0.15235365 
-1 1:-0.67857143 2:-0.62207783 3:-0.74998874 4:-0.1688002 5:0.14372373 6:0.14605852 7:-0.22949212 8:0.29136275 9:0.043014005 
-1 1:-0.58000867 2:-0.60103445 3:-0.74439941 4:-0.19973702 5:0.14628915 6:0.20392391 7:-0.2413679 8:0.27342344 9:0.094665881 
-1 1:-0.57198668 2:-0.58560065 3:-0.68105471 4:-0.097618687 5:0.11469197 6:0.043190735 7:-0.18935703 8:0.28344557 9:-0.028936699 
-1 1:-0.54766365 2:-0.51675962 3:-0.74970198 4:-0.084305116 5:0.16500102 6:-0.049004285 7:-0.22616789 8:0.36934357 9:-0.080664082 
-1 1:-0.61159135 2:-0.50333523 3:-0.83617433 4:-0.14001295 5:0.26273765 6:-0.066684019 7:-0.32077293 8:0.48802601 9:-0.060794499 
-1 1:-0.47977821 2:-0.41553707 3:-0.70389125 4:-0.041239742 5:0.19664405 6:-0.17564607 7:-0.24054281 8:0.44304062 9:-0.16097325 
-1 1:-0.69734859 2:-0.82742009 3:-0.7802501 4:-0.15688135 5:0.29660102 6:-0.077624477 7:-0.35264953 8:0.51620994 9:-0.036426942 
-1 1:-0.72417615 2:-0.84865093 3:-0.93836457 4:-0.22753985 5:0.34225519 6:0.0024517491 7:-0.4080297 8:0.54429578 9:0.037163304 
-1 1:-0.70254857 2:-0.77656662 3:-0.98947807 4:-0.14052113 5:0.28971813 6:-0.10099218 7:-0.34254874 8:0.51531312 9:-0.056174996 
-1 1:-0.76418168 2:-0.83228553 3:-1.0538577 4:-0.18948802 5:0.28018389 6:0.0083911394 7:-0.34771465 8:0.48295364 9:0.0030535351 
-1 1:-0.34920556 2:-0.60675295 3:-0.84057594 4:-0.0055892975 5:0.1153002 6:-0.13972922 7:-0.16139531 8:0.33332733 9:-0.16199401 
-1 1:-0.48227761 2:-0.64730245 3:-0.9201077 4:-0.12546946 5:0.2066261 6:-0.022022724 7:-0.26735284 8:0.41004985 9:-0.055606432 
-1 1:-0.35985043 2:-0.62269598 3:-0.88157122 4:-0.077364981 5:0.099720255 6:0.022705127 7:-0.16514452 8:0.26538202 9:-0.052451711 
-1 1:-0.41958674 2:-0.68509422 3:-0.85609209 4:-0.19233956 5:0.13050884 6:0.20993883 7:-0.21964351 8:0.24385939 9:0.093562315 
-1 1:-0.36185354 2:-0.64380144 3:-0.88881451 4:-0.28723089 5:0.12723464 6:0.40201192 7:-0.24560226 8:0.17593619 9:0.24944536 
-1 1:-0.40089269 2:-0.67205466 3:-1.0100455 4:-0.30297301 5:0.17278431 6:0.37354677 7:-0.28594856 8:0.23833385 9:0.24027997 
-1 1:-0.29915236 2:-0.69671524 3:-0.85944305 4:-0.26257156 5:0.099705429 6:0.38924375 7:-0.21027127 8:0.14484341 9:0.22221952 
-1 1:-0.56624998 2:-0.83075219 3:-0.91887823 4:-0.37847858 5:0.27843796 6:0.38468395 7:-0.39259354 8:0.36145116 9:0.27865011 
-1 1:-0.448199 2:-0.7459127 3:-0.77918701 4:-0.21253669 5:0.1585637 6:0.21318842 7:-0.25039088 8:0.27731847 9:0.10767514 
-1 1:-0.50646042 2:-0.74173545 3:-0.87589617 4:-0.26322534 5:0.1777059 6:0.28844541 7:-0.28195978 8:0.27349765 9:0.17931125 
-1 1:-0.34238614 2:-0.67997669 3:-0.55978426 4:0.16824401 5:0.081911679 6:-0.44003993 7:-0.092038221 8:0.38557584 9:-0.3850285 
-1 1:-0.27281041 2:-0.57883749 3:-1.0842898 4:0.25745703 5:0.16499639 6:-0.72533704 7:-0.14403987 8:0.55759889 9:-0.53396619 
-1 1:-0.10882959 2:-0.59675889 3:-0.68713316 4:0.28322967 5:-0.075378673 6:-0.46172172 7:0.072577277 8:0.19888862 9:-0.44927802 
-1 1:-0.008304283 2:-0.53898823 3:-0.5833881 4:0.33353914 5:-0.096160843 6:-0.53408184 7:0.10175665 8:0.19037216 9:-0.49745587 
-1 1:-0.21254253 2:-0.70236647 3:-0.70333669 4:0.29062348 5:-0.07660287 6:-0.47475158 7:0.07587923 8:0.20143995 9:-0.45999188 
-1 1:-0.18596399 2:-0.66051598 3:-0.68079731 4:0.2515129 5:-0.058009505 6:-0.42168892 7:0.049936634 8:0.21076364 9:-0.41978089 
-1 1:-0.13279454 2:-0.64402797 3:-0.61893524 4:0.22798355 5:-0.10613492 6:-0.31213521 7:0.087216237 8:0.12598433 9:-0.37070692 
-1 1:-0.080214954 2:-0.64174347 3:-0.61719809 4:0.24910725 5:-0.14625695 6:-0.30142413 7:0.12818941 8:0.073245728 9:-0.37731002 
-1 1:-0.090203709 2:-0.65268573 3:-0.61542103 4:0.24089009 5:-0.13011703 6:-0.30628758 7:0.11174822 8:0.094437983 9:-0.37470531 
-1 1:-0.25170879 2:-0.74464791 3:-0.60551645 4:0.28752525 5:-0.10295238 6:-0.43413228 7:0.098402791 8:0.15961853 9:-0.4444149 
-1 1:-0.044205841 2:-0.32583073 3:-0.26897887 4:-0.10529378 5:0.37012298 6:-0.27594539 7:-0.40195187 8:0.67080811 9:-0.16491583 
-1 1:0.20242125 2:-0.23325921 3:-0.056778616 4:0.090411291 5:0.098946875 6:-0.3083077 7:-0.11548093 8:0.35784335 9:-0.29456433 
-1 1:0.099311228 2:-0.46660382 3:-0.21143939 4:0.086482881 5:-0.07841657 6:-0.068388505 7:0.024057336 8:0.092455459 9:-0.18863758 
-1 1:-0.1076043 2:-0.38491053 3:-0.34205238 4:-0.071239929 5:0.0060933301 6:0.13312889 7:-0.088992027 8:0.13597252 9:-0.017733689 
-1 1:-0.18257969 2:-0.33007299 3:-0.44741001 4:-0.051313614 5:0.011092962 6:0.087151362 7:-0.098628835 8:0.13765975 9:-0.00013766317 
-1 1:-0.19046183 2:-0.27895143 3:-0.40240305 4:-0.14533298 5:-0.040228834 6:0.3403867 7:-0.075863333 8:0.011512549 9:0.14116954 
-1 1:-0.36523045 2:-0.45575981 3:-0.24997296 4:-0.32462079 5:0.41394488 6:0.10074032 7:-0.48977369 8:0.59802551 9:0.12741276 
-1 1:-0.26597364 2:-0.35259364 3:-0.17903108 4:-0.26110646 5:0.30621283 6:0.11605387 7:-0.38905028 8:0.47320971 9:0.10394958 
-1 1:-0.001563917 2:-0.15269365 3:-0.36812 4:0.028669537 5:0.22632134 6:-0.3528384 7:-0.24198554 8:0.52894552 9:-0.28656014 
-1 1:0.017498367 2:-0.17905328 3:-0.25310122 4:0.034262376 5:0.19734507 6:-0.32598044 7:-0.22186921 8:0.4914469 9:-0.27242803 
-1 1:0.19054909 2:-0.036037304 3:-0.070168428 4:-0.07403988 5:0.12975488 6:-0.023186461 7:-0.19025253 8:0.32392542 9:-0.087665063 
-1 1:0.1721851 2:-0.21682165 3:-0.36589545 4:0.28284936 5:0.06852659 6:-0.64932179 7:-0.052311554 8:0.42207788 9:-0.52262181 
-1 1:0.25447956 2:-0.17607541 3:-0.32614647 4:0.31923643 5:0.033703409 6:-0.67575203 7:-0.014965232 8:0.38622963 9:-0.54693678 
-1 1:-0.00087128573 2:-0.33642614 3:-0.2360823 4:-0.10281873 5:0.25689971 6:-0.13264936 7:-0.30447996 8:0.50685278 9:-0.1229981 
-1 1:-0.12779989 2:-0.44340692 3:-0.36600758 4:-0.12281931 5:0.36322952 6:-0.23224018 7:-0.39675383 8:0.65403232 9:-0.15065611 
-1 1:-0.15252947 2:-0.27028963 3:-0.20696188 4:-0.11127549 5:0.24127666 6:-0.095465167 7:-0.29685604 8:0.46941782 9:-0.082876948 
-1 1:-0.23340285 2:-0.4375247 3:-0.26387888 4:-0.24297806 5:0.48288278 6:-0.15105907 7:-0.52133623 8:0.76764339 9:-0.060601566 
-1 1:-0.09286625 2:-0.40665775 3:-0.32783393 4:-0.14200176 5:0.40392336 6:-0.24754137 7:-0.43382486 8:0.70545327 9:-0.15022821 
-1 1:-0.4028658 2:-0.43169413 3:-0.2323339 4:-0.40556607 5:0.52584954 6:0.11446084 7:-0.5976549 8:0.72404347 9:0.16402192 
-1 1:0.13545177 2:-0.3207429 3:-0.39011668 4:-0.059593729 5:0.22794486 6:-0.18029255 7:-0.26996898 8:0.48683511 9:-0.16509115 
-1 1:0.035488317 2:-0.38631038 3:-0.40426592 4:-0.081306663 5:0.41938682 6:-0.38789506 7:-0.43386408 8:0.76500938 9:-0.23930162 
-1 1:-0.068697569 2:-0.34190292 3:-0.53199458 4:0.10101379 5:0.060227832 6:-0.27861175 7:-0.084430187 8:0.31038179 9:-0.28834895 
-1 1:-0.16013847 2:-0.40598039 3:-0.54913453 4:0.082805982 5:0.091009276 6:-0.28286773 7:-0.11578706 8:0.34363093 9:-0.27264917 
-1 1:-0.056709497 2:-0.33318063 3:-0.49553255 4:0.13539637 5:0.054216702 6:-0.33878626 7:-0.072223633 8:0.31758459 9:-0.324619 
-1 1:-0.11326096 2:-0.36842528 3:-0.46764204 4:0.05888022 5:0.13954217 6:-0.29904229 7:-0.16286575 8:0.4076666 9:-0.27020934 
-1 1:-0.12909544 2:-0.3616338 3:-0.51654982 4:0.072018805 5:0.14186774 6:-0.32808709 7:-0.16270199 8:0.41897351 9:-0.28747768 
-1 1:-0.13706562 2:-0.34270816 3:-0.42876922 4:0.12585507 5:0.12863854 6:-0.41731246 7:-0.14010619 8:0.43156811 9:-0.35351212 
-1 1:-0.10533191 2:-0.31636687 3:-0.55646503 4:0.17547017 5:0.11465933 6:-0.4972026 7:-0.11825243 8:0.43296803 9:-0.40123877 
-1 1:-0.14300092 2:-0.26267587 3:-0.57021077 4:0.1845559 5:0.098933951 6:-0.49460062 7:-0.10170413 8:0.41811249 9:-0.41355319 
-1 1:-0.066435848 2:-0.21890269 3:-0.57098111 4:0.23913919 5:0.090008936 6:-0.59093796 7:-0.08209014 8:0.43379277 9:-0.47798082 
-1 1:0.0063357955 2:-0.18781901 3:-0.48186006 4:0.26329931 5:0.059371939 6:-0.59865052 7:-0.049384267 8:0.3970583 9:-0.4912798 
-1 1:0.16555968 2:-0.13153887 3:-0.45687244 4:0.36003838 5:-0.085688889 6:-0.60022956 7:0.1002631 8:0.22004332 9:-0.53875495 
-1 1:0.14316155 2:-0.50424453 3:-0.75956723 4:0.37304861 5:-0.097596417 6:-0.61039112 7:0.11403032 8:0.20585159 9:-0.54625615 
-0.26957093521287023 1:0.31212955 2:-0.47164013 3:-0.74941857 4:0.51658919 5:-0.28598148 6:-0.64788359 7:0.31658723 8:-0.020394901 9:-0.63050782 
-1 1:0.21127236 2:-0.10512514 3:-0.78336341 4:0.59628096 5:-0.25662182 6:-0.84401946 7:0.30861511 8:0.060022063 9:-0.73424584 
-1 1:0.20242523 2:-0.11364051 3:-0.79650035 4:0.60235013 5:-0.29012553 6:-0.81217834 7:0.34095737 8:0.010199627 9:-0.72719295 
-1 1:0.15774101 2:-0.13879939 3:-0.76522651 4:0.70483325 5:-0.31924995 6:-0.97686993 7:0.38928923 8:0.0064131088 9:-0.82244221 
-1 1:-0.30680049 2:-0.3914239 3:-0.79379968 4:0.22589931 5:0.04256205 6:-0.50263495 7:-0.036739432 8:0.34806565 9:-0.44434059 
-1 1:-0.029808944 2:-0.24190231 3:-0.76080839 4:0.44307256 5:-0.067769762 6:-0.78800587 7:0.10442097 8:0.28567883 9:-0.6456928 
-1 1:0.15315404 2:-0.09923443 3:-0.81916009 4:0.64192573 5:-0.25879872 6:-0.93150008 7:0.32092384 8:0.070761564 9:-0.77602365 
-1 1:0.251705 2:0.048479876 3:-0.81814745 4:0.78025678 5:-0.31636627 6:-1.1299056 7:0.40230568 8:0.037490617 9:-0.89614367 
-1 1:0.29228592 2:0.11536455 3:-0.8096417 4:0.68825242 5:-0.25003005 6:-1.0346565 7:0.32217693 8:0.10362392 9:-0.82783496 
-1 1:0.51626063 2:0.28675159 3:-0.76224826 4:0.67843487 5:-0.26158249 6:-1.0001072 7:0.33067116 8:0.084984054 9:-0.81766721 
-1 1:-0.57954575 2:-0.48876881 3:-0.34663668 4:0.3564924 5:0.48213095 6:-1.3364122 7:-0.39798364 8:1.0822203 9:-0.78908412 
-1 1:-0.52034637 2:-0.526691 3:-0.5124482 4:0.47679523 5:0.36196827 6:-1.4172117 7:-0.27588764 8:0.95277941 9:-0.85024991 
-1 1:-0.4551297 2:-0.46396633 3:-0.4168318 4:0.42011018 5:0.339318 6:-1.2753872 7:-0.26517929 8:0.89633552 9:-0.78811279 
-1 1:-0.54095942 2:-0.55862895 3:-0.48654137 4:0.52818176 5:0.31993897 6:-1.4638936 7:-0.22867736 8:0.91243566 9:-0.88843122 
-1 1:-0.5406002 2:-0.55548624 3:-0.58789574 4:0.56184166 5:0.35501989 6:-1.5764219 7:-0.25496453 8:0.97363106 9:-0.92515251 
-1 1:-0.56960613 2:-0.61199377 3:-0.51080712 4:0.56724548 5:0.33270738 6:-1.5579119 7:-0.23199183 8:0.95248952 9:-0.94147105 
-1 1:-0.50958006 2:-0.59354882 3:-0.44349752 4:0.51106368 5:0.3210748 6:-1.431504 7:-0.23006933 8:0.90795613 9:-0.87881893 
-1 1:-0.5039609 2:-0.5927054 3:-0.42709488 4:0.52630407 5:0.29948754 6:-1.4334095 7:-0.20990393 8:0.88451329 9:-0.88583074 
-1 1:-0.48583437 2:-0.57596135 3:-0.42693259 4:0.59390058 5:0.28745038 6:-1.5514263 7:-0.18739485 8:0.89378521 9:-0.94671007 
-1 1:-0.50115281 2:-0.58687991 3:-0.49824433 4:0.63727505 5:0.28478057 6:-1.6337689 7:-0.17800464 8:0.90854312 9:-0.98840953 
-1 1:-0.46190489 2:-0.56358345 3:-0.49322847 4:0.61836164 5:0.24110843 6:-1.5391788 7:-0.1420011 8:0.83392034 9:-0.95187541 
-1 1:-0.47075414 2:-0.56432879 3:-0.5423368 4:0.58040707 5:0.21208696 6:-1.4260824 7:-0.12260594 8:0.77446082 9:-0.9033621 
-1 1:-0.49570428 2:-0.59029159 3:-0.53219953 4:0.62541667 5:0.19617109 6:-1.4943235 7:-0.099893765 8:0.76798973 9:-0.94109827 
-1 1:-0.46174092 2:-0.55723235 3:-0.44761747 4:0.58717234 5:0.25886814 6:-1.500701 7:-0.16228688 8:0.84669404 9:-0.92864057 
-1 1:-0.46072499 2:-0.55138136 3:-0.50526362 4:0.63625132 5:0.23041046 6:-1.5605798 7:-0.12909715 8:0.82260733 9:-0.96188351 
-1 1:-0.50882403 2:-0.57028638 3:-0.55403554 4:0.62011074 5:0.2546176 6:-1.5603219 7:-0.15316394 8:0.85444862 9:-0.959298 
-1 1:-0.51376535 2:-0.58051198 3:-0.56301039 4:0.61762022 5:0.26767339 6:-1.5724815 7:-0.16555912 8:0.87199364 9:-0.95968149 
-1 1:-0.49313767 2:-0.58543932 3:-0.53554287 4:0.63407976 5:0.29285889 6:-1.6380189 7:-0.18431685 8:0.9156212 9:-0.9858254 
-1 1:-0.50871147 2:-0.57747098 3:-0.41206219 4:0.54611638 5:0.31379837 6:-1.4913486 7:-0.2168143 8:0.90687989 9:-0.9048845 
-1 1:-0.54647879 2:-0.59656193 3:-0.38516018 4:0.55840319 5:0.3126937 6:-1.514218 7:-0.21380368 8:0.91082773 9:-0.91708064 
-1 1:-0.52148899 2:-0.58995988 3:-0.38200268 4:0.61411541 5:0.26811603 6:-1.5661249 7:-0.1644463 8:0.86602205 9:-0.95306565 
-1 1:-0.6600256 2:-0.56864378 3:-0.29228355 4:0.35616646 5:0.44590462 6:-1.2883518 7:-0.36755151 8:1.0292479 9:-0.77332737 
-1 1:-0.5733323 2:-0.54270071 3:-0.58997308 4:0.49636252 5:0.36643016 6:-1.4617749 7:-0.27458984 8:0.96955352 9:-0.87807052 
-1 1:-0.5539452 2:-0.6247508 3:-0.34739783 4:-0.14907003 5:0.36840612 6:-0.18706613 7:-0.40638602 8:0.65073841 9:-0.12561298 
-1 1:-0.42486323 2:-0.53494573 3:-0.32809042 4:-0.071620627 5:0.29690121 6:-0.24674624 7:-0.32463825 8:0.57645579 9:-0.18510274 
-1 1:-0.41695764 2:-0.53605292 3:-0.35476018 4:-0.056690807 5:0.296131 6:-0.27528388 7:-0.32485476 8:0.5909226 9:-0.20630743 
-1 1:-0.4465779 2:-0.58466387 3:-0.36802017 4:-0.0029512854 5:0.25444575 6:-0.32707266 7:-0.27473817 8:0.55246166 9:-0.25337574 
-1 1:-0.59208627 2:-0.70180597 3:-0.37242807 4:-0.079545807 5:0.33373083 6:-0.27926754 7:-0.3624486 8:0.63766846 9:-0.19778931 
-1 1:-0.58075578 2:-0.74555181 3:-0.40549018 4:-0.14625438 5:0.32334373 6:-0.13365761 7:-0.36948678 8:0.58392832 9:-0.10264467 
-1 1:-0.68401405 2:-0.80847545 3:-0.47908806 4:-0.050497605 5:0.33062482 6:-0.33268785 7:-0.35233761 8:0.6510211 9:-0.23889007 
-1 1:-0.7114691 2:-0.83978173 3:-0.46245462 4:-0.090539337 5:0.32291735 6:-0.24335822 7:-0.35584715 8:0.61506968 9:-0.17774294 
-1 1:-0.33417161 2:-0.62667009 3:-0.57787637 4:0.2088454 5:0.0012091274 6:-0.41476026 7:-0.010739775 8:0.28063902 9:-0.39769082 
-1 1:-0.75878935 2:-0.7814606 3:-0.45582397 4:-0.1118376 5:0.35473618 6:-0.24285607 7:-0.38718622 8:0.65170021 9:-0.16714227 
-1 1:-0.78862763 2:-0.84013394 3:-0.45156073 4:-0.13896157 5:0.38131571 6:-0.22396745 7:-0.41552813 8:0.67516045 9:-0.14308383 
-1 1:-0.77720955 2:-0.83742762 3:-0.39875342 4:-0.13670109 5:0.35137712 6:-0.18925527 7:-0.39002134 8:0.63205835 9:-0.13181871 
-1 1:-0.78778491 2:-0.83751649 3:-0.42999514 4:-0.15694087 5:0.40370298 6:-0.21768879 7:-0.43736981 8:0.70026029 9:-0.13505245 
-1 1:-0.82774186 2:-0.85904244 3:-0.43777997 4:-0.16683814 5:0.40307102 6:-0.19727519 7:-0.43869047 8:0.6941276 9:-0.12311429 
-1 1:-0.76637038 2:-0.83664992 3:-0.45626843 4:-0.12341432 5:0.37635494 6:-0.24824209 7:-0.40615528 8:0.67682803 9:-0.16515085 
-1 1:-0.37533844 2:-0.60248175 3:-0.40735508 4:0.18328341 5:0.094625555 6:-0.48644329 7:-0.097307147 8:0.41167107 9:-0.41309138 
-1 1:-0.42829556 2:-0.64138058 3:-0.4048963 4:0.096034345 5:0.17784985 6:-0.422709 7:-0.18792703 8:0.49278385 9:-0.34530123 
-1 1:-0.33355502 2:-0.56070956 3:-0.3785528 4:0.13501231 5:0.11967048 6:-0.42369643 7:-0.13059868 8:0.42684454 9:-0.36629278 
-1 1:-0.29484509 2:-0.54936749 3:-0.39585977 4:0.15669035 5:0.10768521 6:-0.45090963 7:-0.1149768 8:0.41932677 9:-0.38765742 
-1 1:-0.2795014 2:-0.53991965 3:-0.39370365 4:0.13393764 5:0.10979422 6:-0.40864298 7:-0.12180448 8:0.41059528 9:-0.36033012 
-1 1:-0.28286288 2:-0.53630845 3:-0.38949083 4:0.1348211 5:0.11107516 6:-0.4120679 7:-0.12316737 8:0.41351441 9:-0.3618543 
-1 1:-0.22958498 2:-0.4955668 3:-0.37993336 4:0.22965922 5:0.028267506 6:-0.49136609 7:-0.029807098 8:0.33547288 9:-0.43996406 
-1 1:-0.31384922 2:-0.56163377 3:-0.36526035 4:0.068767151 5:0.17679278 6:-0.36736434 7:-0.19388823 8:0.47586576 9:-0.30752782 
-1 1:-0.12513147 2:-0.32581624 3:-0.36106547 4:0.31744501 5:-0.1539623 6:-0.4265776 7:0.1518656 8:0.095498223 9:-0.46005819 
-1 1:-0.11227246 2:-0.30760383 3:-0.34684925 4:0.34025292 5:-0.17069741 6:-0.44980986 7:0.17185554 8:0.080708504 9:-0.47965733 
-1 1:-0.12878368 2:-0.33406039 3:-0.36581878 4:0.31969377 5:-0.11800739 6:-0.47808799 7:0.12048352 8:0.15200821 9:-0.47912717 
-1 1:-0.14470621 2:-0.32656 3:-0.36499876 4:0.33419152 5:-0.13078858 6:-0.49004981 7:0.13494643 8:0.13906055 9:-0.48994335 
-1 1:-0.14318804 2:-0.32320312 3:-0.38054883 4:0.32727242 5:-0.14915348 6:-0.45231989 7:0.14926178 8:0.10769107 9:-0.47287401 
-1 1:-0.14372598 2:-0.3119764 3:-0.36544404 4:0.29712064 5:-0.13759472 6:-0.40777914 7:0.1321114 8:0.11113639 9:-0.44222139 
-1 1:-0.13417081 2:-0.31181391 3:-0.35099266 4:0.30341891 5:-0.12872363 6:-0.43185433 7:0.12564493 8:0.12796054 9:-0.45390499 
-1 1:-0.13776841 2:-0.31807192 3:-0.34117801 4:0.2746033 5:-0.10305195 6:-0.40842972 7:0.096267812 8:0.15347053 9:-0.4307535 
-1 1:-0.13616891 2:-0.33422404 3:-0.34698927 4:0.25363907 5:-0.074456268 6:-0.40436997 7:0.06595364 8:0.18770747 9:-0.41870962 
-1 1:-0.13424747 2:-0.33792206 3:-0.35200073 4:0.20083502 5:-0.028753868 6:-0.35969038 7:0.013287464 8:0.23246736 9:-0.37574726 
-1 1:-0.15092422 2:-0.34810463 3:-0.33657979 4:0.23031542 5:-0.056392466 6:-0.38185612 7:0.04451707 8:0.20455222 9:-0.39916628 
-1 1:-0.14508652 2:-0.3538019 3:-0.36804361 4:0.192097 5:-0.0083514984 6:-0.36910201 7:-0.0066484524 8:0.25912591 9:-0.37402852 
-1 1:-0.14236224 2:-0.36874631 3:-0.36604699 4:0.17720149 5:0.0082685524 6:-0.36137757 7:-0.024620065 8:0.27744672 9:-0.36392971 
-1 1:-0.1733211 2:-0.38972976 3:-0.36057249 4:0.18213386 5:-0.018308321 6:-0.33635306 7:-0.00056839233 8:0.23857782 9:-0.35596336 
-1 1:-0.1842825 2:-0.39406513 3:-0.35062837 4:0.17107515 5:-0.0091776317 6:-0.326419 7:-0.010839286 8:0.24657767 9:-0.34649332 
-1 1:-0.2553775 2:-0.4395546 3:-0.34463654 4:-0.16421364 5:0.44373932 6:-0.25569836 7:-0.46958549 8:0.75449037 9:-0.14896786 
-1 1:-0.24275473 2:-0.43081231 3:-0.31651905 4:-0.18593776 5:0.4387949 6:-0.20623529 7:-0.47201704 8:0.73683403 9:-0.11745927 
-1 1:-0.2562546 2:-0.44240972 3:-0.32866332 4:-0.11381929 5:0.33519856 6:-0.21336224 7:-0.3714507 8:0.62012702 9:-0.15273333 
-1 1:-0.25820878 2:-0.46784798 3:-0.36902449 4:-0.12822632 5:0.33281707 6:-0.18173402 7:-0.37260247 8:0.6081496 9:-0.13239825 
-1 1:-0.27382647 2:-0.46128142 3:-0.39668219 4:-0.066455333 5:0.32439545 6:-0.2929545 7:-0.35053417 8:0.63176963 9:-0.2138363 
-1 1:-0.22705829 2:-0.42486346 3:-0.40057547 4:0.035430202 5:0.18642258 6:-0.31399545 7:-0.21124815 8:0.47739424 9:-0.27356817 
-1 1:-0.22542238 2:-0.40719887 3:-0.36943204 4:0.11205719 5:0.099559999 6:-0.35194689 7:-0.11953897 8:0.38463779 9:-0.32620225 
-1 1:-0.21825102 2:-0.38674094 3:-0.36445409 4:0.15848347 5:0.040884296 6:-0.36702473 7:-0.057935732 8:0.31907148 9:-0.35667821 
-1 1:-0.19529205 2:-0.36774794 3:-0.38103041 4:0.18343363 5:0.01773476 6:-0.38610084 7:-0.031612153 8:0.29577186 9:-0.3767628 
-1 1:-0.15726722 2:-0.36815962 3:-0.35066958 4:0.18898611 5:0.004037364 6:-0.37916099 7:-0.017383652 8:0.27484118 9:-0.37513896 
-1 1:-0.18384608 2:-0.36442116 3:-0.38648799 4:0.19728758 5:0.00065634399 6:-0.3911641 7:-0.011951969 8:0.27320037 9:-0.38402411 
-1 1:-0.19151288 2:-0.36459601 3:-0.3913453 4:0.19233305 5:0.038007328 6:-0.43024663 7:-0.045577071 8:0.32860268 9:-0.39675146 
-1 1:-0.18482423 2:-0.36497654 3:-0.40133171 4:0.22249852 5:0.013233632 6:-0.45751791 7:-0.016702549 8:0.30550579 9:-0.42246592 
-1 1:-0.19650409 2:-0.37479742 3:-0.42430923 4:0.23178286 5:-0.0062134373 6:-0.45043777 7:0.0022963488 8:0.28037579 9:-0.4245164 
-1 1:-0.60483445 2:-0.64906781 3:-0.53256948 4:0.015947659 5:0.067353501 6:-0.11959453 7:-0.11587131 8:0.27705004 9:-0.1728019 
-1 1:-0.64340666 2:-0.69616845 3:-0.60946974 4:-0.064178324 5:0.22479662 6:-0.16709913 7:-0.26715402 8:0.47690239 9:-0.15609958 
-1 1:-0.75957555 2:-0.77907537 3:-0.61025468 4:-0.074119379 5:0.32998685 6:-0.28510593 7:-0.35731569 8:0.63050626 9:-0.19778513 
-1 1:-0.84137767 2:-0.8614551 3:-0.65702535 4:-0.1918926 5:0.42996426 6:-0.18289267 7:-0.46832397 8:0.71349238 9:-0.090228082 
-1 1:-0.85014635 2:-0.92517042 3:-0.70797554 4:-0.18598284 5:0.6559139 6:-0.49032573 7:-0.64962675 8:1.0533574 9:-0.22044188 
-1 1:-0.2165488 2:-0.27141174 3:-0.33385385 4:0.37817633 5:-0.14089682 6:-0.56386432 7:0.16173122 8:0.13154005 9:-0.53461224 
-1 1:-0.27304244 2:-0.26189773 3:-0.30657566 4:0.29008982 5:-0.031642045 6:-0.53254316 7:0.043534148 8:0.260793 9:-0.48130617 
-1 1:-0.15752027 2:-0.24336369 3:-0.34291444 4:0.41928846 5:-0.15764823 6:-0.62329887 7:0.17894884 8:0.13705756 9:-0.57882259 
-1 1:0.50033411 2:0.26433966 3:-0.1964812 4:0.55645886 5:-0.16622313 6:-0.88353229 7:0.2161665 8:0.18465661 9:-0.72778923 
-1 1:0.49150636 2:0.24859763 3:-0.14557538 4:0.56701544 5:-0.16542255 6:-0.90547135 7:0.21763204 8:0.18999977 9:-0.73884799 
-1 1:0.51606288 2:0.27564482 3:-0.13924263 4:0.58573141 5:-0.17279441 6:-0.93286101 7:0.22805796 8:0.18614188 9:-0.75484223 
-1 1:0.4796647 2:0.24415208 3:-0.14399826 4:0.55343796 5:-0.15826136 6:-0.8879749 7:0.2081119 8:0.19512166 9:-0.72663725 
-1 1:0.48962379 2:0.23513838 3:-0.15600798 4:0.56489014 5:-0.17273723 6:-0.89169149 7:0.22385221 8:0.1779544 9:-0.73380392 
-1 1:0.40965253 2:0.19942793 3:-0.1748278 4:0.50346549 5:-0.11503355 6:-0.84566002 7:0.1594155 8:0.23838018 9:-0.68971628 
-1 1:0.50236435 2:0.22032222 3:-0.18057268 4:0.55987105 5:-0.19831341 6:-0.84828305 7:0.2460538 8:0.13595223 9:-0.71728406 
-1 1:0.43881443 2:0.19803525 3:-0.19901139 4:0.50507196 5:-0.14089835 6:-0.81498562 7:0.18259051 8:0.20146785 9:-0.68284842 
-1 1:0.45814647 2:0.19513563 3:-0.1743614 4:0.49882987 5:-0.17642859 6:-0.75612837 7:0.21308924 8:0.14421517 9:-0.66082316 
-1 1:0.3687554 2:0.17783376 3:-0.099779755 4:0.39547849 5:-0.13405947 6:-0.60705405 7:0.15198992 8:0.16061556 9:-0.55779818 
-1 1:0.23494758 2:0.14217808 3:-0.11313419 4:0.2415763 5:0.0049423358 6:-0.48442016 7:-0.0067053643 8:0.30082875 9:-0.43633869 
-1 1:0.27076709 2:0.15221957 3:-0.11997954 4:0.29544475 5:-0.023019276 6:-0.55442649 7:0.029959905 8:0.2848949 9:-0.48904341 
-1 1:0.27770165 2:0.15798737 3:-0.124135 4:0.27415141 5:0.0045200936 6:-0.54833284 7:0.00084696904 8:0.31747902 9:-0.47703347 
-1 1:0.34807332 2:0.19463113 3:-0.16567067 4:0.30369446 5:-0.023854207 6:-0.56965965 7:0.032720767 8:0.28900043 9:-0.50095409 
-1 1:0.4055782 2:0.20207073 3:-0.16425584 4:0.3382747 5:-0.02421637 6:-0.63761906 7:0.040426473 8:0.30481553 9:-0.54071888 
-1 1:-0.15875401 2:-0.4282472 3:-0.69378566 4:0.44857651 5:-0.12654248 6:-0.72197245 7:0.15773891 8:0.1972803 9:-0.62468916 
-1 1:-0.26420328 2:-0.50923721 3:-0.71153187 4:0.38190704 5:-0.0247725 6:-0.72323848 7:0.051812824 8:0.3249473 9:-0.59463094 
-1 1:-0.29098728 2:-0.51656692 3:-0.71157635 4:0.38088734 5:-0.037148049 6:-0.70502258 7:0.062486402 8:0.30503732 9:-0.58711235 
-1 1:-0.31962912 2:-0.54203537 3:-0.71216937 4:0.39116255 5:-0.055663543 6:-0.70112267 7:0.080905857 8:0.281853 9:-0.59086562 
-1 1:-0.29790476 2:-0.53140251 3:-0.68473565 4:0.33010204 5:-0.020499983 6:-0.62630982 7:0.035835147 8:0.30805122 9:-0.53597594 
-1 1:-0.34002542 2:-0.54638036 3:-0.70983231 4:0.31480974 5:-0.0037207403 6:-0.61800851 7:0.017608077 8:0.32716681 9:-0.52653351 
-1 1:-0.6241978 2:-0.64872272 3:-0.68127761 4:0.066477594 5:0.18663579 6:-0.37571654 7:-0.20418886 8:0.49176173 9:-0.30981617 
-1 1:-0.58991956 2:-0.63991395 3:-0.68315447 4:0.10143263 5:0.17532825 6:-0.43009163 7:-0.18630077 8:0.49351149 9:-0.34978616 
-1 1:-0.60917748 2:-0.64852771 3:-0.67347154 4:0.071884447 5:0.19172247 6:-0.39307435 7:-0.20742188 8:0.50320595 9:-0.32019754 
-1 1:-0.64011687 2:-0.66455095 3:-0.68555803 4:0.060993105 5:0.20383716 6:-0.38737715 7:-0.22026449 8:0.51709287 9:-0.31417065 
-1 1:-0.67530614 2:-0.67520308 3:-0.68428563 4:0.046025039 5:0.21532253 6:-0.37278854 7:-0.23402628 8:0.52715438 9:-0.30049786 
-1 1:-0.64192833 2:-0.65498086 3:-0.63308743 4:0.059516301 5:0.17657824 6:-0.34877632 7:-0.19783181 8:0.47538188 9:-0.29856923 
-1 1:-0.68251637 2:-0.65988412 3:-0.6758044 4:0.021538295 5:0.21500407 6:-0.32391306 7:-0.23931453 8:0.51408958 9:-0.26989796 
-1 1:-0.69488277 2:-0.66308124 3:-0.6837742 4:0.030826431 5:0.21463125 6:-0.34180608 7:-0.2372993 8:0.51793479 9:-0.27986205 
-1 1:-0.68474451 2:-0.667297 3:-0.68505933 4:0.023210475 5:0.22611633 6:-0.34176672 7:-0.24859328 8:0.53113393 9:-0.27603913 
-1 1:-0.66726222 2:-0.66644433 3:-0.67599767 4:0.072362573 5:0.2279949 6:-0.4414963 7:-0.23869286 8:0.56105172 9:-0.34149819 
-1 1:-0.68290943 2:-0.66149565 3:-0.65947429 4:0.060925183 5:0.21373718 6:-0.40020054 7:-0.22920792 8:0.53333324 9:-0.3198084 
-1 1:-0.67397392 2:-0.64758871 3:-0.65278491 4:0.071031929 5:0.21540899 6:-0.42238972 7:-0.2280003 8:0.54163731 9:-0.3347611 
-1 1:-0.67990013 2:-0.63074942 3:-0.62884204 4:0.067863713 5:0.22185392 6:-0.42455545 7:-0.23442239 8:0.54934674 9:-0.33289267 
-1 1:-0.83702261 2:-0.79241805 3:-0.77781059 4:0.022643806 5:0.29499832 6:-0.43080258 7:-0.30474766 8:0.63630982 9:-0.31623588 
-1 1:-0.82554936 2:-0.80750533 3:-0.75375305 4:0.013426025 5:0.30638899 6:-0.42746968 7:-0.3164193 8:0.64848189 9:-0.31008685 
-1 1:-0.61681893 2:-0.71562525 3:-0.68613971 4:0.096934029 5:0.13102933 6:-0.36320767 7:-0.14525514 8:0.41589671 9:-0.319301 
-1 1:-0.64595502 2:-0.72905088 3:-0.68017643 4:0.04407018 5:0.14894092 6:-0.2820353 7:-0.17534594 8:0.41432658 9:-0.25412049 
-1 1:-0.60637805 2:-0.7134406 3:-0.67256684 4:0.064993387 5:0.14501291 6:-0.31830057 7:-0.16715081 8:0.41925644 9:-0.27861201 
-1 1:-0.6772409 2:-0.69658208 3:-0.64956883 4:0.010985664 5:0.26873992 6:-0.37336269 7:-0.28500486 8:0.58752174 9:-0.28442355 
-1 1:-0.64981975 2:-0.703006 3:-0.65396417 4:0.012398562 5:0.24387698 6:-0.34361652 7:-0.26248592 8:0.54481509 9:-0.26751173 
-1 1:-0.80963827 2:-0.80147244 3:-0.71806443 4:-0.057624726 5:0.36605454 6:-0.36495622 7:-0.38397489 8:0.69862594 9:-0.24409523 
-1 1:-0.72726841 2:-0.71956841 3:-0.74027806 4:0.0034197481 5:0.30512882 6:-0.40601811 7:-0.31793858 8:0.63550199 9:-0.28748371 
