svm_type c_svc
kernel_type linear
nr_class 2
total_sv 120
rho 1.8598658734162021
label 1 -1
probA -2.5669475454012529
probB 0.36191371695203017
nr_sv 61 59
SV
1 1:-0.052798402 2:0.5931337 3:0.60205949 4:-0.87491673 5:0.20409111 6:1.4644328 7:-0.47068679 8:-0.16544197 9:1.2304672 
0.14830995549149345 1:0.60961657 2:0.19233356 3:0.78876122 4:0.31549881 5:-0.79559188 6:0.41708098 7:0.72205192 8:-0.90873262 9:-0.14728575 
1 1:0.60509242 2:0.027588005 3:0.58487329 4:0.45977023 5:-1.010603 6:0.41299211 7:0.95419837 8:-1.1753063 9:-0.23295119 
1 1:1.0566374 2:0.54148106 3:0.88496428 4:0.28512373 5:-0.77083001 6:0.44478255 7:0.68873183 8:-0.88904467 9:-0.10718568 
1 1:0.95237036 2:0.15159562 3:0.45509407 4:0.41960511 5:-1.1666339 6:0.69670149 7:1.0839278 8:-1.4291013 9:-0.12389793 
1 1:-0.37502431 2:1.5594554 3:1.0577217 4:-1.8361798 5:1.356777 6:1.8580372 7:-1.5209793 8:0.64032393 9:2.2172651 
1 1:-0.35225994 2:0.68797481 3:0.75194881 4:-0.90217227 5:0.64666314 6:0.93910338 7:-0.81940365 8:0.52112592 9:0.93080351 
1 1:-0.50647765 2:0.66019294 3:0.67578519 4:-1.138363 5:0.80700202 6:1.1966568 7:-0.99401287 8:0.54123946 9:1.2652803 
1 1:0.30720705 2:0.6598736 3:0.69134192 4:-0.95055856 5:0.58599354 6:1.114267 7:-0.78190239 8:0.29418694 9:1.1922272 
1 1:0.32890282 2:0.70309894 3:0.60833201 4:-0.49977441 5:0.11847111 6:0.83410054 7:-0.30398085 8:-0.022531986 9:0.66844692 
1 1:0.83408278 2:0.058934643 3:0.43220622 4:0.09633754 5:-0.61060479 6:0.6086724 7:0.4911597 8:-0.73169571 9:0.069797057 
1 1:0.24568835 2:0.090682816 3:0.30426229 4:0.19943046 5:-0.37725534 6:0.099230923 7:0.31599541 8:-0.31148413 9:-0.19351252 
1 1:0.20852807 2:0.29459703 3:0.65088068 4:-0.083023435 5:-0.33810757 6:0.60696098 7:0.19753715 8:-0.40722455 9:0.19715319 
1 1:0.21877363 2:0.34380894 3:0.78595587 4:-0.14871387 5:-0.25474813 6:0.6278544 7:0.10716135 8:-0.31822161 9:0.25262213 
1 1:0.18658847 2:0.29451477 3:0.73988476 4:-0.10997553 5:-0.29551816 6:0.6045547 7:0.15331071 8:-0.35699126 9:0.2142996 
1 1:0.14993866 2:0.30149097 3:0.6889288 4:-0.17839046 5:-0.18170395 6:0.59097859 7:0.036426509 8:-0.2221531 9:0.25650331 
1 1:1.009672 2:0.87679858 3:1.1648974 4:0.40872128 5:-0.83983329 6:0.2905021 7:0.78171268 8:-0.9849361 9:-0.15778199 
1 1:0.92852668 2:0.68964835 3:0.85744212 4:0.56236541 5:-0.97711021 6:0.16612127 7:0.95526815 8:-1.1006076 9:-0.34700855 
1 1:0.036127472 2:0.31473494 3:0.76531478 4:-0.62560797 5:0.2914353 6:0.85673511 7:-0.4581431 8:0.11694664 9:0.781541 
1 1:-0.79300177 2:-0.16405145 3:0.57443865 4:-1.3313551 5:0.93343696 6:1.4130971 7:-1.1106656 8:0.49586248 9:1.5767822 
0.51098543441646671 1:-0.63228205 2:-0.05928205 3:0.42882068 4:-1.6830391 5:1.0762439 6:1.9221558 7:-1.3051896 8:0.36977639 9:2.1717017 
1 1:-0.50271251 2:-0.22046912 3:0.29302976 4:-1.580471 5:1.0521811 6:1.7506712 7:-1.2727838 8:0.45864689 9:1.9709989 
0.12549109915438697 1:0.71951882 2:1.3849085 3:1.601741 4:-1.3665839 5:1.0935358 6:1.2732661 7:-1.1784849 8:0.6495058 9:1.4883864 
1 1:0.42610797 2:1.2845405 3:1.4817024 4:-1.485768 5:1.1332518 6:1.4571455 7:-1.1763707 8:0.44159839 9:1.7952085 
1 1:0.47550372 2:0.1456165 3:0.47379831 4:0.17815222 5:-0.66343484 6:0.51591063 7:0.56017125 8:-0.77031912 9:-0.016480995 
1 1:0.28314493 2:0.36745679 3:1.1278252 4:0.40201781 5:-0.40601078 6:-0.26404739 7:0.40668062 8:-0.27801555 9:-0.43296696 
1 1:0.19602776 2:0.39086072 3:1.2290207 4:0.33093073 5:-0.40475902 6:-0.12500623 7:0.38445921 8:-0.30962527 9:-0.33924868 
0.31501068378232366 1:0.080179878 2:0.32846565 3:1.2406632 4:0.25005267 5:-0.30371719 6:-0.097200752 7:0.27204668 8:-0.18740944 9:-0.28748629 
1 1:0.24779367 2:0.34856878 3:1.2686994 4:0.41895675 5:-0.47236017 6:-0.21072669 7:0.46535787 8:-0.3640504 9:-0.42669208 
1 1:0.21310453 2:0.26381636 3:1.0724466 4:0.43558208 5:-0.4643421 6:-0.25412237 7:0.46069846 8:-0.34194155 9:-0.45006003 
1 1:0.28296724 2:0.29131506 3:1.0236589 4:0.5978668 5:-0.56837081 6:-0.43912019 7:0.59528326 8:-0.4373523 9:-0.58824558 
1 1:0.44526797 2:0.42965149 3:1.19064 4:0.50319123 5:-0.50804314 6:-0.3307204 7:0.51501835 8:-0.37951572 9:-0.50723239 
1 1:0.42631909 2:0.48673354 3:1.1776971 4:0.57200667 5:-0.53524244 6:-0.43130422 7:0.55992578 8:-0.39580985 9:-0.57660752 
1 1:0.26564003 2:0.42519851 3:1.1340938 4:0.53930739 5:-0.67064751 6:-0.18936608 7:0.6737451 8:-0.61173178 9:-0.49102961 
1 1:0.27022665 2:0.31638718 3:1.0357344 4:0.54181594 5:-0.57073094 6:-0.32510783 7:0.583171 8:-0.45650016 9:-0.53429071 
1 1:0.25087123 2:0.26324193 3:0.909543 4:0.48666651 5:-0.4709571 6:-0.34655906 7:0.4780767 8:-0.32292871 9:-0.51480822 
1 1:0.27491693 2:0.31665868 3:0.94394169 4:0.51786368 5:-0.45719698 6:-0.42630763 7:0.47201193 8:-0.29108361 9:-0.5498169 
1 1:0.28051543 2:0.61760558 3:1.3553653 4:0.32620271 5:-0.33752703 6:-0.20364724 7:0.31779542 8:-0.19365883 9:-0.37365504 
1 1:0.33363394 2:0.64261834 3:1.3350686 4:0.35844482 5:-0.28398464 6:-0.33753338 7:0.27942149 8:-0.10776695 9:-0.42210956 
1 1:0.39625586 2:0.49314094 3:1.2550644 4:0.61285618 5:-0.43212532 6:-0.64711087 7:0.47360762 8:-0.22231949 9:-0.65608837 
1 1:0.86090137 2:0.018364294 3:0.40234124 4:0.25912672 5:-1.0059437 6:0.80396225 7:0.88529827 8:-1.2659678 9:0.046633156 
1 1:1.0091419 2:0.97447083 3:0.44136855 4:0.0075164674 5:-0.71201038 6:0.91717342 7:0.54409884 8:-0.95248097 9:0.2897741 
1 1:0.77585572 2:1.3067516 3:0.96894234 4:-0.37565452 5:-0.10653244 6:0.88296986 7:-0.085628144 8:-0.24775495 9:0.54968116 
1 1:0.8328645 2:1.1570838 3:0.71939133 4:-0.19562399 5:-0.36083168 6:0.85953751 7:0.18349144 8:-0.52533608 9:0.40329339 
1 1:0.83622207 2:1.1084107 3:0.63848194 4:-0.052195165 5:-0.49985079 6:0.75765279 7:0.36364344 8:-0.68349682 9:0.26389937 
1 1:0.19607868 2:0.24019019 3:0.45114856 4:-0.10915411 5:-0.40548082 6:0.7468555 7:0.24587582 8:-0.52666401 9:0.27502176 
1 1:0.16006121 2:0.1447082 3:0.36720679 4:-0.053135896 5:-0.39946423 6:0.62812194 7:0.26070597 8:-0.48711052 9:0.18484475 
1 1:0.10520426 2:0.2513518 3:0.81136834 4:0.13831644 5:-0.58158673 6:0.48761645 7:0.48108376 8:-0.66687129 9:-0.0062061551 
1 1:0.076494436 2:0.21145654 3:0.77617414 4:-0.071634688 5:-0.3230541 6:0.56471996 7:0.2111388 8:-0.40818246 9:0.17018672 
1 1:0.082779555 2:0.1916557 3:0.75469925 4:0.016124678 5:-0.46779023 6:0.58048655 7:0.35157649 8:-0.56656698 9:0.11405177 
1 1:-0.24586741 2:0.041634449 3:0.70563515 4:-0.26895006 5:-0.16568196 6:0.74922317 7:0.06873918 8:-0.34013935 9:0.36565898 
1 1:0.27102353 2:0.12464605 3:0.61238929 4:-0.92166771 5:0.38184397 6:1.3242972 7:-0.46805207 8:-0.26866678 9:1.379493 
1 1:0.5058157 2:0.13833611 3:0.60741832 4:-0.69277173 5:0.13706565 6:1.1916997 7:-0.27498644 8:-0.30051191 9:1.0240411 
1 1:0.054484953 2:-0.005388336 3:0.66020472 4:0.32197607 5:-0.85325561 6:0.47973673 7:0.77371461 8:-0.99117126 9:-0.13174787 
1 1:0.057325653 2:-0.093035497 3:0.51422439 4:0.26368479 5:-0.65767994 6:0.3391114 7:0.57868728 8:-0.71705389 9:-0.13488061 
1 1:0.097938629 2:-0.039119683 3:0.59279888 4:0.29726419 5:-0.86698978 6:0.54661712 7:0.77778154 8:-1.0255857 9:-0.088721336 
1 1:1.2229275 2:0.92588213 3:1.0375173 4:0.22617707 5:-0.61260679 6:0.35434354 7:0.53170122 8:-0.68650038 9:-0.082511507 
1 1:1.110133 2:0.94261187 3:0.70576968 4:0.06814246 5:-0.50689302 6:0.52872496 7:0.38596871 8:-0.62023815 9:0.12258587 
1 1:0.080516831 2:-0.016212102 3:0.60113471 4:-0.5979422 5:0.31248489 6:0.77443415 7:-0.48751664 8:0.25021836 9:0.64336609 
1 1:0.050931748 2:-0.10676745 3:0.39355447 4:-0.53251266 5:0.32118146 6:0.63356805 7:-0.47496355 8:0.31192194 9:0.52478502 
1 1:0.052365854 2:-0.13415978 3:0.46154589 4:-0.60386781 5:0.35345105 6:0.73254157 7:-0.52021379 8:0.30001399 9:0.63709436 
-1 1:0.92965324 2:0.36312504 3:0.34616159 4:0.65349141 5:-1.011885 6:0.031300656 7:1.0166355 8:-1.0985997 9:-0.47815036 
-1 1:0.93941188 2:0.40915746 3:0.31721361 4:0.70323955 5:-1.124883 6:0.080749628 7:1.135696 8:-1.2533538 9:-0.49508403 
-1 1:1.5223165 2:0.11524121 3:0.30481793 4:1.0405569 5:-1.6764033 6:0.13507298 7:1.7423211 8:-1.9695139 9:-0.6896374 
-1 1:1.5382606 2:0.24097826 3:0.50734959 4:0.99503864 5:-1.5645964 6:0.07881236 7:1.6262678 8:-1.8153895 9:-0.67804005 
-1 1:1.1413805 2:-0.090487116 3:0.033229723 4:0.61409696 5:-1.0617605 6:0.17454169 7:1.0519725 8:-1.1874899 9:-0.41886626 
-1 1:1.5125919 2:0.47639703 3:0.70295944 4:0.49246372 5:-1.079433 6:0.43838176 7:1.0295965 8:-1.286667 9:-0.22367711 
-1 1:1.6681165 2:0.69264899 3:0.67021638 4:1.1082252 5:-1.452083 6:-0.29244605 7:1.5506241 8:-1.6179532 9:-0.81565618 
-1 1:1.7194176 2:0.82274148 3:0.81315523 4:1.2519728 5:-1.5411001 6:-0.46040749 7:1.6672921 8:-1.7193471 9:-0.90747458 
-1 1:0.43581622 2:-0.053685225 3:0.15035202 4:-0.071674542 5:-0.075593831 6:0.24090652 7:-0.015566727 8:-0.0069701827 9:0.0429379 
-1 1:0.5227196 2:-0.063471445 3:0.11485797 4:-0.050812219 5:-0.14801129 6:0.29440524 7:0.051264173 8:-0.10319879 9:0.047447856 
-1 1:0.27856028 2:-0.060382487 3:0.17927547 4:-0.11857057 5:-0.00081072917 6:0.23583155 7:-0.09392261 8:0.090478804 9:0.060665373 
-1 1:0.47431225 2:-0.01096347 3:0.10797996 4:0.005672078 5:-0.18521915 6:0.23132432 7:0.10038834 8:-0.12579913 9:-0.021291521 
-1 1:1.0405242 2:0.26562178 3:0.23312312 4:0.24925461 5:-0.56377521 6:0.24475967 7:0.49640279 8:-0.60665853 9:-0.12833082 
-1 1:0.94377873 2:0.2326369 3:0.26862795 4:0.58482682 5:-0.84978552 6:-0.044980261 7:0.85991 8:-0.88590466 9:-0.46930889 
-1 1:1.1394834 2:0.44809353 3:0.48257127 4:0.74812219 5:-1.1244279 6:-0.0086677234 7:1.1520651 8:-1.2315052 9:-0.56197035 
-0.98768863005001817 1:1.0406161 2:0.10937141 3:0.13565421 4:0.62650002 5:-0.9546582 6:0.0098137877 7:0.96181193 8:-1.0274396 9:-0.47020432 
-1 1:1.5987795 2:0.94245892 3:0.83103749 4:1.1566544 5:-1.4962037 6:-0.33053798 7:1.6078927 8:-1.6636937 9:-0.86676068 
-1 1:1.5797626 2:0.73091573 3:0.71988697 4:1.0027955 5:-1.5503979 6:0.044877751 7:1.6086211 8:-1.8054099 9:-0.6561328 
-1 1:1.5887268 2:0.78153067 3:0.85144382 4:0.92004025 5:-1.5236995 6:0.17370378 7:1.5570822 8:-1.8006738 9:-0.55560865 
-1 1:1.546671 2:0.7583622 3:1.0131652 4:0.83417173 5:-1.4719181 6:0.27586055 7:1.4844295 8:-1.7498457 9:-0.47999842 
-1 1:1.5422035 2:0.6012538 3:0.63003965 4:0.79032508 5:-1.5012771 6:0.40105886 7:1.495028 8:-1.8160917 9:-0.40295807 
-1 1:0.99147249 2:0.026954137 3:0.11575021 4:0.65136078 5:-1.1858114 6:0.26316355 7:1.1702103 8:-1.3767679 9:-0.38240007 
-1 1:0.9254455 2:0.02232092 3:0.17231657 4:0.48688294 5:-1.1420362 6:0.53136519 7:1.0794446 8:-1.3706504 9:-0.20203772 
-1 1:0.61868539 2:0.029873664 3:0.26802924 4:0.3431758 5:-0.77655507 6:0.33739226 7:0.71036411 8:-0.87033601 9:-0.18036103 
-1 1:0.62659013 2:-0.12414402 3:-0.001016664 4:0.31987514 5:-0.76463707 6:0.36790465 7:0.69252863 8:-0.86033272 9:-0.15809516 
-1 1:0.56224175 2:-0.26728691 3:-0.25439779 4:0.32375179 5:-0.76683383 6:0.36310812 7:0.69717603 8:-0.85829153 9:-0.17085465 
-1 1:0.72565408 2:0.0091756947 3:0.2374449 4:0.80981556 5:-1.1447204 6:-0.10419722 7:1.1830889 8:-1.243299 9:-0.60909336 
-1 1:0.76000862 2:0.057590783 3:0.21063445 4:0.71806353 5:-1.179448 6:0.12283154 7:1.1909477 8:-1.3241796 9:-0.50442458 
-1 1:0.68155511 2:0.018675963 3:0.31227411 4:0.60415124 5:-1.2233254 6:0.40569088 7:1.1866784 8:-1.4461164 9:-0.3129712 
-1 1:1.5163294 2:0.71667238 3:0.45815622 4:0.72926638 5:-1.1508468 6:0.063226334 7:1.1468926 8:-1.3634572 9:-0.3536385 
-1 1:1.9643838 2:1.2427755 3:1.1058194 4:1.4867637 5:-1.8896454 6:-0.46885379 7:2.0584145 8:-2.1674476 9:-1.0533391 
-1 1:0.70095154 2:-0.57807419 3:-0.3539814 4:0.25436355 5:-0.70467789 6:0.41907192 7:0.61514779 8:-0.80447235 9:-0.080145572 
-1 1:0.66385003 2:-0.53806971 3:-0.40517226 4:0.27123671 5:-0.64502952 6:0.30760864 7:0.56388162 8:-0.70448139 9:-0.12278715 
-1 1:0.61159526 2:-0.61022822 3:-0.20712796 4:0.10688283 5:-0.49765806 6:0.4399714 7:0.39024172 8:-0.55521839 9:0.016329386 
-1 1:0.58572986 2:-0.65277193 3:-0.2780122 4:0.34067886 5:-0.54866073 6:0.044050516 7:0.50342033 8:-0.51283738 9:-0.28343348 
-1 1:-0.76621427 2:-1.0596628 3:-0.30538261 4:-1.0056679 5:0.91329639 6:0.79493149 7:-1.0372697 8:0.8547194 9:0.88632281 
-1 1:-0.49937868 2:-1.4568898 3:-0.70177043 4:-0.17716334 5:0.0081131365 6:0.34010503 7:-0.1159088 8:0.073463009 9:0.13204546 
-1 1:-0.52258069 2:-1.5692939 3:-0.85598297 4:-0.41822373 5:-0.041858015 6:0.88256311 7:-0.14100915 8:-0.18630253 9:0.57332347 
-1 1:-0.32485201 2:-1.5045973 3:-0.76849739 4:-0.50398561 5:-0.10489204 6:1.1347868 7:-0.12288812 8:-0.34954938 9:0.77986646 
-1 1:-0.038670411 2:-1.5027507 3:-0.84315204 4:-0.70042068 5:-0.29556258 6:1.7730891 7:-0.062535085 8:-0.79095925 9:1.3146375 
-1 1:-0.57819302 2:-2.4464668 3:-1.4262254 4:-1.8241351 5:0.55258792 6:2.8867767 7:-1.1001367 8:-0.5521176 9:3.1236202 
-1 1:-0.85982282 2:-1.4917712 3:-0.99054809 4:0.055035677 5:-1.3136086 6:1.6105455 7:1.0598381 8:-1.8160618 9:0.50568024 
-1 1:-2.8626559 2:-2.4584569 3:-1.2354011 4:-1.1691379 5:0.91339438 6:1.1183064 7:-1.0766635 8:0.68907448 9:1.2165475 
-1 1:-2.8114401 2:-2.3580037 3:-1.1956055 4:-1.2011024 5:0.95935616 6:1.1214055 7:-1.1220193 8:0.73771831 9:1.2384315 
-1 1:-1.9413721 2:3.0518998 3:3.4281265 4:-2.4217675 5:2.576871 6:1.4199614 7:-2.2399683 8:1.726532 9:2.0924752 
-0.12383970486437806 1:-2.2033978 2:3.2300623 3:3.385816 4:-2.5668599 5:2.7170976 6:1.5235577 7:-2.3057614 8:1.7063909 9:2.2600034 
-1 1:-0.36227892 2:3.6238902 3:3.7302451 4:-1.6277045 5:1.7534486 6:0.9262798 7:-1.6622971 8:1.4540584 9:1.2941812 
-1 1:-0.76432033 2:3.5392346 3:3.6253928 4:-2.2574359 5:2.5967311 6:1.0687589 7:-2.1907623 8:1.933119 9:1.6804724 
-1 1:-0.76239653 2:3.4625593 3:3.6535233 4:-2.2012811 5:2.4969795 6:1.0881914 7:-2.1672555 8:1.8916487 9:1.6934708 
-1 1:-0.90884677 2:3.2997531 3:3.4917414 4:-1.8343751 5:2.2415361 6:0.69643482 7:-1.9473658 8:1.9098755 9:1.2070521 
-1 1:-1.1473699 2:2.734042 3:3.2397451 4:-1.778581 5:2.0840922 6:0.79209254 7:-1.8344375 8:1.7202376 9:1.2551434 
-1 1:-0.82183919 2:1.942532 3:2.5587087 4:-1.4388524 5:1.6239225 6:0.72207864 7:-1.3399556 8:1.1709608 9:1.0449232 
-1 1:-0.91246286 2:1.5458683 3:2.2355082 4:-1.4722177 5:1.7145582 6:0.66947773 7:-1.4004796 8:1.2767697 9:1.0129029 
-1 1:-0.071634041 2:1.3208918 3:2.268217 4:-0.69500367 5:0.6631344 6:0.50756318 7:-0.68478498 8:0.5770504 9:0.56599895 
-1 1:0.0021246757 2:1.367399 3:2.3288314 4:-0.60307151 5:0.59021992 6:0.42106701 7:-0.63401305 8:0.56371468 9:0.47994991 
-1 1:-0.16727733 2:1.4047462 3:2.2692611 4:-0.83182916 5:0.8176623 6:0.57608113 7:-0.84258945 8:0.72141225 9:0.67938788 
-1 1:0.075832935 2:1.6249343 3:2.4776151 4:-0.74533453 5:0.76117853 6:0.47884009 7:-0.76933289 8:0.69970657 9:0.55892039 
-1 1:-1.2932453 2:2.346879 3:2.913316 4:-2.1240883 5:2.3527654 6:1.1241858 7:-1.9107239 8:1.5632161 9:1.6494914 
-0.98826883793027387 1:-0.61769873 2:1.7808277 3:2.1880738 4:-1.8534547 5:2.0772814 6:0.94918022 7:-1.7776638 8:1.5434734 9:1.4012145 
