svm_type c_svc
kernel_type linear
nr_class 2
total_sv 7
rho 5.1043852473254905
label 1 -1
probA -2.1457088902803445
probB 1.0606751172764604
nr_sv 2 5
SV
0.37112707920554006 1:-2.4926014 2:-1.9866326 3:-1.0299405 4:-1.0434144 5:0.99899583 6:0.75746176 7:-1.1034269 8:0.95214403 9:0.87861574 
1 1:-2.5090258 2:-2.1326523 3:-0.87091787 4:-0.45758151 5:0.93108774 6:-0.31300437 7:-0.91046916 8:1.2899258 9:-0.029941025 
-0.13300201554666516 1:-1.0624415 2:-0.94977934 3:-0.53971715 4:-1.7599455 5:2.0010012 6:0.86396835 7:-1.8577952 8:1.7071431 9:1.3235171 
-0.044621532713646841 1:-0.57819302 2:-2.4464668 3:-1.4262254 4:-1.8241351 5:0.55258792 6:2.8867767 7:-1.1001367 8:-0.5521176 9:3.1236202 
-0.12085466975396925 1:-1.6370843 2:-1.6099027 3:-0.88820817 4:-0.1959202 5:0.45849875 6:-0.21226998 7:-0.4940457 8:0.75440636 9:-0.09776881 
-1 1:-1.617903 2:-1.6582701 3:-1.0590872 4:-0.12341683 5:0.5119156 6:-0.42566785 7:-0.51578441 8:0.88103003 9:-0.24193326 
-0.072648861191258823 1:-3.3317398 2:2.4856268 3:2.2912921 4:-2.9940859 5:3.3628111 6:1.5238751 7:-2.6436529 8:2.0591561 9:2.4374375 
