svm_type c_svc
kernel_type linear
nr_class 2
total_sv 1017
rho 1.0010090784366033
label 1 -1
probA -3592.5424739455625
probB -3591.5277932092222
nr_sv 481 536
SV
1 1:-1.6291237 2:-0.63189747 3:-1.6544099 4:-0.55951375 5:0.4619849 6:0.50270974 7:-0.51781145 8:0.29353976 9:0.64177013 
1 1:-0.90164615 2:-0.54671431 3:-1.2216549 4:-0.42277546 5:0.17608014 6:0.60631905 7:-0.33017146 8:-0.017794913 9:0.71604193 
1 1:-0.30919461 2:-0.33843983 3:-0.90493944 4:-0.47915241 5:-0.012192176 6:0.96431085 7:-0.26229093 8:-0.33254021 9:1.045479 
1 1:-0.3215163 2:-0.30056052 3:-0.94551947 4:-0.71312541 5:0.11883886 6:1.2558356 7:-0.41452548 8:-0.3731511 9:1.4241414 
1 1:-0.65374592 2:-0.36742018 3:-1.2372163 4:-0.82705894 5:0.47725696 6:1.0121859 7:-0.65587382 8:0.11921012 9:1.1910173 
1 1:-0.55702098 2:-0.47601219 3:-0.70013125 4:-0.15237336 5:0.18030526 6:0.065669872 7:-0.25355338 8:0.36021109 9:-0.0098114735 
1 1:-0.50458154 2:-0.50492499 3:-0.6773737 4:-0.071745493 5:0.11856719 6:-0.013083805 7:-0.18116847 8:0.31181724 9:-0.088506812 
1 1:-0.54122982 2:-0.57463121 3:-0.7211821 4:-0.11968038 5:0.095335864 6:0.11218483 7:-0.17465106 8:0.24341928 9:0.00027623199 
1 1:-0.5921557 2:-0.63703761 3:-0.65312466 4:-0.18490221 5:0.11827409 6:0.21123416 7:-0.2106145 8:0.23805315 9:0.08340153 
1 1:-0.42744576 2:-0.51078114 3:-0.64655974 4:-0.14124146 5:0.022785483 6:0.24981239 7:-0.11950728 8:0.11673289 9:0.074784274 
1 1:-0.32982835 2:-0.44884368 3:-0.59870528 4:-0.18591239 5:-0.0036468088 6:0.37281139 7:-0.11049861 8:0.050355063 9:0.15534142 
1 1:-0.60854894 2:-0.58923612 3:-0.63531545 4:-0.22438453 5:0.10260283 6:0.30988028 7:-0.2107504 8:0.19218239 9:0.15235365 
1 1:-0.67857143 2:-0.62207783 3:-0.74998874 4:-0.1688002 5:0.14372373 6:0.14605852 7:-0.22949212 8:0.29136275 9:0.043014005 
1 1:-0.58000867 2:-0.60103445 3:-0.74439941 4:-0.19973702 5:0.14628915 6:0.20392391 7:-0.2413679 8:0.27342344 9:0.094665881 
1 1:-0.57198668 2:-0.58560065 3:-0.68105471 4:-0.097618687 5:0.11469197 6:0.043190735 7:-0.18935703 8:0.28344557 9:-0.028936699 
1 1:-0.54766365 2:-0.51675962 3:-0.74970198 4:-0.084305116 5:0.16500102 6:-0.049004285 7:-0.22616789 8:0.36934357 9:-0.080664082 
1 1:-0.61159135 2:-0.50333523 3:-0.83617433 4:-0.14001295 5:0.26273765 6:-0.066684019 7:-0.32077293 8:0.48802601 9:-0.060794499 
1 1:-0.47977821 2:-0.41553707 3:-0.70389125 4:-0.041239742 5:0.19664405 6:-0.17564607 7:-0.24054281 8:0.44304062 9:-0.16097325 
1 1:-0.69734859 2:-0.82742009 3:-0.7802501 4:-0.15688135 5:0.29660102 6:-0.077624477 7:-0.35264953 8:0.51620994 9:-0.036426942 
1 1:-0.72417615 2:-0.84865093 3:-0.93836457 4:-0.22753985 5:0.34225519 6:0.0024517491 7:-0.4080297 8:0.54429578 9:0.037163304 
1 1:-0.70254857 2:-0.77656662 3:-0.98947807 4:-0.14052113 5:0.28971813 6:-0.10099218 7:-0.34254874 8:0.51531312 9:-0.056174996 
1 1:-0.76418168 2:-0.83228553 3:-1.0538577 4:-0.18948802 5:0.28018389 6:0.0083911394 7:-0.34771465 8:0.48295364 9:0.0030535351 
1 1:-0.34920556 2:-0.60675295 3:-0.84057594 4:-0.0055892975 5:0.1153002 6:-0.13972922 7:-0.16139531 8:0.33332733 9:-0.16199401 
1 1:-0.48227761 2:-0.64730245 3:-0.9201077 4:-0.12546946 5:0.2066261 6:-0.022022724 7:-0.26735284 8:0.41004985 9:-0.055606432 
1 1:-0.35985043 2:-0.62269598 3:-0.88157122 4:-0.077364981 5:0.099720255 6:0.022705127 7:-0.16514452 8:0.26538202 9:-0.052451711 
1 1:-0.41958674 2:-0.68509422 3:-0.85609209 4:-0.19233956 5:0.13050884 6:0.20993883 7:-0.21964351 8:0.24385939 9:0.093562315 
1 1:-0.36185354 2:-0.64380144 3:-0.88881451 4:-0.28723089 5:0.12723464 6:0.40201192 7:-0.24560226 8:0.17593619 9:0.24944536 
1 1:-0.40089269 2:-0.67205466 3:-1.0100455 4:-0.30297301 5:0.17278431 6:0.37354677 7:-0.28594856 8:0.23833385 9:0.24027997 
1 1:-0.29915236 2:-0.69671524 3:-0.85944305 4:-0.26257156 5:0.099705429 6:0.38924375 7:-0.21027127 8:0.14484341 9:0.22221952 
1 1:-0.56624998 2:-0.83075219 3:-0.91887823 4:-0.37847858 5:0.27843796 6:0.38468395 7:-0.39259354 8:0.36145116 9:0.27865011 
1 1:-0.448199 2:-0.7459127 3:-0.77918701 4:-0.21253669 5:0.1585637 6:0.21318842 7:-0.25039088 8:0.27731847 9:0.10767514 
1 1:-0.50646042 2:-0.74173545 3:-0.87589617 4:-0.26322534 5:0.1777059 6:0.28844541 7:-0.28195978 8:0.27349765 9:0.17931125 
1 1:-0.34238614 2:-0.67997669 3:-0.55978426 4:0.16824401 5:0.081911679 6:-0.44003993 7:-0.092038221 8:0.38557584 9:-0.3850285 
1 1:-0.27281041 2:-0.57883749 3:-1.0842898 4:0.25745703 5:0.16499639 6:-0.72533704 7:-0.14403987 8:0.55759889 9:-0.53396619 
1 1:-0.10882959 2:-0.59675889 3:-0.68713316 4:0.28322967 5:-0.075378673 6:-0.46172172 7:0.072577277 8:0.19888862 9:-0.44927802 
1 1:-0.008304283 2:-0.53898823 3:-0.5833881 4:0.33353914 5:-0.096160843 6:-0.53408184 7:0.10175665 8:0.19037216 9:-0.49745587 
1 1:0.27926011 2:-0.42905737 3:-0.57504514 4:0.50977749 5:-0.35910033 6:-0.53870062 7:0.3870011 8:-0.14487742 9:-0.59118315 
1 1:0.20597126 2:-0.38120929 3:-0.44522369 4:0.45133163 5:-0.31362308 6:-0.48256135 7:0.33372152 8:-0.107644 9:-0.53567288 
1 1:0.066966693 2:-0.42174009 3:-0.40287158 4:0.40850554 5:-0.30453249 6:-0.40970793 7:0.31663255 8:-0.11547302 9:-0.48827086 
1 1:0.084323287 2:-0.417033 3:-0.43587014 4:0.41343282 5:-0.31444609 6:-0.40648332 7:0.32705863 8:-0.12927449 9:-0.48937989 
1 1:0.18578062 2:-0.39345098 3:-0.40927174 4:0.51582096 5:-0.39701895 6:-0.50103011 7:0.42944803 8:-0.21177401 9:-0.57966902 
1 1:0.40360633 2:-0.41622059 3:-0.37217505 4:0.71904826 5:-0.72451767 6:-0.47455998 7:0.77048667 8:-0.61986312 9:-0.68085488 
1 1:0.37745098 2:-0.3963183 3:-0.27988024 4:0.64080856 5:-0.68005567 6:-0.37792035 7:0.70931707 8:-0.58166287 9:-0.61031746 
1 1:0.29040832 2:-0.35108087 3:-0.23392346 4:0.51375442 5:-0.64184867 6:-0.17649121 7:0.6411483 8:-0.57554587 9:-0.47713716 
1 1:0.18120759 2:-0.45127611 3:-0.34592989 4:0.51771572 5:-0.53599047 6:-0.32288472 7:0.54419882 8:-0.40898256 9:-0.52404991 
1 1:-0.21254253 2:-0.70236647 3:-0.70333669 4:0.29062348 5:-0.07660287 6:-0.47475158 7:0.07587923 8:0.20143995 9:-0.45999188 
1 1:-0.18596399 2:-0.66051598 3:-0.68079731 4:0.2515129 5:-0.058009505 6:-0.42168892 7:0.049936634 8:0.21076364 9:-0.41978089 
1 1:-0.13279454 2:-0.64402797 3:-0.61893524 4:0.22798355 5:-0.10613492 6:-0.31213521 7:0.087216237 8:0.12598433 9:-0.37070692 
1 1:-0.080214954 2:-0.64174347 3:-0.61719809 4:0.24910725 5:-0.14625695 6:-0.30142413 7:0.12818941 8:0.073245728 9:-0.37731002 
1 1:-0.090203709 2:-0.65268573 3:-0.61542103 4:0.24089009 5:-0.13011703 6:-0.30628758 7:0.11174822 8:0.094437983 9:-0.37470531 
1 1:-0.25170879 2:-0.74464791 3:-0.60551645 4:0.28752525 5:-0.10295238 6:-0.43413228 7:0.098402791 8:0.15961853 9:-0.4444149 
1 1:-0.025214464 2:-0.59036164 3:-0.25745991 4:0.32751292 5:-0.57274335 6:0.10162651 7:0.52643643 8:-0.55397476 9:-0.26990893 
1 1:-0.026354576 2:-0.63210813 3:-0.38686794 4:0.33490591 5:-0.48909365 6:-0.022490289 7:0.4538693 8:-0.41971759 9:-0.31937018 
1 1:-0.073398014 2:-0.63397365 3:-0.53838439 4:0.28297511 5:-0.4528981 6:0.032904353 7:0.4060034 8:-0.38877999 9:-0.26573894 
1 1:-0.11650136 2:-0.6375695 3:-0.59708755 4:0.33441707 5:-0.45139969 6:-0.070859201 7:0.42043901 8:-0.36176732 9:-0.33631859 
1 1:-0.13733543 2:-0.61758606 3:-0.52876813 4:0.3600875 5:-0.43299482 6:-0.14574987 7:0.41021567 8:-0.32183843 9:-0.37474551 
1 1:-0.15798682 2:-0.61509988 3:-0.53142432 4:0.35756805 5:-0.43417937 6:-0.13921353 7:0.41066025 8:-0.32353266 9:-0.37313755 
1 1:0.018857483 2:-0.4785714 3:-0.35600745 4:0.26963004 5:-0.25657189 6:-0.19765075 7:0.22820913 8:-0.089485085 9:-0.34254525 
1 1:-0.059454359 2:-0.51842286 3:-0.37838677 4:0.18754408 5:-0.22838668 6:-0.072095352 7:0.18203139 8:-0.086223478 9:-0.25100804 
1 1:-0.13236633 2:-0.51381776 3:-0.37711929 4:0.20924948 5:-0.18289252 6:-0.17459554 7:0.14759476 8:-0.0059219624 9:-0.29931494 
1 1:-0.15600258 2:-0.50891167 3:-0.37411804 4:0.1798933 5:-0.13971118 6:-0.17301898 7:0.10375136 8:0.048096085 9:-0.28863408 
1 1:-0.17989749 2:-0.51731756 3:-0.34786209 4:0.17627623 5:-0.12894744 6:-0.17994917 7:0.09338425 8:0.063206383 9:-0.28960746 
1 1:-0.044205841 2:-0.32583073 3:-0.26897887 4:-0.10529378 5:0.37012298 6:-0.27594539 7:-0.40195187 8:0.67080811 9:-0.16491583 
1 1:0.20242125 2:-0.23325921 3:-0.056778616 4:0.090411291 5:0.098946875 6:-0.3083077 7:-0.11548093 8:0.35784335 9:-0.29456433 
1 1:0.17925564 2:-0.43135201 3:-0.30713331 4:0.088575955 5:-0.18256887 6:0.063790755 7:0.11509671 8:-0.068711335 9:-0.13746304 
1 1:0.099311228 2:-0.46660382 3:-0.21143939 4:0.086482881 5:-0.07841657 6:-0.068388505 7:0.024057336 8:0.092455459 9:-0.18863758 
1 1:-0.1076043 2:-0.38491053 3:-0.34205238 4:-0.071239929 5:0.0060933301 6:0.13312889 7:-0.088992027 8:0.13597252 9:-0.017733689 
1 1:-0.18257969 2:-0.33007299 3:-0.44741001 4:-0.051313614 5:0.011092962 6:0.087151362 7:-0.098628835 8:0.13765975 9:-0.00013766317 
1 1:-0.19046183 2:-0.27895143 3:-0.40240305 4:-0.14533298 5:-0.040228834 6:0.3403867 7:-0.075863333 8:0.011512549 9:0.14116954 
1 1:-0.36523045 2:-0.45575981 3:-0.24997296 4:-0.32462079 5:0.41394488 6:0.10074032 7:-0.48977369 8:0.59802551 9:0.12741276 
1 1:-0.26597364 2:-0.35259364 3:-0.17903108 4:-0.26110646 5:0.30621283 6:0.11605387 7:-0.38905028 8:0.47320971 9:0.10394958 
1 1:-0.001563917 2:-0.15269365 3:-0.36812 4:0.028669537 5:0.22632134 6:-0.3528384 7:-0.24198554 8:0.52894552 9:-0.28656014 
1 1:0.017498367 2:-0.17905328 3:-0.25310122 4:0.034262376 5:0.19734507 6:-0.32598044 7:-0.22186921 8:0.4914469 9:-0.27242803 
1 1:0.19054909 2:-0.036037304 3:-0.070168428 4:-0.07403988 5:0.12975488 6:-0.023186461 7:-0.19025253 8:0.32392542 9:-0.087665063 
1 1:0.1721851 2:-0.21682165 3:-0.36589545 4:0.28284936 5:0.06852659 6:-0.64932179 7:-0.052311554 8:0.42207788 9:-0.52262181 
1 1:0.25447956 2:-0.17607541 3:-0.32614647 4:0.31923643 5:0.033703409 6:-0.67575203 7:-0.014965232 8:0.38622963 9:-0.54693678 
1 1:-0.00087128573 2:-0.33642614 3:-0.2360823 4:-0.10281873 5:0.25689971 6:-0.13264936 7:-0.30447996 8:0.50685278 9:-0.1229981 
1 1:-0.12779989 2:-0.44340692 3:-0.36600758 4:-0.12281931 5:0.36322952 6:-0.23224018 7:-0.39675383 8:0.65403232 9:-0.15065611 
1 1:-0.15252947 2:-0.27028963 3:-0.20696188 4:-0.11127549 5:0.24127666 6:-0.095465167 7:-0.29685604 8:0.46941782 9:-0.082876948 
1 1:-0.23340285 2:-0.4375247 3:-0.26387888 4:-0.24297806 5:0.48288278 6:-0.15105907 7:-0.52133623 8:0.76764339 9:-0.060601566 
1 1:-0.09286625 2:-0.40665775 3:-0.32783393 4:-0.14200176 5:0.40392336 6:-0.24754137 7:-0.43382486 8:0.70545327 9:-0.15022821 
1 1:-0.4028658 2:-0.43169413 3:-0.2323339 4:-0.40556607 5:0.52584954 6:0.11446084 7:-0.5976549 8:0.72404347 9:0.16402192 
1 1:0.13545177 2:-0.3207429 3:-0.39011668 4:-0.059593729 5:0.22794486 6:-0.18029255 7:-0.26996898 8:0.48683511 9:-0.16509115 
1 1:0.035488317 2:-0.38631038 3:-0.40426592 4:-0.081306663 5:0.41938682 6:-0.38789506 7:-0.43386408 8:0.76500938 9:-0.23930162 
1 1:-0.068697569 2:-0.34190292 3:-0.53199458 4:0.10101379 5:0.060227832 6:-0.27861175 7:-0.084430187 8:0.31038179 9:-0.28834895 
1 1:-0.16013847 2:-0.40598039 3:-0.54913453 4:0.082805982 5:0.091009276 6:-0.28286773 7:-0.11578706 8:0.34363093 9:-0.27264917 
1 1:-0.056709497 2:-0.33318063 3:-0.49553255 4:0.13539637 5:0.054216702 6:-0.33878626 7:-0.072223633 8:0.31758459 9:-0.324619 
1 1:-0.11326096 2:-0.36842528 3:-0.46764204 4:0.05888022 5:0.13954217 6:-0.29904229 7:-0.16286575 8:0.4076666 9:-0.27020934 
1 1:-0.12909544 2:-0.3616338 3:-0.51654982 4:0.072018805 5:0.14186774 6:-0.32808709 7:-0.16270199 8:0.41897351 9:-0.28747768 
1 1:-0.13706562 2:-0.34270816 3:-0.42876922 4:0.12585507 5:0.12863854 6:-0.41731246 7:-0.14010619 8:0.43156811 9:-0.35351212 
1 1:-0.10533191 2:-0.31636687 3:-0.55646503 4:0.17547017 5:0.11465933 6:-0.4972026 7:-0.11825243 8:0.43296803 9:-0.40123877 
1 1:-0.14300092 2:-0.26267587 3:-0.57021077 4:0.1845559 5:0.098933951 6:-0.49460062 7:-0.10170413 8:0.41811249 9:-0.41355319 
1 1:-0.066435848 2:-0.21890269 3:-0.57098111 4:0.23913919 5:0.090008936 6:-0.59093796 7:-0.08209014 8:0.43379277 9:-0.47798082 
1 1:0.0063357955 2:-0.18781901 3:-0.48186006 4:0.26329931 5:0.059371939 6:-0.59865052 7:-0.049384267 8:0.3970583 9:-0.4912798 
1 1:0.16555968 2:-0.13153887 3:-0.45687244 4:0.36003838 5:-0.085688889 6:-0.60022956 7:0.1002631 8:0.22004332 9:-0.53875495 
1 1:0.14316155 2:-0.50424453 3:-0.75956723 4:0.37304861 5:-0.097596417 6:-0.61039112 7:0.11403032 8:0.20585159 9:-0.54625615 
1 1:0.31212955 2:-0.47164013 3:-0.74941857 4:0.51658919 5:-0.28598148 6:-0.64788359 7:0.31658723 8:-0.020394901 9:-0.63050782 
1 1:0.54752266 2:-0.32321853 3:-0.67297921 4:0.80712112 5:-0.55290882 6:-0.87346695 7:0.63171285 8:-0.31985046 9:-0.84021096 
1 1:0.5096806 2:-0.30422211 3:-0.68088221 4:0.77842442 5:-0.48744503 6:-0.90236023 7:0.56320694 8:-0.22816351 9:-0.83442461 
1 1:0.49330667 2:-0.30508954 3:-0.69164173 4:0.79735626 5:-0.4653725 6:-0.96871585 7:0.54542275 8:-0.18621481 9:-0.86008803 
1 1:0.21127236 2:-0.10512514 3:-0.78336341 4:0.59628096 5:-0.25662182 6:-0.84401946 7:0.30861511 8:0.060022063 9:-0.73424584 
1 1:0.20242523 2:-0.11364051 3:-0.79650035 4:0.60235013 5:-0.29012553 6:-0.81217834 7:0.34095737 8:0.010199627 9:-0.72719295 
1 1:0.15774101 2:-0.13879939 3:-0.76522651 4:0.70483325 5:-0.31924995 6:-0.97686993 7:0.38928923 8:0.0064131088 9:-0.82244221 
1 1:-0.30680049 2:-0.3914239 3:-0.79379968 4:0.22589931 5:0.04256205 6:-0.50263495 7:-0.036739432 8:0.34806565 9:-0.44434059 
1 1:-0.029808944 2:-0.24190231 3:-0.76080839 4:0.44307256 5:-0.067769762 6:-0.78800587 7:0.10442097 8:0.28567883 9:-0.6456928 
1 1:0.15315404 2:-0.09923443 3:-0.81916009 4:0.64192573 5:-0.25879872 6:-0.93150008 7:0.32092384 8:0.070761564 9:-0.77602365 
1 1:0.251705 2:0.048479876 3:-0.81814745 4:0.78025678 5:-0.31636627 6:-1.1299056 7:0.40230568 8:0.037490617 9:-0.89614367 
1 1:0.29228592 2:0.11536455 3:-0.8096417 4:0.68825242 5:-0.25003005 6:-1.0346565 7:0.32217693 8:0.10362392 9:-0.82783496 
1 1:0.51626063 2:0.28675159 3:-0.76224826 4:0.67843487 5:-0.26158249 6:-1.0001072 7:0.33067116 8:0.084984054 9:-0.81766721 
1 1:-0.57954575 2:-0.48876881 3:-0.34663668 4:0.3564924 5:0.48213095 6:-1.3364122 7:-0.39798364 8:1.0822203 9:-0.78908412 
1 1:-0.52034637 2:-0.526691 3:-0.5124482 4:0.47679523 5:0.36196827 6:-1.4172117 7:-0.27588764 8:0.95277941 9:-0.85024991 
1 1:-0.4551297 2:-0.46396633 3:-0.4168318 4:0.42011018 5:0.339318 6:-1.2753872 7:-0.26517929 8:0.89633552 9:-0.78811279 
1 1:-0.54095942 2:-0.55862895 3:-0.48654137 4:0.52818176 5:0.31993897 6:-1.4638936 7:-0.22867736 8:0.91243566 9:-0.88843122 
1 1:-0.5406002 2:-0.55548624 3:-0.58789574 4:0.56184166 5:0.35501989 6:-1.5764219 7:-0.25496453 8:0.97363106 9:-0.92515251 
1 1:-0.56960613 2:-0.61199377 3:-0.51080712 4:0.56724548 5:0.33270738 6:-1.5579119 7:-0.23199183 8:0.95248952 9:-0.94147105 
1 1:-0.50958006 2:-0.59354882 3:-0.44349752 4:0.51106368 5:0.3210748 6:-1.431504 7:-0.23006933 8:0.90795613 9:-0.87881893 
1 1:-0.5039609 2:-0.5927054 3:-0.42709488 4:0.52630407 5:0.29948754 6:-1.4334095 7:-0.20990393 8:0.88451329 9:-0.88583074 
1 1:-0.48583437 2:-0.57596135 3:-0.42693259 4:0.59390058 5:0.28745038 6:-1.5514263 7:-0.18739485 8:0.89378521 9:-0.94671007 
1 1:-0.50115281 2:-0.58687991 3:-0.49824433 4:0.63727505 5:0.28478057 6:-1.6337689 7:-0.17800464 8:0.90854312 9:-0.98840953 
1 1:-0.46190489 2:-0.56358345 3:-0.49322847 4:0.61836164 5:0.24110843 6:-1.5391788 7:-0.1420011 8:0.83392034 9:-0.95187541 
1 1:-0.47075414 2:-0.56432879 3:-0.5423368 4:0.58040707 5:0.21208696 6:-1.4260824 7:-0.12260594 8:0.77446082 9:-0.9033621 
1 1:-0.49570428 2:-0.59029159 3:-0.53219953 4:0.62541667 5:0.19617109 6:-1.4943235 7:-0.099893765 8:0.76798973 9:-0.94109827 
1 1:-0.46174092 2:-0.55723235 3:-0.44761747 4:0.58717234 5:0.25886814 6:-1.500701 7:-0.16228688 8:0.84669404 9:-0.92864057 
1 1:-0.46072499 2:-0.55138136 3:-0.50526362 4:0.63625132 5:0.23041046 6:-1.5605798 7:-0.12909715 8:0.82260733 9:-0.96188351 
1 1:-0.50882403 2:-0.57028638 3:-0.55403554 4:0.62011074 5:0.2546176 6:-1.5603219 7:-0.15316394 8:0.85444862 9:-0.959298 
1 1:-0.51376535 2:-0.58051198 3:-0.56301039 4:0.61762022 5:0.26767339 6:-1.5724815 7:-0.16555912 8:0.87199364 9:-0.95968149 
1 1:-0.49313767 2:-0.58543932 3:-0.53554287 4:0.63407976 5:0.29285889 6:-1.6380189 7:-0.18431685 8:0.9156212 9:-0.9858254 
1 1:-0.50871147 2:-0.57747098 3:-0.41206219 4:0.54611638 5:0.31379837 6:-1.4913486 7:-0.2168143 8:0.90687989 9:-0.9048845 
1 1:-0.54647879 2:-0.59656193 3:-0.38516018 4:0.55840319 5:0.3126937 6:-1.514218 7:-0.21380368 8:0.91082773 9:-0.91708064 
1 1:-0.52148899 2:-0.58995988 3:-0.38200268 4:0.61411541 5:0.26811603 6:-1.5661249 7:-0.1644463 8:0.86602205 9:-0.95306565 
1 1:-0.6600256 2:-0.56864378 3:-0.29228355 4:0.35616646 5:0.44590462 6:-1.2883518 7:-0.36755151 8:1.0292479 9:-0.77332737 
1 1:-0.5733323 2:-0.54270071 3:-0.58997308 4:0.49636252 5:0.36643016 6:-1.4617749 7:-0.27458984 8:0.96955352 9:-0.87807052 
1 1:-0.023707359 2:-0.37647382 3:-0.22566304 4:0.20856058 5:-0.146498 6:-0.22086778 7:0.12012997 8:0.048825168 9:-0.32392429 
1 1:0.059299195 2:-0.32421359 3:-0.17064811 4:0.28690668 5:-0.21500326 6:-0.28624856 7:0.20039686 8:-0.017837205 9:-0.39172944 
1 1:0.064973026 2:-0.33441984 3:-0.14954045 4:0.22304645 5:-0.18631141 6:-0.19742455 7:0.15838941 8:-0.0044231116 9:-0.3240981 
1 1:0.025473874 2:-0.36448216 3:-0.1874207 4:0.20350371 5:-0.19256341 6:-0.15056692 7:0.15835127 8:-0.026393355 9:-0.29112908 
1 1:-0.0019015252 2:-0.3753196 3:-0.21257243 4:0.29899052 5:-0.19335333 6:-0.33849903 7:0.18290666 8:0.023840833 9:-0.41760151 
1 1:0.040607279 2:-0.38230939 3:-0.2494854 4:0.34570814 5:-0.2655271 6:-0.33648628 7:0.25961244 8:-0.069819348 9:-0.43755539 
1 1:0.10980434 2:-0.33145586 3:-0.27338917 4:0.38561043 5:-0.29098584 6:-0.38212982 7:0.2903531 8:-0.093803442 9:-0.46583824 
1 1:-0.5539452 2:-0.6247508 3:-0.34739783 4:-0.14907003 5:0.36840612 6:-0.18706613 7:-0.40638602 8:0.65073841 9:-0.12561298 
1 1:-0.42486323 2:-0.53494573 3:-0.32809042 4:-0.071620627 5:0.29690121 6:-0.24674624 7:-0.32463825 8:0.57645579 9:-0.18510274 
1 1:-0.41695764 2:-0.53605292 3:-0.35476018 4:-0.056690807 5:0.296131 6:-0.27528388 7:-0.32485476 8:0.5909226 9:-0.20630743 
1 1:-0.4465779 2:-0.58466387 3:-0.36802017 4:-0.0029512854 5:0.25444575 6:-0.32707266 7:-0.27473817 8:0.55246166 9:-0.25337574 
1 1:0.063970642 2:-0.25615825 3:-0.22618338 4:0.33837824 5:-0.24179288 6:-0.35304548 7:0.23544242 8:-0.045186101 9:-0.4239639 
1 1:-0.091294561 2:-0.45047462 3:-0.34161252 4:0.31928703 5:-0.20893612 6:-0.35826954 7:0.20370378 8:0.00065650435 9:-0.42631936 
1 1:0.036073258 2:-0.37174212 3:-0.25670626 4:0.25904327 5:-0.25731765 6:-0.17572372 7:0.23261967 8:-0.10170433 9:-0.33346237 
1 1:-0.59208627 2:-0.70180597 3:-0.37242807 4:-0.079545807 5:0.33373083 6:-0.27926754 7:-0.3624486 8:0.63766846 9:-0.19778931 
1 1:-0.58075578 2:-0.74555181 3:-0.40549018 4:-0.14625438 5:0.32334373 6:-0.13365761 7:-0.36948678 8:0.58392832 9:-0.10264467 
1 1:-0.68401405 2:-0.80847545 3:-0.47908806 4:-0.050497605 5:0.33062482 6:-0.33268785 7:-0.35233761 8:0.6510211 9:-0.23889007 
1 1:-0.7114691 2:-0.83978173 3:-0.46245462 4:-0.090539337 5:0.32291735 6:-0.24335822 7:-0.35584715 8:0.61506968 9:-0.17774294 
1 1:-0.33417161 2:-0.62667009 3:-0.57787637 4:0.2088454 5:0.0012091274 6:-0.41476026 7:-0.010739775 8:0.28063902 9:-0.39769082 
1 1:-0.75878935 2:-0.7814606 3:-0.45582397 4:-0.1118376 5:0.35473618 6:-0.24285607 7:-0.38718622 8:0.65170021 9:-0.16714227 
1 1:-0.78862763 2:-0.84013394 3:-0.45156073 4:-0.13896157 5:0.38131571 6:-0.22396745 7:-0.41552813 8:0.67516045 9:-0.14308383 
1 1:-0.77720955 2:-0.83742762 3:-0.39875342 4:-0.13670109 5:0.35137712 6:-0.18925527 7:-0.39002134 8:0.63205835 9:-0.13181871 
1 1:-0.78778491 2:-0.83751649 3:-0.42999514 4:-0.15694087 5:0.40370298 6:-0.21768879 7:-0.43736981 8:0.70026029 9:-0.13505245 
1 1:-0.82774186 2:-0.85904244 3:-0.43777997 4:-0.16683814 5:0.40307102 6:-0.19727519 7:-0.43869047 8:0.6941276 9:-0.12311429 
1 1:-0.76637038 2:-0.83664992 3:-0.45626843 4:-0.12341432 5:0.37635494 6:-0.24824209 7:-0.40615528 8:0.67682803 9:-0.16515085 
1 1:-0.37533844 2:-0.60248175 3:-0.40735508 4:0.18328341 5:0.094625555 6:-0.48644329 7:-0.097307147 8:0.41167107 9:-0.41309138 
1 1:-0.42829556 2:-0.64138058 3:-0.4048963 4:0.096034345 5:0.17784985 6:-0.422709 7:-0.18792703 8:0.49278385 9:-0.34530123 
1 1:-0.33355502 2:-0.56070956 3:-0.3785528 4:0.13501231 5:0.11967048 6:-0.42369643 7:-0.13059868 8:0.42684454 9:-0.36629278 
1 1:-0.29484509 2:-0.54936749 3:-0.39585977 4:0.15669035 5:0.10768521 6:-0.45090963 7:-0.1149768 8:0.41932677 9:-0.38765742 
1 1:-0.2795014 2:-0.53991965 3:-0.39370365 4:0.13393764 5:0.10979422 6:-0.40864298 7:-0.12180448 8:0.41059528 9:-0.36033012 
1 1:-0.28286288 2:-0.53630845 3:-0.38949083 4:0.1348211 5:0.11107516 6:-0.4120679 7:-0.12316737 8:0.41351441 9:-0.3618543 
1 1:-0.22958498 2:-0.4955668 3:-0.37993336 4:0.22965922 5:0.028267506 6:-0.49136609 7:-0.029807098 8:0.33547288 9:-0.43996406 
1 1:-0.31384922 2:-0.56163377 3:-0.36526035 4:0.068767151 5:0.17679278 6:-0.36736434 7:-0.19388823 8:0.47586576 9:-0.30752782 
1 1:0.13242156 2:-0.12544223 3:-0.34506757 4:0.45129785 5:-0.41900215 6:-0.34456743 7:0.42153783 8:-0.25461961 9:-0.49901269 
1 1:0.11517804 2:-0.11152232 3:-0.33546497 4:0.44176225 5:-0.42045756 6:-0.32379176 7:0.41998718 8:-0.26152579 9:-0.48543638 
1 1:-0.061765474 2:-0.28861452 3:-0.3546685 4:0.37830904 5:-0.26047655 6:-0.40761312 7:0.26103737 8:-0.040678469 9:-0.48415445 
1 1:-0.075157787 2:-0.3142397 3:-0.35440755 4:0.35747835 5:-0.21419157 6:-0.42697054 7:0.21460766 8:0.021531837 9:-0.48033713 
1 1:-0.063151582 2:-0.26955392 3:-0.3438146 4:0.36346907 5:-0.24413244 6:-0.39963743 7:0.24301286 8:-0.022332579 9:-0.47398273 
1 1:-0.058209595 2:-0.26471145 3:-0.34409419 4:0.36942624 5:-0.23804437 6:-0.41939499 7:0.23892758 8:-0.010241384 9:-0.48355308 
1 1:-0.081981546 2:-0.28265708 3:-0.33755784 4:0.33278359 5:-0.21459994 6:-0.37756573 7:0.20950664 8:0.0087478742 9:-0.45054856 
1 1:-0.12513147 2:-0.32581624 3:-0.36106547 4:0.31744501 5:-0.1539623 6:-0.4265776 7:0.1518656 8:0.095498223 9:-0.46005819 
1 1:-0.11227246 2:-0.30760383 3:-0.34684925 4:0.34025292 5:-0.17069741 6:-0.44980986 7:0.17185554 8:0.080708504 9:-0.47965733 
1 1:-0.12878368 2:-0.33406039 3:-0.36581878 4:0.31969377 5:-0.11800739 6:-0.47808799 7:0.12048352 8:0.15200821 9:-0.47912717 
1 1:-0.14470621 2:-0.32656 3:-0.36499876 4:0.33419152 5:-0.13078858 6:-0.49004981 7:0.13494643 8:0.13906055 9:-0.48994335 
1 1:-0.14318804 2:-0.32320312 3:-0.38054883 4:0.32727242 5:-0.14915348 6:-0.45231989 7:0.14926178 8:0.10769107 9:-0.47287401 
1 1:-0.14372598 2:-0.3119764 3:-0.36544404 4:0.29712064 5:-0.13759472 6:-0.40777914 7:0.1321114 8:0.11113639 9:-0.44222139 
1 1:-0.13417081 2:-0.31181391 3:-0.35099266 4:0.30341891 5:-0.12872363 6:-0.43185433 7:0.12564493 8:0.12796054 9:-0.45390499 
1 1:-0.13776841 2:-0.31807192 3:-0.34117801 4:0.2746033 5:-0.10305195 6:-0.40842972 7:0.096267812 8:0.15347053 9:-0.4307535 
1 1:-0.13616891 2:-0.33422404 3:-0.34698927 4:0.25363907 5:-0.074456268 6:-0.40436997 7:0.06595364 8:0.18770747 9:-0.41870962 
1 1:-0.13424747 2:-0.33792206 3:-0.35200073 4:0.20083502 5:-0.028753868 6:-0.35969038 7:0.013287464 8:0.23246736 9:-0.37574726 
1 1:-0.15092422 2:-0.34810463 3:-0.33657979 4:0.23031542 5:-0.056392466 6:-0.38185612 7:0.04451707 8:0.20455222 9:-0.39916628 
1 1:-0.14508652 2:-0.3538019 3:-0.36804361 4:0.192097 5:-0.0083514984 6:-0.36910201 7:-0.0066484524 8:0.25912591 9:-0.37402852 
1 1:-0.14236224 2:-0.36874631 3:-0.36604699 4:0.17720149 5:0.0082685524 6:-0.36137757 7:-0.024620065 8:0.27744672 9:-0.36392971 
1 1:-0.1733211 2:-0.38972976 3:-0.36057249 4:0.18213386 5:-0.018308321 6:-0.33635306 7:-0.00056839233 8:0.23857782 9:-0.35596336 
1 1:-0.1842825 2:-0.39406513 3:-0.35062837 4:0.17107515 5:-0.0091776317 6:-0.326419 7:-0.010839286 8:0.24657767 9:-0.34649332 
1 1:-0.2553775 2:-0.4395546 3:-0.34463654 4:-0.16421364 5:0.44373932 6:-0.25569836 7:-0.46958549 8:0.75449037 9:-0.14896786 
1 1:-0.24275473 2:-0.43081231 3:-0.31651905 4:-0.18593776 5:0.4387949 6:-0.20623529 7:-0.47201704 8:0.73683403 9:-0.11745927 
1 1:-0.2562546 2:-0.44240972 3:-0.32866332 4:-0.11381929 5:0.33519856 6:-0.21336224 7:-0.3714507 8:0.62012702 9:-0.15273333 
1 1:-0.25820878 2:-0.46784798 3:-0.36902449 4:-0.12822632 5:0.33281707 6:-0.18173402 7:-0.37260247 8:0.6081496 9:-0.13239825 
1 1:-0.27382647 2:-0.46128142 3:-0.39668219 4:-0.066455333 5:0.32439545 6:-0.2929545 7:-0.35053417 8:0.63176963 9:-0.2138363 
1 1:-0.22705829 2:-0.42486346 3:-0.40057547 4:0.035430202 5:0.18642258 6:-0.31399545 7:-0.21124815 8:0.47739424 9:-0.27356817 
1 1:-0.22542238 2:-0.40719887 3:-0.36943204 4:0.11205719 5:0.099559999 6:-0.35194689 7:-0.11953897 8:0.38463779 9:-0.32620225 
1 1:-0.21825102 2:-0.38674094 3:-0.36445409 4:0.15848347 5:0.040884296 6:-0.36702473 7:-0.057935732 8:0.31907148 9:-0.35667821 
1 1:-0.19529205 2:-0.36774794 3:-0.38103041 4:0.18343363 5:0.01773476 6:-0.38610084 7:-0.031612153 8:0.29577186 9:-0.3767628 
1 1:-0.15726722 2:-0.36815962 3:-0.35066958 4:0.18898611 5:0.004037364 6:-0.37916099 7:-0.017383652 8:0.27484118 9:-0.37513896 
1 1:-0.18384608 2:-0.36442116 3:-0.38648799 4:0.19728758 5:0.00065634399 6:-0.3911641 7:-0.011951969 8:0.27320037 9:-0.38402411 
1 1:-0.19151288 2:-0.36459601 3:-0.3913453 4:0.19233305 5:0.038007328 6:-0.43024663 7:-0.045577071 8:0.32860268 9:-0.39675146 
1 1:-0.18482423 2:-0.36497654 3:-0.40133171 4:0.22249852 5:0.013233632 6:-0.45751791 7:-0.016702549 8:0.30550579 9:-0.42246592 
1 1:-0.19650409 2:-0.37479742 3:-0.42430923 4:0.23178286 5:-0.0062134373 6:-0.45043777 7:0.0022963488 8:0.28037579 9:-0.4245164 
1 1:-0.20876049 2:-0.64852634 3:-0.46865861 4:0.28529723 5:-0.28138374 6:-0.19618035 7:0.25965357 8:-0.12161769 9:-0.36009932 
1 1:-0.2444483 2:-0.64142465 3:-0.40854483 4:0.25367432 5:-0.24635561 6:-0.17944654 7:0.2198093 8:-0.081497889 9:-0.33696308 
1 1:-0.36728188 2:-0.6425464 3:-0.38305519 4:0.17750345 5:-0.15458418 6:-0.14882276 7:0.1193298 8:0.020782936 9:-0.2802744 
1 1:-0.51533775 2:-0.64224698 3:-0.42850704 4:0.10123419 5:-0.096905703 6:-0.073381177 7:0.048177174 8:0.067798218 9:-0.20208836 
1 1:-0.60483445 2:-0.64906781 3:-0.53256948 4:0.015947659 5:0.067353501 6:-0.11959453 7:-0.11587131 8:0.27705004 9:-0.1728019 
1 1:-0.64340666 2:-0.69616845 3:-0.60946974 4:-0.064178324 5:0.22479662 6:-0.16709913 7:-0.26715402 8:0.47690239 9:-0.15609958 
1 1:-0.75957555 2:-0.77907537 3:-0.61025468 4:-0.074119379 5:0.32998685 6:-0.28510593 7:-0.35731569 8:0.63050626 9:-0.19778513 
1 1:-0.84137767 2:-0.8614551 3:-0.65702535 4:-0.1918926 5:0.42996426 6:-0.18289267 7:-0.46832397 8:0.71349238 9:-0.090228082 
1 1:-0.85014635 2:-0.92517042 3:-0.70797554 4:-0.18598284 5:0.6559139 6:-0.49032573 7:-0.64962675 8:1.0533574 9:-0.22044188 
1 1:-0.2165488 2:-0.27141174 3:-0.33385385 4:0.37817633 5:-0.14089682 6:-0.56386432 7:0.16173122 8:0.13154005 9:-0.53461224 
1 1:-0.10445912 2:-0.2163636 3:-0.29690592 4:0.4388935 5:-0.27711283 6:-0.50573362 7:0.29319882 8:-0.044797011 9:-0.5451426 
1 1:-0.27304244 2:-0.26189773 3:-0.30657566 4:0.29008982 5:-0.031642045 6:-0.53254316 7:0.043534148 8:0.260793 9:-0.48130617 
1 1:-0.15752027 2:-0.24336369 3:-0.34291444 4:0.41928846 5:-0.15764823 6:-0.62329887 7:0.17894884 8:0.13705756 9:-0.57882259 
1 1:0.50033411 2:0.26433966 3:-0.1964812 4:0.55645886 5:-0.16622313 6:-0.88353229 7:0.2161665 8:0.18465661 9:-0.72778923 
1 1:0.49150636 2:0.24859763 3:-0.14557538 4:0.56701544 5:-0.16542255 6:-0.90547135 7:0.21763204 8:0.18999977 9:-0.73884799 
1 1:0.51606288 2:0.27564482 3:-0.13924263 4:0.58573141 5:-0.17279441 6:-0.93286101 7:0.22805796 8:0.18614188 9:-0.75484223 
1 1:0.4796647 2:0.24415208 3:-0.14399826 4:0.55343796 5:-0.15826136 6:-0.8879749 7:0.2081119 8:0.19512166 9:-0.72663725 
1 1:0.48962379 2:0.23513838 3:-0.15600798 4:0.56489014 5:-0.17273723 6:-0.89169149 7:0.22385221 8:0.1779544 9:-0.73380392 
1 1:0.40965253 2:0.19942793 3:-0.1748278 4:0.50346549 5:-0.11503355 6:-0.84566002 7:0.1594155 8:0.23838018 9:-0.68971628 
1 1:0.50236435 2:0.22032222 3:-0.18057268 4:0.55987105 5:-0.19831341 6:-0.84828305 7:0.2460538 8:0.13595223 9:-0.71728406 
1 1:0.43881443 2:0.19803525 3:-0.19901139 4:0.50507196 5:-0.14089835 6:-0.81498562 7:0.18259051 8:0.20146785 9:-0.68284842 
1 1:0.45814647 2:0.19513563 3:-0.1743614 4:0.49882987 5:-0.17642859 6:-0.75612837 7:0.21308924 8:0.14421517 9:-0.66082316 
1 1:0.3687554 2:0.17783376 3:-0.099779755 4:0.39547849 5:-0.13405947 6:-0.60705405 7:0.15198992 8:0.16061556 9:-0.55779818 
1 1:0.23494758 2:0.14217808 3:-0.11313419 4:0.2415763 5:0.0049423358 6:-0.48442016 7:-0.0067053643 8:0.30082875 9:-0.43633869 
1 1:0.27076709 2:0.15221957 3:-0.11997954 4:0.29544475 5:-0.023019276 6:-0.55442649 7:0.029959905 8:0.2848949 9:-0.48904341 
1 1:0.27770165 2:0.15798737 3:-0.124135 4:0.27415141 5:0.0045200936 6:-0.54833284 7:0.00084696904 8:0.31747902 9:-0.47703347 
1 1:0.34807332 2:0.19463113 3:-0.16567067 4:0.30369446 5:-0.023854207 6:-0.56965965 7:0.032720767 8:0.28900043 9:-0.50095409 
1 1:0.4055782 2:0.20207073 3:-0.16425584 4:0.3382747 5:-0.02421637 6:-0.63761906 7:0.040426473 8:0.30481553 9:-0.54071888 
1 1:-0.15875401 2:-0.4282472 3:-0.69378566 4:0.44857651 5:-0.12654248 6:-0.72197245 7:0.15773891 8:0.1972803 9:-0.62468916 
1 1:-0.26420328 2:-0.50923721 3:-0.71153187 4:0.38190704 5:-0.0247725 6:-0.72323848 7:0.051812824 8:0.3249473 9:-0.59463094 
1 1:-0.29098728 2:-0.51656692 3:-0.71157635 4:0.38088734 5:-0.037148049 6:-0.70502258 7:0.062486402 8:0.30503732 9:-0.58711235 
1 1:-0.31962912 2:-0.54203537 3:-0.71216937 4:0.39116255 5:-0.055663543 6:-0.70112267 7:0.080905857 8:0.281853 9:-0.59086562 
1 1:-0.29790476 2:-0.53140251 3:-0.68473565 4:0.33010204 5:-0.020499983 6:-0.62630982 7:0.035835147 8:0.30805122 9:-0.53597594 
1 1:-0.34002542 2:-0.54638036 3:-0.70983231 4:0.31480974 5:-0.0037207403 6:-0.61800851 7:0.017608077 8:0.32716681 9:-0.52653351 
1 1:-0.6241978 2:-0.64872272 3:-0.68127761 4:0.066477594 5:0.18663579 6:-0.37571654 7:-0.20418886 8:0.49176173 9:-0.30981617 
1 1:-0.58991956 2:-0.63991395 3:-0.68315447 4:0.10143263 5:0.17532825 6:-0.43009163 7:-0.18630077 8:0.49351149 9:-0.34978616 
1 1:-0.60917748 2:-0.64852771 3:-0.67347154 4:0.071884447 5:0.19172247 6:-0.39307435 7:-0.20742188 8:0.50320595 9:-0.32019754 
1 1:-0.64011687 2:-0.66455095 3:-0.68555803 4:0.060993105 5:0.20383716 6:-0.38737715 7:-0.22026449 8:0.51709287 9:-0.31417065 
1 1:-0.67530614 2:-0.67520308 3:-0.68428563 4:0.046025039 5:0.21532253 6:-0.37278854 7:-0.23402628 8:0.52715438 9:-0.30049786 
1 1:-0.64192833 2:-0.65498086 3:-0.63308743 4:0.059516301 5:0.17657824 6:-0.34877632 7:-0.19783181 8:0.47538188 9:-0.29856923 
1 1:-0.68251637 2:-0.65988412 3:-0.6758044 4:0.021538295 5:0.21500407 6:-0.32391306 7:-0.23931453 8:0.51408958 9:-0.26989796 
1 1:-0.69488277 2:-0.66308124 3:-0.6837742 4:0.030826431 5:0.21463125 6:-0.34180608 7:-0.2372993 8:0.51793479 9:-0.27986205 
1 1:-0.68474451 2:-0.667297 3:-0.68505933 4:0.023210475 5:0.22611633 6:-0.34176672 7:-0.24859328 8:0.53113393 9:-0.27603913 
1 1:-0.66726222 2:-0.66644433 3:-0.67599767 4:0.072362573 5:0.2279949 6:-0.4414963 7:-0.23869286 8:0.56105172 9:-0.34149819 
1 1:-0.68290943 2:-0.66149565 3:-0.65947429 4:0.060925183 5:0.21373718 6:-0.40020054 7:-0.22920792 8:0.53333324 9:-0.3198084 
1 1:-0.67397392 2:-0.64758871 3:-0.65278491 4:0.071031929 5:0.21540899 6:-0.42238972 7:-0.2280003 8:0.54163731 9:-0.3347611 
1 1:-0.67990013 2:-0.63074942 3:-0.62884204 4:0.067863713 5:0.22185392 6:-0.42455545 7:-0.23442239 8:0.54934674 9:-0.33289267 
1 1:-0.83702261 2:-0.79241805 3:-0.77781059 4:0.022643806 5:0.29499832 6:-0.43080258 7:-0.30474766 8:0.63630982 9:-0.31623588 
1 1:-0.82554936 2:-0.80750533 3:-0.75375305 4:0.013426025 5:0.30638899 6:-0.42746968 7:-0.3164193 8:0.64848189 9:-0.31008685 
1 1:-0.61681893 2:-0.71562525 3:-0.68613971 4:0.096934029 5:0.13102933 6:-0.36320767 7:-0.14525514 8:0.41589671 9:-0.319301 
1 1:-0.64595502 2:-0.72905088 3:-0.68017643 4:0.04407018 5:0.14894092 6:-0.2820353 7:-0.17534594 8:0.41432658 9:-0.25412049 
1 1:-0.60637805 2:-0.7134406 3:-0.67256684 4:0.064993387 5:0.14501291 6:-0.31830057 7:-0.16715081 8:0.41925644 9:-0.27861201 
1 1:-0.6772409 2:-0.69658208 3:-0.64956883 4:0.010985664 5:0.26873992 6:-0.37336269 7:-0.28500486 8:0.58752174 9:-0.28442355 
1 1:-0.64981975 2:-0.703006 3:-0.65396417 4:0.012398562 5:0.24387698 6:-0.34361652 7:-0.26248592 8:0.54481509 9:-0.26751173 
1 1:-0.80963827 2:-0.80147244 3:-0.71806443 4:-0.057624726 5:0.36605454 6:-0.36495622 7:-0.38397489 8:0.69862594 9:-0.24409523 
1 1:-0.72726841 2:-0.71956841 3:-0.74027806 4:0.0034197481 5:0.30512882 6:-0.40601811 7:-0.31793858 8:0.63550199 9:-0.28748371 
1 1:-0.78153945 2:-0.73505337 3:-0.75229083 4:-0.0050331858 5:0.30859559 6:-0.39382751 7:-0.32261876 8:0.63800747 9:-0.28146212 
1 1:-0.85213777 2:-0.74388419 3:-0.77898725 4:-0.19068986 5:0.39572347 6:-0.14045627 7:-0.439119 8:0.6670067 9:-0.081619593 
1 1:-0.7382121 2:-0.71081782 3:-0.68342118 4:-0.081712977 5:0.35099196 6:-0.29757127 7:-0.37551272 8:0.65963316 9:-0.20339232 
1 1:-0.75953738 2:-0.71831855 3:-0.66831225 4:-0.080579646 5:0.38817804 6:-0.3484857 7:-0.40643013 8:0.71785862 9:-0.22599961 
1 1:-0.80036078 2:-0.69581581 3:-0.62960307 4:-0.1485976 5:0.40699255 6:-0.23850553 7:-0.43757359 8:0.70907551 9:-0.14782332 
1 1:-0.78725191 2:-0.67773906 3:-0.68270601 4:-0.14405178 5:0.42483212 6:-0.2708512 7:-0.45120237 8:0.73570957 9:-0.1592373 
1 1:-0.72776261 2:-0.62768204 3:-0.63799272 4:-0.090116144 5:0.40470127 6:-0.35123989 7:-0.42088846 8:0.7363447 9:-0.223484 
1 1:-0.77617677 2:-0.69914134 3:-0.53347616 4:-0.11115578 5:0.34877662 6:-0.2364051 7:-0.38076755 8:0.63998714 9:-0.16301013 
1 1:-0.85635929 2:-0.74159803 3:-0.59203393 4:-0.19351984 5:0.39567871 6:-0.13479723 7:-0.43870687 8:0.66420784 9:-0.078290263 
1 1:-0.77950277 2:-0.73651188 3:-0.59544379 4:-0.11403855 5:0.25854884 6:-0.11260411 7:-0.30488376 8:0.50021145 9:-0.1122129 
1 1:-0.94703793 2:-0.94746518 3:-0.72633786 4:-0.26858611 5:0.30129633 6:0.13729094 7:-0.38448775 8:0.46913413 9:0.10052408 
1 1:-0.85592127 2:-0.88136474 3:-0.77646912 4:-0.21635048 5:0.38636833 6:-0.077429922 7:-0.43776902 8:0.6366403 9:-0.038979988 
1 1:-0.86029532 2:-0.8470409 3:-0.7761394 4:-0.089322103 5:0.32784618 6:-0.25221828 7:-0.35903584 8:0.61672197 9:-0.17355838 
1 1:-0.98156081 2:-0.99574076 3:-0.85064018 4:-0.21221621 5:0.38332858 6:-0.08163291 7:-0.43807001 8:0.62611602 9:-0.022596707 
1 1:-0.6439882 2:-0.83399075 3:-0.99954769 4:0.05577014 5:0.22441636 6:-0.40397645 7:-0.23890014 8:0.53774262 9:-0.30617174 
1 1:-0.59685437 2:-0.8094928 3:-0.98996475 4:0.079096729 5:0.1520507 6:-0.35542226 7:-0.17230769 8:0.43623387 9:-0.29325953 
1 1:-0.53013775 2:-0.77729102 3:-0.95140097 4:0.089364671 5:0.10369979 6:-0.3124574 7:-0.12856542 8:0.36627745 9:-0.27986953 
1 1:-0.46435275 2:-0.67049051 3:-0.76150896 4:0.071266007 5:0.059961808 6:-0.21939343 7:-0.093844012 8:0.29528494 9:-0.24609281 
1 1:0.097392542 2:-0.4602562 3:-0.80035155 4:0.53583929 5:-0.31596015 6:-0.64674098 7:0.35548995 8:-0.069241862 9:-0.63861357 
1 1:0.053264132 2:-0.49320605 3:-0.72172522 4:0.46729357 5:-0.28801131 6:-0.54767201 7:0.3127364 8:-0.056600768 9:-0.56826717 
1 1:0.11647905 2:-0.45029698 3:-0.8145972 4:0.44840863 5:-0.2836877 6:-0.5159582 7:0.3051579 8:-0.060983763 9:-0.54588182 
1 1:-0.5543262 2:-0.74048501 3:-0.74520063 4:0.14927355 5:0.21662276 6:-0.5788166 7:-0.20920377 8:0.57955926 9:-0.43077756 
1 1:-0.58993867 2:-0.75068914 3:-0.73400685 4:0.14049831 5:0.24025893 6:-0.59238721 7:-0.23250326 8:0.61349314 9:-0.43292678 
1 1:-0.59744783 2:-0.72009679 3:-0.76417653 4:0.15312375 5:0.23070311 6:-0.60486534 7:-0.22115355 8:0.60606644 9:-0.4455074 
1 1:-0.59237538 2:-0.7097586 3:-0.72825794 4:0.13120903 5:0.23217944 6:-0.56342897 7:-0.22735701 8:0.5978445 9:-0.42024626 
1 1:-0.50601018 2:-0.66237959 3:-0.72252419 4:0.18315586 5:0.19347191 6:-0.6155675 7:-0.18229461 8:0.56373417 9:-0.46327418 
1 1:-0.5212752 2:-0.6827531 3:-0.75750284 4:0.15213269 5:0.23090852 6:-0.60317291 7:-0.22193008 8:0.60648561 9:-0.44451349 
1 1:-0.21773019 2:-0.48851187 3:-0.73714758 4:0.32508615 5:0.063739442 6:-0.72664161 7:-0.038999938 8:0.43587022 9:-0.57106375 
1 1:-0.20317429 2:-0.46600595 3:-0.72437279 4:0.33608258 5:0.049666336 6:-0.72998346 7:-0.02439728 8:0.42010385 9:-0.57795212 
1 1:-0.37656998 2:-0.55414403 3:-0.73710982 4:0.2930288 5:0.1491875 6:-0.77504096 7:-0.12100632 8:0.55253016 9:-0.5744727 
1 1:-0.57728167 2:-0.67845189 3:-0.79993239 4:0.17231349 5:0.25500447 6:-0.67464859 7:-0.23785493 8:0.65245223 9:-0.48007405 
1 1:-0.59280347 2:-0.69723941 3:-0.75046479 4:0.17989921 5:0.26815477 6:-0.70687252 7:-0.24761488 8:0.67767922 9:-0.49745982 
1 1:-0.58445999 2:-0.69882873 3:-0.73522144 4:0.1544491 5:0.287288 6:-0.68155022 7:-0.26900709 8:0.69399576 9:-0.47721837 
1 1:-0.29723257 2:-0.59476802 3:-0.77705253 4:0.31310596 5:0.097216337 6:-0.74674989 7:-0.071110834 8:0.4821401 9:-0.57328156 
1 1:-0.77478544 2:-0.8796526 3:-0.82755811 4:0.0024003857 5:0.40538999 6:-0.53522926 7:-0.40330433 8:0.79134783 9:-0.34253941 
1 1:-0.64518471 2:-0.75695343 3:-0.77174626 4:0.060178329 5:0.27442072 6:-0.47814916 7:-0.27722895 8:0.62102677 9:-0.35081669 
1 1:-0.84044278 2:-0.90169127 3:-0.87712569 4:0.10112155 5:0.41826869 6:-0.74745248 7:-0.39359199 8:0.86416123 9:-0.47182033 
1 1:-0.84329948 2:-0.92874458 3:-0.83317012 4:0.070898057 5:0.44932701 6:-0.72829211 7:-0.42684147 8:0.89269937 9:-0.44511643 
1 1:-0.93758202 2:-0.98613309 3:-0.88350732 4:0.020966772 5:0.45468633 6:-0.63649397 7:-0.43937709 8:0.87764727 9:-0.39640893 
1 1:-0.88397812 2:-0.91009204 3:-0.81538634 4:0.034989211 5:0.43741646 6:-0.64164008 7:-0.42095945 8:0.85881816 9:-0.40667811 
1 1:-0.77626305 2:-0.81928514 3:-0.7728268 4:0.1328192 5:0.3558779 6:-0.72852017 7:-0.32877134 8:0.78100016 9:-0.48267501 
1 1:-0.7810791 2:-0.81926691 3:-0.82101331 4:-0.01853207 5:0.40332319 6:-0.49109928 7:-0.40465297 8:0.77594895 9:-0.31667136 
1 1:-0.86457737 2:-0.87795452 3:-0.78217604 4:-0.088832569 5:0.45544463 6:-0.42019632 7:-0.46416632 8:0.81818675 9:-0.25563642 
1 1:-0.8371333 2:-0.86935751 3:-0.79510454 4:0.035401706 5:0.42234386 6:-0.6227284 7:-0.40901297 8:0.83540263 9:-0.39656957 
1 1:-0.8324629 2:-0.87926604 3:-0.82845176 4:-0.029723663 5:0.44358143 6:-0.52164403 7:-0.44126288 8:0.83425025 9:-0.32750617 
1 1:-0.33264583 2:-0.63314354 3:-0.71512696 4:-0.074755268 5:0.37479715 6:-0.34249821 7:-0.39664346 8:0.70029089 9:-0.22013549 
1 1:-0.62673161 2:-0.89346652 3:-0.84663164 4:0.067889859 5:0.32305449 6:-0.55706517 7:-0.32095208 8:0.69930966 9:-0.37671133 
1 1:-0.52879341 2:-0.74640857 3:-0.88216637 4:0.014619811 5:0.292203 6:-0.4112646 7:-0.30653222 8:0.62212445 9:-0.29127423 
1 1:-0.3985267 2:-0.7249407 3:-0.85730603 4:-0.02958949 5:0.32748685 6:-0.36995732 7:-0.34601121 8:0.65557467 9:-0.25891637 
1 1:-0.45480265 2:-0.70312236 3:-0.71362314 4:-0.049234452 5:0.21125505 6:-0.17894858 7:-0.25585065 8:0.46348095 9:-0.15960934 
1 1:-0.46392619 2:-0.73588162 3:-0.74145061 4:0.058223938 5:0.044701325 6:-0.17360958 7:-0.087656226 8:0.26350643 9:-0.21144068 
1 1:-0.38040725 2:-0.81022021 3:-0.75072896 4:0.077937737 5:0.018973003 6:-0.17894777 7:-0.061902665 8:0.23312204 9:-0.21972918 
1 1:-0.47472102 2:-0.8893225 3:-0.82728297 4:-0.0035287679 5:0.036512601 6:-0.040684562 7:-0.096241759 8:0.21900754 9:-0.12689927 
1 1:-0.42273897 2:-0.90151952 3:-0.99929864 4:-0.059256596 5:0.046391182 6:0.056669691 7:-0.11670632 8:0.19911046 9:-0.054383115 
1 1:-0.33483476 2:-0.8649236 3:-1.078671 4:0.030247246 5:0.082954653 6:-0.16831287 7:-0.1219738 8:0.30388757 9:-0.20023549 
1 1:-0.76319687 2:-0.79823846 3:-0.76409421 4:-0.037157996 5:0.30033301 6:-0.31943869 7:-0.3249546 8:0.60609836 9:-0.22881702 
1 1:-0.75150534 2:-0.78533679 3:-0.73387436 4:-0.045144911 5:0.28291665 6:-0.28083711 7:-0.31256831 8:0.57676767 9:-0.21077185 
1 1:-0.71424889 2:-0.76137981 3:-0.70963959 4:-0.0201265 5:0.287967 6:-0.33695816 7:-0.31061732 8:0.60104024 9:-0.25118149 
1 1:-0.75736462 2:-0.75446384 3:-0.6835257 4:-0.019051062 5:0.33289471 6:-0.39789077 7:-0.34713988 8:0.67183765 9:-0.28090532 
1 1:-0.72047134 2:-0.75095704 3:-0.75352512 4:0.016777676 5:0.35474222 6:-0.49739042 7:-0.35691717 8:0.72517137 9:-0.34033057 
1 1:-0.65934464 2:-0.71240828 3:-0.7501846 4:0.026440952 5:0.30524073 6:-0.45172299 7:-0.3143886 8:0.65326715 9:-0.3214905 
1 1:-0.66223218 2:-0.74073504 3:-0.76377714 4:0.071817624 5:0.31187131 6:-0.55020083 7:-0.30917514 8:0.68858063 9:-0.38524044 
1 1:-0.68759658 2:-0.74391802 3:-0.72247252 4:0.05016934 5:0.33963161 6:-0.54369392 7:-0.33761067 8:0.71921318 9:-0.37172344 
1 1:-0.63130093 2:-0.7845952 3:-0.73478623 4:0.024333043 5:0.29612588 6:-0.43562137 7:-0.30716927 8:0.63742547 9:-0.31284963 
1 1:-0.63136293 2:-0.81884579 3:-0.75802833 4:0.088759422 5:0.31817635 6:-0.59198069 7:-0.31050381 8:0.70621532 9:-0.40886523 
1 1:-0.64286348 2:-0.81900406 3:-0.77949257 4:0.11170414 5:0.34746889 6:-0.67572772 7:-0.33001047 8:0.76211389 9:-0.451815 
1 1:-0.64184174 2:-0.82149192 3:-0.75592479 4:0.078317899 5:0.32358147 6:-0.57839174 7:-0.31773461 8:0.70881805 9:-0.39766348 
1 1:-0.66862551 2:-0.81468724 3:-0.85129482 4:0.075791088 5:0.31880517 6:-0.56713972 7:-0.3137234 8:0.70187565 9:-0.39564621 
1 1:-0.66220986 2:-0.76052904 3:-0.75874431 4:0.094028287 5:0.27667054 6:-0.54808209 7:-0.27380438 8:0.64643514 9:-0.39600349 
1 1:-0.66269059 2:-0.7673882 3:-0.8426796 4:0.051547045 5:0.30396603 6:-0.4997389 7:-0.30624227 8:0.66419403 9:-0.35485768 
1 1:-0.61786767 2:-0.74484611 3:-0.78927645 4:0.10104623 5:0.26299993 6:-0.54407744 7:-0.26085021 8:0.62721948 9:-0.39428621 
1 1:-0.66749045 2:-0.72948696 3:-0.73145026 4:0.0652872 5:0.23870457 6:-0.44151183 7:-0.24694158 8:0.56998263 9:-0.33764425 
1 1:-0.83058648 2:-0.81155278 3:-0.84751408 4:0.032753413 5:0.39853977 6:-0.58633113 7:-0.38974647 8:0.79918983 9:-0.38258789 
1 1:-0.84663019 2:-0.81902977 3:-0.84221508 4:-0.018693957 5:0.42247731 6:-0.51584908 7:-0.4204273 8:0.8055827 9:-0.32809593 
1 1:-0.89047179 2:-0.82995856 3:-0.86626643 4:-0.061552382 5:0.45713332 6:-0.4763934 7:-0.45862044 8:0.83561925 9:-0.2933127 
1 1:-0.42061901 2:-0.25334389 3:-0.55791828 4:-0.10567572 5:0.31322207 6:-0.20071387 7:-0.32043205 8:0.54927598 9:-0.15319727 
1 1:-0.12089782 2:-0.28652174 3:-0.51986812 4:0.1515752 5:-0.050579783 6:-0.23363922 7:0.019695608 8:0.17383625 9:-0.30135699 
1 1:-0.031261301 2:-0.17081314 3:-0.34607228 4:0.28134841 5:-0.19484533 6:-0.30163291 7:0.17843746 8:0.014518337 9:-0.39431402 
1 1:-0.16406196 2:-0.53090253 3:-0.47247842 4:-0.51130837 5:0.59300571 6:0.23582379 7:-0.6673865 8:0.74289729 9:0.28139843 
1 1:0.11607518 2:-0.40411443 3:-0.34902102 4:-0.21930456 5:0.2752224 6:0.073891269 7:-0.34016776 8:0.45182444 9:0.033895803 
1 1:-0.55106378 2:-0.83851103 3:-0.59434315 4:-0.35118526 5:0.43812673 6:0.12165997 7:-0.51190626 8:0.62941905 9:0.12662986 
1 1:0.22427998 2:-0.5123561 3:-0.41921178 4:0.048932903 5:-0.38236377 6:0.4037481 7:0.27743003 8:-0.41389815 9:0.040326 
1 1:-0.025581159 2:-0.54731562 3:-0.64554278 4:-0.094465742 5:-0.1365273 6:0.36576348 7:0.033156962 8:-0.12733182 9:0.12138305 
1 1:0.076958264 2:-0.49143856 3:-0.65886081 4:0.00039731955 5:-0.17194725 6:0.22439181 7:0.091187304 8:-0.12888902 9:0.0025459518 
1 1:-0.045719741 2:-0.54295689 3:-0.62901285 4:0.031422215 5:-0.12298761 6:0.098912703 7:0.055136956 8:-0.029264599 9:-0.071317794 
1 1:-0.077911854 2:-0.52973338 3:-0.60595478 4:0.020226804 5:-0.15257246 6:0.15979075 7:0.0783573 8:-0.087431659 9:-0.032726337 
1 1:0.084269445 2:-0.30371969 3:-0.56160611 4:0.18741762 5:-0.12457645 6:-0.20771876 7:0.096368272 8:0.063572811 9:-0.29638669 
1 1:-0.018651583 2:-0.36969553 3:-0.63980767 4:0.096234232 5:-0.055517559 6:-0.11765792 7:0.025951429 8:0.10371674 9:-0.20945058 
1 1:-0.0032142998 2:-0.36712329 3:-0.67824307 4:0.16138699 5:-0.1250762 6:-0.15555067 7:0.10719567 8:0.027766859 9:-0.26539307 
1 1:0.011833339 2:-0.36359587 3:-0.66518683 4:0.13643532 5:-0.13016843 6:-0.099506902 7:0.1040326 8:-0.0079335505 9:-0.20534514 
1 1:-0.019871539 2:-0.36006342 3:-0.67904102 4:0.077589407 5:-0.088818524 6:-0.037173777 7:0.054861646 8:0.017482668 9:-0.14072344 
1 1:0.034138862 2:-0.37040058 3:-0.65217378 4:0.12969359 5:-0.11015866 6:-0.11235529 7:0.088740642 8:0.0097358901 9:-0.1998664 
1 1:0.097524868 2:-0.33785808 3:-0.68805149 4:0.18332393 5:-0.19602038 6:-0.10610692 7:0.17622411 8:-0.10652587 9:-0.20848974 
1 1:0.07412169 2:-0.3326873 3:-0.69510331 4:0.24627446 5:-0.21534313 6:-0.20539357 7:0.20507553 8:-0.085099203 9:-0.3008076 
1 1:0.145681 2:-0.31375856 3:-0.63651177 4:0.25609691 5:-0.27084125 6:-0.15219236 7:0.24243362 8:-0.13569695 9:-0.3030672 
1 1:0.087222477 2:-0.34529407 3:-0.6962592 4:0.10371251 5:-0.15459463 6:-0.0027786471 7:0.10841019 8:-0.049569184 9:-0.15215722 
1 1:0.026909549 2:-0.34984228 3:-0.58395259 4:0.17570161 5:-0.19509881 6:-0.092228759 7:0.15148474 8:-0.046004654 9:-0.24743362 
1 1:0.028839762 2:-0.34138366 3:-0.58910437 4:0.15013108 5:-0.18467845 6:-0.055264157 7:0.13635994 8:-0.046545019 9:-0.21504389 
1 1:0.16604728 2:-0.30827368 3:-0.54336085 4:0.2300547 5:-0.20800554 6:-0.18289897 7:0.17979372 8:-0.043763909 9:-0.30989758 
1 1:0.2668397 2:-0.22751303 3:-0.47346527 4:0.43816679 5:-0.47823072 6:-0.24105911 7:0.47970026 8:-0.39035069 9:-0.41726776 
1 1:0.37569998 2:-0.047247748 3:-0.2863122 4:0.39833879 5:-0.16552269 6:-0.57153339 7:0.18059177 8:0.10803406 9:-0.53880495 
1 1:0.32835937 2:-0.075116262 3:-0.31947161 4:0.39247801 5:-0.12606074 6:-0.61158545 7:0.14439441 8:0.17025508 9:-0.55636897 
1 1:0.25088928 2:-0.13307185 3:-0.28764292 4:0.32255463 5:-0.11748221 6:-0.48443697 7:0.11906891 8:0.14556392 9:-0.46652637 
1 1:0.16162147 2:-0.19218539 3:-0.30115004 4:0.28001483 5:-0.06279374 6:-0.47183163 7:0.06067806 8:0.21312856 9:-0.44574942 
1 1:0.28737394 2:-0.12530739 3:-0.36309527 4:0.47329841 5:-0.18649258 6:-0.69242982 7:0.21890268 8:0.1098571 9:-0.6215278 
1 1:0.036210672 2:-0.2661614 3:-0.36201048 4:0.23964472 5:-0.017993918 6:-0.45057713 7:0.013355654 8:0.26079722 9:-0.41829934 
1 1:-0.07896135 2:-0.3353077 3:-0.38538376 4:0.1446183 5:0.058975307 6:-0.3632646 7:-0.076980454 8:0.33544765 9:-0.34142761 
1 1:-0.051639393 2:-0.38057234 3:-0.41167832 4:0.23483893 5:-0.068770918 6:-0.3746063 7:0.054935975 8:0.17105166 9:-0.37077089 
1 1:-0.65178709 2:-0.80708471 3:-0.57229433 4:0.26822657 5:-0.41703383 6:0.015149851 7:0.36561044 8:-0.35092477 9:-0.23806696 
1 1:-0.41589354 2:-0.75440953 3:-0.59422934 4:0.25838161 5:-0.46755814 6:0.10076232 7:0.40664194 8:-0.43653398 9:-0.19558467 
1 1:-0.20802335 2:-0.70036794 3:-0.81852581 4:0.3805171 5:-0.4954604 6:-0.10442047 7:0.46684571 8:-0.41829452 9:-0.34859545 
1 1:0.080049207 2:-0.54133045 3:-0.55129969 4:0.26886 5:-0.5152524 6:0.14245124 7:0.45422186 8:-0.49457484 9:-0.2080453 
1 1:0.2010972 2:-0.40727049 3:-0.35456626 4:0.20960841 5:-0.48050819 6:0.21423315 7:0.40999848 8:-0.46934563 9:-0.15347425 
1 1:0.20331487 2:-0.38851485 3:-0.23500926 4:0.23973415 5:-0.53609495 6:0.22737067 7:0.46691232 8:-0.54021324 9:-0.16622265 
1 1:0.12110066 2:-0.39783591 3:-0.4139154 4:0.21225282 5:-0.52416301 6:0.26613823 7:0.44838754 8:-0.53489298 9:-0.13550704 
1 1:0.23487336 2:-0.53749878 3:-0.24212541 4:0.37179581 5:-0.59850987 6:0.047716678 7:0.55674953 8:-0.58003676 9:-0.29418843 
1 1:-0.17788456 2:-0.69980761 3:-0.80012852 4:0.32681355 5:-0.50494821 6:0.014275782 7:0.46442362 8:-0.45090246 9:-0.29472413 
1 1:-0.16799472 2:-0.34914238 3:-0.61800004 4:0.024958045 5:0.32208188 6:-0.47083116 7:-0.32809191 8:0.68080468 9:-0.33410137 
1 1:-0.20691156 2:-0.36730218 3:-0.61703501 4:-0.0057296937 5:0.31962264 6:-0.40688207 7:-0.33289048 8:0.66031602 9:-0.29341043 
1 1:-0.22420734 2:-0.38032142 3:-0.62427326 4:-0.01830173 5:0.32462649 6:-0.38855169 7:-0.33988844 8:0.66088892 9:-0.27965621 
1 1:-0.15504811 2:-0.36324368 3:-0.60702383 4:0.030628499 5:0.29597515 6:-0.44788263 7:-0.30411852 8:0.6424876 9:-0.32679762 
1 1:-0.1571405 2:-0.40215983 3:-0.61029592 4:-0.07364482 5:0.36765342 6:-0.33534557 7:-0.38791687 8:0.69422217 9:-0.22927188 
1 1:-0.14490799 2:-0.43475645 3:-0.59524548 4:-0.24746204 5:0.50569393 6:-0.17204213 7:-0.54067575 8:0.80019291 9:-0.06894686 
1 1:-0.19681708 2:-0.37957237 3:-0.5933172 4:-0.031392293 5:0.35686602 6:-0.40484301 7:-0.36934737 8:0.70182955 9:-0.2794335 
1 1:-0.093706464 2:-0.37112481 3:-0.58451363 4:0.029380071 5:0.1703967 6:-0.28104667 7:-0.19909583 8:0.44724488 9:-0.25380892 
1 1:0.056033221 2:-0.27729252 3:-0.56474067 4:0.11804595 5:0.039469744 6:-0.28514841 7:-0.066338999 8:0.29543826 9:-0.30375322 
1 1:0.058628265 2:-0.25852905 3:-0.5339614 4:0.17129829 5:-0.014937604 6:-0.31932155 7:-0.0069551879 8:0.23661662 9:-0.33969172 
1 1:0.08913931 2:-0.23660335 3:-0.46843608 4:0.17509953 5:-0.0085089914 6:-0.3352583 7:-0.010957994 8:0.24856433 9:-0.34921949 
1 1:0.39316929 2:-0.12582765 3:-0.56656177 4:0.55739118 5:-0.29107033 6:-0.72196909 7:0.33057898 8:-0.0089460919 9:-0.67686165 
1 1:0.413826 2:-0.10217321 3:-0.60083148 4:0.57988681 5:-0.32510879 6:-0.72193561 7:0.36699037 8:-0.052266633 9:-0.68803847 
1 1:0.44957109 2:-0.086866426 3:-0.58280461 4:0.5903388 5:-0.34394273 6:-0.71796872 7:0.38672189 8:-0.077283793 9:-0.69178759 
1 1:0.52460515 2:-0.013226187 3:-0.50933973 4:0.6464965 5:-0.38162173 6:-0.77978667 7:0.43411929 8:-0.11278813 9:-0.73760419 
1 1:0.60701635 2:0.032619201 3:-0.46840346 4:0.68860178 5:-0.45129577 6:-0.77191799 7:0.50834519 8:-0.2044889 9:-0.75531328 
1 1:-0.068563071 2:-0.60430384 3:-0.43888968 4:-0.097969833 5:0.071653895 6:0.10021672 7:-0.14853935 8:0.22096924 9:-0.020637777 
1 1:-0.18018252 2:-0.60429146 3:-0.35426757 4:-0.16789548 5:0.17983549 6:0.097002633 7:-0.25565415 8:0.34701969 9:0.014322453 
1 1:-0.2063538 2:-0.59880914 3:-0.31053552 4:-0.21103831 5:0.25224796 6:0.087603021 7:-0.32742576 8:0.43361452 9:0.034550508 
1 1:-0.2676685 2:-0.65346307 3:-0.36422184 4:-0.27403012 5:0.32772008 6:0.11347936 7:-0.40219014 8:0.50492017 9:0.083915346 
1 1:-0.24038557 2:-0.61980986 3:-0.38027692 4:-0.15451583 5:0.24780801 6:-0.018442271 7:-0.30712171 8:0.45401211 9:-0.038379785 
1 1:-0.2212047 2:-0.58908829 3:-0.36517197 4:-0.16940689 5:0.20322104 6:0.069385124 7:-0.27507521 8:0.36878153 9:0.022296534 
1 1:-0.24078228 2:-0.55695991 3:-0.39882903 4:-0.063398492 5:0.13247782 6:-0.047809473 7:-0.18745849 8:0.33019605 9:-0.10288617 
1 1:-0.30253897 2:-0.58190595 3:-0.43646764 4:-0.052305288 5:0.083943123 6:-0.0062372314 7:-0.14424892 8:0.25978674 9:-0.087705924 
1 1:-0.24293843 2:-0.54150596 3:-0.46388288 4:-0.066001758 5:0.041534337 6:0.076375157 7:-0.11240229 8:0.18870662 9:-0.047795471 
1 1:-0.21496283 2:-0.5343466 3:-0.41390811 4:-0.0045188117 5:0.072415247 6:-0.085717039 7:-0.12309945 8:0.2743764 9:-0.15370701 
1 1:-0.1358415 2:-0.45310955 3:-0.29598061 4:-0.03868907 5:0.094330567 6:-0.046779162 7:-0.15185639 8:0.2908295 9:-0.11829231 
1 1:-0.16342738 2:-0.43691684 3:-0.52535458 4:0.13213183 5:0.0024126635 6:-0.26452127 7:-0.031149405 8:0.24334553 9:-0.29924698 
1 1:-0.15368239 2:-0.40480443 3:-0.42721536 4:0.19833385 5:0.024126635 6:-0.4239541 7:-0.034895316 8:0.31122086 9:-0.39303459 
1 1:-0.11917641 2:-0.66679601 3:-0.66224903 4:0.14360749 5:-0.025893492 6:-0.25018235 7:-0.006318651 8:0.2007604 9:-0.28734419 
1 1:0.18992345 2:-0.41820164 3:-0.7034356 4:0.31491384 5:-0.2569761 6:-0.28673723 7:0.23713283 8:-0.074300125 9:-0.38390991 
1 1:-0.15856072 2:-0.62337368 3:-0.44272504 4:-0.043140799 5:-0.008578539 6:0.096724922 7:-0.068053792 8:0.12814515 9:-0.049735503 
1 1:0.3819731 2:-0.26257613 3:-0.35847756 4:0.32899463 5:-0.30469325 6:-0.25214741 7:0.28658545 8:-0.13644704 9:-0.394134 
1 1:0.31339472 2:-0.39636661 3:-0.91631251 4:0.4219066 5:-0.099381292 6:-0.70474371 7:0.14127289 8:0.19459058 9:-0.58628135 
1 1:-0.39310301 2:-0.42822056 3:-0.55007322 4:0.25965735 5:0.071261873 6:-0.60700549 7:-0.061033806 8:0.41539085 9:-0.49439915 
1 1:0.27123989 2:-0.045587662 3:-0.48824083 4:0.46476139 5:-0.14972541 6:-0.72365857 7:0.18231392 8:0.16753788 9:-0.63147785 
1 1:0.26165653 2:-0.050999968 3:-0.46020699 4:0.45821721 5:-0.19236957 6:-0.65489231 7:0.21935927 8:0.098979114 9:-0.60619685 
1 1:0.027396772 2:-0.28130505 3:-0.49583824 4:0.53888462 5:-0.10413496 6:-0.93001839 7:0.15717183 8:0.26720051 9:-0.7281754 
1 1:-0.52082847 2:-0.60518196 3:-0.72496753 4:-0.47994844 5:0.18357268 6:0.70965622 7:-0.3497979 8:0.14855579 9:0.5079958 
1 1:0.60292085 2:0.00083588539 3:-0.34205917 4:-0.026415575 5:0.17393272 6:-0.17525665 7:-0.20678926 8:0.40366743 9:-0.17250965 
1 1:0.38907986 2:-0.38818221 3:-0.30848068 4:-0.41679457 5:0.4193798 6:0.27603638 7:-0.51321897 8:0.55295519 9:0.24383695 
1 1:0.30682444 2:-0.41820747 3:-0.25789134 4:-0.38113228 5:0.46543881 6:0.14517653 7:-0.53932665 8:0.64496277 9:0.16061518 
1 1:0.21440788 2:-0.41170796 3:-0.32919079 4:-0.36818493 5:0.45601397 6:0.1318899 7:-0.52832666 8:0.64154727 9:0.14276003 
1 1:0.40402044 2:-0.21089001 3:-0.34600736 4:-0.27019022 5:0.34490662 6:0.083385416 7:-0.41183742 8:0.53250837 9:0.062759572 
1 1:-0.62256854 2:-0.79816695 3:-0.69278014 4:-0.21664918 5:0.50397375 6:-0.23076852 7:-0.53166075 8:0.81725815 9:-0.11331692 
1 1:-0.61800534 2:-0.80960791 3:-0.69881557 4:-0.20512338 5:0.47707737 6:-0.21837405 7:-0.50686664 8:0.78183002 9:-0.11205162 
1 1:-0.63263451 2:-0.78265471 3:-0.70005766 4:-0.15529582 5:0.43157161 6:-0.25742062 7:-0.45930971 8:0.74421061 9:-0.15503507 
1 1:-0.64439782 2:-0.772091 3:-0.69439673 4:-0.13225122 5:0.40691749 6:-0.27075636 7:-0.43357849 8:0.72055653 9:-0.17335219 
1 1:-0.58843084 2:-0.77348208 3:-0.68449776 4:-0.08555843 5:0.34130103 6:-0.27727708 7:-0.36780165 8:0.64555908 9:-0.1984243 
1 1:-0.5441096 2:-0.64763717 3:-0.6744746 4:-0.19400227 5:0.2674161 6:0.034036056 7:-0.33185651 8:0.46531968 9:-0.0036605341 
1 1:-0.5592935 2:-0.72187087 3:-0.65950879 4:-0.20592267 5:0.31491549 6:-0.0045441218 7:-0.37475787 8:0.53225496 9:-0.014283734 
1 1:-0.57912016 2:-0.789144 3:-0.6474609 4:-0.078924978 5:0.28850912 6:-0.22130699 7:-0.32442202 8:0.56854955 9:-0.17371862 
1 1:-0.5392316 2:-0.77363685 3:-0.56083253 4:-0.06214988 5:0.22196739 6:-0.16741028 7:-0.26492132 8:0.47757517 9:-0.16176864 
1 1:-0.51024641 2:-0.76725315 3:-0.47880137 4:-0.12149334 5:0.15668164 6:0.035479244 7:-0.22582513 8:0.34208143 9:-0.040568429 
1 1:-0.49557857 2:-0.77458436 3:-0.42980185 4:-0.12990537 5:0.046805685 6:0.19593933 7:-0.13673948 8:0.16697212 9:0.035557423 
1 1:-0.6181691 2:-0.82827302 3:-0.6476476 4:-0.23397592 5:0.48722349 6:-0.17455549 7:-0.52182103 8:0.78077275 9:-0.07924389 
1 1:-0.62095807 2:-0.85953228 3:-0.66990362 4:-0.2398489 5:0.50594999 6:-0.18744349 7:-0.53841 8:0.80589835 9:-0.08221882 
1 1:-0.62779699 2:-0.86298519 3:-0.71661529 4:-0.083796582 5:0.3590448 6:-0.30398795 7:-0.38326701 8:0.67474225 9:-0.20981948 
1 1:-0.62052295 2:-0.86498288 3:-0.69793397 4:-0.12426883 5:0.37814615 6:-0.2488955 7:-0.40827415 8:0.68002499 9:-0.16551247 
1 1:-0.60842358 2:-0.86388776 3:-0.66608431 4:-0.13221553 5:0.38502944 6:-0.24217847 7:-0.41608322 8:0.6852831 9:-0.15707837 
1 1:-0.59122574 2:-0.86304387 3:-0.6630982 4:-0.16329768 5:0.40163042 6:-0.20239612 7:-0.43695834 8:0.69237504 9:-0.12410741 
1 1:-0.60728712 2:-0.84240649 3:-0.69562368 4:-0.16114213 5:0.3843711 6:-0.18407177 7:-0.42203586 8:0.66823548 9:-0.11912894 
1 1:-0.58957524 2:-0.79649992 3:-0.64453426 4:-0.065751177 5:0.35268816 6:-0.33137938 7:-0.37343976 8:0.67595996 9:-0.23216185 
1 1:-0.58205271 2:-0.81075398 3:-0.63516312 4:-0.064848703 5:0.32769542 6:-0.30045321 7:-0.3525062 8:0.63758985 9:-0.21843152 
1 1:-0.55712186 2:-0.81058334 3:-0.62912626 4:-0.051620486 5:0.33610037 6:-0.33763247 7:-0.35643303 8:0.65771761 9:-0.24036343 
1 1:-0.55512879 2:-0.83407072 3:-0.6383766 4:-0.061743842 5:0.30322856 6:-0.2745738 7:-0.33165319 8:0.60205127 9:-0.20877179 
1 1:-0.57847454 2:-0.83544206 3:-0.61687264 4:-0.054020264 5:0.33115076 6:-0.32640499 7:-0.35283752 8:0.64913851 9:-0.23502802 
1 1:-0.55696929 2:-0.84751493 3:-0.60321879 4:-0.062278517 5:0.33834513 6:-0.31947858 7:-0.3609737 8:0.65486701 9:-0.22661509 
1 1:-0.58267078 2:-0.89227628 3:-0.61560717 4:-0.075034511 5:0.38110939 6:-0.35020747 7:-0.39876752 8:0.71214125 9:-0.23344037 
1 1:-0.58046137 2:-0.88206005 3:-0.68599548 4:-0.067643215 5:0.33283796 6:-0.30165383 7:-0.35762944 8:0.64232337 9:-0.21482017 
1 1:-0.56330455 2:-0.85499308 3:-0.65096352 4:-0.075700921 5:0.36786092 6:-0.33154819 7:-0.38852531 8:0.69213595 9:-0.22487838 
1 1:-0.5396819 2:-0.86346704 3:-0.66281255 4:-0.060199985 5:0.30641094 6:-0.28179437 7:-0.33457286 8:0.60380386 9:-0.2052991 
1 1:-0.68937146 2:-0.897001 3:-0.53556555 4:-0.39733429 5:0.40585817 6:0.25522295 7:-0.49918439 8:0.55014132 9:0.21874491 
1 1:-0.5293216 2:-0.81629162 3:-0.6932148 4:0.0013215704 5:0.29233732 6:-0.38512352 7:-0.30795615 8:0.62102988 9:-0.28666248 
1 1:-0.69714136 2:-0.87828111 3:-0.57174278 4:-0.38337267 5:0.38599074 6:0.25359707 7:-0.48034453 8:0.52895767 9:0.21111884 
1 1:-0.52040372 2:-0.82613269 3:-0.69105903 4:-0.016678832 5:0.30843258 6:-0.3705677 7:-0.32588513 8:0.63604274 9:-0.27170069 
1 1:-0.64434643 2:-0.82253402 3:-0.58372542 4:-0.37976079 5:0.3801828 6:0.25405106 7:-0.47553142 8:0.52092551 9:0.21309313 
1 1:-0.61818371 2:-0.80630886 3:-0.5663611 4:-0.35090948 5:0.37455817 6:0.20431692 7:-0.46371747 8:0.53163636 9:0.1723913 
1 1:-0.60509352 2:-0.83005065 3:-0.53459072 4:-0.36869905 5:0.35941578 6:0.25934138 7:-0.45691052 8:0.49533856 9:0.21251598 
1 1:-0.57717068 2:-0.82220013 3:-0.64841805 4:-0.0016006925 5:0.21500625 6:-0.27812443 7:-0.24491492 8:0.50101061 9:-0.23862508 
1 1:-0.50631708 2:-0.79391344 3:-0.64857939 4:-0.0064476239 5:0.284878 6:-0.35998522 7:-0.30460792 8:0.60549815 9:-0.27040268 
1 1:-0.61481244 2:-0.78086736 3:-0.6352959 4:-0.063679561 5:0.31772512 6:-0.28971712 7:-0.34522477 8:0.62331141 9:-0.21226047 
1 1:-0.63474103 2:-0.81566869 3:-0.6822559 4:-0.16299934 5:0.37589606 6:-0.1693037 7:-0.41636358 8:0.6551104 9:-0.11132454 
1 1:-0.6297119 2:-0.8070934 3:-0.66533424 4:-0.1770075 5:0.40058045 6:-0.17389044 7:-0.43974929 8:0.68453132 9:-0.10653784 
1 1:-0.64617774 2:-0.78696741 3:-0.67624659 4:-0.15797057 5:0.41685 6:-0.23285874 7:-0.44808115 8:0.72131316 9:-0.14420308 
1 1:-0.59584778 2:-0.76303922 3:-0.65050424 4:-0.15897623 5:0.3870671 6:-0.19188672 7:-0.42414143 8:0.67531379 9:-0.12532867 
1 1:-0.46213878 2:-0.73289395 3:-0.61068134 4:-0.16128181 5:0.28919188 6:-0.059218507 7:-0.34525106 8:0.52265675 9:-0.061525909 
1 1:-0.38041073 2:-0.71470356 3:-0.60539672 4:-0.13359586 5:0.2392803 6:-0.048680747 7:-0.29711487 8:0.4626168 9:-0.072155409 
1 1:-0.32394606 2:-0.69669627 3:-0.60077964 4:-0.073985542 5:0.17006458 6:-0.076053991 7:-0.22390051 8:0.39083059 9:-0.11756439 
1 1:-0.24104888 2:-0.70756356 3:-0.60353545 4:-0.046555094 5:0.1187197 6:-0.063134596 7:-0.17351926 8:0.32659069 9:-0.1265943 
1 1:-0.20809015 2:-0.69046138 3:-0.58452974 4:-0.01229533 5:0.085371716 6:-0.087285783 7:-0.13597649 8:0.29381799 9:-0.15592354 
1 1:-0.1870229 2:-0.66734231 3:-0.5797499 4:0.018094393 5:0.054012536 6:-0.10638133 7:-0.10150257 8:0.26189982 9:-0.18012423 
1 1:-0.11649249 2:-0.65960691 3:-0.55226896 4:0.048288103 5:0.015106975 6:-0.11521177 7:-0.061078293 8:0.21776606 9:-0.19846263 
1 1:-0.066494134 2:-0.6263706 3:-0.52466994 4:0.087678673 5:-0.036976593 6:-0.12499432 7:-0.0070699117 8:0.15773606 9:-0.22136825 
1 1:-1.0405875 2:-1.0271602 3:-1.0712733 4:-0.8311587 5:0.7427586 6:0.67279321 7:-0.87089704 8:0.73646445 9:0.71596147 
1 1:-1.0207829 2:-1.0950974 3:-1.0239009 4:-0.75217605 5:0.65758604 6:0.62796797 7:-0.79054522 8:0.66710173 9:0.65202139 
1 1:-1.1125456 2:-1.0542928 3:-0.69269655 4:-0.72323856 5:0.79622282 6:0.38924444 7:-0.88205499 8:0.88949603 9:0.51017169 
1 1:-0.80267876 2:-0.81679901 3:-0.67620035 4:-0.17842765 5:0.40158125 6:-0.17238993 7:-0.43938576 8:0.67984828 9:-0.10028639 
1 1:-0.84901193 2:-0.82546102 3:-0.7144154 4:-0.19790203 5:0.43444029 6:-0.17685868 7:-0.47126334 8:0.7202778 9:-0.094248386 
1 1:-0.73215867 2:-0.73796835 3:-0.60496664 4:-0.13898481 5:0.37490019 6:-0.2155244 7:-0.4108973 8:0.6638092 9:-0.1357603 
1 1:-0.67064687 2:-0.69830983 3:-0.72598837 4:-0.19539188 5:0.29089793 6:0.0060514853 7:-0.35625087 8:0.50212247 9:-0.007818394 
1 1:-0.6688619 2:-0.70107056 3:-0.60495447 4:-0.25181484 5:0.27679543 6:0.13616941 7:-0.35926061 8:0.44669238 9:0.081444651 
1 1:-0.62480455 2:-0.65815492 3:-0.57772388 4:-0.20195689 5:0.28954297 6:0.020816944 7:-0.35591825 8:0.49514291 9:0.0019354611 
1 1:-0.58697227 2:-0.65213347 3:-0.86284645 4:-0.071338981 5:0.26227617 6:-0.20198407 7:-0.30116095 8:0.53280206 9:-0.16877421 
1 1:-0.61035145 2:-0.64644516 3:-0.769747 4:-0.13944821 5:0.31066748 6:-0.13053534 7:-0.35689746 8:0.56617717 9:-0.10235796 
1 1:-0.55821951 2:-0.60637374 3:-0.80401277 4:-0.18479115 5:0.22615306 6:0.069815253 7:-0.29993858 8:0.40944448 9:0.013339322 
1 1:-0.47033038 2:-0.57375339 3:-0.76943088 4:-0.20160692 5:0.23331525 6:0.093718908 7:-0.30976411 8:0.41017816 9:0.032756862 
-1 1:0.82026573 2:-0.050832403 3:-0.44216757 4:0.79526752 5:-0.70977062 6:-0.64469791 7:0.77511435 8:-0.57086401 9:-0.76386906 
-1 1:0.76840782 2:-0.053869942 3:-0.32586255 4:0.77640925 5:-0.69245087 6:-0.6300471 7:0.75531583 8:-0.55072619 9:-0.75267569 
-1 1:0.79129533 2:-0.0093869042 3:-0.34993179 4:0.6977554 5:-0.61128348 6:-0.5806303 7:0.65989829 8:-0.45447208 9:-0.69753448 
-1 1:0.77482634 2:-0.044480142 3:-0.30005853 4:0.6826171 5:-0.5957936 6:-0.57094617 7:0.64062798 8:-0.43431024 9:-0.68747998 
-1 1:0.63611583 2:-0.085534522 3:-0.39543687 4:0.52847648 5:-0.39505979 6:-0.52863934 7:0.41968014 8:-0.18551733 9:-0.59857968 
-0.065589191702592378 1:0.84157338 2:0.28481868 3:-0.17389754 4:0.20591535 5:-0.014034331 6:-0.38901012 7:0.023285419 8:0.21671154 9:-0.37303673 
-1 1:0.90814102 2:0.30819117 3:-0.18255123 4:0.30147998 5:-0.14090585 6:-0.41207235 7:0.14870903 8:0.080945458 9:-0.43168178 
-1 1:0.96440833 2:0.438548 3:-0.24777101 4:0.57903299 5:-0.36178066 6:-0.67224734 7:0.39954248 8:-0.11254297 9:-0.66577432 
-1 1:1.0473543 2:0.51887135 3:-0.28372481 4:0.63453844 5:-0.377053 6:-0.76210181 7:0.42610517 8:-0.11250888 9:-0.72128864 
-0.509239432824238 1:1.0458812 2:0.55094261 3:-0.27444731 4:0.61071456 5:-0.36798616 6:-0.72682223 7:0.41295539 8:-0.10746586 9:-0.70138108 
-1 1:0.8584186 2:0.29475189 3:-0.2599191 4:0.6165555 5:-0.34710319 6:-0.76571431 7:0.39261089 8:-0.076754101 9:-0.70487686 
-1 1:0.87026524 2:0.28864344 3:-0.20450211 4:0.65191825 5:-0.32314427 6:-0.86705532 7:0.38002604 8:-0.021697623 9:-0.76101885 
-0.072484820345111153 1:0.73961311 2:-0.11631084 3:-0.29295438 4:0.844157 5:-0.79487432 6:-0.63005966 7:0.86630636 8:-0.68294971 9:-0.78648744 
-0.64431833601457078 1:1.1739768 2:0.43257665 3:-0.38790683 4:0.82445884 5:-0.53893962 6:-0.92606169 7:0.62070711 8:-0.29053281 9:-0.86111924 
-1 1:0.88657448 2:0.0080226486 3:-0.2634523 4:0.31512117 5:-0.30949781 6:-0.21840364 7:0.2886498 8:-0.14869202 9:-0.3801137 
-1 1:0.74379637 2:-0.012872423 3:-0.23630541 4:0.2039048 5:-0.24061629 6:-0.088465875 7:0.19901711 8:-0.096673482 9:-0.27083087 
-1 1:0.32440496 2:0.52090635 3:-0.35209965 4:0.23617731 5:-0.22916815 6:-0.16731646 7:0.19744913 8:-0.061072595 9:-0.3208513 
-1 1:0.46403315 2:0.4918949 3:-0.3000543 4:0.28816716 5:-0.39289383 6:-0.055908125 7:0.35554403 8:-0.29092346 9:-0.3068699 
-0.048764009574413861 1:1.1862212 2:0.37369705 3:-0.40295424 4:0.8164593 5:-0.60635656 6:-0.82199106 7:0.68247354 8:-0.39831615 9:-0.82873716 
-0.023003679522413892 1:1.1853215 2:0.35721479 3:-0.40821873 4:0.85295066 5:-0.61470221 6:-0.88328322 7:0.69870879 8:-0.39783551 9:-0.86335614 
-1 1:0.66772557 2:0.3769649 3:-0.65661615 4:0.77946208 5:-0.38927192 6:-1.0329092 7:0.46966084 8:-0.073884247 9:-0.87005447 
-1 1:0.65269075 2:0.35562785 3:-0.57622587 4:0.75876372 5:-0.39208336 6:-0.98826784 7:0.46830453 8:-0.085308345 9:-0.85012064 
-0.48382757105662016 1:1.3880644 2:1.1512832 3:-0.91163349 4:1.5745339 5:-0.99808016 6:-1.8094883 7:1.205946 8:-0.7916482 9:-1.3329389 
-1 1:1.1447363 2:0.18475838 3:-0.74573536 4:0.73617083 5:-0.55198418 6:-0.73426832 7:0.60361665 8:-0.3576823 9:-0.72491153 
-0.35842866684426922 1:0.67305788 2:-0.032643489 3:-0.099910806 4:0.48114617 5:-0.62261565 6:-0.13713372 7:0.61725021 8:-0.60347548 9:-0.38542709 
-0.99961222192767341 1:0.62419139 2:0.021837146 3:-0.36663332 4:0.39498287 5:-0.29145218 6:-0.40006728 7:0.31792785 8:-0.15964718 9:-0.42484688 
-0.26669503733801625 1:1.1555897 2:0.52468204 3:-0.4474853 4:0.57662045 5:-0.49338156 6:-0.49522505 7:0.52245395 8:-0.34275198 9:-0.57779321 
-0.084855584539841544 1:1.2248276 2:0.56575206 3:-0.48967612 4:0.7958966 5:-0.66660884 6:-0.70243584 7:0.73207028 8:-0.52064142 9:-0.74917542 
-1 1:0.9588272 2:0.52647062 3:-0.60795462 4:0.29298399 5:-0.19459718 6:-0.32498424 7:0.18399253 8:-0.0084557393 9:-0.37152097 
-1 1:0.68198184 2:0.2147105 3:-0.2552689 4:0.71940617 5:-0.562631 6:-0.68715623 7:0.61695489 8:-0.37616986 9:-0.72508616 
-1 1:0.88782955 2:0.62686531 3:-0.65040802 4:0.91359758 5:-0.7128238 6:-0.87487396 7:0.80258334 8:-0.54467463 9:-0.86043012 
-1 1:0.26255018 2:0.097980599 3:-0.11980925 4:0.32546824 5:-0.11036896 6:-0.49951321 7:0.11554497 8:0.16532011 9:-0.48874328 
-1 1:0.29841714 2:0.10683224 3:-0.052785452 4:0.20254692 5:-0.20433038 6:-0.13327206 7:0.16425932 8:-0.048033656 9:-0.27106972 
-1 1:0.41583114 2:0.21947993 3:-0.0012220511 4:0.29831831 5:-0.2141827 6:-0.30990591 7:0.19530778 8:-0.019957285 9:-0.3779296 
-1 1:0.88933831 2:0.17786833 3:-0.63632774 4:1.0344607 5:-0.77613503 6:-1.0311933 7:0.8930116 8:-0.59674317 9:-0.97129926 
-0.043785891129842755 1:0.9690064 2:0.26181716 3:-0.60043096 4:1.1758259 5:-0.81694178 6:-1.2575408 7:0.96163577 8:-0.60748867 9:-1.0985016 
-0.11321310971529155 1:0.96943435 2:0.25688477 3:-0.55792131 4:1.0393594 5:-0.72459773 6:-1.108343 7:0.84431039 8:-0.50884569 9:-1.0011926 
-1 1:0.9928161 2:0.26975125 3:-0.57312526 4:1.0321209 5:-0.70544957 6:-1.1190806 7:0.82413322 8:-0.47870265 9:-1.0041864 
-0.058213444056942003 1:0.99402541 2:0.26331397 3:-0.5607304 4:1.0872845 5:-0.73512269 6:-1.1894098 7:0.86422341 8:-0.5069627 9:-1.0455901 
-0.28680355852556544 1:1.1833951 2:0.38512628 3:-0.71120753 4:1.271297 5:-0.89028786 6:-1.3504756 7:1.0509829 8:-0.69507765 9:-1.1539394 
-0.62798756473036133 1:0.37256821 2:-0.14182798 3:-0.15845678 4:0.71225714 5:-0.72682624 6:-0.45809892 7:0.7703331 8:-0.62694325 9:-0.66993529 
-0.89903317696813867 1:0.3670958 2:-0.17106325 3:-0.19953694 4:0.71616814 5:-0.73411602 6:-0.45629734 7:0.77857082 8:-0.63574629 9:-0.67395766 
-1 1:0.14070182 2:-0.52220307 3:-0.42090479 4:0.084175292 5:-0.14664516 6:0.025480229 7:0.085029589 8:-0.022178015 9:-0.14434266 
-1 1:0.32387694 2:-0.32632021 3:-0.41249526 4:0.29524481 5:-0.32316128 6:-0.16118516 7:0.29181091 8:-0.19230604 9:-0.32142412 
-1 1:0.38079571 2:-0.35946221 3:-0.72358405 4:0.32156195 5:-0.4213327 6:-0.084772914 7:0.38819388 8:-0.3264866 9:-0.32180539 
-1 1:0.389719 2:-0.34538631 3:-0.68053857 4:0.75059 5:-0.7417893 6:-0.51437405 7:0.7910087 8:-0.64393002 9:-0.68767712 
-1 1:0.46030067 2:-0.2300552 3:-0.802952 4:0.70084508 5:-0.72118248 6:-0.44290165 7:0.75832199 8:-0.63256516 9:-0.63643994 
-1 1:0.54155439 2:-0.19251353 3:-0.43798429 4:0.80130451 5:-0.79516467 6:-0.54487562 7:0.85594771 8:-0.70326755 9:-0.73444268 
-0.95287864998123062 1:0.54870118 2:-0.16370856 3:-0.48307274 4:0.7714783 5:-0.83528429 6:-0.43333906 7:0.88659155 8:-0.77425776 9:-0.69215538 
-1 1:0.63499396 2:-0.10678192 3:-0.4585099 4:0.73828078 5:-0.78105608 6:-0.43861945 7:0.82660978 8:-0.70423921 9:-0.67173007 
-1 1:0.61848907 2:-0.094531954 3:-0.44828024 4:0.79695878 5:-0.80710382 6:-0.52064877 7:0.86727364 8:-0.72241539 9:-0.72942715 
-1 1:0.48677946 2:-0.14450482 3:-0.39960506 4:0.60742473 5:-0.69387194 6:-0.29377093 7:0.71101792 8:-0.63005062 9:-0.54143256 
-1 1:0.46117111 2:-0.1750757 3:-0.44741042 4:0.75625172 5:-0.74063515 6:-0.52708907 7:0.79244606 8:-0.64771122 9:-0.68501791 
-1 1:0.45737805 2:-0.12438778 3:-0.44872764 4:0.70505192 5:-0.74421393 6:-0.4210818 7:0.78438156 8:-0.66915911 9:-0.63607169 
-1 1:0.50869368 2:-0.023974192 3:-0.141172 4:0.51649343 5:-0.6955493 6:-0.11162471 7:0.68614597 8:-0.67869312 9:-0.41668192 
-1 1:0.51464081 2:-0.063736884 3:-0.18455595 4:0.56391629 5:-0.69351518 6:-0.20813576 7:0.69569492 8:-0.65414899 9:-0.47336275 
-0.53323700841833321 1:0.49053686 2:-0.052125671 3:-0.12197452 4:0.39921707 5:-0.67308331 6:0.091057319 7:0.6328714 8:-0.68876923 9:-0.29035991 
-1 1:0.48850398 2:-0.04557809 3:-0.15487029 4:0.39046895 5:-0.56915813 6:-0.027654496 7:0.53915168 8:-0.5246163 9:-0.34040807 
-0.98362071003633322 1:0.52382546 2:-0.049046592 3:-0.090538011 4:0.37155339 5:-0.59858537 6:0.048295239 7:0.56181168 8:-0.57704067 9:-0.30924339 
-1 1:0.50409999 2:-0.090908436 3:-0.16846203 4:0.30967417 5:-0.49383015 6:0.033642156 7:0.45352423 8:-0.44413038 9:-0.28210382 
-1 1:0.50821198 2:-0.12156937 3:-0.29884907 4:0.33017952 5:-0.48904265 6:-0.013203614 7:0.4554981 8:-0.42871121 9:-0.30930772 
-1 1:0.55122488 2:-0.11911761 3:-0.29678344 4:0.46118845 5:-0.53829633 6:-0.20800058 7:0.53598057 8:-0.45053488 9:-0.44468639 
-1 1:0.56923405 2:-0.29614049 3:-0.6121387 4:0.47581004 5:-0.62313181 6:-0.12589809 7:0.61402894 8:-0.56584408 9:-0.43503508 
-1 1:0.71166873 2:-0.14366979 3:-0.45702272 4:0.3618371 5:-0.64186236 6:0.12416732 7:0.59572795 8:-0.72682652 9:-0.15583219 
-0.036356960483499567 1:0.78484316 2:0.09130469 3:-0.30475217 4:0.82170881 5:-0.73464917 6:-0.66446188 7:0.80461422 8:-0.59876516 9:-0.7836973 
-0.21562688380943068 1:0.77887127 2:-0.019648647 3:-0.64117652 4:0.8562899 5:-0.92907723 6:-0.47841675 7:0.99402734 8:-0.89415533 9:-0.7369967 
-1 1:0.66385003 2:-0.53806971 3:-0.40517226 4:0.27123671 5:-0.64502952 6:0.30760864 7:0.56388162 8:-0.70448139 9:-0.12278715 
-1 1:0.62459553 2:-0.5921544 3:-0.49982847 4:0.53886131 5:-0.61067951 6:-0.26697337 7:0.6137747 8:-0.51985372 9:-0.50335166 
-1 1:0.63607363 2:-0.58395602 3:-0.35567577 4:0.2896337 5:-0.52477543 6:0.11380496 7:0.47386591 8:-0.50507459 9:-0.23334427 
-1 1:0.54643161 2:-0.52508693 3:-0.5260401 4:0.30269204 5:-0.52144953 6:0.083609694 7:0.47118426 8:-0.48754104 9:-0.25399261 
-1 1:0.62255087 2:-0.51456079 3:-0.39379101 4:0.239637 5:-0.5377375 6:0.2297128 7:0.46737625 8:-0.54258124 9:-0.16364644 
-0.073361237782032143 1:0.61159526 2:-0.61022822 3:-0.20712796 4:0.10688283 5:-0.49765806 6:0.4399714 7:0.39024172 8:-0.55521839 9:0.016329386 
-1 1:0.58572986 2:-0.65277193 3:-0.2780122 4:0.34067886 5:-0.54866073 6:0.044050516 7:0.50342033 8:-0.51283738 9:-0.28343348 
-0.63779224204486984 1:0.89042669 2:0.23891389 3:-0.32556641 4:2.2727433 5:-1.1966179 6:-2.9313679 7:1.5201133 8:-0.95309092 9:-1.7472458 
-0.99996710250918897 1:0.95944641 2:0.20782072 3:-0.39710563 4:2.2849264 5:-1.2064558 6:-2.9426015 7:1.5321798 8:-0.96563304 9:-1.7536652 
-0.13018990879223671 1:1.7881985 2:1.0325778 3:-0.47060941 4:0.66043242 5:-0.48448207 6:-0.67273509 7:0.53057483 8:-0.27585172 9:-0.6948992 
-1 1:0.61938525 2:-0.10676325 3:-0.30804217 4:-0.038550597 5:0.11513805 6:-0.074287399 7:-0.16665101 8:0.31887107 9:-0.12937906 
-1 1:0.65195254 2:-0.10751859 3:-0.35119815 4:0.045080439 5:-0.030107705 6:-0.049683927 7:-0.022920663 8:0.14231027 9:-0.16517928 
-1 1:0.74560075 2:-0.094742575 3:-0.31893407 4:0.32372531 5:-0.17752545 6:-0.40816515 7:0.17515283 8:0.051884859 9:-0.44339321 
-1 1:0.76899895 2:-0.14831167 3:-0.41383402 4:0.68464536 5:-0.73091371 6:-0.39810594 7:0.76783006 8:-0.64767048 9:-0.63368031 
-0.49953681507705289 1:-0.0014120346 2:-0.034388855 3:0.45186003 4:-0.95743063 5:-0.47408485 6:2.5153672 7:-0.048566197 8:-1.2566205 9:1.9825635 
-0.12925251120366327 1:0.14314755 2:0.083030546 3:0.54635208 4:-0.98269185 5:-0.43744584 6:2.5174029 7:-0.088456157 8:-1.2213362 9:2.0130338 
-1 1:0.14135267 2:-0.23048245 3:0.53305762 4:-0.85868238 5:-0.70515117 6:2.6223817 7:0.16242849 8:-1.5189967 9:1.9347796 
-1 1:-0.56634544 2:-0.80050459 3:-0.58593915 4:-0.091512391 5:0.38764649 6:-0.32615434 7:-0.40812109 8:0.71137652 9:-0.21276517 
-1 1:-0.5713338 2:-0.79929383 3:-0.57609875 4:-0.096447254 5:0.38904449 6:-0.31821817 7:-0.40950257 8:0.70989243 9:-0.20765893 
-1 1:-0.56782525 2:-0.79891623 3:-0.58695767 4:-0.1266257 5:0.41550106 6:-0.29312386 7:-0.43839412 8:0.73144467 9:-0.17959658 
-1 1:-0.56861479 2:-0.80355854 3:-0.60125655 4:-0.084944198 5:0.42053306 6:-0.38219674 7:-0.43325215 8:0.76499432 9:-0.2405568 
-1 1:-0.59368933 2:-0.8168927 3:-0.56699857 4:-0.1048641 5:0.393228 6:-0.30703709 7:-0.41501794 8:0.71060552 9:-0.19721026 
-1 1:-0.58848106 2:-0.81499815 3:-0.53511033 4:-0.11454018 5:0.38743164 6:-0.28030171 7:-0.41224242 8:0.69502411 9:-0.17968027 
-1 1:-0.57808167 2:-0.80239034 3:-0.5159518 4:-0.07183165 5:0.38567166 6:-0.36251725 7:-0.40126028 8:0.71688092 9:-0.23533071 
-1 1:-0.56513482 2:-0.80118249 3:-0.54561034 4:-0.078256374 5:0.34697702 6:-0.29915679 7:-0.37110212 8:0.65560541 9:-0.20657217 
-1 1:-0.59259035 2:-0.80062674 3:-0.60119447 4:-0.081329502 5:0.37319248 6:-0.32738766 7:-0.39343082 8:0.69420833 9:-0.21773797 
-1 1:-0.53425771 2:-0.76288863 3:-0.57071299 4:-0.040008917 5:0.34714411 6:-0.37506625 7:-0.36293069 8:0.67872338 9:-0.25824179 
-1 1:-0.52189547 2:-0.74787196 3:-0.59534314 4:-0.037733333 5:0.36198131 6:-0.39898948 7:-0.37503966 8:0.70345015 9:-0.26997395 
-1 1:-0.54713697 2:-0.75465244 3:-0.58023907 4:-0.032219916 5:0.35770408 6:-0.40430207 7:-0.37000093 8:0.70150967 9:-0.27759001 
-1 1:-0.54656241 2:-0.74648138 3:-0.57473225 4:-0.029864965 5:0.33900044 6:-0.3844819 7:-0.3546404 8:0.67373868 9:-0.26808995 
-1 1:-0.53863409 2:-0.752878 3:-0.58821838 4:0.012415158 5:0.30233573 6:-0.42016403 7:-0.31433002 8:0.64091179 9:-0.30311689 
-1 1:-0.52782639 2:-0.74198038 3:-0.5390942 4:-0.0040296881 5:0.29873936 6:-0.38291292 7:-0.31528101 8:0.62626134 9:-0.27919953 
-1 1:-0.5208518 2:-0.73738927 3:-0.51890088 4:-0.0018387084 5:0.28810724 6:-0.37333279 7:-0.30576868 8:0.61033692 9:-0.27522263 
-1 1:-0.52943318 2:-0.73601019 3:-0.50249473 4:-0.00045967401 5:0.28124154 6:-0.36707558 7:-0.29940469 8:0.6009007 9:-0.27438474 
-1 1:-0.545648 2:-0.74370266 3:-0.49925626 4:0.012730797 5:0.27342904 6:-0.38295369 7:-0.28998078 8:0.59553939 9:-0.28603615 
-1 1:-0.53331857 2:-0.73296854 3:-0.45964466 4:-0.0079980465 5:0.25420579 6:-0.31677116 7:-0.27875057 8:0.55369577 9:-0.24684523 
-0.23770820508725535 1:-0.50746266 2:-0.72492525 3:-0.47271783 4:0.031545364 5:0.24052663 6:-0.3771224 7:-0.25776366 8:0.55546357 9:-0.2933126 
-1 1:-0.49247809 2:-0.71791988 3:-0.50547968 4:0.052108796 5:0.23098238 6:-0.40532478 7:-0.24481484 8:0.55196378 9:-0.31511076 
-1 1:-0.47804291 2:-0.71268432 3:-0.51693058 4:0.099579881 5:0.22526448 6:-0.49178492 7:-0.22924931 8:0.56948821 9:-0.37384586 
-1 1:-0.44028767 2:-0.7095516 3:-0.54968948 4:0.10689754 5:0.20844321 6:-0.48424959 7:-0.2134558 8:0.54781231 9:-0.3743742 
-1 1:-0.41327674 2:-0.68492767 3:-0.63129204 4:0.11268891 5:0.18116263 6:-0.46000396 7:-0.18861736 8:0.50795876 9:-0.3665766 
-1 1:-0.4041948 2:-0.68667593 3:-0.63868906 4:0.14225124 5:0.1707531 6:-0.5048824 7:-0.17344005 8:0.50920578 9:-0.40013383 
-1 1:-0.40991735 2:-0.69126558 3:-0.60502027 4:0.14062967 5:0.16459669 6:-0.49361542 7:-0.16817212 8:0.49946232 9:-0.39654743 
-1 1:-0.41980074 2:-0.70412001 3:-0.60901182 4:0.14669687 5:0.14683872 6:-0.48237946 7:-0.15178894 8:0.47406909 9:-0.39274219 
-1 1:-0.42238796 2:-0.70186203 3:-0.5793906 4:0.122792 5:0.15974993 6:-0.45197138 7:-0.16806424 8:0.4811326 9:-0.36933315 
-1 1:-0.42476011 2:-0.70351793 3:-0.5682978 4:0.15270335 5:0.17067369 6:-0.52546293 7:-0.17075586 8:0.51452365 9:-0.41369929 
-1 1:-0.42604987 2:-0.69767132 3:-0.57340009 4:0.13574466 5:0.17995885 6:-0.50405513 7:-0.18245704 8:0.52025705 9:-0.39784995 
-1 1:-0.43130663 2:-0.69459998 3:-0.57886723 4:0.13392758 5:0.17349622 6:-0.49200045 7:-0.17744369 8:0.50935056 9:-0.39199091 
-1 1:-0.39359184 2:-0.66668139 3:-0.54836232 4:0.15513017 5:0.15271471 6:-0.50675963 7:-0.15477832 8:0.48872726 9:-0.40844354 
-1 1:-0.4048998 2:-0.66363889 3:-0.55679893 4:0.15153681 5:0.14626041 6:-0.49120066 7:-0.14990434 8:0.47645478 9:-0.40024863 
-1 1:-0.38967655 2:-0.64603636 3:-0.5328506 4:0.15197467 5:0.14362006 6:-0.4886113 7:-0.14715304 8:0.47283495 9:-0.40057449 
-1 1:-0.3882255 2:-0.61758135 3:-0.52524628 4:0.14751852 5:0.12454754 6:-0.45482934 7:-0.13164573 8:0.44057256 9:-0.3846573 
-1 1:-0.39288279 2:-0.60288194 3:-0.52564908 4:0.17825408 5:0.082515196 6:-0.46063954 7:-0.088064259 8:0.39191 9:-0.4028084 
-1 1:-0.39419361 2:-0.60276349 3:-0.53283418 4:0.18018916 5:0.082322275 6:-0.4642165 7:-0.087673289 8:0.39163883 9:-0.40321882 
-1 1:-0.38081318 2:-0.59836831 3:-0.51184923 4:0.17893656 5:0.078627854 6:-0.45690214 7:-0.084560905 8:0.38462733 9:-0.39922132 
-1 1:-0.40189643 2:-0.61741876 3:-0.49489325 4:0.16045781 5:0.099995567 6:-0.44830063 7:-0.10795506 8:0.40691152 9:-0.38373333 
-1 1:-0.43015363 2:-0.64788012 3:-0.47890988 4:0.12971203 5:0.12836237 6:-0.42458382 7:-0.13999341 8:0.43567902 9:-0.35990161 
-1 1:-0.44560505 2:-0.64593089 3:-0.444052 4:0.1139059 5:0.12987575 6:-0.3952847 7:-0.1452353 8:0.42998444 9:-0.34043171 
-1 1:-0.44977408 2:-0.6480558 3:-0.42571743 4:0.093104441 5:0.12576239 6:-0.34873528 7:-0.14700078 8:0.4117786 9:-0.30949129 
-1 1:-0.45853914 2:-0.6395793 3:-0.43479873 4:0.11078632 5:0.12451643 6:-0.38209649 7:-0.14174721 8:0.41946005 9:-0.33195991 
-1 1:-0.46607635 2:-0.62098008 3:-0.44087202 4:0.11174856 5:0.12450633 6:-0.38398752 7:-0.14133719 8:0.4197055 9:-0.33318349 
-1 1:-0.44523522 2:-0.60272316 3:-0.44039248 4:0.11897317 5:0.10769457 6:-0.3762805 7:-0.12424141 8:0.39874792 9:-0.3375063 
-1 1:-0.44557365 2:-0.61358454 3:-0.44740895 4:0.10807751 5:0.11119952 6:-0.35930579 7:-0.12971475 8:0.39836716 9:-0.32550791 
-1 1:-0.43899228 2:-0.6094723 3:-0.44114339 4:0.098169302 5:0.10617354 6:-0.33311935 7:-0.12809379 8:0.38594072 9:-0.31029015 
-1 1:-0.43011355 2:-0.61659343 3:-0.4508955 4:0.096802105 5:0.12007413 6:-0.34860771 7:-0.14092239 8:0.40611933 9:-0.31371115 
-1 1:-0.42217683 2:-0.62046489 3:-0.42427952 4:0.101803 5:0.14900859 6:-0.39637568 7:-0.16412447 8:0.45464033 9:-0.33790061 
-1 1:-0.4157998 2:-0.62088407 3:-0.39780221 4:0.10087215 5:0.17804697 6:-0.4325409 7:-0.1891831 8:0.49904165 9:-0.35204645 
-1 1:-0.4358254 2:-0.6364962 3:-0.40186916 4:0.084602834 5:0.19020778 6:-0.4162612 7:-0.20399031 8:0.50865684 9:-0.33552266 
-1 1:-0.52517574 2:-0.69322082 3:-0.4162477 4:0.018018908 5:0.24883259 6:-0.36122527 7:-0.26810397 8:0.56247537 9:-0.28221854 
-1 1:-0.52705522 2:-0.76019561 3:-0.48131446 4:0.061267777 5:0.22615837 6:-0.4171362 7:-0.23943887 8:0.55144227 9:-0.32555518 
-1 1:-0.51561048 2:-0.75218248 3:-0.4885545 4:0.043673765 5:0.22537766 6:-0.38129625 7:-0.24275764 8:0.54022842 9:-0.30183845 
-1 1:-0.50181803 2:-0.73692061 3:-0.49187399 4:0.071762921 5:0.18693242 6:-0.38656432 7:-0.2036324 8:0.49674455 9:-0.31843734 
-1 1:-0.50561985 2:-0.74218808 3:-0.50036376 4:0.093351394 5:0.18465042 6:-0.42630054 7:-0.19660702 8:0.5045772 9:-0.34483188 
-1 1:-0.52095329 2:-0.7489329 3:-0.51259721 4:0.096402475 5:0.19031075 6:-0.43974717 7:-0.20086052 8:0.51497786 9:-0.35152026 
-1 1:-0.51826554 2:-0.75027655 3:-0.51741583 4:0.088714079 5:0.19057075 6:-0.42487233 7:-0.20288242 8:0.51187293 9:-0.34265043 
-1 1:-0.50379448 2:-0.74331613 3:-0.49899671 4:0.065899385 5:0.19858101 6:-0.39020697 7:-0.21524245 8:0.51199202 9:-0.31702079 
-0.29035070531817619 1:-0.48727753 2:-0.72409818 3:-0.48295424 4:0.060477121 5:0.2025106 6:-0.38461975 7:-0.22025628 8:0.51356063 9:-0.30890003 
-0.16387633620714845 1:-0.48878097 2:-0.71545622 3:-0.48875858 4:0.066365892 5:0.19607756 6:-0.38785349 7:-0.21303177 8:0.50775142 9:-0.31528856 
-1 1:-0.49033224 2:-0.7158621 3:-0.49994628 4:0.053768354 5:0.1898561 6:-0.35478022 7:-0.21065962 8:0.49162523 9:-0.29610078 
-1 1:-0.49656349 2:-0.71996197 3:-0.4887603 4:0.058938652 5:0.18459107 6:-0.3581209 7:-0.20495001 8:0.48668476 9:-0.30062667 
-1 1:-0.4334343 2:-0.66577419 3:-0.45977871 4:0.099159941 5:0.13432877 6:-0.37193122 7:-0.1534016 8:0.42924096 9:-0.32226736 
-1 1:-0.42991208 2:-0.68324882 3:-0.50823288 4:0.11085805 5:0.1256476 6:-0.38371899 7:-0.14347325 8:0.4210813 9:-0.33078293 
-1 1:-0.43495276 2:-0.7019088 3:-0.50385197 4:0.093486183 5:0.13134235 6:-0.35679417 7:-0.1525038 8:0.42067734 9:-0.31132227 
-1 1:-0.42667952 2:-0.72529984 3:-0.49007952 4:0.12333542 5:0.12684293 6:-0.40997593 7:-0.13997191 8:0.43058374 9:-0.3523189 
-1 1:-0.39574813 2:-0.72310208 3:-0.44951716 4:0.15304278 5:0.12437594 6:-0.4655371 7:-0.13121967 8:0.44240633 9:-0.3882921 
-1 1:-0.39780883 2:-0.71969767 3:-0.4699717 4:0.14982278 5:0.12499583 6:-0.45997616 7:-0.13211381 8:0.44274497 9:-0.38693205 
-0.009434295515233615 1:-0.4222957 2:-0.72681038 3:-0.47661817 4:0.16890146 5:0.14633647 6:-0.52566442 7:-0.14627337 8:0.48552942 9:-0.42141485 
-0.045898339085575876 1:-0.42247445 2:-0.71936921 3:-0.47282241 4:0.16344739 5:0.14061358 6:-0.50738046 7:-0.14273592 8:0.47253906 9:-0.40935457 
-1 1:-0.37020413 2:-0.71611082 3:-0.48343344 4:0.14564426 5:0.12313261 6:-0.44926825 7:-0.13106857 8:0.43573258 9:-0.378617 
-1 1:-0.35888531 2:-0.70994155 3:-0.47536594 4:0.18226527 5:0.10611807 6:-0.49947057 7:-0.10851089 8:0.42791671 9:-0.41401746 
-1 1:-0.3655285 2:-0.70581242 3:-0.50186207 4:0.18821189 5:0.097621536 6:-0.50011796 7:-0.099524471 8:0.4177247 9:-0.41752383 
-1 1:-0.36802653 2:-0.71535429 3:-0.5417841 4:0.17760708 5:0.1118372 6:-0.49773771 7:-0.11416741 8:0.4348243 9:-0.41254719 
-1 1:-0.37911887 2:-0.72484743 3:-0.56801441 4:0.16843575 5:0.11984933 6:-0.49007468 7:-0.12351269 8:0.44262443 9:-0.40471086 
-1 1:-0.39470573 2:-0.72778409 3:-0.57159017 4:0.15444955 5:0.12652209 6:-0.47113008 7:-0.132667 8:0.44403832 9:-0.38771312 
-1 1:-0.39886732 2:-0.74021302 3:-0.58839629 4:0.1420208 5:0.1399849 6:-0.46415491 7:-0.14726249 8:0.45910545 9:-0.37979297 
-1 1:-0.36467623 2:-0.73897656 3:-0.58373925 4:0.11367635 5:0.1406568 6:-0.40894137 7:-0.15474145 8:0.443547 9:-0.34088584 
-1 1:-0.37430588 2:-0.73986941 3:-0.57363232 4:0.13395308 5:0.14638641 6:-0.45656781 7:-0.15373675 8:0.46470756 9:-0.37466094 
-1 1:-0.39893654 2:-0.75556792 3:-0.59435108 4:0.18972353 5:0.12359106 6:-0.5371001 7:-0.12138676 8:0.45861361 9:-0.43308559 
-1 1:-0.38296639 2:-0.76846157 3:-0.56273205 4:0.20089109 5:0.12602397 6:-0.56238477 7:-0.12021424 8:0.46747509 9:-0.44879943 
-1 1:-0.40451186 2:-0.76591138 3:-0.56542451 4:0.14958975 5:0.13055749 6:-0.46679447 7:-0.13551584 8:0.43775154 9:-0.3723534 
-1 1:-0.40365555 2:-0.76321205 3:-0.57762681 4:0.12710026 5:0.13991297 6:-0.43453339 7:-0.14680642 8:0.44311351 9:-0.35680536 
-1 1:-0.37211853 2:-0.75831308 3:-0.57904336 4:0.13714305 5:0.12556908 6:-0.43563359 7:-0.13271277 8:0.42679117 9:-0.36179863 
-1 1:-0.3446633 2:-0.74744647 3:-0.54584885 4:0.17157041 5:0.080951932 6:-0.44536662 7:-0.087555256 8:0.37870094 9:-0.3840973 
-1 1:-0.33540785 2:-0.73389448 3:-0.55130884 4:0.23614739 5:0.041697094 6:-0.52178354 7:-0.039501805 8:0.35484348 9:-0.4487191 
-1 1:-0.3199261 2:-0.72902843 3:-0.54315823 4:0.24615428 5:0.052878278 6:-0.55622159 7:-0.046294349 8:0.37684511 9:-0.46747252 
-1 1:-0.31979227 2:-0.71320353 3:-0.52143403 4:0.25111747 5:0.042793067 6:-0.55284343 7:-0.036079092 8:0.36314166 9:-0.46828811 
-1 1:-0.34141482 2:-0.72955959 3:-0.52813619 4:0.24466241 5:0.036875238 6:-0.53232338 7:-0.033183713 8:0.34967721 9:-0.45417748 
-1 1:-0.32323593 2:-0.70411546 3:-0.52089417 4:0.24592683 5:0.046567231 6:-0.54751116 7:-0.040971629 8:0.36590775 9:-0.46221325 
-1 1:-0.32467975 2:-0.69486877 3:-0.52809303 4:0.25005719 5:0.040227533 6:-0.54738722 7:-0.034543547 8:0.35736694 9:-0.46284962 
-1 1:-0.3182069 2:-0.67823734 3:-0.53383 4:0.25363305 5:0.028252074 6:-0.5387895 7:-0.023076342 8:0.33948531 9:-0.46002457 
-1 1:-0.30375819 2:-0.66966244 3:-0.54285573 4:0.23875352 5:0.010046017 6:-0.48551398 7:-0.011180111 8:0.30163197 9:-0.42819777 
-1 1:-0.27655696 2:-0.64975383 3:-0.5526772 4:0.26788849 5:-0.005701371 6:-0.52256015 7:0.01080753 8:0.29220205 9:-0.45999173 
-1 1:-0.56362589 2:-0.8187668 3:-0.59137732 4:0.0047608666 5:0.18451974 6:-0.25081105 7:-0.21823382 8:0.45484995 9:-0.22523329 
-1 1:-0.55344497 2:-0.85307531 3:-0.62647085 4:-0.0036185739 5:0.16611445 6:-0.21013829 7:-0.2060184 8:0.41603424 9:-0.19263228 
-1 1:-0.59794047 2:-0.88665024 3:-0.66588968 4:0.029885156 5:0.14808951 6:-0.2528491 7:-0.18446912 8:0.40557615 9:-0.22197178 
-1 1:-0.57212583 2:-0.89451779 3:-0.64432103 4:0.01237374 5:0.14129321 6:-0.209299 7:-0.18182021 8:0.38848151 9:-0.20191213 
-1 1:-0.64007111 2:-0.9278711 3:-0.62015085 4:0.076204109 5:0.15060224 6:-0.34780198 7:-0.17467673 8:0.4337157 9:-0.28454323 
-1 1:-0.25536442 2:-0.66123788 3:-0.58094965 4:0.32788352 5:-0.038022023 6:-0.59898542 7:0.052107968 8:0.26991423 9:-0.51286289 
-1 1:-0.2123171 2:-0.63794832 3:-0.58047314 4:0.27269209 5:-0.02094385 6:-0.512116 7:0.023442283 8:0.26539898 9:-0.4462492 
-1 1:-0.24134388 2:-0.6550755 3:-0.56528944 4:0.2569826 5:-0.017508405 6:-0.48552385 7:0.015873656 8:0.26655108 9:-0.43217047 
-1 1:-0.25970876 2:-0.65803134 3:-0.54984561 4:0.19602837 5:0.011458151 6:-0.40281026 7:-0.023744152 8:0.27959635 9:-0.36897661 
-1 1:-0.27527468 2:-0.66130657 3:-0.54719871 4:0.20015662 5:0.024945428 6:-0.42863301 7:-0.034848597 8:0.30367337 9:-0.38183359 
-1 1:-0.28086692 2:-0.65720812 3:-0.55367315 4:0.1782285 5:0.027698831 6:-0.38884165 7:-0.042589938 8:0.29564359 9:-0.353649 
-1 1:-0.26676417 2:-0.65078609 3:-0.53576299 4:0.16598277 5:0.021813106 6:-0.35690402 7:-0.041155191 8:0.27841166 9:-0.33084862 
-1 1:-0.28976261 2:-0.64292772 3:-0.53881179 4:0.19778951 5:0.015151687 6:-0.41112986 7:-0.027866698 8:0.28480449 9:-0.36816524 
-1 1:-0.27846625 2:-0.64313981 3:-0.5167117 4:0.21790847 5:0.016942007 6:-0.45328808 7:-0.024831731 8:0.29621992 9:-0.39159117 
-1 1:-0.27578373 2:-0.65669734 3:-0.53194117 4:0.22454429 5:-0.013698116 6:-0.42631639 7:0.0033099876 8:0.25489633 9:-0.38849023 
-1 1:-0.26138518 2:-0.65169263 3:-0.52136438 4:0.26556741 5:-0.016214404 6:-0.50420663 7:0.016044914 8:0.27532327 9:-0.44566 
-0.042897205930490741 1:-0.65256467 2:-0.71220965 3:-0.54024294 4:-0.3027699 5:0.37066792 6:0.1141417 7:-0.44399973 8:0.54144713 9:0.11653367 
-1 1:-0.65797355 2:-0.72510592 3:-0.57590453 4:-0.29208269 5:0.36175772 6:0.10465424 7:-0.43536068 8:0.53513681 9:0.10794174 
-1 1:-0.64012243 2:-0.70191118 3:-0.48585542 4:-0.26540644 5:0.36327029 6:0.049882849 7:-0.43211725 8:0.55574241 9:0.070322883 
-0.54523260172913213 1:-0.64927356 2:-0.69637099 3:-0.48538802 4:-0.29768049 5:0.37899181 6:0.09317504 7:-0.45133609 8:0.56226548 9:0.10068711 
-1 1:-0.65970469 2:-0.65559301 3:-0.53352888 4:-0.19330972 5:0.36319905 6:-0.092701534 7:-0.41285866 8:0.60470415 9:-0.043184877 
-1 1:-0.59056024 2:-0.63011436 3:-0.5575393 4:-0.20081735 5:0.34894658 6:-0.059189541 7:-0.40485702 8:0.57670865 9:-0.01798325 
-0.5688252013882904 1:-0.59898602 2:-0.62103362 3:-0.56034883 4:-0.2143156 5:0.33926784 6:-0.019808659 7:-0.39833077 8:0.55198874 9:0.005395437 
-1 1:-0.56402695 2:-0.60936744 3:-0.55200821 4:-0.19630645 5:0.34517246 6:-0.063176689 7:-0.39921371 8:0.57452298 9:-0.026494642 
-0.76271224415512906 1:-0.60828335 2:-0.60978211 3:-0.50332617 4:-0.1996187 5:0.33566715 6:-0.044180651 7:-0.39412613 8:0.5547955 9:-0.007585622 
-0.11108669335039312 1:-0.61297875 2:-0.61545328 3:-0.48536401 4:-0.17689633 5:0.34161944 6:-0.096938414 7:-0.39255637 8:0.57671935 9:-0.043683232 
-1 1:-0.60459298 2:-0.62743155 3:-0.44510642 4:-0.24892805 5:0.36584468 6:0.013902998 7:-0.42890089 8:0.56575693 9:0.048615382 
-1 1:-0.60409779 2:-0.61040073 3:-0.58728407 4:-0.12289447 5:0.29877785 6:-0.14773284 7:-0.34381168 8:0.54656694 9:-0.10032482 
-1 1:-0.49476623 2:-0.60537799 3:-0.58927279 4:-0.11155569 5:0.25510737 6:-0.11301321 7:-0.30563038 8:0.48640823 9:-0.089990579 
-1 1:-0.39819893 2:-0.55327769 3:-0.50486563 4:-0.12562104 5:0.17528041 6:0.01930456 7:-0.24487766 8:0.35539629 9:-0.020718742 
-1 1:-0.56347234 2:-0.66172894 3:-0.59692109 4:-0.20333342 5:0.31992396 6:-0.016223584 7:-0.3831449 8:0.52660527 9:0.011686087 
-1 1:-0.62624474 2:-0.67712941 3:-0.68096902 4:-0.22786466 5:0.33996982 6:0.0060857847 7:-0.40273822 8:0.53505942 9:0.039941408 
-1 1:-0.62073771 2:-0.65795222 3:-0.66762845 4:-0.22379597 5:0.33116795 6:0.0095544195 7:-0.39467056 8:0.52086281 9:0.044348281 
-1 1:-0.62366964 2:-0.67612102 3:-0.70583743 4:-0.18789541 5:0.34227856 6:-0.07603419 7:-0.3952686 8:0.55876202 9:-0.011137998 
-1 1:-0.60719865 2:-0.65767627 3:-0.7556228 4:-0.22277734 5:0.35188887 6:-0.019582331 7:-0.41096828 8:0.55604873 9:0.025704961 
-1 1:-0.56067954 2:-0.65301621 3:-0.67430677 4:-0.2671248 5:0.34822469 6:0.072976108 7:-0.41769389 8:0.52555203 9:0.085401593 
-1 1:-0.57217806 2:-0.70144092 3:-0.62610457 4:-0.21085113 5:0.34226734 6:-0.030590723 7:-0.39734925 8:0.54911283 9:0.007651247 
-1 1:-0.58642199 2:-0.70926254 3:-0.59834085 4:-0.2384883 5:0.34959024 6:0.014517882 7:-0.41192687 8:0.54104113 9:0.050172829 
-1 1:-0.52693009 2:-0.6496365 3:-0.51286753 4:-0.1854723 5:0.31762947 6:-0.048567108 7:-0.37346237 8:0.52363837 9:-0.0040897595 
-1 1:-0.53040226 2:-0.6500979 3:-0.45772425 4:-0.15199051 5:0.32535051 6:-0.12493256 7:-0.37181625 8:0.55945461 9:-0.061143649 
-1 1:-0.62042228 2:-0.66807991 3:-0.48052917 4:-0.2467092 5:0.30027039 6:0.095339894 7:-0.37494734 8:0.45835737 9:0.096736309 
-1 1:-0.52179167 2:-0.62375844 3:-0.52260566 4:-0.23524451 5:0.30012025 6:0.072848059 7:-0.37241215 8:0.4603668 9:0.088434686 
-1 1:-0.58649228 2:-0.63767864 3:-0.58154783 4:-0.18832839 5:0.32502912 6:-0.052600133 7:-0.37952618 8:0.53534641 9:-0.0089553144 
-1 1:-0.64552236 2:-0.63632271 3:-0.62382864 4:-0.17359652 5:0.32450551 6:-0.081068816 7:-0.37514196 8:0.54794314 9:-0.03696689 
-0.57007637329491334 1:-0.62870687 2:-0.63040758 3:-0.58433019 4:-0.20778557 5:0.33332896 6:-0.024958242 7:-0.39144485 8:0.54174314 9:0.0063551537 
-1 1:-0.62489091 2:-0.60096384 3:-0.61547667 4:-0.215223 5:0.32912877 6:-0.0047422581 7:-0.3906823 8:0.53139638 9:0.020252025 
-1 1:-0.64215943 2:-0.58131563 3:-0.56400199 4:-0.15826162 5:0.35817134 6:-0.15548025 7:-0.39544855 8:0.61118256 9:-0.089235622 
-1 1:-0.66221355 2:-0.63587083 3:-0.51718582 4:-0.15746469 5:0.36784505 6:-0.16971895 7:-0.40320866 8:0.62887941 9:-0.099524525 
-0.24234453982292289 1:-0.58696446 2:-0.54628736 3:-0.39117774 4:-0.15000338 5:0.3466705 6:-0.15677004 7:-0.38433 8:0.60240309 9:-0.09930848 
-0.82386994747498898 1:-0.49240857 2:-0.54059442 3:-0.36661055 4:-0.18222914 5:0.32698461 6:-0.067229885 7:-0.37588412 8:0.5505604 9:-0.039335297 
-1 1:-0.4505284 2:-0.54086817 3:-0.45625744 4:-0.18957515 5:0.31930932 6:-0.042646378 7:-0.37243993 8:0.53137446 9:-0.017805513 
-1 1:-0.45920394 2:-0.5406205 3:-0.47984408 4:-0.17481682 5:0.31563385 6:-0.067042037 7:-0.36465639 8:0.53241154 9:-0.035610178 
-0.83137072877508555 1:-0.44463241 2:-0.51795132 3:-0.47857019 4:-0.16082729 5:0.31742824 6:-0.097075599 7:-0.35821161 8:0.53733735 9:-0.056440888 
-1 1:-0.40024505 2:-0.49229494 3:-0.50612203 4:-0.14946854 5:0.31180396 6:-0.11219286 7:-0.3550818 8:0.54441151 9:-0.07356597 
-1 1:-0.41328507 2:-0.50249431 3:-0.46720774 4:-0.13206555 5:0.29059666 6:-0.11887543 7:-0.33363003 8:0.52426733 9:-0.088201837 
-1 1:-0.43584434 2:-0.51614371 3:-0.4593714 4:-0.085869003 5:0.27413381 6:-0.18874959 7:-0.30929226 8:0.52778145 9:-0.14428009 
-1 1:-0.45682482 2:-0.53521001 3:-0.46690323 4:-0.056311743 5:0.2575877 6:-0.22558602 7:-0.28824726 8:0.52153665 9:-0.17887391 
-1 1:-0.46871136 2:-0.52466252 3:-0.507063 4:-0.077319785 5:0.27281396 6:-0.20394077 7:-0.30643504 8:0.52939316 9:-0.15265872 
-0.87949688420570871 1:-0.50252753 2:-0.51102953 3:-0.51995332 4:-0.089365894 5:0.27455483 6:-0.18238039 7:-0.31142419 8:0.52533565 9:-0.13616723 
-1 1:-0.4858577 2:-0.50626382 3:-0.52860428 4:-0.07298619 5:0.29428347 6:-0.24061755 7:-0.32193446 8:0.56873882 9:-0.17919603 
-0.22771128157105472 1:-0.53414136 2:-0.52004112 3:-0.51788323 4:-0.12758318 5:0.31668932 6:-0.16189772 7:-0.35543396 8:0.56422223 9:-0.10248725 
-1 1:-0.4590695 2:-0.5484893 3:-0.48474524 4:-0.17280262 5:0.26910851 6:-0.010132666 7:-0.326899 8:0.46323899 9:-0.010897106 
-1 1:-0.44313783 2:-0.53153376 3:-0.50256043 4:-0.19302858 5:0.26788945 6:0.03148959 7:-0.33266434 8:0.45060011 9:0.020061364 
-1 1:-0.46111577 2:-0.51816019 3:-0.53914196 4:-0.23035598 5:0.27731697 6:0.093020225 7:-0.35101114 8:0.44420167 9:0.067948213 
-0.51563812719675617 1:-0.54608531 2:-0.21352021 3:-0.75384336 4:-0.040275673 5:0.29810404 6:-0.31035147 7:-0.32355476 8:0.59659071 9:-0.217507 
-1 1:-0.55185372 2:-0.20599645 3:-0.80573644 4:-0.0018082059 5:0.27429428 6:-0.35531385 7:-0.29626875 8:0.58524179 9:-0.2574913 
-1 1:-0.57743 2:-0.21596627 3:-0.8164539 4:-0.030062451 5:0.28695138 6:-0.31596585 7:-0.31226941 8:0.58755369 9:-0.22754259 
-1 1:-0.56579313 2:-0.19054075 3:-0.82885156 4:0.0120487 5:0.24735136 6:-0.34747165 7:-0.27076009 8:0.55249972 9:-0.26173898 
-1 1:-0.55463579 2:-0.20885163 3:-0.81880487 4:0.04071525 5:0.22472749 6:-0.37459043 7:-0.24463702 8:0.53409329 9:-0.28872999 
-1 1:-0.53209803 2:-0.22914216 3:-0.80663457 4:0.0047114683 5:0.22064265 6:-0.29799333 7:-0.24970443 8:0.50659361 9:-0.23698225 
-1 1:-0.52567276 2:-0.23297938 3:-0.73928154 4:-0.051674672 5:0.18983984 6:-0.14608981 7:-0.23944333 8:0.42344007 9:-0.13392702 
-1 1:-0.55241616 2:-0.24395794 3:-0.79412829 4:-0.10201817 5:0.26197595 6:-0.14087778 7:-0.31052561 8:0.49814317 9:-0.097336426 
-1 1:-0.56553872 2:-0.229899 3:-0.85691584 4:-0.09145046 5:0.28608785 6:-0.19335026 7:-0.32436904 8:0.5466324 9:-0.14101934 
-1 1:-0.57694318 2:-0.21764327 3:-0.75034801 4:0.028858578 5:0.28139142 6:-0.42529185 7:-0.29297484 8:0.60960076 9:-0.30083432 
-1 1:-0.54816309 2:-0.20812492 3:-0.73492778 4:0.029113502 5:0.29527435 6:-0.44396724 7:-0.30469518 8:0.63227123 9:-0.31029969 
-0.0041740270253120323 1:-0.57804932 2:-0.15650156 3:-0.63357446 4:0.038637726 5:0.29683111 6:-0.46485303 7:-0.30419955 8:0.64470071 9:-0.32994146 
-0.10513754739534292 1:-0.61095789 2:-0.2014726 3:-0.70993439 4:-0.0093088937 5:0.27376827 6:-0.3397817 7:-0.29615336 8:0.5808799 9:-0.2512025 
-1 1:-0.62080935 2:-0.23975274 3:-0.78597851 4:-0.078897194 5:0.26801597 6:-0.19453918 7:-0.30869553 8:0.53049677 9:-0.14959088 
-1 1:-0.62564833 2:-0.29405508 3:-0.88406036 4:-0.057943433 5:0.23882823 6:-0.19780333 7:-0.28018012 8:0.49183909 9:-0.1512611 
-1 1:-0.60791363 2:-0.31827539 3:-0.99521241 4:-0.043146748 5:0.24158109 6:-0.23068872 7:-0.27788398 8:0.50409657 9:-0.17440487 
-1 1:-0.61872377 2:-0.34541465 3:-1.1058625 4:0.015977142 5:0.17100572 6:-0.25531973 7:-0.20727363 8:0.43326768 9:-0.21580974 
-1 1:-0.25960056 2:-0.275748 3:-0.62925631 4:0.046890737 5:0.1372335 6:-0.27229367 7:-0.16448709 8:0.40055044 9:-0.25617108 
-0.18426529196213848 1:-0.65455607 2:-0.37336419 3:-0.77819193 4:-0.12468673 5:0.354022 6:-0.21649319 7:-0.38886545 8:0.6365273 9:-0.14092224 
-1 1:-0.67182649 2:-0.41818765 3:-0.8469412 4:-0.11133898 5:0.31212898 6:-0.18807571 7:-0.35158589 8:0.58160202 9:-0.13653954 
-1 1:-0.59340281 2:-0.39739705 3:-0.83064948 4:-0.069595334 5:0.29041726 6:-0.24226763 7:-0.32335239 8:0.57446946 9:-0.18481411 
-1 1:-0.56563428 2:-0.39642236 3:-0.79247962 4:-0.064120238 5:0.27219429 6:-0.22925127 7:-0.30715619 8:0.54880017 9:-0.18020519 
-1 1:-0.52609476 2:-0.38693312 3:-0.75369232 4:-0.067218238 5:0.27199219 6:-0.22285588 7:-0.30926724 8:0.54469017 9:-0.16964462 
-1 1:-0.4541471 2:-0.40459058 3:-0.68317309 4:-0.070457557 5:0.19070185 6:-0.11004721 7:-0.24310007 8:0.41563415 9:-0.11460626 
-1 1:-0.41644799 2:-0.39915376 3:-0.58009098 4:-0.015034892 5:0.20357104 6:-0.23657132 7:-0.23717803 8:0.47090653 9:-0.20971412 
-1 1:-0.39439737 2:-0.41060067 3:-0.62189732 4:-0.0050268745 5:0.14661157 6:-0.18182463 7:-0.18680733 8:0.39020635 9:-0.19408103 
-1 1:-0.41755768 2:-0.40135382 3:-0.54530852 4:0.012886251 5:0.14292613 6:-0.21245052 7:-0.18041552 8:0.39175353 9:-0.20974334 
-1 1:-0.38903944 2:-0.40196255 3:-0.55688585 4:0.014433966 5:0.14327679 6:-0.21597238 7:-0.17891423 8:0.3949618 9:-0.21768084 
-1 1:-0.33837726 2:-0.36407728 3:-0.64441943 4:0.029240736 5:0.13254953 6:-0.23123406 7:-0.16671593 8:0.38389437 9:-0.22658316 
-1 1:-0.37366436 2:-0.35601292 3:-0.60597097 4:-0.0005021232 5:0.13631734 6:-0.17730524 7:-0.177779 8:0.37260096 9:-0.18657712 
-1 1:-0.32035249 2:-0.30573508 3:-0.61395842 4:-0.013649727 5:0.13801619 6:-0.15351002 7:-0.18178746 8:0.36691758 9:-0.16969939 
-1 1:-0.35879059 2:-0.31588761 3:-0.69116739 4:0.029920243 5:0.20232466 6:-0.32390508 7:-0.22441761 8:0.49354246 9:-0.27024398 
-1 1:-0.34516176 2:-0.29818435 3:-0.63839204 4:0.010806333 5:0.20668752 6:-0.29178952 7:-0.23261041 8:0.4878221 9:-0.24457393 
-1 1:-0.37394008 2:-0.33662083 3:-0.65582461 4:-0.058307145 5:0.24724242 6:-0.20809659 7:-0.28406218 8:0.50935126 9:-0.16937095 
-1 1:-0.39103026 2:-0.32107176 3:-0.67581779 4:-0.14009041 5:0.2280789 6:-0.021167068 7:-0.28949966 8:0.43439483 9:-0.045807885 
-1 1:-0.42388804 2:-0.32076812 3:-0.60130904 4:-0.085052533 5:0.22945245 6:-0.13188345 7:-0.27612652 8:0.46551646 9:-0.12032019 
-1 1:-0.43633315 2:-0.33501887 3:-0.64743539 4:-0.070147315 5:0.25319099 6:-0.19245107 7:-0.29205462 8:0.5088723 9:-0.15196559 
-0.45127602048930154 1:-0.5812188 2:-0.33941738 3:-0.61547642 4:-0.10440454 5:0.25956124 6:-0.13299468 7:-0.30746401 8:0.49978562 9:-0.10618783 
-1 1:-0.40717873 2:-0.2756339 3:-0.49349849 4:-0.004464496 5:0.26664385 6:-0.34004373 7:-0.28750059 8:0.57174921 9:-0.255601 
-1 1:-0.41324755 2:-0.28696122 3:-0.5066849 4:-0.06443243 5:0.2469295 6:-0.19556523 7:-0.28616009 8:0.50605064 9:-0.16004947 
-0.99830804261897588 1:-0.39989523 2:-0.29407578 3:-0.55513335 4:-0.04057542 5:0.25363108 6:-0.25154913 7:-0.28596077 8:0.52814959 9:-0.19354769 
-1 1:-0.36114053 2:-0.24939336 3:-0.43941216 4:-0.13889461 5:0.22799007 6:-0.023417245 7:-0.28853282 8:0.43255246 9:-0.045068645 
-1 1:-0.46169028 2:-0.27570579 3:-0.45791783 4:-0.16423902 5:0.24919924 6:-0.0010212545 7:-0.31273793 8:0.45061027 9:-0.021560494 
-1 1:-0.52170709 2:-0.36231229 3:-0.64425794 4:-0.090536046 5:0.29071784 6:-0.20121989 7:-0.33097429 8:0.55519756 9:-0.1400495 
-1 1:-0.52041555 2:-0.36399953 3:-0.7046463 4:-0.15740133 5:0.36025705 6:-0.15991267 7:-0.40145263 8:0.62357199 9:-0.095245931 
-1 1:-0.14300981 2:-0.64669284 3:-1.4725888 4:-0.16668797 5:0.27735211 6:-0.033023174 7:-0.3307594 8:0.48075516 9:-0.029058173 
-0.99872140863737557 1:-0.26283876 2:-0.61369915 3:-1.289869 4:-0.45552386 5:0.41932788 6:0.35274864 7:-0.52189795 8:0.50058769 9:0.34035277 
-1 1:-0.31415346 2:-0.35851505 3:-0.78880546 4:-0.35733677 5:0.30994483 6:0.30160657 7:-0.41809192 8:0.41301226 9:0.25470433 
-1 1:-0.32973228 2:-0.33520228 3:-0.70778352 4:-0.18436841 5:0.32544246 6:-0.060977837 7:-0.38715408 8:0.53831547 9:0.0025271871 
-0.47943225360200664 1:-0.6907828 2:-0.42785165 3:-0.57532283 4:-0.16066859 5:0.43365987 6:-0.24952128 7:-0.46730568 8:0.72872066 9:-0.11515097 
-1 1:-0.70990429 2:-0.44948594 3:-0.73047034 4:-0.062496045 5:0.32061829 6:-0.29584604 7:-0.3499619 8:0.62126917 9:-0.19931204 
-1 1:-0.59520954 2:-0.4344361 3:-0.67371018 4:-0.074233628 5:0.30789413 6:-0.25596344 7:-0.33812648 8:0.59578228 9:-0.18587081 
-0.038664976330576327 1:-0.55218413 2:-0.36948177 3:-0.49852999 4:-0.043000752 5:0.26720157 6:-0.26451141 7:-0.29962158 8:0.54946848 9:-0.19693801 
-0.82546076202344154 1:-0.63914782 2:-0.39613747 3:-0.70686743 4:-0.045276811 5:0.34467381 6:-0.36140793 7:-0.36324636 8:0.66966514 9:-0.24402249 
-0.029387941396175326 1:-0.69896766 2:-0.43933897 3:-0.74970337 4:-0.042840684 5:0.34892339 6:-0.37179109 7:-0.36590673 8:0.68237192 9:-0.25748959 
-1 1:-0.73078258 2:-0.45925617 3:-0.8828049 4:0.027488595 5:0.32130855 6:-0.47482686 7:-0.32709695 8:0.6770547 9:-0.33056517 
-1 1:-0.68500954 2:-0.4628671 3:-0.78054897 4:0.03423188 5:0.28243176 6:-0.43728715 7:-0.29277697 8:0.62424481 9:-0.32316957 
-1 1:-0.75807711 2:-0.46776289 3:-0.83830998 4:0.013789295 5:0.28839875 6:-0.40464178 7:-0.30336794 8:0.62094167 9:-0.29611068 
