<?xml version="1.0"?>
<opencv_storage>
<opencv_ml_rtrees>
  <format>3</format>
  <is_classifier>0</is_classifier>
  <var_all>10</var_all>
  <var_count>9</var_count>
  <ord_var_count>10</ord_var_count>
  <cat_var_count>0</cat_var_count>
  <training_params>
    <use_surrogates>0</use_surrogates>
    <max_categories>10</max_categories>
    <regression_accuracy>9.9999997473787516e-05</regression_accuracy>
    <max_depth>5</max_depth>
    <min_sample_count>10</min_sample_count>
    <cross_validation_folds>0</cross_validation_folds>
    <nactive_vars>0</nactive_vars></training_params>
  <global_var_idx>1</global_var_idx>
  <var_idx>
    0 1 2 3 4 5 6 7 8</var_idx>
  <var_type>
    0 0 0 0 0 0 0 0 0 0</var_type>
  <cat_ofs>
    0 0 0 0 0 0 0 0 0 0 0 0 0 0 0 0 0 0</cat_ofs>
  <missing_subst>
    0. 0. 0. 0. 0. 0. 0. 0. 0. 0.</missing_subst>
  <oob_error>2.1524879265145399e-02</oob_error>
  <var_importance>
    3.02526921e-01 9.04872045e-02 1.96119100e-02 2.06507221e-01
    6.08339570e-02 5.27494662e-02 9.67532098e-02 5.11596203e-02
    1.19370483e-01</var_importance>
  <ntrees>100</ntrees>
  <trees>
    <_>
      <nodes>
        <_>
          <depth>0</depth>
          <value>2.1710526315789475e-01</value>
          <splits>
            <_><var>3</var>
              <quality>3.5513992309570313e+02</quality>
              <le>6.5980660915374756e-01</le></_></splits></_>
        <_>
          <depth>1</depth>
          <value>4.2452830188679243e-02</value>
          <splits>
            <_><var>6</var>
              <quality>8.5715303421020508e+00</quality>
              <le>3.5050809383392334e-01</le></_></splits></_>
        <_>
          <depth>2</depth>
          <value>5.0590219224283303e-03</value>
          <splits>
            <_><var>0</var>
              <quality>2.9508197307586670e-01</quality>
              <le>4.2996850013732910e+00</le></_></splits></_>
        <_>
          <depth>3</depth>
          <value>0.</value></_>
        <_>
          <depth>3</depth>
          <value>4.9180327868852458e-02</value>
          <splits>
            <_><var>5</var>
              <quality>5.1428570747375488e+00</quality>
              <le>-7.3615837097167969e-01</le></_></splits></_>
        <_>
          <depth>4</depth>
          <value>8.5714285714285710e-01</value></_>
        <_>
          <depth>4</depth>
          <value>0.</value></_>
        <_>
          <depth>2</depth>
          <value>1.2941176470588237e-01</value>
          <splits>
            <_><var>5</var>
              <quality>1.1633938789367676e+01</quality>
              <le>-5.9564065933227539e-01</le></_></splits></_>
        <_>
          <depth>3</depth>
          <value>1.8618618618618618e-01</value>
          <splits>
            <_><var>0</var>
              <quality>3.0869977951049805e+01</quality>
              <le>4.5561275482177734e+00</le></_></splits></_>
        <_>
          <depth>4</depth>
          <value>6.4150943396226415e-02</value>
          <splits>
            <_><var>6</var>
              <quality>6.1032247543334961e+00</quality>
              <le>3.5462751984596252e-01</le></_></splits></_>
        <_>
          <depth>5</depth>
          <value>4.6428571428571430e-01</value></_>
        <_>
          <depth>5</depth>
          <value>1.6877637130801686e-02</value></_>
        <_>
          <depth>4</depth>
          <value>6.6176470588235292e-01</value>
          <splits>
            <_><var>5</var>
              <quality>3.2783649444580078e+01</quality>
              <le>-6.4514458179473877e-01</le></_></splits></_>
        <_>
          <depth>5</depth>
          <value>7.7358490566037741e-01</value></_>
        <_>
          <depth>5</depth>
          <value>2.6666666666666666e-01</value></_>
        <_>
          <depth>3</depth>
          <value>2.2598870056497175e-02</value>
          <splits>
            <_><var>8</var>
              <quality>3.4782609343528748e-01</quality>
              <le>1.3054721057415009e-01</le></_></splits></_>
        <_>
          <depth>4</depth>
          <value>8.6956521739130432e-02</value>
          <splits>
            <_><var>8</var>
              <quality>3.0232558250427246e+00</quality>
              <le>1.3003401458263397e-01</le></_></splits></_>
        <_>
          <depth>5</depth>
          <value>2.3255813953488372e-02</value></_>
        <_>
          <depth>5</depth>
          <value>1.</value></_>
        <_>
          <depth>4</depth>
          <value>0.</value></_>
        <_>
          <depth>1</depth>
          <value>9.0277777777777779e-01</value>
          <splits>
            <_><var>1</var>
              <quality>3.6446585083007813e+02</quality>
              <le>3.8890886306762695e+00</le></_></splits></_>
        <_>
          <depth>2</depth>
          <value>3.2352941176470590e-01</value>
          <splits>
            <_><var>4</var>
              <quality>6.2413792610168457e+00</quality>
              <le>-1.1425427161157131e-02</le></_></splits></_>
        <_>
          <depth>3</depth>
          <value>1.</value></_>
        <_>
          <depth>3</depth>
          <value>2.0689655172413793e-01</value>
          <splits>
            <_><var>3</var>
              <quality>1.8947368860244751e+00</quality>
              <le>7.3142063617706299e-01</le></_></splits></_>
        <_>
          <depth>4</depth>
          <value>3.1578947368421051e-01</value>
          <splits>
            <_><var>3</var>
              <quality>5.0714287757873535e+00</quality>
              <le>7.1613079309463501e-01</le></_></splits></_>
        <_>
          <depth>5</depth>
          <value>7.1428571428571425e-02</value></_>
        <_>
          <depth>5</depth>
          <value>1.</value></_>
        <_>
          <depth>4</depth>
          <value>0.</value></_>
        <_>
          <depth>2</depth>
          <value>9.5226130653266328e-01</value>
          <splits>
            <_><var>7</var>
              <quality>3.6452700805664063e+02</quality>
              <le>5.0468504428863525e-01</le></_></splits></_>
        <_>
          <depth>3</depth>
          <value>9.7361477572559363e-01</value>
          <splits>
            <_><var>8</var>
              <quality>3.6063137817382813e+02</quality>
              <le>8.9130297303199768e-02</le></_></splits></_>
        <_>
          <depth>4</depth>
          <value>9.8622589531680438e-01</value>
          <splits>
            <_><var>1</var>
              <quality>3.5321929931640625e+02</quality>
              <le>4.2120442390441895e+00</le></_></splits></_>
        <_>
          <depth>5</depth>
          <value>9.5614035087719296e-01</value></_>
        <_>
          <depth>5</depth>
          <value>1.</value></_>
        <_>
          <depth>4</depth>
          <value>6.8750000000000000e-01</value>
          <splits>
            <_><var>8</var>
              <quality>9.3076925277709961e+00</quality>
              <le>9.0452268719673157e-02</le></_></splits></_>
        <_>
          <depth>5</depth>
          <value>0.</value></_>
        <_>
          <depth>5</depth>
          <value>8.4615384615384615e-01</value></_>
        <_>
          <depth>3</depth>
          <value>5.2631578947368418e-01</value>
          <splits>
            <_><var>2</var>
              <quality>10.</quality>
              <le>4.7022724151611328e+00</le></_></splits></_>
        <_>
          <depth>4</depth>
          <value>0.</value></_>
        <_>
          <depth>4</depth>
          <value>1.</value></_></nodes></_>
    <_>
      <nodes>
        <_>
          <depth>0</depth>
          <value>2.1945488721804512e-01</value>
          <splits>
            <_><var>3</var>
              <quality>3.9562014770507813e+02</quality>
              <le>7.0017910003662109e-01</le></_></splits></_>
        <_>
          <depth>1</depth>
          <value>3.2410135533294047e-02</value>
          <splits>
            <_><var>3</var>
              <quality>9.1646223068237305e+00</quality>
              <le>6.1434525251388550e-01</le></_></splits></_>
        <_>
          <depth>2</depth>
          <value>1.7358958462492250e-02</value>
          <splits>
            <_><var>4</var>
              <quality>1.6401673555374146e+00</quality>
              <le>1.9308859109878540e-01</le></_></splits></_>
        <_>
          <depth>3</depth>
          <value>5.8577405857740586e-02</value>
          <splits>
            <_><var>8</var>
              <quality>2.6220736503601074e+00</quality>
              <le>1.3187608122825623e-01</le></_></splits></_>
        <_>
          <depth>4</depth>
          <value>9.3645484949832769e-02</value>
          <splits>
            <_><var>2</var>
              <quality>5.1132287979125977e+00</quality>
              <le>4.8929066658020020e+00</le></_></splits></_>
        <_>
          <depth>5</depth>
          <value>4.0358744394618833e-02</value></_>
        <_>
          <depth>5</depth>
          <value>2.5000000000000000e-01</value></_>
        <_>
          <depth>4</depth>
          <value>0.</value></_>
        <_>
          <depth>3</depth>
          <value>0.</value></_>
        <_>
          <depth>2</depth>
          <value>3.2142857142857145e-01</value>
          <splits>
            <_><var>7</var>
              <quality>1.1921052932739258e+01</quality>
              <le>5.0259578227996826e-01</le></_></splits></_>
        <_>
          <depth>3</depth>
          <value>5.0000000000000000e-01</value>
          <splits>
            <_><var>6</var>
              <quality>1.5288498878479004e+01</quality>
              <le>4.1951322555541992e-01</le></_></splits></_>
        <_>
          <depth>4</depth>
          <value>8.4210526315789469e-01</value>
          <splits>
            <_><var>0</var>
              <quality>16.</quality>
              <le>4.5563821792602539e+00</le></_></splits></_>
        <_>
          <depth>5</depth>
          <value>0.</value></_>
        <_>
          <depth>5</depth>
          <value>1.</value></_>
        <_>
          <depth>4</depth>
          <value>2.5925925925925924e-01</value>
          <splits>
            <_><var>1</var>
              <quality>3.5000000000000000e+00</quality>
              <le>3.7564072608947754e+00</le></_></splits></_>
        <_>
          <depth>5</depth>
          <value>0.</value></_>
        <_>
          <depth>5</depth>
          <value>5.0000000000000000e-01</value></_>
        <_>
          <depth>3</depth>
          <value>1.0526315789473684e-01</value>
          <splits>
            <_><var>0</var>
              <quality>4.</quality>
              <le>4.7716598510742188e+00</le></_></splits></_>
        <_>
          <depth>4</depth>
          <value>0.</value></_>
        <_>
          <depth>4</depth>
          <value>1.</value></_>
        <_>
          <depth>1</depth>
          <value>9.5591647331786544e-01</value>
          <splits>
            <_><var>0</var>
              <quality>3.9846008300781250e+02</quality>
              <le>4.5517730712890625e+00</le></_></splits></_>
        <_>
          <depth>2</depth>
          <value>0.</value></_>
        <_>
          <depth>2</depth>
          <value>9.6713615023474175e-01</value>
          <splits>
            <_><var>6</var>
              <quality>4.0012567138671875e+02</quality>
              <le>4.4274020195007324e-01</le></_></splits></_>
        <_>
          <depth>3</depth>
          <value>7.9166666666666663e-01</value>
          <splits>
            <_><var>1</var>
              <quality>3.1571428298950195e+01</quality>
              <le>4.1307706832885742e+00</le></_></splits></_>
        <_>
          <depth>4</depth>
          <value>6.4285714285714290e-01</value>
          <splits>
            <_><var>4</var>
              <quality>1.4622221946716309e+01</quality>
              <le>4.7357879579067230e-02</le></_></splits></_>
        <_>
          <depth>5</depth>
          <value>8.8888888888888884e-01</value></_>
        <_>
          <depth>5</depth>
          <value>2.0000000000000001e-01</value></_>
        <_>
          <depth>4</depth>
          <value>1.</value></_>
        <_>
          <depth>3</depth>
          <value>9.8941798941798942e-01</value>
          <splits>
            <_><var>0</var>
              <quality>3.7037210083007813e+02</quality>
              <le>4.9657502174377441e+00</le></_></splits></_>
        <_>
          <depth>4</depth>
          <value>9.0697674418604646e-01</value>
          <splits>
            <_><var>4</var>
              <quality>36.</quality>
              <le>-4.1938386857509613e-02</le></_></splits></_>
        <_>
          <depth>5</depth>
          <value>7.5000000000000000e-01</value></_>
        <_>
          <depth>5</depth>
          <value>1.</value></_>
        <_>
          <depth>4</depth>
          <value>1.</value></_></nodes></_>
    <_>
      <nodes>
        <_>
          <depth>0</depth>
          <value>2.1945488721804512e-01</value>
          <splits>
            <_><var>0</var>
              <quality>3.2909414672851563e+02</quality>
              <le>4.9117546081542969e+00</le></_></splits></_>
        <_>
          <depth>1</depth>
          <value>6.1484918793503478e-02</value>
          <splits>
            <_><var>6</var>
              <quality>2.8655374526977539e+01</quality>
              <le>4.0178596973419189e-01</le></_></splits></_>
        <_>
          <depth>2</depth>
          <value>1.9167217448777262e-02</value>
          <splits>
            <_><var>6</var>
              <quality>1.6350716352462769e+00</quality>
              <le>3.4950065612792969e-01</le></_></splits></_>
        <_>
          <depth>3</depth>
          <value>4.3252595155709346e-03</value>
          <splits>
            <_><var>1</var>
              <quality>1.1776967346668243e-01</quality>
              <le>3.8255779743194580e+00</le></_></splits></_>
        <_>
          <depth>4</depth>
          <value>9.8135426889106960e-04</value>
          <splits>
            <_><var>0</var>
              <quality>1.0000000149011612e-01</quality>
              <le>4.2949438095092773e+00</le></_></splits></_>
        <_>
          <depth>5</depth>
          <value>0.</value></_>
        <_>
          <depth>5</depth>
          <value>1.0000000000000001e-01</value></_>
        <_>
          <depth>4</depth>
          <value>2.9197080291970802e-02</value>
          <splits>
            <_><var>1</var>
              <quality>2.6666667461395264e+00</quality>
              <le>3.8364260196685791e+00</le></_></splits></_>
        <_>
          <depth>5</depth>
          <value>6.6666666666666663e-01</value></_>
        <_>
          <depth>5</depth>
          <value>0.</value></_>
        <_>
          <depth>3</depth>
          <value>6.7226890756302518e-02</value>
          <splits>
            <_><var>0</var>
              <quality>3.3473684787750244e+00</quality>
              <le>4.8142414093017578e+00</le></_></splits></_>
        <_>
          <depth>4</depth>
          <value>5.2631578947368418e-02</value>
          <splits>
            <_><var>4</var>
              <quality>1.6224657297134399e+00</quality>
              <le>1.8787100911140442e-01</le></_></splits></_>
        <_>
          <depth>5</depth>
          <value>3.4246575342465752e-02</value></_>
        <_>
          <depth>5</depth>
          <value>1.6000000000000000e-01</value></_>
        <_>
          <depth>4</depth>
          <value>4.0000000000000002e-01</value>
          <splits>
            <_><var>7</var>
              <quality>6.</quality>
              <le>4.9035471677780151e-01</le></_></splits></_>
        <_>
          <depth>5</depth>
          <value>0.</value></_>
        <_>
          <depth>5</depth>
          <value>1.</value></_>
        <_>
          <depth>2</depth>
          <value>3.6492890995260663e-01</value>
          <splits>
            <_><var>8</var>
              <quality>4.4689914703369141e+01</quality>
              <le>1.1000718921422958e-01</le></_></splits></_>
        <_>
          <depth>3</depth>
          <value>5.9523809523809523e-01</value>
          <splits>
            <_><var>2</var>
              <quality>5.0732650756835938e+01</quality>
              <le>4.6744766235351563e+00</le></_></splits></_>
        <_>
          <depth>4</depth>
          <value>3.4545454545454546e-01</value>
          <splits>
            <_><var>1</var>
              <quality>9.4761905670166016e+00</quality>
              <le>3.7308182716369629e+00</le></_></splits></_>
        <_>
          <depth>5</depth>
          <value>1.1111111111111110e-01</value></_>
        <_>
          <depth>5</depth>
          <value>5.7142857142857140e-01</value></_>
        <_>
          <depth>4</depth>
          <value>7.8873239436619713e-01</value>
          <splits>
            <_><var>1</var>
              <quality>4.6949180603027344e+01</quality>
              <le>3.7297830581665039e+00</le></_></splits></_>
        <_>
          <depth>5</depth>
          <value>2.9999999999999999e-01</value></_>
        <_>
          <depth>5</depth>
          <value>8.6885245901639341e-01</value></_>
        <_>
          <depth>3</depth>
          <value>2.3529411764705882e-02</value>
          <splits>
            <_><var>6</var>
              <quality>3.4552845358848572e-01</quality>
              <le>4.0430271625518799e-01</le></_></splits></_>
        <_>
          <depth>4</depth>
          <value>3.3333333333333331e-01</value></_>
        <_>
          <depth>4</depth>
          <value>1.2195121951219513e-02</value>
          <splits>
            <_><var>3</var>
              <quality>1.2500000000000000e-01</quality>
              <le>5.8636128902435303e-01</le></_></splits></_>
        <_>
          <depth>5</depth>
          <value>0.</value></_>
        <_>
          <depth>5</depth>
          <value>1.2500000000000000e-01</value></_>
        <_>
          <depth>1</depth>
          <value>8.9356435643564358e-01</value>
          <splits>
            <_><var>5</var>
              <quality>3.5606829833984375e+02</quality>
              <le>-6.2355536222457886e-01</le></_></splits></_>
        <_>
          <depth>2</depth>
          <value>9.8633879781420764e-01</value>
          <splits>
            <_><var>5</var>
              <quality>3.5655468750000000e+02</quality>
              <le>-6.9609314203262329e-01</le></_></splits></_>
        <_>
          <depth>3</depth>
          <value>9.9703264094955490e-01</value>
          <splits>
            <_><var>5</var>
              <quality>3.3503225708007813e+02</quality>
              <le>-7.2612631320953369e-01</le></_></splits></_>
        <_>
          <depth>4</depth>
          <value>1.</value></_>
        <_>
          <depth>4</depth>
          <value>9.6774193548387100e-01</value>
          <splits>
            <_><var>7</var>
              <quality>2.9083333969116211e+01</quality>
              <le>4.2652946710586548e-01</le></_></splits></_>
        <_>
          <depth>5</depth>
          <value>1.</value></_>
        <_>
          <depth>5</depth>
          <value>9.1666666666666663e-01</value></_>
        <_>
          <depth>3</depth>
          <value>8.6206896551724133e-01</value>
          <splits>
            <_><var>7</var>
              <quality>2.2841667175292969e+01</quality>
              <le>4.6725916862487793e-01</le></_></splits></_>
        <_>
          <depth>4</depth>
          <value>9.5833333333333337e-01</value>
          <splits>
            <_><var>5</var>
              <quality>23.</quality>
              <le>-6.9143843650817871e-01</le></_></splits></_>
        <_>
          <depth>5</depth>
          <value>0.</value></_>
        <_>
          <depth>5</depth>
          <value>1.</value></_>
        <_>
          <depth>4</depth>
          <value>4.0000000000000002e-01</value></_>
        <_>
          <depth>2</depth>
          <value>0.</value></_></nodes></_>
    <_>
      <nodes>
        <_>
          <depth>0</depth>
          <value>2.2838345864661655e-01</value>
          <splits>
            <_><var>6</var>
              <quality>3.4936352539062500e+02</quality>
              <le>4.1543877124786377e-01</le></_></splits></_>
        <_>
          <depth>1</depth>
          <value>3.3940917661847897e-02</value>
          <splits>
            <_><var>3</var>
              <quality>8.7010850906372070e+00</quality>
              <le>6.6518974304199219e-01</le></_></splits></_>
        <_>
          <depth>2</depth>
          <value>2.6717557251908396e-02</value>
          <splits>
            <_><var>0</var>
              <quality>4.7230081558227539e+00</quality>
              <le>4.3310632705688477e+00</le></_></splits></_>
        <_>
          <depth>3</depth>
          <value>1.6220600162206002e-03</value>
          <splits>
            <_><var>0</var>
              <quality>5.9645898640155792e-02</quality>
              <le>4.3048486709594727e+00</le></_></splits></_>
        <_>
          <depth>4</depth>
          <value>8.2236842105263153e-04</value>
          <splits>
            <_><var>7</var>
              <quality>1.7543859779834747e-02</quality>
              <le>5.0600516796112061e-01</le></_></splits></_>
        <_>
          <depth>5</depth>
          <value>1.7543859649122806e-02</value></_>
        <_>
          <depth>5</depth>
          <value>0.</value></_>
        <_>
          <depth>4</depth>
          <value>5.8823529411764705e-02</value>
          <splits>
            <_><var>5</var>
              <quality>3.3333334326744080e-01</quality>
              <le>-7.3826819658279419e-01</le></_></splits></_>
        <_>
          <depth>5</depth>
          <value>3.3333333333333331e-01</value></_>
        <_>
          <depth>5</depth>
          <value>0.</value></_>
        <_>
          <depth>3</depth>
          <value>1.1799410029498525e-01</value>
          <splits>
            <_><var>8</var>
              <quality>1.0184858322143555e+01</quality>
              <le>1.2317357957363129e-01</le></_></splits></_>
        <_>
          <depth>4</depth>
          <value>2.7407407407407408e-01</value>
          <splits>
            <_><var>6</var>
              <quality>1.4510458946228027e+01</quality>
              <le>3.6255571246147156e-01</le></_></splits></_>
        <_>
          <depth>5</depth>
          <value>6.8181818181818177e-01</value></_>
        <_>
          <depth>5</depth>
          <value>1.9469026548672566e-01</value></_>
        <_>
          <depth>4</depth>
          <value>1.4705882352941176e-02</value>
          <splits>
            <_><var>0</var>
              <quality>6.0000002384185791e-01</quality>
              <le>4.3754963874816895e+00</le></_></splits></_>
        <_>
          <depth>5</depth>
          <value>2.0000000000000001e-01</value></_>
        <_>
          <depth>5</depth>
          <value>0.</value></_>
        <_>
          <depth>2</depth>
          <value>6.3157894736842102e-01</value>
          <splits>
            <_><var>2</var>
              <quality>12.</quality>
              <le>4.6518163681030273e+00</le></_></splits></_>
        <_>
          <depth>3</depth>
          <value>0.</value></_>
        <_>
          <depth>3</depth>
          <value>1.</value></_>
        <_>
          <depth>1</depth>
          <value>8.0446927374301680e-01</value>
          <splits>
            <_><var>5</var>
              <quality>3.9338043212890625e+02</quality>
              <le>-6.3178873062133789e-01</le></_></splits></_>
        <_>
          <depth>2</depth>
          <value>9.1666666666666663e-01</value>
          <splits>
            <_><var>1</var>
              <quality>4.0641516113281250e+02</quality>
              <le>3.7308182716369629e+00</le></_></splits></_>
        <_>
          <depth>3</depth>
          <value>1.4285714285714285e-01</value>
          <splits>
            <_><var>4</var>
              <quality>3.</quality>
              <le>6.6078767180442810e-02</le></_></splits></_>
        <_>
          <depth>4</depth>
          <value>0.</value></_>
        <_>
          <depth>4</depth>
          <value>1.</value></_>
        <_>
          <depth>3</depth>
          <value>9.5302013422818788e-01</value>
          <splits>
            <_><var>1</var>
              <quality>4.0765121459960938e+02</quality>
              <le>4.0866327285766602e+00</le></_></splits></_>
        <_>
          <depth>4</depth>
          <value>8.4684684684684686e-01</value>
          <splits>
            <_><var>5</var>
              <quality>8.1189544677734375e+01</quality>
              <le>-8.1484872102737427e-01</le></_></splits></_>
        <_>
          <depth>5</depth>
          <value>4.4444444444444442e-01</value></_>
        <_>
          <depth>5</depth>
          <value>8.8235294117647056e-01</value></_>
        <_>
          <depth>4</depth>
          <value>9.8809523809523814e-01</value>
          <splits>
            <_><var>8</var>
              <quality>3.2838095092773438e+02</quality>
              <le>8.1469461321830750e-02</le></_></splits></_>
        <_>
          <depth>5</depth>
          <value>1.</value></_>
        <_>
          <depth>5</depth>
          <value>9.0476190476190477e-01</value></_>
        <_>
          <depth>2</depth>
          <value>4.3478260869565216e-02</value>
          <splits>
            <_><var>6</var>
              <quality>6.0000002384185791e-01</quality>
              <le>4.5728582143783569e-01</le></_></splits></_>
        <_>
          <depth>3</depth>
          <value>0.</value></_>
        <_>
          <depth>3</depth>
          <value>2.0000000000000001e-01</value>
          <splits>
            <_><var>5</var>
              <quality>2.2500000000000000e+00</quality>
              <le>-5.3742587566375732e-01</le></_></splits></_>
        <_>
          <depth>4</depth>
          <value>7.5000000000000000e-01</value></_>
        <_>
          <depth>4</depth>
          <value>0.</value></_></nodes></_>
    <_>
      <nodes>
        <_>
          <depth>0</depth>
          <value>2.3073308270676693e-01</value>
          <splits>
            <_><var>8</var>
              <quality>3.6793786621093750e+02</quality>
              <le>8.8854536414146423e-02</le></_></splits></_>
        <_>
          <depth>1</depth>
          <value>9.0156599552572703e-01</value>
          <splits>
            <_><var>6</var>
              <quality>3.7629400634765625e+02</quality>
              <le>4.0754944086074829e-01</le></_></splits></_>
        <_>
          <depth>2</depth>
          <value>2.6666666666666666e-01</value>
          <splits>
            <_><var>2</var>
              <quality>8.</quality>
              <le>4.7183003425598145e+00</le></_></splits></_>
        <_>
          <depth>3</depth>
          <value>0.</value></_>
        <_>
          <depth>3</depth>
          <value>1.</value></_>
        <_>
          <depth>2</depth>
          <value>9.4724220623501199e-01</value>
          <splits>
            <_><var>0</var>
              <quality>3.8168890380859375e+02</quality>
              <le>4.5871791839599609e+00</le></_></splits></_>
        <_>
          <depth>3</depth>
          <value>1.6666666666666666e-01</value>
          <splits>
            <_><var>0</var>
              <quality>1.</quality>
              <le>4.5592131614685059e+00</le></_></splits></_>
        <_>
          <depth>4</depth>
          <value>0.</value></_>
        <_>
          <depth>4</depth>
          <value>5.0000000000000000e-01</value></_>
        <_>
          <depth>3</depth>
          <value>9.7037037037037033e-01</value>
          <splits>
            <_><var>0</var>
              <quality>3.8333663940429688e+02</quality>
              <le>4.8203973770141602e+00</le></_></splits></_>
        <_>
          <depth>4</depth>
          <value>7.6744186046511631e-01</value>
          <splits>
            <_><var>1</var>
              <quality>2.7923076629638672e+01</quality>
              <le>4.0444588661193848e+00</le></_></splits></_>
        <_>
          <depth>5</depth>
          <value>8.4615384615384615e-01</value></_>
        <_>
          <depth>5</depth>
          <value>0.</value></_>
        <_>
          <depth>4</depth>
          <value>9.9447513812154698e-01</value>
          <splits>
            <_><var>5</var>
              <quality>3.5812500000000000e+02</quality>
              <le>-7.3260092735290527e-01</le></_></splits></_>
        <_>
          <depth>5</depth>
          <value>1.</value></_>
        <_>
          <depth>5</depth>
          <value>9.3750000000000000e-01</value></_>
        <_>
          <depth>1</depth>
          <value>5.2349791790600834e-02</value>
          <splits>
            <_><var>3</var>
              <quality>1.6769056320190430e+01</quality>
              <le>5.9200012683868408e-01</le></_></splits></_>
        <_>
          <depth>2</depth>
          <value>2.7724049000644745e-02</value>
          <splits>
            <_><var>6</var>
              <quality>4.2071671485900879e+00</quality>
              <le>3.4950065612792969e-01</le></_></splits></_>
        <_>
          <depth>3</depth>
          <value>2.5641025641025641e-03</value>
          <splits>
            <_><var>6</var>
              <quality>2.6706231757998466e-02</quality>
              <le>3.2565516233444214e-01</le></_></splits></_>
        <_>
          <depth>4</depth>
          <value>0.</value></_>
        <_>
          <depth>4</depth>
          <value>8.9020771513353119e-03</value>
          <splits>
            <_><var>6</var>
              <quality>1.0119047164916992e+00</quality>
              <le>3.2579556107521057e-01</le></_></splits></_>
        <_>
          <depth>5</depth>
          <value>1.</value></_>
        <_>
          <depth>5</depth>
          <value>5.9523809523809521e-03</value></_>
        <_>
          <depth>3</depth>
          <value>1.0498687664041995e-01</value>
          <splits>
            <_><var>7</var>
              <quality>6.8601813316345215e+00</quality>
              <le>5.4538220167160034e-01</le></_></splits></_>
        <_>
          <depth>4</depth>
          <value>7.2507552870090641e-02</value>
          <splits>
            <_><var>7</var>
              <quality>2.7428572177886963e+00</quality>
              <le>4.6586579084396362e-01</le></_></splits></_>
        <_>
          <depth>5</depth>
          <value>0.</value></_>
        <_>
          <depth>5</depth>
          <value>1.1428571428571428e-01</value></_>
        <_>
          <depth>4</depth>
          <value>3.2000000000000001e-01</value>
          <splits>
            <_><var>5</var>
              <quality>9.4814815521240234e+00</quality>
              <le>-7.5973057746887207e-01</le></_></splits></_>
        <_>
          <depth>5</depth>
          <value>0.</value></_>
        <_>
          <depth>5</depth>
          <value>5.9259259259259256e-01</value></_>
        <_>
          <depth>2</depth>
          <value>3.4615384615384615e-01</value>
          <splits>
            <_><var>2</var>
              <quality>2.5061670303344727e+01</quality>
              <le>4.7735366821289063e+00</le></_></splits></_>
        <_>
          <depth>3</depth>
          <value>8.8235294117647065e-02</value>
          <splits>
            <_><var>8</var>
              <quality>3.1384615898132324e+00</quality>
              <le>1.0339895635843277e-01</le></_></splits></_>
        <_>
          <depth>4</depth>
          <value>4.6153846153846156e-02</value>
          <splits>
            <_><var>8</var>
              <quality>5.8866995573043823e-01</quality>
              <le>1.0130116343498230e-01</le></_></splits></_>
        <_>
          <depth>5</depth>
          <value>1.7241379310344827e-02</value></_>
        <_>
          <depth>5</depth>
          <value>2.8571428571428570e-01</value></_>
        <_>
          <depth>4</depth>
          <value>1.</value></_>
        <_>
          <depth>3</depth>
          <value>6.2903225806451613e-01</value>
          <splits>
            <_><var>1</var>
              <quality>2.7160715103149414e+01</quality>
              <le>3.8448653221130371e+00</le></_></splits></_>
        <_>
          <depth>4</depth>
          <value>0.</value></_>
        <_>
          <depth>4</depth>
          <value>6.9642857142857140e-01</value>
          <splits>
            <_><var>4</var>
              <quality>2.8879487991333008e+01</quality>
              <le>3.6484375596046448e-02</le></_></splits></_>
        <_>
          <depth>5</depth>
          <value>5.3333333333333333e-01</value></_>
        <_>
          <depth>5</depth>
          <value>8.8461538461538458e-01</value></_></nodes></_>
    <_>
      <nodes>
        <_>
          <depth>0</depth>
          <value>2.3449248120300753e-01</value>
          <splits>
            <_><var>3</var>
              <quality>3.8736483764648438e+02</quality>
              <le>6.5350568294525146e-01</le></_></splits></_>
        <_>
          <depth>1</depth>
          <value>4.6274038461538464e-02</value>
          <splits>
            <_><var>0</var>
              <quality>1.1988406181335449e+01</quality>
              <le>4.3048486709594727e+00</le></_></splits></_>
        <_>
          <depth>2</depth>
          <value>3.2813781788351109e-03</value>
          <splits>
            <_><var>6</var>
              <quality>2.5332501530647278e-01</quality>
              <le>4.0350532531738281e-01</le></_></splits></_>
        <_>
          <depth>3</depth>
          <value>1.6625103906899418e-03</value>
          <splits>
            <_><var>8</var>
              <quality>1.5564202331006527e-02</quality>
              <le>1.2895524501800537e-01</le></_></splits></_>
        <_>
          <depth>4</depth>
          <value>0.</value></_>
        <_>
          <depth>4</depth>
          <value>7.7821011673151752e-03</value>
          <splits>
            <_><var>4</var>
              <quality>1.1764705926179886e-01</quality>
              <le>1.4684572815895081e-01</le></_></splits></_>
        <_>
          <depth>5</depth>
          <value>5.8823529411764705e-02</value></_>
        <_>
          <depth>5</depth>
          <value>0.</value></_>
        <_>
          <depth>3</depth>
          <value>1.2500000000000000e-01</value>
          <splits>
            <_><var>6</var>
              <quality>2.</quality>
              <le>4.0733844041824341e-01</le></_></splits></_>
        <_>
          <depth>4</depth>
          <value>1.</value></_>
        <_>
          <depth>4</depth>
          <value>0.</value></_>
        <_>
          <depth>2</depth>
          <value>1.6404494382022472e-01</value>
          <splits>
            <_><var>3</var>
              <quality>2.3734407424926758e+01</quality>
              <le>5.3783416748046875e-01</le></_></splits></_>
        <_>
          <depth>3</depth>
          <value>2.6923076923076925e-02</value>
          <splits>
            <_><var>3</var>
              <quality>6.2820512056350708e-01</quality>
              <le>4.5432102680206299e-01</le></_></splits></_>
        <_>
          <depth>4</depth>
          <value>0.</value></_>
        <_>
          <depth>4</depth>
          <value>8.9743589743589744e-02</value>
          <splits>
            <_><var>8</var>
              <quality>2.4662163257598877e+00</quality>
              <le>1.0533840954303741e-01</le></_></splits></_>
        <_>
          <depth>5</depth>
          <value>7.5000000000000000e-01</value></_>
        <_>
          <depth>5</depth>
          <value>5.4054054054054057e-02</value></_>
        <_>
          <depth>3</depth>
          <value>3.5675675675675678e-01</value>
          <splits>
            <_><var>0</var>
              <quality>2.9332511901855469e+01</quality>
              <le>4.5524597167968750e+00</le></_></splits></_>
        <_>
          <depth>4</depth>
          <value>1.9191919191919191e-01</value>
          <splits>
            <_><var>4</var>
              <quality>1.5441391944885254e+01</quality>
              <le>1.8250036239624023e-01</le></_></splits></_>
        <_>
          <depth>5</depth>
          <value>1.2820512820512820e-02</value></_>
        <_>
          <depth>5</depth>
          <value>8.5714285714285710e-01</value></_>
        <_>
          <depth>4</depth>
          <value>5.4651162790697672e-01</value>
          <splits>
            <_><var>4</var>
              <quality>3.1217857360839844e+01</quality>
              <le>3.6481730639934540e-02</le></_></splits></_>
        <_>
          <depth>5</depth>
          <value>2.0000000000000001e-01</value></_>
        <_>
          <depth>5</depth>
          <value>7.3214285714285710e-01</value></_>
        <_>
          <depth>1</depth>
          <value>9.0948275862068961e-01</value>
          <splits>
            <_><var>7</var>
              <quality>3.9053509521484375e+02</quality>
              <le>5.2095830440521240e-01</le></_></splits></_>
        <_>
          <depth>2</depth>
          <value>9.2543859649122806e-01</value>
          <splits>
            <_><var>6</var>
              <quality>3.9390359497070313e+02</quality>
              <le>4.5788878202438354e-01</le></_></splits></_>
        <_>
          <depth>3</depth>
          <value>7.5789473684210529e-01</value>
          <splits>
            <_><var>1</var>
              <quality>6.0940837860107422e+01</quality>
              <le>3.7660131454467773e+00</le></_></splits></_>
        <_>
          <depth>4</depth>
          <value>2.2222222222222221e-01</value>
          <splits>
            <_><var>3</var>
              <quality>4.</quality>
              <le>6.5443921089172363e-01</le></_></splits></_>
        <_>
          <depth>5</depth>
          <value>1.</value></_>
        <_>
          <depth>5</depth>
          <value>0.</value></_>
        <_>
          <depth>4</depth>
          <value>8.8311688311688308e-01</value>
          <splits>
            <_><var>0</var>
              <quality>6.2240001678466797e+01</quality>
              <le>4.8262257575988770e+00</le></_></splits></_>
        <_>
          <depth>5</depth>
          <value>6.4000000000000001e-01</value></_>
        <_>
          <depth>5</depth>
          <value>1.</value></_>
        <_>
          <depth>3</depth>
          <value>9.6952908587257614e-01</value>
          <splits>
            <_><var>6</var>
              <quality>3.3977069091796875e+02</quality>
              <le>5.0436878204345703e-01</le></_></splits></_>
        <_>
          <depth>4</depth>
          <value>9.2993630573248409e-01</value>
          <splits>
            <_><var>8</var>
              <quality>1.3817597961425781e+02</quality>
              <le>8.9308828115463257e-02</le></_></splits></_>
        <_>
          <depth>5</depth>
          <value>9.7163120567375882e-01</value></_>
        <_>
          <depth>5</depth>
          <value>5.6250000000000000e-01</value></_>
        <_>
          <depth>4</depth>
          <value>1.</value></_>
        <_>
          <depth>2</depth>
          <value>0.</value></_></nodes></_>
    <_>
      <nodes>
        <_>
          <depth>0</depth>
          <value>2.3073308270676693e-01</value>
          <splits>
            <_><var>3</var>
              <quality>4.0350067138671875e+02</quality>
              <le>6.5350568294525146e-01</le></_></splits></_>
        <_>
          <depth>1</depth>
          <value>3.4918723660445516e-02</value>
          <splits>
            <_><var>3</var>
              <quality>5.9583263397216797e+00</quality>
              <le>5.9200012683868408e-01</le></_></splits></_>
        <_>
          <depth>2</depth>
          <value>2.1400778210116732e-02</value>
          <splits>
            <_><var>6</var>
              <quality>2.1254246234893799e+00</quality>
              <le>3.4608495235443115e-01</le></_></splits></_>
        <_>
          <depth>3</depth>
          <value>9.4339622641509435e-04</value>
          <splits>
            <_><var>5</var>
              <quality>5.8479532599449158e-03</quality>
              <le>-7.3878014087677002e-01</le></_></splits></_>
        <_>
          <depth>4</depth>
          <value>5.8479532163742687e-03</value>
          <splits>
            <_><var>1</var>
              <quality>1.</quality>
              <le>3.7869067192077637e+00</le></_></splits></_>
        <_>
          <depth>5</depth>
          <value>0.</value></_>
        <_>
          <depth>5</depth>
          <value>1.</value></_>
        <_>
          <depth>4</depth>
          <value>0.</value></_>
        <_>
          <depth>3</depth>
          <value>6.6390041493775934e-02</value>
          <splits>
            <_><var>6</var>
              <quality>3.8750000000000000e+00</quality>
              <le>3.4611308574676514e-01</le></_></splits></_>
        <_>
          <depth>4</depth>
          <value>1.</value></_>
        <_>
          <depth>4</depth>
          <value>6.2500000000000000e-02</value>
          <splits>
            <_><var>8</var>
              <quality>2.6470587253570557e+00</quality>
              <le>1.3187608122825623e-01</le></_></splits></_>
        <_>
          <depth>5</depth>
          <value>8.8235294117647065e-02</value></_>
        <_>
          <depth>5</depth>
          <value>0.</value></_>
        <_>
          <depth>2</depth>
          <value>2.1008403361344538e-01</value>
          <splits>
            <_><var>6</var>
              <quality>9.6153850555419922e+00</quality>
              <le>3.8872146606445313e-01</le></_></splits></_>
        <_>
          <depth>3</depth>
          <value>0.</value></_>
        <_>
          <depth>3</depth>
          <value>3.8461538461538464e-01</value>
          <splits>
            <_><var>2</var>
              <quality>1.2755102157592773e+01</quality>
              <le>4.6247067451477051e+00</le></_></splits></_>
        <_>
          <depth>4</depth>
          <value>0.</value></_>
        <_>
          <depth>4</depth>
          <value>5.1020408163265307e-01</value>
          <splits>
            <_><var>6</var>
              <quality>1.5654411315917969e+01</quality>
              <le>4.2704802751541138e-01</le></_></splits></_>
        <_>
          <depth>5</depth>
          <value>6.8750000000000000e-01</value></_>
        <_>
          <depth>5</depth>
          <value>1.7647058823529413e-01</value></_>
        <_>
          <depth>1</depth>
          <value>9.2719486081370450e-01</value>
          <splits>
            <_><var>7</var>
              <quality>4.1024597167968750e+02</quality>
              <le>5.1852226257324219e-01</le></_></splits></_>
        <_>
          <depth>2</depth>
          <value>9.4945054945054941e-01</value>
          <splits>
            <_><var>2</var>
              <quality>4.1246682739257813e+02</quality>
              <le>4.3425230979919434e+00</le></_></splits></_>
        <_>
          <depth>3</depth>
          <value>5.8823529411764708e-01</value>
          <splits>
            <_><var>0</var>
              <quality>8.4444446563720703e+00</quality>
              <le>4.7237977981567383e+00</le></_></splits></_>
        <_>
          <depth>4</depth>
          <value>2.2222222222222221e-01</value></_>
        <_>
          <depth>4</depth>
          <value>1.</value></_>
        <_>
          <depth>3</depth>
          <value>9.6347031963470320e-01</value>
          <splits>
            <_><var>1</var>
              <quality>4.0985217285156250e+02</quality>
              <le>3.7242097854614258e+00</le></_></splits></_>
        <_>
          <depth>4</depth>
          <value>2.8571428571428570e-01</value></_>
        <_>
          <depth>4</depth>
          <value>9.7447795823665895e-01</value>
          <splits>
            <_><var>0</var>
              <quality>4.1066937255859375e+02</quality>
              <le>4.9326267242431641e+00</le></_></splits></_>
        <_>
          <depth>5</depth>
          <value>8.3333333333333337e-01</value></_>
        <_>
          <depth>5</depth>
          <value>9.9730458221024254e-01</value></_>
        <_>
          <depth>2</depth>
          <value>8.3333333333333329e-02</value>
          <splits>
            <_><var>0</var>
              <quality>1.</quality>
              <le>4.7786307334899902e+00</le></_></splits></_>
        <_>
          <depth>3</depth>
          <value>0.</value></_>
        <_>
          <depth>3</depth>
          <value>1.</value></_></nodes></_>
    <_>
      <nodes>
        <_>
          <depth>0</depth>
          <value>2.2180451127819548e-01</value>
          <splits>
            <_><var>0</var>
              <quality>3.5384637451171875e+02</quality>
              <le>4.8597059249877930e+00</le></_></splits></_>
        <_>
          <depth>1</depth>
          <value>4.3608124253285543e-02</value>
          <splits>
            <_><var>6</var>
              <quality>1.7712863922119141e+01</quality>
              <le>4.0163388848304749e-01</le></_></splits></_>
        <_>
          <depth>2</depth>
          <value>1.1371237458193980e-02</value>
          <splits>
            <_><var>6</var>
              <quality>6.9653946161270142e-01</quality>
              <le>3.4950065612792969e-01</le></_></splits></_>
        <_>
          <depth>3</depth>
          <value>8.8731144631765753e-04</value>
          <splits>
            <_><var>1</var>
              <quality>8.8495574891567230e-03</quality>
              <le>3.8339872360229492e+00</le></_></splits></_>
        <_>
          <depth>4</depth>
          <value>0.</value></_>
        <_>
          <depth>4</depth>
          <value>8.8495575221238937e-03</value>
          <splits>
            <_><var>5</var>
              <quality>1.</quality>
              <le>-7.3675715923309326e-01</le></_></splits></_>
        <_>
          <depth>5</depth>
          <value>1.</value></_>
        <_>
          <depth>5</depth>
          <value>0.</value></_>
        <_>
          <depth>3</depth>
          <value>4.3478260869565216e-02</value>
          <splits>
            <_><var>0</var>
              <quality>1.4198790788650513e+00</quality>
              <le>4.3081178665161133e+00</le></_></splits></_>
        <_>
          <depth>4</depth>
          <value>4.7846889952153108e-03</value>
          <splits>
            <_><var>0</var>
              <quality>3.3333335071802139e-02</quality>
              <le>4.0496358871459961e+00</le></_></splits></_>
        <_>
          <depth>5</depth>
          <value>3.3333333333333333e-02</value></_>
        <_>
          <depth>5</depth>
          <value>0.</value></_>
        <_>
          <depth>4</depth>
          <value>9.4339622641509441e-02</value>
          <splits>
            <_><var>6</var>
              <quality>4.8869776725769043e+00</quality>
              <le>3.5707584023475647e-01</le></_></splits></_>
        <_>
          <depth>5</depth>
          <value>6.3636363636363635e-01</value></_>
        <_>
          <depth>5</depth>
          <value>5.4054054054054057e-02</value></_>
        <_>
          <depth>2</depth>
          <value>3.1284916201117319e-01</value>
          <splits>
            <_><var>2</var>
              <quality>2.2512401580810547e+01</quality>
              <le>5.3596220016479492e+00</le></_></splits></_>
        <_>
          <depth>3</depth>
          <value>4.1538461538461541e-01</value>
          <splits>
            <_><var>8</var>
              <quality>2.7048076629638672e+01</quality>
              <le>1.1130134761333466e-01</le></_></splits></_>
        <_>
          <depth>4</depth>
          <value>5.0961538461538458e-01</value>
          <splits>
            <_><var>0</var>
              <quality>3.9013889312744141e+01</quality>
              <le>4.5519700050354004e+00</le></_></splits></_>
        <_>
          <depth>5</depth>
          <value>0.</value></_>
        <_>
          <depth>5</depth>
          <value>7.3611111111111116e-01</value></_>
        <_>
          <depth>4</depth>
          <value>3.8461538461538464e-02</value>
          <splits>
            <_><var>6</var>
              <quality>1.</quality>
              <le>4.0773952007293701e-01</le></_></splits></_>
        <_>
          <depth>5</depth>
          <value>1.</value></_>
        <_>
          <depth>5</depth>
          <value>0.</value></_>
        <_>
          <depth>3</depth>
          <value>4.0816326530612242e-02</value>
          <splits>
            <_><var>8</var>
              <quality>2.5000000000000000e-01</quality>
              <le>1.2135279178619385e-01</le></_></splits></_>
        <_>
          <depth>4</depth>
          <value>1.2500000000000000e-01</value>
          <splits>
            <_><var>8</var>
              <quality>2.</quality>
              <le>1.2065741419792175e-01</le></_></splits></_>
        <_>
          <depth>5</depth>
          <value>0.</value></_>
        <_>
          <depth>5</depth>
          <value>1.</value></_>
        <_>
          <depth>4</depth>
          <value>0.</value></_>
        <_>
          <depth>1</depth>
          <value>8.7885462555066074e-01</value>
          <splits>
            <_><var>8</var>
              <quality>3.9210910034179688e+02</quality>
              <le>1.0388650000095367e-01</le></_></splits></_>
        <_>
          <depth>2</depth>
          <value>9.8514851485148514e-01</value>
          <splits>
            <_><var>0</var>
              <quality>3.9228152465820313e+02</quality>
              <le>4.9413633346557617e+00</le></_></splits></_>
        <_>
          <depth>3</depth>
          <value>9.1428571428571426e-01</value>
          <splits>
            <_><var>2</var>
              <quality>3.0799999237060547e+01</quality>
              <le>5.3012056350708008e+00</le></_></splits></_>
        <_>
          <depth>4</depth>
          <value>1.</value></_>
        <_>
          <depth>4</depth>
          <value>4.0000000000000002e-01</value></_>
        <_>
          <depth>3</depth>
          <value>9.9186991869918695e-01</value>
          <splits>
            <_><var>5</var>
              <quality>3.6479998779296875e+02</quality>
              <le>-6.3755536079406738e-01</le></_></splits></_>
        <_>
          <depth>4</depth>
          <value>1.</value></_>
        <_>
          <depth>4</depth>
          <value>4.0000000000000002e-01</value></_>
        <_>
          <depth>2</depth>
          <value>2.0000000000000000e-02</value>
          <splits>
            <_><var>1</var>
              <quality>8.3333335816860199e-02</quality>
              <le>4.1108617782592773e+00</le></_></splits></_>
        <_>
          <depth>3</depth>
          <value>8.3333333333333329e-02</value>
          <splits>
            <_><var>1</var>
              <quality>1.</quality>
              <le>4.0859107971191406e+00</le></_></splits></_>
        <_>
          <depth>4</depth>
          <value>0.</value></_>
        <_>
          <depth>4</depth>
          <value>1.</value></_>
        <_>
          <depth>3</depth>
          <value>0.</value></_></nodes></_>
    <_>
      <nodes>
        <_>
          <depth>0</depth>
          <value>2.2368421052631579e-01</value>
          <splits>
            <_><var>8</var>
              <quality>3.7935797119140625e+02</quality>
              <le>8.8846378028392792e-02</le></_></splits></_>
        <_>
          <depth>1</depth>
          <value>9.2307692307692313e-01</value>
          <splits>
            <_><var>1</var>
              <quality>3.8808471679687500e+02</quality>
              <le>3.7308182716369629e+00</le></_></splits></_>
        <_>
          <depth>2</depth>
          <value>1.1764705882352941e-01</value>
          <splits>
            <_><var>2</var>
              <quality>1.0625000000000000e+00</quality>
              <le>4.2466959953308105e+00</le></_></splits></_>
        <_>
          <depth>3</depth>
          <value>1.</value></_>
        <_>
          <depth>3</depth>
          <value>6.2500000000000000e-02</value>
          <splits>
            <_><var>0</var>
              <quality>1.</quality>
              <le>4.8150348663330078e+00</le></_></splits></_>
        <_>
          <depth>4</depth>
          <value>0.</value></_>
        <_>
          <depth>4</depth>
          <value>1.</value></_>
        <_>
          <depth>2</depth>
          <value>9.5529411764705885e-01</value>
          <splits>
            <_><var>4</var>
              <quality>3.9647735595703125e+02</quality>
              <le>1.0759156942367554e-01</le></_></splits></_>
        <_>
          <depth>3</depth>
          <value>9.8525798525798525e-01</value>
          <splits>
            <_><var>8</var>
              <quality>3.9534286499023438e+02</quality>
              <le>7.8528538346290588e-02</le></_></splits></_>
        <_>
          <depth>4</depth>
          <value>1.</value></_>
        <_>
          <depth>4</depth>
          <value>9.4285714285714284e-01</value>
          <splits>
            <_><var>8</var>
              <quality>9.4240386962890625e+01</quality>
              <le>7.8615270555019379e-02</le></_></splits></_>
        <_>
          <depth>5</depth>
          <value>0.</value></_>
        <_>
          <depth>5</depth>
          <value>9.5192307692307687e-01</value></_>
        <_>
          <depth>3</depth>
          <value>2.7777777777777779e-01</value>
          <splits>
            <_><var>2</var>
              <quality>5.</quality>
              <le>4.7595491409301758e+00</le></_></splits></_>
        <_>
          <depth>4</depth>
          <value>0.</value></_>
        <_>
          <depth>4</depth>
          <value>1.</value></_>
        <_>
          <depth>1</depth>
          <value>4.0332147093712932e-02</value>
          <splits>
            <_><var>4</var>
              <quality>9.3122920989990234e+00</quality>
              <le>9.1236025094985962e-02</le></_></splits></_>
        <_>
          <depth>2</depth>
          <value>2.0673076923076922e-01</value>
          <splits>
            <_><var>3</var>
              <quality>2.0070312500000000e+01</quality>
              <le>5.7199418544769287e-01</le></_></splits></_>
        <_>
          <depth>3</depth>
          <value>2.3437500000000000e-02</value>
          <splits>
            <_><var>2</var>
              <quality>2.4324324727058411e-01</quality>
              <le>5.2734880447387695e+00</le></_></splits></_>
        <_>
          <depth>4</depth>
          <value>8.1081081081081086e-02</value>
          <splits>
            <_><var>2</var>
              <quality>3.</quality>
              <le>5.2376332283020020e+00</le></_></splits></_>
        <_>
          <depth>5</depth>
          <value>0.</value></_>
        <_>
          <depth>5</depth>
          <value>1.</value></_>
        <_>
          <depth>4</depth>
          <value>0.</value></_>
        <_>
          <depth>3</depth>
          <value>5.0000000000000000e-01</value>
          <splits>
            <_><var>0</var>
              <quality>2.5806451797485352e+01</quality>
              <le>4.5916938781738281e+00</le></_></splits></_>
        <_>
          <depth>4</depth>
          <value>0.</value></_>
        <_>
          <depth>4</depth>
          <value>6.4516129032258063e-01</value>
          <splits>
            <_><var>6</var>
              <quality>2.9958919525146484e+01</quality>
              <le>4.2489820718765259e-01</le></_></splits></_>
        <_>
          <depth>5</depth>
          <value>9.5999999999999996e-01</value></_>
        <_>
          <depth>5</depth>
          <value>4.3243243243243246e-01</value></_>
        <_>
          <depth>2</depth>
          <value>1.6914749661705007e-02</value>
          <splits>
            <_><var>3</var>
              <quality>1.5772076845169067e+00</quality>
              <le>5.3794974088668823e-01</le></_></splits></_>
        <_>
          <depth>3</depth>
          <value>3.3444816053511705e-03</value>
          <splits>
            <_><var>1</var>
              <quality>8.8888891041278839e-02</quality>
              <le>3.8278417587280273e+00</le></_></splits></_>
        <_>
          <depth>4</depth>
          <value>0.</value></_>
        <_>
          <depth>4</depth>
          <value>2.2222222222222223e-02</value>
          <splits>
            <_><var>5</var>
              <quality>2.0224719047546387e+00</quality>
              <le>-7.3615837097167969e-01</le></_></splits></_>
        <_>
          <depth>5</depth>
          <value>1.</value></_>
        <_>
          <depth>5</depth>
          <value>1.1235955056179775e-02</value></_>
        <_>
          <depth>3</depth>
          <value>7.4468085106382975e-02</value>
          <splits>
            <_><var>2</var>
              <quality>5.3211679458618164e+00</quality>
              <le>4.8860530853271484e+00</le></_></splits></_>
        <_>
          <depth>4</depth>
          <value>5.4744525547445258e-02</value>
          <splits>
            <_><var>0</var>
              <quality>2.9605262279510498e+00</quality>
              <le>4.3000392913818359e+00</le></_></splits></_>
        <_>
          <depth>5</depth>
          <value>0.</value></_>
        <_>
          <depth>5</depth>
          <value>1.9736842105263158e-01</value></_>
        <_>
          <depth>4</depth>
          <value>7.5000000000000000e-01</value></_></nodes></_>
    <_>
      <nodes>
        <_>
          <depth>0</depth>
          <value>2.3449248120300753e-01</value>
          <splits>
            <_><var>8</var>
              <quality>3.9114578247070313e+02</quality>
              <le>8.8069878518581390e-02</le></_></splits></_>
        <_>
          <depth>1</depth>
          <value>9.0677966101694918e-01</value>
          <splits>
            <_><var>0</var>
              <quality>4.0813562011718750e+02</quality>
              <le>4.7239246368408203e+00</le></_></splits></_>
        <_>
          <depth>2</depth>
          <value>3.5087719298245612e-01</value>
          <splits>
            <_><var>4</var>
              <quality>1.2903225898742676e+01</quality>
              <le>4.8770911991596222e-02</le></_></splits></_>
        <_>
          <depth>3</depth>
          <value>6.4516129032258063e-01</value>
          <splits>
            <_><var>1</var>
              <quality>1.5384614944458008e+01</quality>
              <le>3.9492707252502441e+00</le></_></splits></_>
        <_>
          <depth>4</depth>
          <value>7.6923076923076927e-01</value>
          <splits>
            <_><var>0</var>
              <quality>1.8181818008422852e+01</quality>
              <le>4.4503760337829590e+00</le></_></splits></_>
        <_>
          <depth>5</depth>
          <value>0.</value></_>
        <_>
          <depth>5</depth>
          <value>9.0909090909090906e-01</value></_>
        <_>
          <depth>4</depth>
          <value>0.</value></_>
        <_>
          <depth>3</depth>
          <value>0.</value></_>
        <_>
          <depth>2</depth>
          <value>9.8313253012048196e-01</value>
          <splits>
            <_><var>3</var>
              <quality>4.0135614013671875e+02</quality>
              <le>7.8848725557327271e-01</le></_></splits></_>
        <_>
          <depth>3</depth>
          <value>9.4117647058823528e-01</value>
          <splits>
            <_><var>3</var>
              <quality>9.2160003662109375e+01</quality>
              <le>7.8770422935485840e-01</le></_></splits></_>
        <_>
          <depth>4</depth>
          <value>9.5999999999999996e-01</value>
          <splits>
            <_><var>0</var>
              <quality>9.2470588684082031e+01</quality>
              <le>4.9412965774536133e+00</le></_></splits></_>
        <_>
          <depth>5</depth>
          <value>8.8235294117647056e-01</value></_>
        <_>
          <depth>5</depth>
          <value>1.</value></_>
        <_>
          <depth>4</depth>
          <value>0.</value></_>
        <_>
          <depth>3</depth>
          <value>9.9680511182108622e-01</value>
          <splits>
            <_><var>7</var>
              <quality>3.1100970458984375e+02</quality>
              <le>4.4113752245903015e-01</le></_></splits></_>
        <_>
          <depth>4</depth>
          <value>1.</value></_>
        <_>
          <depth>4</depth>
          <value>9.9029126213592233e-01</value>
          <splits>
            <_><var>7</var>
              <quality>102.</quality>
              <le>4.4125583767890930e-01</le></_></splits></_>
        <_>
          <depth>5</depth>
          <value>0.</value></_>
        <_>
          <depth>5</depth>
          <value>1.</value></_>
        <_>
          <depth>1</depth>
          <value>4.2874396135265704e-02</value>
          <splits>
            <_><var>0</var>
              <quality>1.2654712677001953e+01</quality>
              <le>4.6057662963867188e+00</le></_></splits></_>
        <_>
          <depth>2</depth>
          <value>1.3212795549374131e-02</value>
          <splits>
            <_><var>6</var>
              <quality>9.1359943151473999e-01</quality>
              <le>3.4950065612792969e-01</le></_></splits></_>
        <_>
          <depth>3</depth>
          <value>9.2336103416435823e-04</value>
          <splits>
            <_><var>0</var>
              <quality>1.6129031777381897e-02</quality>
              <le>4.3033866882324219e+00</le></_></splits></_>
        <_>
          <depth>4</depth>
          <value>0.</value></_>
        <_>
          <depth>4</depth>
          <value>1.6129032258064516e-02</value>
          <splits>
            <_><var>8</var>
              <quality>1.</quality>
              <le>1.0153150558471680e-01</le></_></splits></_>
        <_>
          <depth>5</depth>
          <value>1.</value></_>
        <_>
          <depth>5</depth>
          <value>0.</value></_>
        <_>
          <depth>3</depth>
          <value>5.0704225352112678e-02</value>
          <splits>
            <_><var>7</var>
              <quality>2.7862679958343506e+00</quality>
              <le>5.4534578323364258e-01</le></_></splits></_>
        <_>
          <depth>4</depth>
          <value>1.9933554817275746e-02</value>
          <splits>
            <_><var>0</var>
              <quality>5.5946183204650879e-01</quality>
              <le>4.5522422790527344e+00</le></_></splits></_>
        <_>
          <depth>5</depth>
          <value>3.9062500000000000e-03</value></_>
        <_>
          <depth>5</depth>
          <value>1.1111111111111110e-01</value></_>
        <_>
          <depth>4</depth>
          <value>2.2222222222222221e-01</value>
          <splits>
            <_><var>0</var>
              <quality>1.0285714149475098e+01</quality>
              <le>4.2800989151000977e+00</le></_></splits></_>
        <_>
          <depth>5</depth>
          <value>0.</value></_>
        <_>
          <depth>5</depth>
          <value>8.5714285714285710e-01</value></_>
        <_>
          <depth>2</depth>
          <value>2.3853211009174313e-01</value>
          <splits>
            <_><var>8</var>
              <quality>3.2671730041503906e+01</quality>
              <le>1.0920523107051849e-01</le></_></splits></_>
        <_>
          <depth>3</depth>
          <value>7.3333333333333328e-01</value>
          <splits>
            <_><var>8</var>
              <quality>3.5200000762939453e+01</quality>
              <le>9.0452268719673157e-02</le></_></splits></_>
        <_>
          <depth>4</depth>
          <value>0.</value></_>
        <_>
          <depth>4</depth>
          <value>8.0000000000000004e-01</value>
          <splits>
            <_><var>3</var>
              <quality>3.7901359558105469e+01</quality>
              <le>5.6307387351989746e-01</le></_></splits></_>
        <_>
          <depth>5</depth>
          <value>1.6666666666666666e-01</value></_>
        <_>
          <depth>5</depth>
          <value>8.7755102040816324e-01</value></_>
        <_>
          <depth>3</depth>
          <value>5.0632911392405063e-02</value>
          <splits>
            <_><var>5</var>
              <quality>4.0901827812194824e+00</quality>
              <le>-6.3178873062133789e-01</le></_></splits></_>
        <_>
          <depth>4</depth>
          <value>5.8333333333333337e-01</value>
          <splits>
            <_><var>8</var>
              <quality>6.1666665077209473e+00</quality>
              <le>1.1088788509368896e-01</le></_></splits></_>
        <_>
          <depth>5</depth>
          <value>1.6666666666666666e-01</value></_>
        <_>
          <depth>5</depth>
          <value>1.</value></_>
        <_>
          <depth>4</depth>
          <value>6.8493150684931503e-03</value>
          <splits>
            <_><var>0</var>
              <quality>1.</quality>
              <le>4.6068544387817383e+00</le></_></splits></_>
        <_>
          <depth>5</depth>
          <value>1.</value></_>
        <_>
          <depth>5</depth>
          <value>0.</value></_></nodes></_>
    <_>
      <nodes>
        <_>
          <depth>0</depth>
          <value>2.2462406015037595e-01</value>
          <splits>
            <_><var>3</var>
              <quality>3.7104483032226563e+02</quality>
              <le>6.9731712341308594e-01</le></_></splits></_>
        <_>
          <depth>1</depth>
          <value>5.0847457627118647e-02</value>
          <splits>
            <_><var>3</var>
              <quality>1.4503771781921387e+01</quality>
              <le>5.8651053905487061e-01</le></_></splits></_>
        <_>
          <depth>2</depth>
          <value>2.5856496444731737e-02</value>
          <splits>
            <_><var>6</var>
              <quality>3.3773150444030762e+00</quality>
              <le>3.5163843631744385e-01</le></_></splits></_>
        <_>
          <depth>3</depth>
          <value>4.2301184433164128e-03</value>
          <splits>
            <_><var>0</var>
              <quality>2.4038460850715637e-01</quality>
              <le>4.3583250045776367e+00</le></_></splits></_>
        <_>
          <depth>4</depth>
          <value>0.</value></_>
        <_>
          <depth>4</depth>
          <value>4.8076923076923080e-02</value>
          <splits>
            <_><var>5</var>
              <quality>5.</quality>
              <le>-7.1635711193084717e-01</le></_></splits></_>
        <_>
          <depth>5</depth>
          <value>1.</value></_>
        <_>
          <depth>5</depth>
          <value>0.</value></_>
        <_>
          <depth>3</depth>
          <value>9.5890410958904104e-02</value>
          <splits>
            <_><var>6</var>
              <quality>7.5000000000000000e+00</quality>
              <le>3.5189932584762573e-01</le></_></splits></_>
        <_>
          <depth>4</depth>
          <value>1.</value></_>
        <_>
          <depth>4</depth>
          <value>8.3333333333333329e-02</value>
          <splits>
            <_><var>5</var>
              <quality>3.9473683834075928e+00</quality>
              <le>-5.5146974325180054e-01</le></_></splits></_>
        <_>
          <depth>5</depth>
          <value>1.3157894736842105e-01</value></_>
        <_>
          <depth>5</depth>
          <value>0.</value></_>
        <_>
          <depth>2</depth>
          <value>2.8658536585365851e-01</value>
          <splits>
            <_><var>2</var>
              <quality>2.4742424011230469e+01</quality>
              <le>4.7510838508605957e+00</le></_></splits></_>
        <_>
          <depth>3</depth>
          <value>7.1428571428571425e-02</value>
          <splits>
            <_><var>1</var>
              <quality>3.1684210300445557e+00</quality>
              <le>4.2623977661132813e+00</le></_></splits></_>
        <_>
          <depth>4</depth>
          <value>4.2105263157894736e-02</value>
          <splits>
            <_><var>0</var>
              <quality>2.0430107116699219e+00</quality>
              <le>4.6933650970458984e+00</le></_></splits></_>
        <_>
          <depth>5</depth>
          <value>2.1505376344086023e-02</value></_>
        <_>
          <depth>5</depth>
          <value>1.</value></_>
        <_>
          <depth>4</depth>
          <value>1.</value></_>
        <_>
          <depth>3</depth>
          <value>6.0606060606060608e-01</value>
          <splits>
            <_><var>4</var>
              <quality>2.7586206436157227e+01</quality>
              <le>1.2539410591125488e-01</le></_></splits></_>
        <_>
          <depth>4</depth>
          <value>6.8965517241379315e-01</value>
          <splits>
            <_><var>8</var>
              <quality>3.1348636627197266e+01</quality>
              <le>1.0412526130676270e-01</le></_></splits></_>
        <_>
          <depth>5</depth>
          <value>8.5365853658536583e-01</value></_>
        <_>
          <depth>5</depth>
          <value>2.9411764705882354e-01</value></_>
        <_>
          <depth>4</depth>
          <value>0.</value></_>
        <_>
          <depth>1</depth>
          <value>9.3764988009592332e-01</value>
          <splits>
            <_><var>1</var>
              <quality>3.7563888549804688e+02</quality>
              <le>3.7299466133117676e+00</le></_></splits></_>
        <_>
          <depth>2</depth>
          <value>8.3333333333333329e-02</value>
          <splits>
            <_><var>7</var>
              <quality>1.</quality>
              <le>4.9643236398696899e-01</le></_></splits></_>
        <_>
          <depth>3</depth>
          <value>0.</value></_>
        <_>
          <depth>3</depth>
          <value>1.</value></_>
        <_>
          <depth>2</depth>
          <value>9.6296296296296291e-01</value>
          <splits>
            <_><var>0</var>
              <quality>3.7860690307617188e+02</quality>
              <le>4.8774356842041016e+00</le></_></splits></_>
        <_>
          <depth>3</depth>
          <value>7.2340425531914898e-01</value>
          <splits>
            <_><var>5</var>
              <quality>2.7391813278198242e+01</quality>
              <le>-8.1249850988388062e-01</le></_></splits></_>
        <_>
          <depth>4</depth>
          <value>2.2222222222222221e-01</value></_>
        <_>
          <depth>4</depth>
          <value>8.4210526315789469e-01</value>
          <splits>
            <_><var>8</var>
              <quality>2.9257143020629883e+01</quality>
              <le>8.8948056101799011e-02</le></_></splits></_>
        <_>
          <depth>5</depth>
          <value>9.1428571428571426e-01</value></_>
        <_>
          <depth>5</depth>
          <value>0.</value></_>
        <_>
          <depth>3</depth>
          <value>9.9441340782122900e-01</value>
          <splits>
            <_><var>0</var>
              <quality>3.5420001220703125e+02</quality>
              <le>4.9421396255493164e+00</le></_></splits></_>
        <_>
          <depth>4</depth>
          <value>9.0000000000000002e-01</value>
          <splits>
            <_><var>1</var>
              <quality>17.</quality>
              <le>4.2104148864746094e+00</le></_></splits></_>
        <_>
          <depth>5</depth>
          <value>1.</value></_>
        <_>
          <depth>5</depth>
          <value>5.0000000000000000e-01</value></_>
        <_>
          <depth>4</depth>
          <value>1.</value></_></nodes></_>
    <_>
      <nodes>
        <_>
          <depth>0</depth>
          <value>2.3120300751879699e-01</value>
          <splits>
            <_><var>8</var>
              <quality>3.9213705444335938e+02</quality>
              <le>8.8854685425758362e-02</le></_></splits></_>
        <_>
          <depth>1</depth>
          <value>9.1239316239316237e-01</value>
          <splits>
            <_><var>7</var>
              <quality>4.0423080444335938e+02</quality>
              <le>5.1852226257324219e-01</le></_></splits></_>
        <_>
          <depth>2</depth>
          <value>9.4877505567928733e-01</value>
          <splits>
            <_><var>1</var>
              <quality>4.0902627563476563e+02</quality>
              <le>3.7308182716369629e+00</le></_></splits></_>
        <_>
          <depth>3</depth>
          <value>2.2222222222222221e-01</value></_>
        <_>
          <depth>3</depth>
          <value>9.6363636363636362e-01</value>
          <splits>
            <_><var>3</var>
              <quality>4.1064285278320313e+02</quality>
              <le>6.9709348678588867e-01</le></_></splits></_>
        <_>
          <depth>4</depth>
          <value>6.5000000000000002e-01</value>
          <splits>
            <_><var>2</var>
              <quality>13.</quality>
              <le>4.6683940887451172e+00</le></_></splits></_>
        <_>
          <depth>5</depth>
          <value>0.</value></_>
        <_>
          <depth>5</depth>
          <value>1.</value></_>
        <_>
          <depth>4</depth>
          <value>9.7857142857142854e-01</value>
          <splits>
            <_><var>7</var>
              <quality>4.0279010009765625e+02</quality>
              <le>4.8848128318786621e-01</le></_></splits></_>
        <_>
          <depth>5</depth>
          <value>9.8743718592964824e-01</value></_>
        <_>
          <depth>5</depth>
          <value>8.1818181818181823e-01</value></_>
        <_>
          <depth>2</depth>
          <value>5.2631578947368418e-02</value>
          <splits>
            <_><var>7</var>
              <quality>2.5000000000000000e-01</quality>
              <le>5.1962590217590332e-01</le></_></splits></_>
        <_>
          <depth>3</depth>
          <value>2.5000000000000000e-01</value></_>
        <_>
          <depth>3</depth>
          <value>0.</value></_>
        <_>
          <depth>1</depth>
          <value>3.9156626506024098e-02</value>
          <splits>
            <_><var>7</var>
              <quality>5.7976422309875488e+00</quality>
              <le>5.1398289203643799e-01</le></_></splits></_>
        <_>
          <depth>2</depth>
          <value>1.2195121951219512e-01</value>
          <splits>
            <_><var>2</var>
              <quality>1.1377737998962402e+01</quality>
              <le>5.3010787963867188e+00</le></_></splits></_>
        <_>
          <depth>3</depth>
          <value>2.8169014084507044e-01</value>
          <splits>
            <_><var>1</var>
              <quality>1.7533250808715820e+01</quality>
              <le>3.7678813934326172e+00</le></_></splits></_>
        <_>
          <depth>4</depth>
          <value>1.0714285714285714e-01</value>
          <splits>
            <_><var>0</var>
              <quality>2.6103897094726563e+00</quality>
              <le>4.6948347091674805e+00</le></_></splits></_>
        <_>
          <depth>5</depth>
          <value>6.4935064935064929e-02</value></_>
        <_>
          <depth>5</depth>
          <value>5.7142857142857140e-01</value></_>
        <_>
          <depth>4</depth>
          <value>5.3448275862068961e-01</value>
          <splits>
            <_><var>7</var>
              <quality>1.8288888931274414e+01</quality>
              <le>5.0508844852447510e-01</le></_></splits></_>
        <_>
          <depth>5</depth>
          <value>6.5000000000000002e-01</value></_>
        <_>
          <depth>5</depth>
          <value>2.7777777777777779e-01</value></_>
        <_>
          <depth>3</depth>
          <value>2.2026431718061675e-02</value>
          <splits>
            <_><var>0</var>
              <quality>8.3670032024383545e-01</quality>
              <le>5.2010602951049805e+00</le></_></splits></_>
        <_>
          <depth>4</depth>
          <value>9.2592592592592587e-03</value>
          <splits>
            <_><var>6</var>
              <quality>2.</quality>
              <le>5.0851821899414063e-01</le></_></splits></_>
        <_>
          <depth>5</depth>
          <value>0.</value></_>
        <_>
          <depth>5</depth>
          <value>1.</value></_>
        <_>
          <depth>4</depth>
          <value>2.7272727272727271e-01</value>
          <splits>
            <_><var>4</var>
              <quality>3.</quality>
              <le>-8.8988795876502991e-02</le></_></splits></_>
        <_>
          <depth>5</depth>
          <value>1.</value></_>
        <_>
          <depth>5</depth>
          <value>0.</value></_>
        <_>
          <depth>2</depth>
          <value>1.5491866769945779e-02</value>
          <splits>
            <_><var>6</var>
              <quality>1.0920091867446899e+00</quality>
              <le>3.5052651166915894e-01</le></_></splits></_>
        <_>
          <depth>3</depth>
          <value>5.4249547920433997e-03</value>
          <splits>
            <_><var>8</var>
              <quality>1.4693877100944519e-01</quality>
              <le>1.0499873757362366e-01</le></_></splits></_>
        <_>
          <depth>4</depth>
          <value>2.4489795918367346e-02</value>
          <splits>
            <_><var>0</var>
              <quality>5.1428570747375488e+00</quality>
              <le>4.3529396057128906e+00</le></_></splits></_>
        <_>
          <depth>5</depth>
          <value>0.</value></_>
        <_>
          <depth>5</depth>
          <value>8.5714285714285710e-01</value></_>
        <_>
          <depth>4</depth>
          <value>0.</value></_>
        <_>
          <depth>3</depth>
          <value>7.5675675675675680e-02</value>
          <splits>
            <_><var>6</var>
              <quality>2.6879534721374512e+00</quality>
              <le>3.5473951697349548e-01</le></_></splits></_>
        <_>
          <depth>4</depth>
          <value>3.0769230769230771e-01</value>
          <splits>
            <_><var>7</var>
              <quality>3.7647058963775635e+00</quality>
              <le>5.4569792747497559e-01</le></_></splits></_>
        <_>
          <depth>5</depth>
          <value>0.</value></_>
        <_>
          <depth>5</depth>
          <value>4.7058823529411764e-01</value></_>
        <_>
          <depth>4</depth>
          <value>3.7735849056603772e-02</value>
          <splits>
            <_><var>3</var>
              <quality>7.8912401199340820e-01</quality>
              <le>5.4209446907043457e-01</le></_></splits></_>
        <_>
          <depth>5</depth>
          <value>1.5625000000000000e-01</value></_>
        <_>
          <depth>5</depth>
          <value>7.8740157480314960e-03</value></_></nodes></_>
    <_>
      <nodes>
        <_>
          <depth>0</depth>
          <value>2.1052631578947367e-01</value>
          <splits>
            <_><var>0</var>
              <quality>3.1161550903320313e+02</quality>
              <le>4.9413633346557617e+00</le></_></splits></_>
        <_>
          <depth>1</depth>
          <value>6.2250142775556822e-02</value>
          <splits>
            <_><var>3</var>
              <quality>3.4525665283203125e+01</quality>
              <le>6.9809329509735107e-01</le></_></splits></_>
        <_>
          <depth>2</depth>
          <value>3.4709754637941355e-02</value>
          <splits>
            <_><var>3</var>
              <quality>7.2707481384277344e+00</quality>
              <le>5.4747074842453003e-01</le></_></splits></_>
        <_>
          <depth>3</depth>
          <value>6.7264573991031393e-03</value>
          <splits>
            <_><var>3</var>
              <quality>3.5049605369567871e-01</quality>
              <le>5.3783416748046875e-01</le></_></splits></_>
        <_>
          <depth>4</depth>
          <value>3.1645569620253164e-03</value>
          <splits>
            <_><var>0</var>
              <quality>7.9999998211860657e-02</quality>
              <le>4.3583250045776367e+00</le></_></splits></_>
        <_>
          <depth>5</depth>
          <value>0.</value></_>
        <_>
          <depth>5</depth>
          <value>2.0000000000000000e-02</value></_>
        <_>
          <depth>4</depth>
          <value>6.7567567567567571e-02</value>
          <splits>
            <_><var>1</var>
              <quality>1.4600938558578491e+00</quality>
              <le>4.0965394973754883e+00</le></_></splits></_>
        <_>
          <depth>5</depth>
          <value>4.2253521126760563e-02</value></_>
        <_>
          <depth>5</depth>
          <value>6.6666666666666663e-01</value></_>
        <_>
          <depth>3</depth>
          <value>1.4714714714714713e-01</value>
          <splits>
            <_><var>0</var>
              <quality>1.8754327774047852e+01</quality>
              <le>4.6019363403320313e+00</le></_></splits></_>
        <_>
          <depth>4</depth>
          <value>5.2830188679245285e-02</value>
          <splits>
            <_><var>0</var>
              <quality>1.9405940771102905e+00</quality>
              <le>4.3224544525146484e+00</le></_></splits></_>
        <_>
          <depth>5</depth>
          <value>0.</value></_>
        <_>
          <depth>5</depth>
          <value>1.3861386138613863e-01</value></_>
        <_>
          <depth>4</depth>
          <value>5.1470588235294112e-01</value>
          <splits>
            <_><var>7</var>
              <quality>2.1588235855102539e+01</quality>
              <le>4.5940893888473511e-01</le></_></splits></_>
        <_>
          <depth>5</depth>
          <value>1.1764705882352941e-01</value></_>
        <_>
          <depth>5</depth>
          <value>6.4705882352941180e-01</value></_>
        <_>
          <depth>2</depth>
          <value>6.3749999999999996e-01</value>
          <splits>
            <_><var>0</var>
              <quality>3.6125000000000000e+01</quality>
              <le>4.5517730712890625e+00</le></_></splits></_>
        <_>
          <depth>3</depth>
          <value>0.</value></_>
        <_>
          <depth>3</depth>
          <value>7.0833333333333337e-01</value>
          <splits>
            <_><var>7</var>
              <quality>3.7571430206298828e+01</quality>
              <le>4.8812925815582275e-01</le></_></splits></_>
        <_>
          <depth>4</depth>
          <value>7.6190476190476186e-01</value>
          <splits>
            <_><var>5</var>
              <quality>3.7482055664062500e+01</quality>
              <le>-7.3260092735290527e-01</le></_></splits></_>
        <_>
          <depth>5</depth>
          <value>8.4090909090909094e-01</value></_>
        <_>
          <depth>5</depth>
          <value>5.7894736842105265e-01</value></_>
        <_>
          <depth>4</depth>
          <value>3.3333333333333331e-01</value></_>
        <_>
          <depth>1</depth>
          <value>8.9920424403183019e-01</value>
          <splits>
            <_><var>5</var>
              <quality>3.3522796630859375e+02</quality>
              <le>-6.5844070911407471e-01</le></_></splits></_>
        <_>
          <depth>2</depth>
          <value>9.9703264094955490e-01</value>
          <splits>
            <_><var>1</var>
              <quality>3.3501190185546875e+02</quality>
              <le>4.2139444351196289e+00</le></_></splits></_>
        <_>
          <depth>3</depth>
          <value>9.8809523809523814e-01</value>
          <splits>
            <_><var>5</var>
              <quality>8.2043479919433594e+01</quality>
              <le>-7.3026800155639648e-01</le></_></splits></_>
        <_>
          <depth>4</depth>
          <value>1.</value></_>
        <_>
          <depth>4</depth>
          <value>9.5652173913043481e-01</value>
          <splits>
            <_><var>2</var>
              <quality>22.</quality>
              <le>5.2487239837646484e+00</le></_></splits></_>
        <_>
          <depth>5</depth>
          <value>1.</value></_>
        <_>
          <depth>5</depth>
          <value>0.</value></_>
        <_>
          <depth>3</depth>
          <value>1.</value></_>
        <_>
          <depth>2</depth>
          <value>7.4999999999999997e-02</value>
          <splits>
            <_><var>3</var>
              <quality>3.</quality>
              <le>7.1764421463012695e-01</le></_></splits></_>
        <_>
          <depth>3</depth>
          <value>0.</value></_>
        <_>
          <depth>3</depth>
          <value>1.</value></_></nodes></_>
    <_>
      <nodes>
        <_>
          <depth>0</depth>
          <value>2.2697368421052633e-01</value>
          <splits>
            <_><var>6</var>
              <quality>3.3239715576171875e+02</quality>
              <le>4.1533783078193665e-01</le></_></splits></_>
        <_>
          <depth>1</depth>
          <value>3.7831021437578813e-02</value>
          <splits>
            <_><var>7</var>
              <quality>6.4862766265869141e+00</quality>
              <le>5.1885402202606201e-01</le></_></splits></_>
        <_>
          <depth>2</depth>
          <value>1.4018691588785046e-01</value>
          <splits>
            <_><var>8</var>
              <quality>1.5909626007080078e+01</quality>
              <le>1.1575534194707870e-01</le></_></splits></_>
        <_>
          <depth>3</depth>
          <value>4.1304347826086957e-01</value>
          <splits>
            <_><var>0</var>
              <quality>2.7631250381469727e+01</quality>
              <le>4.6470603942871094e+00</le></_></splits></_>
        <_>
          <depth>4</depth>
          <value>1.4999999999999999e-01</value>
          <splits>
            <_><var>6</var>
              <quality>6.1666665077209473e+00</quality>
              <le>3.7002992630004883e-01</le></_></splits></_>
        <_>
          <depth>5</depth>
          <value>1.</value></_>
        <_>
          <depth>5</depth>
          <value>5.5555555555555552e-02</value></_>
        <_>
          <depth>4</depth>
          <value>9.0625000000000000e-01</value>
          <splits>
            <_><var>5</var>
              <quality>2.7129032135009766e+01</quality>
              <le>-6.3741922378540039e-01</le></_></splits></_>
        <_>
          <depth>5</depth>
          <value>9.3548387096774188e-01</value></_>
        <_>
          <depth>5</depth>
          <value>0.</value></_>
        <_>
          <depth>3</depth>
          <value>3.0567685589519649e-02</value>
          <splits>
            <_><var>8</var>
              <quality>1.0425531864166260e+00</quality>
              <le>1.3197483122348785e-01</le></_></splits></_>
        <_>
          <depth>4</depth>
          <value>1.4893617021276595e-01</value>
          <splits>
            <_><var>6</var>
              <quality>4.2642278671264648e+00</quality>
              <le>3.6699330806732178e-01</le></_></splits></_>
        <_>
          <depth>5</depth>
          <value>8.3333333333333337e-01</value></_>
        <_>
          <depth>5</depth>
          <value>4.8780487804878050e-02</value></_>
        <_>
          <depth>4</depth>
          <value>0.</value></_>
        <_>
          <depth>2</depth>
          <value>1.1857707509881422e-02</value>
          <splits>
            <_><var>4</var>
              <quality>1.0434817075729370e+00</quality>
              <le>1.9546818733215332e-01</le></_></splits></_>
        <_>
          <depth>3</depth>
          <value>7.4468085106382975e-02</value>
          <splits>
            <_><var>1</var>
              <quality>5.7181873321533203e+00</quality>
              <le>3.9779529571533203e+00</le></_></splits></_>
        <_>
          <depth>4</depth>
          <value>3.9106145251396648e-02</value>
          <splits>
            <_><var>7</var>
              <quality>1.6896551847457886e+00</quality>
              <le>5.4560816287994385e-01</le></_></splits></_>
        <_>
          <depth>5</depth>
          <value>0.</value></_>
        <_>
          <depth>5</depth>
          <value>2.4137931034482760e-01</value></_>
        <_>
          <depth>4</depth>
          <value>7.7777777777777779e-01</value></_>
        <_>
          <depth>3</depth>
          <value>9.2850510677808728e-04</value>
          <splits>
            <_><var>0</var>
              <quality>2.6315789669752121e-02</quality>
              <le>4.3695621490478516e+00</le></_></splits></_>
        <_>
          <depth>4</depth>
          <value>0.</value></_>
        <_>
          <depth>4</depth>
          <value>2.6315789473684209e-02</value>
          <splits>
            <_><var>8</var>
              <quality>5.0000000000000000e-01</quality>
              <le>1.0647919028997421e-01</le></_></splits></_>
        <_>
          <depth>5</depth>
          <value>5.0000000000000000e-01</value></_>
        <_>
          <depth>5</depth>
          <value>0.</value></_>
        <_>
          <depth>1</depth>
          <value>7.8044280442804426e-01</value>
          <splits>
            <_><var>6</var>
              <quality>3.5477355957031250e+02</quality>
              <le>4.5797163248062134e-01</le></_></splits></_>
        <_>
          <depth>2</depth>
          <value>4.8663101604278075e-01</value>
          <splits>
            <_><var>8</var>
              <quality>6.7877052307128906e+01</quality>
              <le>1.1007612943649292e-01</le></_></splits></_>
        <_>
          <depth>3</depth>
          <value>7.4590163934426235e-01</value>
          <splits>
            <_><var>1</var>
              <quality>7.7901359558105469e+01</quality>
              <le>3.7308182716369629e+00</le></_></splits></_>
        <_>
          <depth>4</depth>
          <value>1.6666666666666666e-01</value>
          <splits>
            <_><var>4</var>
              <quality>4.</quality>
              <le>6.5532296895980835e-02</le></_></splits></_>
        <_>
          <depth>5</depth>
          <value>0.</value></_>
        <_>
          <depth>5</depth>
          <value>1.</value></_>
        <_>
          <depth>4</depth>
          <value>8.8775510204081631e-01</value>
          <splits>
            <_><var>4</var>
              <quality>7.9673683166503906e+01</quality>
              <le>-2.6297047734260559e-03</le></_></splits></_>
        <_>
          <depth>5</depth>
          <value>0.</value></_>
        <_>
          <depth>5</depth>
          <value>9.1578947368421049e-01</value></_>
        <_>
          <depth>3</depth>
          <value>0.</value></_>
        <_>
          <depth>2</depth>
          <value>9.3521126760563378e-01</value>
          <splits>
            <_><var>3</var>
              <quality>3.2229238891601563e+02</quality>
              <le>6.2562561035156250e-01</le></_></splits></_>
        <_>
          <depth>3</depth>
          <value>0.</value></_>
        <_>
          <depth>3</depth>
          <value>9.7076023391812860e-01</value>
          <splits>
            <_><var>3</var>
              <quality>3.2327169799804688e+02</quality>
              <le>7.2038614749908447e-01</le></_></splits></_>
        <_>
          <depth>4</depth>
          <value>6.2500000000000000e-01</value></_>
        <_>
          <depth>4</depth>
          <value>9.7904191616766467e-01</value>
          <splits>
            <_><var>3</var>
              <quality>3.2041177368164063e+02</quality>
              <le>7.8848725557327271e-01</le></_></splits></_>
        <_>
          <depth>5</depth>
          <value>9.0476190476190477e-01</value></_>
        <_>
          <depth>5</depth>
          <value>9.8972602739726023e-01</value></_></nodes></_>
    <_>
      <nodes>
        <_>
          <depth>0</depth>
          <value>2.3355263157894737e-01</value>
          <splits>
            <_><var>3</var>
              <quality>3.9246658325195313e+02</quality>
              <le>6.4927840232849121e-01</le></_></splits></_>
        <_>
          <depth>1</depth>
          <value>4.2719614921780988e-02</value>
          <splits>
            <_><var>4</var>
              <quality>8.2209310531616211e+00</quality>
              <le>1.9545763731002808e-01</le></_></splits></_>
        <_>
          <depth>2</depth>
          <value>1.2248628884826325e-01</value>
          <splits>
            <_><var>0</var>
              <quality>1.3544404983520508e+01</quality>
              <le>4.6056632995605469e+00</le></_></splits></_>
        <_>
          <depth>3</depth>
          <value>5.0420168067226892e-02</value>
          <splits>
            <_><var>1</var>
              <quality>1.8000870943069458e+00</quality>
              <le>3.5750780105590820e+00</le></_></splits></_>
        <_>
          <depth>4</depth>
          <value>1.2389380530973451e-01</value>
          <splits>
            <_><var>1</var>
              <quality>4.2795567512512207e+00</quality>
              <le>3.5391793251037598e+00</le></_></splits></_>
        <_>
          <depth>5</depth>
          <value>3.5714285714285712e-02</value></_>
        <_>
          <depth>5</depth>
          <value>3.7931034482758619e-01</value></_>
        <_>
          <depth>4</depth>
          <value>1.6393442622950821e-02</value>
          <splits>
            <_><var>7</var>
              <quality>1.2800000607967377e-01</quality>
              <le>5.0890529155731201e-01</le></_></splits></_>
        <_>
          <depth>5</depth>
          <value>0.</value></_>
        <_>
          <depth>5</depth>
          <value>3.2000000000000001e-02</value></_>
        <_>
          <depth>3</depth>
          <value>2.5789473684210529e-01</value>
          <splits>
            <_><var>5</var>
              <quality>3.5094989776611328e+01</quality>
              <le>-6.2383151054382324e-01</le></_></splits></_>
        <_>
          <depth>4</depth>
          <value>7.4603174603174605e-01</value>
          <splits>
            <_><var>2</var>
              <quality>3.6816665649414063e+01</quality>
              <le>5.3726415634155273e+00</le></_></splits></_>
        <_>
          <depth>5</depth>
          <value>7.8333333333333333e-01</value></_>
        <_>
          <depth>5</depth>
          <value>0.</value></_>
        <_>
          <depth>4</depth>
          <value>1.5748031496062992e-02</value>
          <splits>
            <_><var>0</var>
              <quality>1.0079364776611328e+00</quality>
              <le>4.6092443466186523e+00</le></_></splits></_>
        <_>
          <depth>5</depth>
          <value>1.</value></_>
        <_>
          <depth>5</depth>
          <value>7.9365079365079361e-03</value></_>
        <_>
          <depth>2</depth>
          <value>3.5874439461883408e-03</value>
          <splits>
            <_><var>0</var>
              <quality>1.7021276056766510e-01</quality>
              <le>4.3033866882324219e+00</le></_></splits></_>
        <_>
          <depth>3</depth>
          <value>0.</value></_>
        <_>
          <depth>3</depth>
          <value>4.2553191489361701e-02</value>
          <splits>
            <_><var>5</var>
              <quality>3.2000000476837158e+00</quality>
              <le>-7.3675715923309326e-01</le></_></splits></_>
        <_>
          <depth>4</depth>
          <value>8.0000000000000004e-01</value></_>
        <_>
          <depth>4</depth>
          <value>0.</value></_>
        <_>
          <depth>1</depth>
          <value>9.1416309012875541e-01</value>
          <splits>
            <_><var>3</var>
              <quality>3.9784790039062500e+02</quality>
              <le>7.4001926183700562e-01</le></_></splits></_>
        <_>
          <depth>2</depth>
          <value>6.6346153846153844e-01</value>
          <splits>
            <_><var>4</var>
              <quality>5.0016796112060547e+01</quality>
              <le>1.0706482827663422e-01</le></_></splits></_>
        <_>
          <depth>3</depth>
          <value>7.5581395348837210e-01</value>
          <splits>
            <_><var>6</var>
              <quality>5.0471263885498047e+01</quality>
              <le>4.2608922719955444e-01</le></_></splits></_>
        <_>
          <depth>4</depth>
          <value>9.3103448275862066e-01</value>
          <splits>
            <_><var>0</var>
              <quality>2.6035715103149414e+01</quality>
              <le>4.5557317733764648e+00</le></_></splits></_>
        <_>
          <depth>5</depth>
          <value>0.</value></_>
        <_>
          <depth>5</depth>
          <value>9.6428571428571430e-01</value></_>
        <_>
          <depth>4</depth>
          <value>6.6666666666666663e-01</value>
          <splits>
            <_><var>7</var>
              <quality>2.7769229888916016e+01</quality>
              <le>4.8876160383224487e-01</le></_></splits></_>
        <_>
          <depth>5</depth>
          <value>7.3076923076923073e-01</value></_>
        <_>
          <depth>5</depth>
          <value>0.</value></_>
        <_>
          <depth>3</depth>
          <value>2.2222222222222221e-01</value>
          <splits>
            <_><var>0</var>
              <quality>4.</quality>
              <le>4.7777090072631836e+00</le></_></splits></_>
        <_>
          <depth>4</depth>
          <value>0.</value></_>
        <_>
          <depth>4</depth>
          <value>1.</value></_>
        <_>
          <depth>2</depth>
          <value>9.8618784530386738e-01</value>
          <splits>
            <_><var>2</var>
              <quality>3.5255554199218750e+02</quality>
              <le>5.3430862426757813e+00</le></_></splits></_>
        <_>
          <depth>3</depth>
          <value>1.</value></_>
        <_>
          <depth>3</depth>
          <value>8.8888888888888884e-01</value>
          <splits>
            <_><var>2</var>
              <quality>3.8095237731933594e+01</quality>
              <le>5.3587288856506348e+00</le></_></splits></_>
        <_>
          <depth>4</depth>
          <value>0.</value></_>
        <_>
          <depth>4</depth>
          <value>9.5238095238095233e-01</value>
          <splits>
            <_><var>0</var>
              <quality>39.</quality>
              <le>5.0600328445434570e+00</le></_></splits></_>
        <_>
          <depth>5</depth>
          <value>5.0000000000000000e-01</value></_>
        <_>
          <depth>5</depth>
          <value>1.</value></_></nodes></_>
    <_>
      <nodes>
        <_>
          <depth>0</depth>
          <value>2.2086466165413535e-01</value>
          <splits>
            <_><var>3</var>
              <quality>3.7736605834960938e+02</quality>
              <le>6.5350568294525146e-01</le></_></splits></_>
        <_>
          <depth>1</depth>
          <value>3.5714285714285712e-02</value>
          <splits>
            <_><var>0</var>
              <quality>7.6513657569885254e+00</quality>
              <le>4.3040704727172852e+00</le></_></splits></_>
        <_>
          <depth>2</depth>
          <value>8.1632653061224493e-04</value>
          <splits>
            <_><var>0</var>
              <quality>3.7037037312984467e-02</quality>
              <le>4.2653918266296387e+00</le></_></splits></_>
        <_>
          <depth>3</depth>
          <value>0.</value></_>
        <_>
          <depth>3</depth>
          <value>3.7037037037037035e-02</value>
          <splits>
            <_><var>0</var>
              <quality>1.</quality>
              <le>4.2663965225219727e+00</le></_></splits></_>
        <_>
          <depth>4</depth>
          <value>1.</value></_>
        <_>
          <depth>4</depth>
          <value>0.</value></_>
        <_>
          <depth>2</depth>
          <value>1.2967032967032968e-01</value>
          <splits>
            <_><var>3</var>
              <quality>1.4525641441345215e+01</quality>
              <le>5.3667598962783813e-01</le></_></splits></_>
        <_>
          <depth>3</depth>
          <value>2.9304029304029304e-02</value>
          <splits>
            <_><var>7</var>
              <quality>1.0946969985961914e+00</quality>
