<?xml version="1.0"?>
<opencv_storage>
<opencv_ml_rtrees>
  <format>3</format>
  <is_classifier>0</is_classifier>
  <var_all>10</var_all>
  <var_count>9</var_count>
  <ord_var_count>10</ord_var_count>
  <cat_var_count>0</cat_var_count>
  <training_params>
    <use_surrogates>0</use_surrogates>
    <max_categories>10</max_categories>
    <regression_accuracy>9.9999997473787516e-05</regression_accuracy>
    <max_depth>5</max_depth>
    <min_sample_count>10</min_sample_count>
    <cross_validation_folds>0</cross_validation_folds>
    <nactive_vars>0</nactive_vars></training_params>
  <global_var_idx>1</global_var_idx>
  <var_idx>
    0 1 2 3 4 5 6 7 8</var_idx>
  <var_type>
    0 0 0 0 0 0 0 0 0 0</var_type>
  <cat_ofs>
    0 0 0 0 0 0 0 0 0 0 0 0 0 0 0 0 0 0</cat_ofs>
  <missing_subst>
    0. 0. 0. 0. 0. 0. 0. 0. 0. 0.</missing_subst>
  <oob_error>2.6176571813321083e-02</oob_error>
  <var_importance>
    2.71839410e-01 1.08087465e-01 2.35524308e-02 2.09631920e-01
    4.71550114e-02 5.41198663e-02 9.10594165e-02 4.52530570e-02
    1.49301484e-01</var_importance>
  <ntrees>100</ntrees>
  <trees>
    <_>
      <nodes>
        <_>
          <depth>0</depth>
          <value>2.3919308357348704e-01</value>
          <splits>
            <_><var>3</var>
              <quality>3.9286550903320313e+02</quality>
              <le>6.3064086437225342e-01</le></_></splits></_>
        <_>
          <depth>1</depth>
          <value>3.8292529817953544e-02</value>
          <splits>
            <_><var>0</var>
              <quality>8.3149499893188477e+00</quality>
              <le>4.3184404373168945e+00</le></_></splits></_>
        <_>
          <depth>2</depth>
          <value>8.6206896551724137e-04</value>
          <splits>
            <_><var>4</var>
              <quality>1.6393441706895828e-02</quality>
              <le>1.4248740673065186e-01</le></_></splits></_>
        <_>
          <depth>3</depth>
          <value>1.6393442622950821e-02</value>
          <splits>
            <_><var>0</var>
              <quality>5.2631579339504242e-02</quality>
              <le>4.0529408454895020e+00</le></_></splits></_>
        <_>
          <depth>4</depth>
          <value>5.2631578947368418e-02</value>
          <splits>
            <_><var>6</var>
              <quality>1.</quality>
              <le>3.6812692880630493e-01</le></_></splits></_>
        <_>
          <depth>5</depth>
          <value>1.</value></_>
        <_>
          <depth>5</depth>
          <value>0.</value></_>
        <_>
          <depth>4</depth>
          <value>0.</value></_>
        <_>
          <depth>3</depth>
          <value>0.</value></_>
        <_>
          <depth>2</depth>
          <value>1.3856812933025403e-01</value>
          <splits>
            <_><var>2</var>
              <quality>1.6902463912963867e+01</quality>
              <le>5.1929769515991211e+00</le></_></splits></_>
        <_>
          <depth>3</depth>
          <value>2.8640776699029125e-01</value>
          <splits>
            <_><var>0</var>
              <quality>2.2403991699218750e+01</quality>
              <le>4.6141729354858398e+00</le></_></splits></_>
        <_>
          <depth>4</depth>
          <value>1.6911764705882354e-01</value>
          <splits>
            <_><var>4</var>
              <quality>7.7994341850280762e+00</quality>
              <le>1.8338286876678467e-01</le></_></splits></_>
        <_>
          <depth>5</depth>
          <value>6.9306930693069313e-02</value></_>
        <_>
          <depth>5</depth>
          <value>4.5714285714285713e-01</value></_>
        <_>
          <depth>4</depth>
          <value>5.1428571428571423e-01</value>
          <splits>
            <_><var>5</var>
              <quality>2.8525409698486328e+01</quality>
              <le>-6.1377286911010742e-01</le></_></splits></_>
        <_>
          <depth>5</depth>
          <value>8.1395348837209303e-01</value></_>
        <_>
          <depth>5</depth>
          <value>3.7037037037037035e-02</value></_>
        <_>
          <depth>3</depth>
          <value>4.4052863436123352e-03</value>
          <splits>
            <_><var>8</var>
              <quality>5.0000000000000000e-01</quality>
              <le>1.0904221236705780e-01</le></_></splits></_>
        <_>
          <depth>4</depth>
          <value>5.0000000000000000e-01</value></_>
        <_>
          <depth>4</depth>
          <value>0.</value></_>
        <_>
          <depth>1</depth>
          <value>8.9366053169734150e-01</value>
          <splits>
            <_><var>0</var>
              <quality>4.1523110961914063e+02</quality>
              <le>4.6233615875244141e+00</le></_></splits></_>
        <_>
          <depth>2</depth>
          <value>1.0810810810810811e-01</value>
          <splits>
            <_><var>0</var>
              <quality>1.7777777910232544e+00</quality>
              <le>4.5446195602416992e+00</le></_></splits></_>
        <_>
          <depth>3</depth>
          <value>0.</value></_>
        <_>
          <depth>3</depth>
          <value>4.4444444444444442e-01</value></_>
        <_>
          <depth>2</depth>
          <value>9.5796460176991149e-01</value>
          <splits>
            <_><var>1</var>
              <quality>4.1664221191406250e+02</quality>
              <le>3.4062123298645020e+00</le></_></splits></_>
        <_>
          <depth>3</depth>
          <value>0.</value></_>
        <_>
          <depth>3</depth>
          <value>9.6222222222222220e-01</value>
          <splits>
            <_><var>0</var>
              <quality>4.1948193359375000e+02</quality>
              <le>4.9413633346557617e+00</le></_></splits></_>
        <_>
          <depth>4</depth>
          <value>7.9518072289156627e-01</value>
          <splits>
            <_><var>7</var>
              <quality>5.5341175079345703e+01</quality>
              <le>4.8784896731376648e-01</le></_></splits></_>
        <_>
          <depth>5</depth>
          <value>8.8235294117647056e-01</value></_>
        <_>
          <depth>5</depth>
          <value>4.0000000000000002e-01</value></_>
        <_>
          <depth>4</depth>
          <value>1.</value></_></nodes></_>
    <_>
      <nodes>
        <_>
          <depth>0</depth>
          <value>2.2142170989433238e-01</value>
          <splits>
            <_><var>3</var>
              <quality>3.7718188476562500e+02</quality>
              <le>6.6391646862030029e-01</le></_></splits></_>
        <_>
          <depth>1</depth>
          <value>3.4608378870673952e-02</value>
          <splits>
            <_><var>6</var>
              <quality>5.9936017990112305e+00</quality>
              <le>3.5180100798606873e-01</le></_></splits></_>
        <_>
          <depth>2</depth>
          <value>1.7513134851138354e-03</value>
          <splits>
            <_><var>5</var>
              <quality>1.8348623067140579e-02</quality>
              <le>-7.3761737346649170e-01</le></_></splits></_>
        <_>
          <depth>3</depth>
          <value>9.1743119266055051e-03</value>
          <splits>
            <_><var>1</var>
              <quality>2.</quality>
              <le>3.7910041809082031e+00</le></_></splits></_>
        <_>
          <depth>4</depth>
          <value>0.</value></_>
        <_>
          <depth>4</depth>
          <value>1.</value></_>
        <_>
          <depth>3</depth>
          <value>0.</value></_>
        <_>
          <depth>2</depth>
          <value>1.0891089108910891e-01</value>
          <splits>
            <_><var>8</var>
              <quality>8.7997465133666992e+00</quality>
              <le>1.2158575654029846e-01</le></_></splits></_>
        <_>
          <depth>3</depth>
          <value>1.6562499999999999e-01</value>
          <splits>
            <_><var>2</var>
              <quality>1.9045587539672852e+01</quality>
              <le>4.8694982528686523e+00</le></_></splits></_>
        <_>
          <depth>4</depth>
          <value>8.0459770114942528e-02</value>
          <splits>
            <_><var>6</var>
              <quality>5.6810374259948730e+00</quality>
              <le>3.5487174987792969e-01</le></_></splits></_>
        <_>
          <depth>5</depth>
          <value>4.7826086956521741e-01</value></_>
        <_>
          <depth>5</depth>
          <value>4.2016806722689079e-02</value></_>
        <_>
          <depth>4</depth>
          <value>5.4237288135593220e-01</value>
          <splits>
            <_><var>8</var>
              <quality>2.3185056686401367e+01</quality>
              <le>1.0927416384220123e-01</le></_></splits></_>
        <_>
          <depth>5</depth>
          <value>8.6206896551724133e-01</value></_>
        <_>
          <depth>5</depth>
          <value>2.3333333333333334e-01</value></_>
        <_>
          <depth>3</depth>
          <value>1.0810810810810811e-02</value>
          <splits>
            <_><var>4</var>
              <quality>1.7225326597690582e-01</quality>
              <le>1.4217379689216614e-01</le></_></splits></_>
        <_>
          <depth>4</depth>
          <value>5.5865921787709499e-03</value>
          <splits>
            <_><var>5</var>
              <quality>4.5454546809196472e-02</quality>
              <le>-5.7043725252151489e-01</le></_></splits></_>
        <_>
          <depth>5</depth>
          <value>4.5454545454545456e-02</value></_>
        <_>
          <depth>5</depth>
          <value>0.</value></_>
        <_>
          <depth>4</depth>
          <value>1.6666666666666666e-01</value></_>
        <_>
          <depth>1</depth>
          <value>9.2873563218390809e-01</value>
          <splits>
            <_><var>0</var>
              <quality>3.8813647460937500e+02</quality>
              <le>4.6917171478271484e+00</le></_></splits></_>
        <_>
          <depth>2</depth>
          <value>1.8181818181818182e-01</value>
          <splits>
            <_><var>1</var>
              <quality>1.4545454978942871e+00</quality>
              <le>3.7660131454467773e+00</le></_></splits></_>
        <_>
          <depth>3</depth>
          <value>0.</value></_>
        <_>
          <depth>3</depth>
          <value>3.6363636363636365e-01</value>
          <splits>
            <_><var>8</var>
              <quality>4.</quality>
              <le>8.3094015717506409e-02</le></_></splits></_>
        <_>
          <depth>4</depth>
          <value>0.</value></_>
        <_>
          <depth>4</depth>
          <value>1.</value></_>
        <_>
          <depth>2</depth>
          <value>9.6852300242130751e-01</value>
          <splits>
            <_><var>0</var>
              <quality>3.8925286865234375e+02</quality>
              <le>4.9424748420715332e+00</le></_></splits></_>
        <_>
          <depth>3</depth>
          <value>8.1250000000000000e-01</value>
          <splits>
            <_><var>1</var>
              <quality>4.4114284515380859e+01</quality>
              <le>3.9843668937683105e+00</le></_></splits></_>
        <_>
          <depth>4</depth>
          <value>1.</value></_>
        <_>
          <depth>4</depth>
          <value>6.5714285714285714e-01</value>
          <splits>
            <_><var>8</var>
              <quality>1.7857143402099609e+01</quality>
              <le>7.5094513595104218e-02</le></_></splits></_>
        <_>
          <depth>5</depth>
          <value>1.</value></_>
        <_>
          <depth>5</depth>
          <value>4.2857142857142855e-01</value></_>
        <_>
          <depth>3</depth>
          <value>9.9713467048710602e-01</value>
          <splits>
            <_><var>8</var>
              <quality>3.4720001220703125e+02</quality>
              <le>9.5576100051403046e-02</le></_></splits></_>
        <_>
          <depth>4</depth>
          <value>1.</value></_>
        <_>
          <depth>4</depth>
          <value>8.0000000000000004e-01</value></_></nodes></_>
    <_>
      <nodes>
        <_>
          <depth>0</depth>
          <value>2.1998078770413065e-01</value>
          <splits>
            <_><var>0</var>
              <quality>3.3160366821289063e+02</quality>
              <le>4.8215141296386719e+00</le></_></splits></_>
        <_>
          <depth>1</depth>
          <value>4.5871559633027525e-02</value>
          <splits>
            <_><var>0</var>
              <quality>1.8219188690185547e+01</quality>
              <le>4.6112647056579590e+00</le></_></splits></_>
        <_>
          <depth>2</depth>
          <value>1.4884979702300407e-02</value>
          <splits>
            <_><var>0</var>
              <quality>1.5596961975097656e+00</quality>
              <le>4.3153905868530273e+00</le></_></splits></_>
        <_>
          <depth>3</depth>
          <value>1.6380016380016381e-03</value>
          <splits>
            <_><var>1</var>
              <quality>2.0618556067347527e-02</quality>
              <le>3.4204759597778320e+00</le></_></splits></_>
        <_>
          <depth>4</depth>
          <value>1.0309278350515464e-02</value>
          <splits>
            <_><var>4</var>
              <quality>2.5000000000000000e-01</quality>
              <le>1.4244297146797180e-01</le></_></splits></_>
        <_>
          <depth>5</depth>
          <value>1.2500000000000000e-01</value></_>
        <_>
          <depth>5</depth>
          <value>0.</value></_>
        <_>
          <depth>4</depth>
          <value>0.</value></_>
        <_>
          <depth>3</depth>
          <value>7.7821011673151752e-02</value>
          <splits>
            <_><var>2</var>
              <quality>2.4844720363616943e+00</quality>
              <le>5.2601079940795898e+00</le></_></splits></_>
        <_>
          <depth>4</depth>
          <value>1.2422360248447205e-01</value>
          <splits>
            <_><var>6</var>
              <quality>5.3564147949218750e+00</quality>
              <le>3.5726761817932129e-01</le></_></splits></_>
        <_>
          <depth>5</depth>
          <value>3.8235294117647056e-01</value></_>
        <_>
          <depth>5</depth>
          <value>5.5118110236220472e-02</value></_>
        <_>
          <depth>4</depth>
          <value>0.</value></_>
        <_>
          <depth>2</depth>
          <value>3.3757961783439489e-01</value>
          <splits>
            <_><var>8</var>
              <quality>3.6065528869628906e+01</quality>
              <le>1.1596521735191345e-01</le></_></splits></_>
        <_>
          <depth>3</depth>
          <value>6.9333333333333336e-01</value>
          <splits>
            <_><var>4</var>
              <quality>3.8739662170410156e+01</quality>
              <le>9.2389784753322601e-02</le></_></splits></_>
        <_>
          <depth>4</depth>
          <value>8.0357142857142860e-01</value>
          <splits>
            <_><var>1</var>
              <quality>4.0500000000000000e+01</quality>
              <le>4.0444588661193848e+00</le></_></splits></_>
        <_>
          <depth>5</depth>
          <value>9.0000000000000002e-01</value></_>
        <_>
          <depth>5</depth>
          <value>0.</value></_>
        <_>
          <depth>4</depth>
          <value>3.6842105263157893e-01</value>
          <splits>
            <_><var>3</var>
              <quality>3.8428571224212646e+00</quality>
              <le>5.5545353889465332e-01</le></_></splits></_>
        <_>
          <depth>5</depth>
          <value>8.0000000000000004e-01</value></_>
        <_>
          <depth>5</depth>
          <value>2.1428571428571427e-01</value></_>
        <_>
          <depth>3</depth>
          <value>1.2195121951219513e-02</value>
          <splits>
            <_><var>5</var>
              <quality>1.</quality>
              <le>-6.1681330204010010e-01</le></_></splits></_>
        <_>
          <depth>4</depth>
          <value>1.</value></_>
        <_>
          <depth>4</depth>
          <value>0.</value></_>
        <_>
          <depth>1</depth>
          <value>8.5682326621923932e-01</value>
          <splits>
            <_><var>5</var>
              <quality>3.6506491088867188e+02</quality>
              <le>-6.3183569908142090e-01</le></_></splits></_>
        <_>
          <depth>2</depth>
          <value>9.6666666666666667e-01</value>
          <splits>
            <_><var>2</var>
              <quality>3.6657443237304688e+02</quality>
              <le>5.3377113342285156e+00</le></_></splits></_>
        <_>
          <depth>3</depth>
          <value>9.9700598802395213e-01</value>
          <splits>
            <_><var>0</var>
              <quality>3.3214285278320313e+02</quality>
              <le>4.8526096343994141e+00</le></_></splits></_>
        <_>
          <depth>4</depth>
          <value>8.5714285714285710e-01</value></_>
        <_>
          <depth>4</depth>
          <value>1.</value></_>
        <_>
          <depth>3</depth>
          <value>7.8571428571428570e-01</value>
          <splits>
            <_><var>3</var>
              <quality>4.0470588684082031e+01</quality>
              <le>7.8296649456024170e-01</le></_></splits></_>
        <_>
          <depth>4</depth>
          <value>2.9411764705882354e-01</value>
          <splits>
            <_><var>6</var>
              <quality>3.2857143878936768e+00</quality>
              <le>4.9940201640129089e-01</le></_></splits></_>
        <_>
          <depth>5</depth>
          <value>1.4285714285714285e-01</value></_>
        <_>
          <depth>5</depth>
          <value>1.</value></_>
        <_>
          <depth>4</depth>
          <value>1.</value></_>
        <_>
          <depth>2</depth>
          <value>1.0526315789473684e-01</value>
          <splits>
            <_><var>6</var>
              <quality>3.5999999046325684e+00</quality>
              <le>4.5505619049072266e-01</le></_></splits></_>
        <_>
          <depth>3</depth>
          <value>0.</value></_>
        <_>
          <depth>3</depth>
          <value>5.9999999999999998e-01</value></_></nodes></_>
    <_>
      <nodes>
        <_>
          <depth>0</depth>
          <value>2.3775216138328531e-01</value>
          <splits>
            <_><var>4</var>
              <quality>3.4348324584960938e+02</quality>
              <le>5.7994600385427475e-02</le></_></splits></_>
        <_>
          <depth>1</depth>
          <value>8.0924855491329484e-01</value>
          <splits>
            <_><var>8</var>
              <quality>3.9739913940429688e+02</quality>
              <le>9.8457865417003632e-02</le></_></splits></_>
        <_>
          <depth>2</depth>
          <value>9.6478873239436624e-01</value>
          <splits>
            <_><var>3</var>
              <quality>3.9850000000000000e+02</quality>
              <le>7.8416687250137329e-01</le></_></splits></_>
        <_>
          <depth>3</depth>
          <value>8.3333333333333337e-01</value>
          <splits>
            <_><var>0</var>
              <quality>6.6176467895507813e+01</quality>
              <le>4.4978861808776855e+00</le></_></splits></_>
        <_>
          <depth>4</depth>
          <value>0.</value></_>
        <_>
          <depth>4</depth>
          <value>8.8235294117647056e-01</value>
          <splits>
            <_><var>3</var>
              <quality>6.6964286804199219e+01</quality>
              <le>7.8338444232940674e-01</le></_></splits></_>
        <_>
          <depth>5</depth>
          <value>8.9285714285714290e-01</value></_>
        <_>
          <depth>5</depth>
          <value>0.</value></_>
        <_>
          <depth>3</depth>
          <value>1.</value></_>
        <_>
          <depth>2</depth>
          <value>9.6774193548387094e-02</value>
          <splits>
            <_><var>3</var>
              <quality>3.5506329536437988e+00</quality>
              <le>5.9306520223617554e-01</le></_></splits></_>
        <_>
          <depth>3</depth>
          <value>2.5316455696202531e-02</value>
          <splits>
            <_><var>3</var>
              <quality>3.6363637447357178e-01</quality>
              <le>5.7305407524108887e-01</le></_></splits></_>
        <_>
          <depth>4</depth>
          <value>0.</value></_>
        <_>
          <depth>4</depth>
          <value>1.8181818181818182e-01</value>
          <splits>
            <_><var>7</var>
              <quality>1.1000000238418579e+00</quality>
              <le>4.3344587087631226e-01</le></_></splits></_>
        <_>
          <depth>5</depth>
          <value>1.</value></_>
        <_>
          <depth>5</depth>
          <value>1.0000000000000001e-01</value></_>
        <_>
          <depth>3</depth>
          <value>5.0000000000000000e-01</value>
          <splits>
            <_><var>1</var>
              <quality>4.4545454978942871e+00</quality>
              <le>3.7018887996673584e+00</le></_></splits></_>
        <_>
          <depth>4</depth>
          <value>0.</value></_>
        <_>
          <depth>4</depth>
          <value>6.3636363636363635e-01</value>
          <splits>
            <_><var>1</var>
              <quality>6.1250000000000000e+00</quality>
              <le>3.9786033630371094e+00</le></_></splits></_>
        <_>
          <depth>5</depth>
          <value>8.7500000000000000e-01</value></_>
        <_>
          <depth>5</depth>
          <value>0.</value></_>
        <_>
          <depth>1</depth>
          <value>4.7984644913627639e-02</value>
          <splits>
            <_><var>6</var>
              <quality>2.2386438369750977e+01</quality>
              <le>3.9793598651885986e-01</le></_></splits></_>
        <_>
          <depth>2</depth>
          <value>2.0408163265306121e-02</value>
          <splits>
            <_><var>6</var>
              <quality>2.1813814640045166e+00</quality>
              <le>3.5171669721603394e-01</le></_></splits></_>
        <_>
          <depth>3</depth>
          <value>1.8018018018018018e-03</value>
          <splits>
            <_><var>0</var>
              <quality>4.0404040366411209e-02</quality>
              <le>4.3212413787841797e+00</le></_></splits></_>
        <_>
          <depth>4</depth>
          <value>0.</value></_>
        <_>
          <depth>4</depth>
          <value>2.0202020202020204e-02</value>
          <splits>
            <_><var>1</var>
              <quality>2.6666668057441711e-01</quality>
              <le>3.8399977684020996e+00</le></_></splits></_>
        <_>
          <depth>5</depth>
          <value>1.3333333333333333e-01</value></_>
        <_>
          <depth>5</depth>
          <value>0.</value></_>
        <_>
          <depth>3</depth>
          <value>7.7777777777777779e-02</value>
          <splits>
            <_><var>0</var>
              <quality>4.7251462936401367e+00</quality>
              <le>4.7979497909545898e+00</le></_></splits></_>
        <_>
          <depth>4</depth>
          <value>5.8479532163742687e-02</value>
          <splits>
            <_><var>4</var>
              <quality>2.8512270450592041e+00</quality>
              <le>1.9050109386444092e-01</le></_></splits></_>
        <_>
          <depth>5</depth>
          <value>4.2944785276073622e-02</value></_>
        <_>
          <depth>5</depth>
          <value>3.7500000000000000e-01</value></_>
        <_>
          <depth>4</depth>
          <value>4.4444444444444442e-01</value>
          <splits>
            <_><var>2</var>
              <quality>6.4000000953674316e+00</quality>
              <le>5.3972368240356445e+00</le></_></splits></_>
        <_>
          <depth>5</depth>
          <value>8.0000000000000004e-01</value></_>
        <_>
          <depth>5</depth>
          <value>0.</value></_>
        <_>
          <depth>2</depth>
          <value>4.8387096774193550e-01</value>
          <splits>
            <_><var>5</var>
              <quality>2.6298702239990234e+01</quality>
              <le>-6.4815711975097656e-01</le></_></splits></_>
        <_>
          <depth>3</depth>
          <value>5.8441558441558439e-01</value>
          <splits>
            <_><var>0</var>
              <quality>3.6818180084228516e+01</quality>
              <le>4.6152648925781250e+00</le></_></splits></_>
        <_>
          <depth>4</depth>
          <value>0.</value></_>
        <_>
          <depth>4</depth>
          <value>8.1818181818181823e-01</value>
          <splits>
            <_><var>2</var>
              <quality>3.8942306518554688e+01</quality>
              <le>5.5226402282714844e+00</le></_></splits></_>
        <_>
          <depth>5</depth>
          <value>8.6538461538461542e-01</value></_>
        <_>
          <depth>5</depth>
          <value>0.</value></_>
        <_>
          <depth>3</depth>
          <value>0.</value></_></nodes></_>
    <_>
      <nodes>
        <_>
          <depth>0</depth>
          <value>2.4399615754082613e-01</value>
          <splits>
            <_><var>3</var>
              <quality>4.3163287353515625e+02</quality>
              <le>6.2957525253295898e-01</le></_></splits></_>
        <_>
          <depth>1</depth>
          <value>2.3611997447351627e-02</value>
          <splits>
            <_><var>3</var>
              <quality>2.2153329849243164e+00</quality>
              <le>5.3185659646987915e-01</le></_></splits></_>
        <_>
          <depth>2</depth>
          <value>7.4875207986688855e-03</value>
          <splits>
            <_><var>0</var>
              <quality>3.6818182468414307e-01</quality>
              <le>4.3581404685974121e+00</le></_></splits></_>
        <_>
          <depth>3</depth>
          <value>0.</value></_>
        <_>
          <depth>3</depth>
          <value>4.0909090909090909e-02</value>
          <splits>
            <_><var>8</var>
              <quality>4.1157407760620117e+00</quality>
              <le>1.0649972409009933e-01</le></_></splits></_>
        <_>
          <depth>4</depth>
          <value>1.</value></_>
        <_>
          <depth>4</depth>
          <value>2.3148148148148147e-02</value>
          <splits>
            <_><var>5</var>
              <quality>9.4620162248611450e-01</quality>
              <le>-6.3484579324722290e-01</le></_></splits></_>
        <_>
          <depth>5</depth>
          <value>2.3529411764705882e-01</value></_>
        <_>
          <depth>5</depth>
          <value>5.0251256281407036e-03</value></_>
        <_>
          <depth>2</depth>
          <value>7.6712328767123292e-02</value>
          <splits>
            <_><var>8</var>
              <quality>3.2396693229675293e+00</quality>
              <le>9.6549600362777710e-02</le></_></splits></_>
        <_>
          <depth>3</depth>
          <value>0.</value></_>
        <_>
          <depth>3</depth>
          <value>1.1570247933884298e-01</value>
          <splits>
            <_><var>0</var>
              <quality>6.4262294769287109e+00</quality>
              <le>4.3040704727172852e+00</le></_></splits></_>
        <_>
          <depth>4</depth>
          <value>0.</value></_>
        <_>
          <depth>4</depth>
          <value>2.2950819672131148e-01</value>
          <splits>
            <_><var>0</var>
              <quality>1.1079202651977539e+01</quality>
              <le>4.3505120277404785e+00</le></_></splits></_>
        <_>
          <depth>5</depth>
          <value>6.8421052631578949e-01</value></_>
        <_>
          <depth>5</depth>
          <value>1.4563106796116504e-01</value></_>
        <_>
          <depth>1</depth>
          <value>9.1456310679611652e-01</value>
          <splits>
            <_><var>3</var>
              <quality>4.4139013671875000e+02</quality>
              <le>7.5344115495681763e-01</le></_></splits></_>
        <_>
          <depth>2</depth>
          <value>6.4957264957264960e-01</value>
          <splits>
            <_><var>1</var>
              <quality>5.6653606414794922e+01</quality>
              <le>3.7242097854614258e+00</le></_></splits></_>
        <_>
          <depth>3</depth>
          <value>1.0000000000000001e-01</value>
          <splits>
            <_><var>8</var>
              <quality>8.0000001192092896e-01</quality>
              <le>9.2104502022266388e-02</le></_></splits></_>
        <_>
          <depth>4</depth>
          <value>0.</value></_>
        <_>
          <depth>4</depth>
          <value>4.0000000000000002e-01</value></_>
        <_>
          <depth>3</depth>
          <value>7.6288659793814428e-01</value>
          <splits>
            <_><var>8</var>
              <quality>6.1377796173095703e+01</quality>
              <le>8.0676436424255371e-02</le></_></splits></_>
        <_>
          <depth>4</depth>
          <value>2.1428571428571427e-01</value>
          <splits>
            <_><var>0</var>
              <quality>3.</quality>
              <le>4.8062400817871094e+00</le></_></splits></_>
        <_>
          <depth>5</depth>
          <value>0.</value></_>
        <_>
          <depth>5</depth>
          <value>1.</value></_>
        <_>
          <depth>4</depth>
          <value>8.5542168674698793e-01</value>
          <splits>
            <_><var>2</var>
              <quality>6.2435634613037109e+01</quality>
              <le>5.3196296691894531e+00</le></_></splits></_>
        <_>
          <depth>5</depth>
          <value>9.2537313432835822e-01</value></_>
        <_>
          <depth>5</depth>
          <value>5.6250000000000000e-01</value></_>
        <_>
          <depth>2</depth>
          <value>9.9246231155778897e-01</value>
          <splits>
            <_><var>8</var>
              <quality>3.9209582519531250e+02</quality>
              <le>8.0826774239540100e-02</le></_></splits></_>
        <_>
          <depth>3</depth>
          <value>9.9718309859154930e-01</value>
          <splits>
            <_><var>0</var>
              <quality>3.5320001220703125e+02</quality>
              <le>4.7257537841796875e+00</le></_></splits></_>
        <_>
          <depth>4</depth>
          <value>8.0000000000000004e-01</value></_>
        <_>
          <depth>4</depth>
          <value>1.</value></_>
        <_>
          <depth>3</depth>
          <value>9.5348837209302328e-01</value>
          <splits>
            <_><var>4</var>
              <quality>3.9666667938232422e+01</quality>
              <le>-4.9937866628170013e-02</le></_></splits></_>
        <_>
          <depth>4</depth>
          <value>1.</value></_>
        <_>
          <depth>4</depth>
          <value>6.6666666666666663e-01</value></_></nodes></_>
    <_>
      <nodes>
        <_>
          <depth>0</depth>
          <value>2.2286263208453411e-01</value>
          <splits>
            <_><var>3</var>
              <quality>3.6578997802734375e+02</quality>
              <le>6.3076651096343994e-01</le></_></splits></_>
        <_>
          <depth>1</depth>
          <value>3.2756489493201486e-02</value>
          <splits>
            <_><var>6</var>
              <quality>5.9699530601501465e+00</quality>
              <le>3.5163843631744385e-01</le></_></splits></_>
        <_>
          <depth>2</depth>
          <value>8.5836909871244631e-04</value>
          <splits>
            <_><var>8</var>
              <quality>2.0833333954215050e-02</quality>
              <le>9.6764244139194489e-02</le></_></splits></_>
        <_>
          <depth>3</depth>
          <value>2.0833333333333332e-02</value>
          <splits>
            <_><var>0</var>
              <quality>1.</quality>
              <le>4.2581543922424316e+00</le></_></splits></_>
        <_>
          <depth>4</depth>
          <value>0.</value></_>
        <_>
          <depth>4</depth>
          <value>1.</value></_>
        <_>
          <depth>3</depth>
          <value>0.</value></_>
        <_>
          <depth>2</depth>
          <value>1.1479028697571744e-01</value>
          <splits>
            <_><var>6</var>
              <quality>9.2855339050292969e+00</quality>
              <le>3.5445570945739746e-01</le></_></splits></_>
        <_>
          <depth>3</depth>
          <value>4.6153846153846156e-01</value>
          <splits>
            <_><var>7</var>
              <quality>8.4705886840820313e+00</quality>
              <le>5.4539567232131958e-01</le></_></splits></_>
        <_>
          <depth>4</depth>
          <value>0.</value></_>
        <_>
          <depth>4</depth>
          <value>7.0588235294117652e-01</value>
          <splits>
            <_><var>8</var>
              <quality>12.</quality>
              <le>9.5491379499435425e-02</le></_></splits></_>
        <_>
          <depth>5</depth>
          <value>0.</value></_>
        <_>
          <depth>5</depth>
          <value>1.</value></_>
        <_>
          <depth>3</depth>
          <value>9.3676814988290405e-02</value>
          <splits>
            <_><var>5</var>
              <quality>5.4982819557189941e+00</quality>
              <le>-7.1603965759277344e-01</le></_></splits></_>
        <_>
          <depth>4</depth>
          <value>0.</value></_>
        <_>
          <depth>4</depth>
          <value>1.3745704467353953e-01</value>
          <splits>
            <_><var>0</var>
              <quality>9.3966407775878906e+00</quality>
              <le>4.4694271087646484e+00</le></_></splits></_>
        <_>
          <depth>5</depth>
          <value>7.7519379844961239e-03</value></_>
        <_>
          <depth>5</depth>
          <value>2.4074074074074073e-01</value></_>
        <_>
          <depth>1</depth>
          <value>8.8577586206896552e-01</value>
          <splits>
            <_><var>0</var>
              <quality>3.8832412719726563e+02</quality>
              <le>4.5730981826782227e+00</le></_></splits></_>
        <_>
          <depth>2</depth>
          <value>0.</value></_>
        <_>
          <depth>2</depth>
          <value>9.4482758620689655e-01</value>
          <splits>
            <_><var>0</var>
              <quality>3.9263058471679688e+02</quality>
              <le>4.9413633346557617e+00</le></_></splits></_>
        <_>
          <depth>3</depth>
          <value>7.5531914893617025e-01</value>
          <splits>
            <_><var>8</var>
              <quality>5.4860378265380859e+01</quality>
              <le>7.5043424963951111e-02</le></_></splits></_>
        <_>
          <depth>4</depth>
          <value>9.5652173913043481e-01</value>
          <splits>
            <_><var>0</var>
              <quality>22.</quality>
              <le>4.7273793220520020e+00</le></_></splits></_>
        <_>
          <depth>5</depth>
          <value>0.</value></_>
        <_>
          <depth>5</depth>
          <value>1.</value></_>
        <_>
          <depth>4</depth>
          <value>6.9014084507042250e-01</value>
          <splits>
            <_><var>2</var>
              <quality>3.5563491821289063e+01</quality>
              <le>4.6394529342651367e+00</le></_></splits></_>
        <_>
          <depth>5</depth>
          <value>2.5000000000000000e-01</value></_>
        <_>
          <depth>5</depth>
          <value>7.4603174603174605e-01</value></_>
        <_>
          <depth>3</depth>
          <value>9.9706744868035191e-01</value>
          <splits>
            <_><var>5</var>
              <quality>3.3933334350585938e+02</quality>
              <le>-6.3105922937393188e-01</le></_></splits></_>
        <_>
          <depth>4</depth>
          <value>1.</value></_>
        <_>
          <depth>4</depth>
          <value>6.6666666666666663e-01</value></_></nodes></_>
    <_>
      <nodes>
        <_>
          <depth>0</depth>
          <value>2.3006724303554274e-01</value>
          <splits>
            <_><var>7</var>
              <quality>2.6399743652343750e+02</quality>
              <le>4.8447227478027344e-01</le></_></splits></_>
        <_>
          <depth>1</depth>
          <value>6.4935064935064934e-01</value>
          <splits>
            <_><var>5</var>
              <quality>3.6573077392578125e+02</quality>
              <le>-6.2058192491531372e-01</le></_></splits></_>
        <_>
          <depth>2</depth>
          <value>9.2111368909512759e-01</value>
          <splits>
            <_><var>6</var>
              <quality>3.7325451660156250e+02</quality>
              <le>4.4150835275650024e-01</le></_></splits></_>
        <_>
          <depth>3</depth>
          <value>5.5102040816326525e-01</value>
          <splits>
            <_><var>2</var>
              <quality>1.8854700088500977e+01</quality>
              <le>4.5760540962219238e+00</le></_></splits></_>
        <_>
          <depth>4</depth>
          <value>7.6923076923076927e-02</value>
          <splits>
            <_><var>2</var>
              <quality>1.</quality>
              <le>4.3367557525634766e+00</le></_></splits></_>
        <_>
          <depth>5</depth>
          <value>1.</value></_>
        <_>
          <depth>5</depth>
          <value>0.</value></_>
        <_>
          <depth>4</depth>
          <value>7.2222222222222221e-01</value>
          <splits>
            <_><var>0</var>
              <quality>2.2533332824707031e+01</quality>
              <le>5.0060815811157227e+00</le></_></splits></_>
        <_>
          <depth>5</depth>
          <value>8.6666666666666670e-01</value></_>
        <_>
          <depth>5</depth>
          <value>0.</value></_>
        <_>
          <depth>3</depth>
          <value>9.6858638743455494e-01</value>
          <splits>
            <_><var>8</var>
              <quality>3.6017111206054688e+02</quality>
              <le>9.1648824512958527e-02</le></_></splits></_>
        <_>
          <depth>4</depth>
          <value>9.7860962566844922e-01</value>
          <splits>
            <_><var>1</var>
              <quality>3.6204324340820313e+02</quality>
              <le>3.7372334003448486e+00</le></_></splits></_>
        <_>
          <depth>5</depth>
          <value>0.</value></_>
        <_>
          <depth>5</depth>
          <value>9.8918918918918919e-01</value></_>
        <_>
          <depth>4</depth>
          <value>5.0000000000000000e-01</value></_>
        <_>
          <depth>2</depth>
          <value>1.6216216216216217e-02</value>
          <splits>
            <_><var>5</var>
              <quality>5.7704657316207886e-01</quality>
              <le>-6.0727602243423462e-01</le></_></splits></_>
        <_>
          <depth>3</depth>
          <value>2.8571428571428570e-01</value></_>
        <_>
          <depth>3</depth>
          <value>5.6179775280898875e-03</value>
          <splits>
            <_><var>6</var>
              <quality>5.5555555969476700e-02</quality>
              <le>4.5712685585021973e-01</le></_></splits></_>
        <_>
          <depth>4</depth>
          <value>0.</value></_>
        <_>
          <depth>4</depth>
          <value>5.5555555555555552e-02</value>
          <splits>
            <_><var>8</var>
              <quality>3.3333334326744080e-01</quality>
              <le>1.2267698347568512e-01</le></_></splits></_>
        <_>
          <depth>5</depth>
          <value>3.3333333333333331e-01</value></_>
        <_>
          <depth>5</depth>
          <value>0.</value></_>
        <_>
          <depth>1</depth>
          <value>5.3888130968622099e-02</value>
          <splits>
            <_><var>8</var>
              <quality>2.0443229675292969e+01</quality>
              <le>8.6962312459945679e-02</le></_></splits></_>
        <_>
          <depth>2</depth>
          <value>6.2500000000000000e-01</value>
          <splits>
            <_><var>0</var>
              <quality>2.6086956024169922e+01</quality>
              <le>4.8195266723632813e+00</le></_></splits></_>
        <_>
          <depth>3</depth>
          <value>2.1739130434782608e-01</value>
          <splits>
            <_><var>8</var>
              <quality>3.1250000000000000e+00</quality>
              <le>8.0869853496551514e-02</le></_></splits></_>
        <_>
          <depth>4</depth>
          <value>0.</value></_>
        <_>
          <depth>4</depth>
          <value>6.2500000000000000e-01</value></_>
        <_>
          <depth>3</depth>
          <value>1.</value></_>
        <_>
          <depth>2</depth>
          <value>3.4555712270803951e-02</value>
          <splits>
            <_><var>4</var>
              <quality>1.1325450897216797e+01</quality>
              <le>1.0462277382612228e-01</le></_></splits></_>
        <_>
          <depth>3</depth>
          <value>5.1219512195121952e-01</value>
          <splits>
            <_><var>4</var>
              <quality>1.2764705657958984e+01</quality>
              <le>1.0200233757495880e-01</le></_></splits></_>
        <_>
          <depth>4</depth>
          <value>4.1176470588235292e-01</value>
          <splits>
            <_><var>0</var>
              <quality>1.2181818008422852e+01</quality>
              <le>4.6445312500000000e+00</le></_></splits></_>
        <_>
          <depth>5</depth>
          <value>9.0909090909090912e-02</value></_>
        <_>
          <depth>5</depth>
          <value>1.</value></_>
        <_>
          <depth>4</depth>
          <value>1.</value></_>
        <_>
          <depth>3</depth>
          <value>2.0334059549745823e-02</value>
          <splits>
            <_><var>6</var>
              <quality>1.9920926094055176e+00</quality>
              <le>3.4610381722450256e-01</le></_></splits></_>
        <_>
          <depth>4</depth>
          <value>1.9286403085824494e-03</value>
          <splits>
            <_><var>0</var>
              <quality>5.9701491147279739e-02</quality>
              <le>4.3578438758850098e+00</le></_></splits></_>
        <_>
          <depth>5</depth>
          <value>0.</value></_>
        <_>
          <depth>5</depth>
          <value>2.9850746268656716e-02</value></_>
        <_>
          <depth>4</depth>
          <value>7.6470588235294124e-02</value>
          <splits>
            <_><var>2</var>
              <quality>3.1381869316101074e+00</quality>
              <le>4.8860530853271484e+00</le></_></splits></_>
        <_>
          <depth>5</depth>
          <value>4.9822064056939501e-02</value></_>
        <_>
          <depth>5</depth>
          <value>2.0338983050847459e-01</value></_></nodes></_>
    <_>
      <nodes>
        <_>
          <depth>0</depth>
          <value>2.3775216138328531e-01</value>
          <splits>
            <_><var>6</var>
              <quality>3.7333160400390625e+02</quality>
              <le>4.1708007454872131e-01</le></_></splits></_>
        <_>
          <depth>1</depth>
          <value>2.9870129870129870e-02</value>
          <splits>
            <_><var>6</var>
              <quality>3.5807297229766846e+00</quality>
              <le>3.4950065612792969e-01</le></_></splits></_>
        <_>
          <depth>2</depth>
          <value>5.5096418732782371e-03</value>
          <splits>
            <_><var>6</var>
              <quality>1.1688311398029327e-01</quality>
              <le>3.2563677430152893e-01</le></_></splits></_>
        <_>
          <depth>3</depth>
          <value>0.</value></_>
        <_>
          <depth>3</depth>
          <value>1.9480519480519480e-02</value>
          <splits>
            <_><var>7</var>
              <quality>5.9899747371673584e-01</quality>
              <le>5.6585073471069336e-01</le></_></splits></_>
        <_>
          <depth>4</depth>
          <value>3.7593984962406013e-03</value>
          <splits>
            <_><var>3</var>
              <quality>1.5151515603065491e-02</quality>
              <le>5.4084277153015137e-01</le></_></splits></_>
        <_>
          <depth>5</depth>
          <value>0.</value></_>
        <_>
          <depth>5</depth>
          <value>1.5151515151515152e-02</value></_>
        <_>
          <depth>4</depth>
          <value>1.1904761904761904e-01</value>
          <splits>
            <_><var>1</var>
              <quality>5.</quality>
              <le>3.7787930965423584e+00</le></_></splits></_>
        <_>
          <depth>5</depth>
          <value>0.</value></_>
        <_>
          <depth>5</depth>
          <value>1.</value></_>
        <_>
          <depth>2</depth>
          <value>8.8691796008869186e-02</value>
          <splits>
            <_><var>3</var>
              <quality>6.3540229797363281e+00</quality>
              <le>6.6625905036926270e-01</le></_></splits></_>
        <_>
          <depth>3</depth>
          <value>7.3563218390804597e-02</value>
          <splits>
            <_><var>6</var>
              <quality>4.0785217285156250e+00</quality>
              <le>3.4953686594963074e-01</le></_></splits></_>
        <_>
          <depth>4</depth>
          <value>1.</value></_>
        <_>
          <depth>4</depth>
          <value>6.9284064665127015e-02</value>
          <splits>
            <_><var>5</var>
              <quality>2.9270353317260742e+00</quality>
              <le>-5.9475690126419067e-01</le></_></splits></_>
        <_>
          <depth>5</depth>
          <value>1.0069444444444445e-01</value></_>
        <_>
          <depth>5</depth>
          <value>6.8965517241379309e-03</value></_>
        <_>
          <depth>3</depth>
          <value>5.0000000000000000e-01</value>
          <splits>
            <_><var>0</var>
              <quality>8.</quality>
              <le>4.8498935699462891e+00</le></_></splits></_>
        <_>
          <depth>4</depth>
          <value>0.</value></_>
        <_>
          <depth>4</depth>
          <value>1.</value></_>
        <_>
          <depth>1</depth>
          <value>8.2841328413284132e-01</value>
          <splits>
            <_><var>5</var>
              <quality>4.1717160034179688e+02</quality>
              <le>-6.2259656190872192e-01</le></_></splits></_>
        <_>
          <depth>2</depth>
          <value>9.4055201698513802e-01</value>
          <splits>
            <_><var>6</var>
              <quality>4.1929483032226563e+02</quality>
              <le>4.5838779211044312e-01</le></_></splits></_>
        <_>
          <depth>3</depth>
          <value>7.9381443298969068e-01</value>
          <splits>
            <_><var>2</var>
              <quality>6.5153846740722656e+01</quality>
              <le>4.3856296539306641e+00</le></_></splits></_>
        <_>
          <depth>4</depth>
          <value>0.</value></_>
        <_>
          <depth>4</depth>
          <value>8.4615384615384615e-01</value>
          <splits>
            <_><var>8</var>
              <quality>6.6266670227050781e+01</quality>
              <le>7.8364074230194092e-02</le></_></splits></_>
        <_>
          <depth>5</depth>
          <value>1.</value></_>
        <_>
          <depth>5</depth>
          <value>7.6666666666666672e-01</value></_>
        <_>
          <depth>3</depth>
          <value>9.7860962566844922e-01</value>
          <splits>
            <_><var>5</var>
              <quality>3.5956793212890625e+02</quality>
              <le>-6.3632881641387939e-01</le></_></splits></_>
        <_>
          <depth>4</depth>
          <value>9.8641304347826086e-01</value>
          <splits>
            <_><var>5</var>
              <quality>3.5847171020507813e+02</quality>
              <le>-7.3231863975524902e-01</le></_></splits></_>
        <_>
          <depth>5</depth>
          <value>1.</value></_>
        <_>
          <depth>5</depth>
          <value>9.0566037735849059e-01</value></_>
        <_>
          <depth>4</depth>
          <value>5.0000000000000000e-01</value></_>
        <_>
          <depth>2</depth>
          <value>8.4507042253521125e-02</value>
          <splits>
            <_><var>5</var>
              <quality>1.2997347116470337e+00</quality>
              <le>-5.9212172031402588e-01</le></_></splits></_>
        <_>
          <depth>3</depth>
          <value>3.0769230769230771e-01</value>
          <splits>
            <_><var>4</var>
              <quality>4.</quality>
              <le>-1.5832368284463882e-02</le></_></splits></_>
        <_>
          <depth>4</depth>
          <value>1.</value></_>
        <_>
          <depth>4</depth>
          <value>0.</value></_>
        <_>
          <depth>3</depth>
          <value>3.4482758620689655e-02</value>
          <splits>
            <_><var>8</var>
              <quality>2.6666668057441711e-01</quality>
              <le>1.2166391313076019e-01</le></_></splits></_>
        <_>
          <depth>4</depth>
          <value>1.3333333333333333e-01</value>
          <splits>
            <_><var>7</var>
              <quality>1.</quality>
              <le>4.2398160696029663e-01</le></_></splits></_>
        <_>
          <depth>5</depth>
          <value>5.0000000000000000e-01</value></_>
        <_>
          <depth>5</depth>
          <value>0.</value></_>
        <_>
          <depth>4</depth>
          <value>0.</value></_></nodes></_>
    <_>
      <nodes>
        <_>
          <depth>0</depth>
          <value>2.3390970220941404e-01</value>
          <splits>
            <_><var>3</var>
              <quality>4.0006393432617188e+02</quality>
              <le>6.7186111211776733e-01</le></_></splits></_>
        <_>
          <depth>1</depth>
          <value>4.0342298288508556e-02</value>
          <splits>
            <_><var>6</var>
              <quality>7.5367269515991211e+00</quality>
              <le>3.5163843631744385e-01</le></_></splits></_>
        <_>
          <depth>2</depth>
          <value>3.5555555555555557e-03</value>
          <splits>
            <_><var>0</var>
              <quality>1.4414414763450623e-01</quality>
              <le>4.3014373779296875e+00</le></_></splits></_>
        <_>
          <depth>3</depth>
          <value>0.</value></_>
        <_>
          <depth>3</depth>
          <value>3.6036036036036036e-02</value>
          <splits>
            <_><var>8</var>
              <quality>4.</quality>
              <le>1.0533840954303741e-01</le></_></splits></_>
        <_>
          <depth>4</depth>
          <value>1.</value></_>
        <_>
          <depth>4</depth>
          <value>0.</value></_>
        <_>
          <depth>2</depth>
          <value>1.2133072407045009e-01</value>
          <splits>
            <_><var>8</var>
              <quality>1.1146368026733398e+01</quality>
              <le>1.2135279178619385e-01</le></_></splits></_>
        <_>
          <depth>3</depth>
          <value>1.8263473053892215e-01</value>
          <splits>
            <_><var>1</var>
              <quality>1.5305947303771973e+01</quality>
              <le>3.9094693660736084e+00</le></_></splits></_>
        <_>
          <depth>4</depth>
          <value>1.3090909090909092e-01</value>
          <splits>
            <_><var>8</var>
              <quality>6.8071618080139160e+00</quality>
              <le>1.0001315921545029e-01</le></_></splits></_>
        <_>
          <depth>5</depth>
          <value>4.8275862068965517e-02</value></_>
        <_>
          <depth>5</depth>
          <value>2.2307692307692309e-01</value></_>
        <_>
          <depth>4</depth>
          <value>4.2372881355932202e-01</value>
          <splits>
            <_><var>2</var>
              <quality>1.4452631950378418e+01</quality>
              <le>5.2666769027709961e+00</le></_></splits></_>
        <_>
          <depth>5</depth>
          <value>5.9999999999999998e-01</value></_>
        <_>
          <depth>5</depth>
          <value>5.2631578947368418e-02</value></_>
        <_>
          <depth>3</depth>
          <value>5.6497175141242938e-03</value>
          <splits>
            <_><var>4</var>
              <quality>1.2500000000000000e-01</quality>
              <le>1.4095467329025269e-01</le></_></splits></_>
        <_>
          <depth>4</depth>
          <value>0.</value></_>
        <_>
          <depth>4</depth>
          <value>1.2500000000000000e-01</value></_>
        <_>
          <depth>1</depth>
          <value>9.4394618834080712e-01</value>
          <splits>
            <_><var>2</var>
              <quality>4.0179010009765625e+02</quality>
              <le>4.3503184318542480e+00</le></_></splits></_>
        <_>
          <depth>2</depth>
          <value>4.7368421052631576e-01</value>
          <splits>
            <_><var>0</var>
              <quality>8.0909090042114258e+00</quality>
              <le>4.7950315475463867e+00</le></_></splits></_>
        <_>
          <depth>3</depth>
          <value>9.0909090909090912e-02</value>
          <splits>
            <_><var>4</var>
              <quality>1.</quality>
              <le>4.9296025186777115e-02</le></_></splits></_>
        <_>
          <depth>4</depth>
          <value>1.</value></_>
        <_>
          <depth>4</depth>
          <value>0.</value></_>
        <_>
          <depth>3</depth>
          <value>1.</value></_>
        <_>
          <depth>2</depth>
          <value>9.6487119437939106e-01</value>
          <splits>
            <_><var>1</var>
              <quality>4.0128604125976563e+02</quality>
              <le>3.7242097854614258e+00</le></_></splits></_>
        <_>
          <depth>3</depth>
          <value>0.</value></_>
        <_>
          <depth>3</depth>
          <value>9.7399527186761226e-01</value>
          <splits>
            <_><var>1</var>
              <quality>4.0183447265625000e+02</quality>
              <le>4.2122230529785156e+00</le></_></splits></_>
        <_>
          <depth>4</depth>
          <value>9.2413793103448272e-01</value>
          <splits>
            <_><var>6</var>
              <quality>1.2424742126464844e+02</quality>
              <le>4.9092650413513184e-01</le></_></splits></_>
        <_>
          <depth>5</depth>
          <value>8.8659793814432986e-01</value></_>
        <_>
          <depth>5</depth>
          <value>1.</value></_>
        <_>
          <depth>4</depth>
          <value>1.</value></_></nodes></_>
    <_>
      <nodes>
        <_>
          <depth>0</depth>
          <value>2.4543707973102785e-01</value>
          <splits>
            <_><var>8</var>
              <quality>4.0364266967773438e+02</quality>
              <le>8.7205156683921814e-02</le></_></splits></_>
        <_>
          <depth>1</depth>
          <value>9.1966173361522197e-01</value>
          <splits>
            <_><var>6</var>
              <quality>4.0900216674804688e+02</quality>
              <le>4.3260085582733154e-01</le></_></splits></_>
        <_>
          <depth>2</depth>
          <value>5.5172413793103448e-01</value>
          <splits>
            <_><var>1</var>
              <quality>2.7125000000000000e+01</quality>
              <le>4.1145792007446289e+00</le></_></splits></_>
        <_>
          <depth>3</depth>
          <value>1.8750000000000000e-01</value>
          <splits>
            <_><var>2</var>
              <quality>5.1428570747375488e+00</quality>
              <le>4.7247982025146484e+00</le></_></splits></_>
        <_>
          <depth>4</depth>
          <value>0.</value></_>
        <_>
          <depth>4</depth>
          <value>8.5714285714285710e-01</value></_>
        <_>
          <depth>3</depth>
          <value>1.</value></_>
        <_>
          <depth>2</depth>
          <value>9.7108433734939759e-01</value>
          <splits>
            <_><var>5</var>
              <quality>3.9219992065429688e+02</quality>
              <le>-7.5684297084808350e-01</le></_></splits></_>
        <_>
          <depth>3</depth>
          <value>9.9132947976878616e-01</value>
          <splits>
            <_><var>1</var>
              <quality>3.4066961669921875e+02</quality>
              <le>3.9003634452819824e+00</le></_></splits></_>
        <_>
          <depth>4</depth>
          <value>6.6666666666666663e-01</value></_>
        <_>
          <depth>4</depth>
          <value>9.9705882352941178e-01</value>
          <splits>
            <_><var>1</var>
              <quality>3.3810000610351563e+02</quality>
              <le>3.9706411361694336e+00</le></_></splits></_>
        <_>
          <depth>5</depth>
          <value>9.0000000000000002e-01</value></_>
        <_>
          <depth>5</depth>
          <value>1.</value></_>
        <_>
          <depth>3</depth>
          <value>8.6956521739130432e-01</value>
          <splits>
            <_><var>1</var>
              <quality>5.6250000000000000e+01</quality>
              <le>3.7796516418457031e+00</le></_></splits></_>
        <_>
          <depth>4</depth>
          <value>0.</value></_>
        <_>
          <depth>4</depth>
          <value>9.3750000000000000e-01</value>
          <splits>
            <_><var>4</var>
              <quality>5.6551723480224609e+01</quality>
              <le>-5.9848852455615997e-02</le></_></splits></_>
        <_>
          <depth>5</depth>
          <value>1.</value></_>
        <_>
          <depth>5</depth>
          <value>8.6206896551724133e-01</value></_>
        <_>
          <depth>1</depth>
          <value>4.7234307022995650e-02</value>
          <splits>
            <_><var>0</var>
              <quality>1.4386123657226563e+01</quality>
              <le>4.6025600433349609e+00</le></_></splits></_>
        <_>
          <depth>2</depth>
          <value>1.5064562410329985e-02</value>
          <splits>
            <_><var>6</var>
              <quality>7.4413776397705078e-01</quality>
              <le>3.4608495235443115e-01</le></_></splits></_>
        <_>
          <depth>3</depth>
          <value>3.1479538300104933e-03</value>
          <splits>
            <_><var>0</var>
              <quality>2.0930232107639313e-01</quality>
              <le>4.3708362579345703e+00</le></_></splits></_>
        <_>
          <depth>4</depth>
          <value>0.</value></_>
        <_>
          <depth>4</depth>
          <value>6.9767441860465115e-02</value>
          <splits>
            <_><var>8</var>
              <quality>3.</quality>
              <le>1.1096651852130890e-01</le></_></splits></_>
        <_>
          <depth>5</depth>
          <value>1.</value></_>
        <_>
          <depth>5</depth>
          <value>0.</value></_>
        <_>
          <depth>3</depth>
          <value>4.0816326530612242e-02</value>
          <splits>
            <_><var>1</var>
              <quality>1.6542896032333374e+00</quality>
              <le>3.5599136352539063e+00</le></_></splits></_>
        <_>
          <depth>4</depth>
          <value>1.2149532710280374e-01</value>
          <splits>
            <_><var>1</var>
              <quality>7.3600001335144043e+00</quality>
              <le>3.5538520812988281e+00</le></_></splits></_>
        <_>
          <depth>5</depth>
          <value>5.9999999999999998e-02</value></_>
        <_>
          <depth>5</depth>
          <value>1.</value></_>
        <_>
          <depth>4</depth>
          <value>1.4970059880239521e-02</value>
          <splits>
            <_><var>0</var>
              <quality>6.2500000000000000e-01</quality>
              <le>4.5513954162597656e+00</le></_></splits></_>
        <_>
          <depth>5</depth>
          <value>0.</value></_>
        <_>
          <depth>5</depth>
          <value>1.2500000000000000e-01</value></_>
        <_>
          <depth>2</depth>
          <value>2.5581395348837210e-01</value>
          <splits>
            <_><var>8</var>
              <quality>3.4897048950195313e+01</quality>
              <le>1.1108295619487762e-01</le></_></splits></_>
        <_>
          <depth>3</depth>
          <value>6.9444444444444442e-01</value>
          <splits>
            <_><var>4</var>
              <quality>4.4518520355224609e+01</quality>
              <le>1.0543154180049896e-01</le></_></splits></_>
        <_>
          <depth>4</depth>
          <value>9.0740740740740744e-01</value>
          <splits>
            <_><var>5</var>
              <quality>4.5785713195800781e+01</quality>
              <le>-6.4497208595275879e-01</le></_></splits></_>
        <_>
          <depth>5</depth>
          <value>1.</value></_>
        <_>
          <depth>5</depth>
          <value>6.4285714285714290e-01</value></_>
        <_>
          <depth>4</depth>
          <value>5.5555555555555552e-02</value>
          <splits>
            <_><var>0</var>
              <quality>2.5000000000000000e-01</quality>
              <le>4.7003889083862305e+00</le></_></splits></_>
        <_>
          <depth>5</depth>
          <value>0.</value></_>
        <_>
          <depth>5</depth>
          <value>2.5000000000000000e-01</value></_>
        <_>
          <depth>3</depth>
          <value>3.4965034965034968e-02</value>
          <splits>
            <_><var>0</var>
              <quality>1.5291970968246460e+00</quality>
              <le>4.6118259429931641e+00</le></_></splits></_>
        <_>
          <depth>4</depth>
          <value>5.0000000000000000e-01</value></_>
        <_>
          <depth>4</depth>
          <value>1.4598540145985401e-02</value>
          <splits>
            <_><var>2</var>
              <quality>1.5999999642372131e-01</quality>
              <le>5.1911249160766602e+00</le></_></splits></_>
        <_>
          <depth>5</depth>
          <value>8.0000000000000002e-02</value></_>
        <_>
          <depth>5</depth>
          <value>0.</value></_></nodes></_>
    <_>
      <nodes>
        <_>
          <depth>0</depth>
          <value>2.2862632084534101e-01</value>
          <splits>
            <_><var>8</var>
              <quality>3.7835675048828125e+02</quality>
              <le>8.7997414171695709e-02</le></_></splits></_>
        <_>
          <depth>1</depth>
          <value>9.2873563218390809e-01</value>
          <splits>
            <_><var>0</var>
              <quality>3.9173269653320313e+02</quality>
              <le>4.7157020568847656e+00</le></_></splits></_>
        <_>
          <depth>2</depth>
          <value>3.0769230769230771e-01</value>
          <splits>
            <_><var>2</var>
              <quality>9.3000001907348633e+00</quality>
              <le>4.6285047531127930e+00</le></_></splits></_>
        <_>
          <depth>3</depth>
          <value>1.0000000000000001e-01</value>
          <splits>
            <_><var>4</var>
              <quality>1.2857142686843872e+00</quality>
              <le>5.0118762999773026e-02</le></_></splits></_>
        <_>
          <depth>4</depth>
          <value>4.2857142857142855e-01</value></_>
        <_>
          <depth>4</depth>
          <value>0.</value></_>
        <_>
          <depth>3</depth>
          <value>1.</value></_>
        <_>
          <depth>2</depth>
          <value>9.8989898989898994e-01</value>
          <splits>
            <_><var>0</var>
              <quality>3.8841024780273438e+02</quality>
              <le>4.9413633346557617e+00</le></_></splits></_>
        <_>
          <depth>3</depth>
          <value>8.9743589743589747e-01</value>
          <splits>
            <_><var>2</var>
              <quality>3.3278572082519531e+01</quality>
              <le>5.2699995040893555e+00</le></_></splits></_>
        <_>
          <depth>4</depth>
          <value>9.7142857142857142e-01</value>
          <splits>
            <_><var>6</var>
              <quality>3.3076923370361328e+01</quality>
              <le>4.4234377145767212e-01</le></_></splits></_>
        <_>
          <depth>5</depth>
          <value>9.2307692307692313e-01</value></_>
        <_>
          <depth>5</depth>
          <value>1.</value></_>
        <_>
          <depth>4</depth>
          <value>2.5000000000000000e-01</value></_>
        <_>
          <depth>3</depth>
          <value>1.</value></_>
        <_>
          <depth>1</depth>
          <value>4.3715846994535519e-02</value>
          <splits>
            <_><var>6</var>
              <quality>1.3880126953125000e+01</quality>
              <le>3.8292795419692993e-01</le></_></splits></_>
        <_>
          <depth>2</depth>
          <value>9.3256814921090381e-03</value>
          <splits>
            <_><var>3</var>
              <quality>3.9016574621200562e-01</quality>
              <le>5.0256776809692383e-01</le></_></splits></_>
        <_>
          <depth>3</depth>
          <value>9.7656250000000000e-04</value>
          <splits>
            <_><var>3</var>
              <quality>1.0416666977107525e-02</quality>
              <le>4.8187458515167236e-01</le></_></splits></_>
        <_>
          <depth>4</depth>
          <value>0.</value></_>
        <_>
          <depth>4</depth>
          <value>1.0416666666666666e-02</value>
          <splits>
            <_><var>8</var>
              <quality>5.0000000000000000e-01</quality>
              <le>1.1764906346797943e-01</le></_></splits></_>
        <_>
          <depth>5</depth>
          <value>0.</value></_>
        <_>
          <depth>5</depth>
          <value>5.0000000000000000e-01</value></_>
        <_>
          <depth>3</depth>
          <value>3.2432432432432434e-02</value>
          <splits>
            <_><var>8</var>
              <quality>2.2717392444610596e+00</quality>
              <le>1.1557351052761078e-01</le></_></splits></_>
        <_>
          <depth>4</depth>
          <value>2.7173913043478260e-02</value>
          <splits>
            <_><var>2</var>
              <quality>9.7630852460861206e-01</quality>
              <le>4.8924636840820313e+00</le></_></splits></_>
        <_>
          <depth>5</depth>
          <value>2.2038567493112948e-02</value></_>
        <_>
          <depth>5</depth>
          <value>4.0000000000000002e-01</value></_>
        <_>
          <depth>4</depth>
          <value>1.</value></_>
        <_>
          <depth>2</depth>
          <value>2.3320158102766800e-01</value>
          <splits>
            <_><var>8</var>
              <quality>3.1108715057373047e+01</quality>
              <le>1.0895560681819916e-01</le></_></splits></_>
        <_>
          <depth>3</depth>
          <value>5.5445544554455450e-01</value>
          <splits>
            <_><var>5</var>
              <quality>3.6404125213623047e+01</quality>
              <le>-7.2618782520294189e-01</le></_></splits></_>
        <_>
          <depth>4</depth>
          <value>1.3043478260869565e-01</value>
          <splits>
            <_><var>0</var>
              <quality>3.</quality>
              <le>4.6567516326904297e+00</le></_></splits></_>
        <_>
          <depth>5</depth>
          <value>0.</value></_>
        <_>
          <depth>5</depth>
          <value>1.</value></_>
        <_>
          <depth>4</depth>
          <value>6.7948717948717952e-01</value>
          <splits>
            <_><var>0</var>
              <quality>4.0710144042968750e+01</quality>
              <le>4.5410475730895996e+00</le></_></splits></_>
        <_>
          <depth>5</depth>
          <value>0.</value></_>
        <_>
          <depth>5</depth>
          <value>7.6811594202898548e-01</value></_>
        <_>
          <depth>3</depth>
          <value>1.9736842105263157e-02</value>
          <splits>
            <_><var>5</var>
              <quality>1.5000000596046448e-01</quality>
              <le>-5.4797065258026123e-01</le></_></splits></_>
        <_>
          <depth>4</depth>
          <value>5.0000000000000003e-02</value>
          <splits>
            <_><var>5</var>
              <quality>2.0172414779663086e+00</quality>
              <le>-5.5322182178497314e-01</le></_></splits></_>
        <_>
          <depth>5</depth>
          <value>1.7241379310344827e-02</value></_>
        <_>
          <depth>5</depth>
          <value>1.</value></_>
        <_>
          <depth>4</depth>
          <value>0.</value></_></nodes></_>
    <_>
      <nodes>
        <_>
          <depth>0</depth>
          <value>2.3102785782901056e-01</value>
          <splits>
            <_><var>8</var>
              <quality>3.7681375122070313e+02</quality>
              <le>8.7017551064491272e-02</le></_></splits></_>
        <_>
          <depth>1</depth>
          <value>9.4915254237288138e-01</value>
          <splits>
            <_><var>3</var>
              <quality>3.7665383911132813e+02</quality>
              <le>7.8413337469100952e-01</le></_></splits></_>
        <_>
          <depth>2</depth>
          <value>7.3076923076923073e-01</value>
          <splits>
            <_><var>0</var>
              <quality>4.4511463165283203e+01</quality>
              <le>4.7158842086791992e+00</le></_></splits></_>
        <_>
          <depth>3</depth>
          <value>4.3478260869565216e-01</value>
          <splits>
            <_><var>4</var>
              <quality>7.6923074722290039e+00</quality>
              <le>4.9593649804592133e-02</le></_></splits></_>
        <_>
          <depth>4</depth>
          <value>7.6923076923076927e-01</value>
          <splits>
            <_><var>4</var>
              <quality>10.</quality>
              <le>2.1488530561327934e-02</le></_></splits></_>
        <_>
          <depth>5</depth>
          <value>0.</value></_>
        <_>
          <depth>5</depth>
          <value>1.</value></_>
        <_>
          <depth>4</depth>
          <value>0.</value></_>
        <_>
          <depth>3</depth>
          <value>8.5454545454545450e-01</value>
          <splits>
            <_><var>4</var>
              <quality>4.2316490173339844e+01</quality>
              <le>-3.2619878649711609e-02</le></_></splits></_>
        <_>
          <depth>4</depth>
          <value>3.7500000000000000e-01</value></_>
        <_>
          <depth>4</depth>
          <value>9.3617021276595747e-01</value>
          <splits>
            <_><var>7</var>
              <quality>4.1500000000000000e+01</quality>
              <le>4.8848128318786621e-01</le></_></splits></_>
        <_>
          <depth>5</depth>
          <value>1.</value></_>
        <_>
          <depth>5</depth>
          <value>8.3333333333333337e-01</value></_>
        <_>
          <depth>2</depth>
          <value>1.</value></_>
        <_>
          <depth>1</depth>
          <value>5.3325344517675254e-02</value>
          <splits>
            <_><var>7</var>
              <quality>1.1599907875061035e+01</quality>
              <le>5.1776385307312012e-01</le></_></splits></_>
        <_>
          <depth>2</depth>
          <value>1.5598290598290598e-01</value>
          <splits>
            <_><var>3</var>
              <quality>2.8977386474609375e+01</quality>
              <le>5.9192514419555664e-01</le></_></splits></_>
        <_>
          <depth>3</depth>
          <value>4.5325779036827198e-02</value>
          <splits>
            <_><var>5</var>
              <quality>3.2635755538940430e+00</quality>
              <le>-6.2111091613769531e-01</le></_></splits></_>
        <_>
          <depth>4</depth>
          <value>2.8947368421052633e-01</value>
          <splits>
            <_><var>0</var>
              <quality>5.7619047164916992e+00</quality>
              <le>4.4632215499877930e+00</le></_></splits></_>
        <_>
          <depth>5</depth>
          <value>0.</value></_>
        <_>
          <depth>5</depth>
          <value>5.2380952380952384e-01</value></_>
        <_>
          <depth>4</depth>
          <value>1.5873015873015872e-02</value>
          <splits>
            <_><var>8</var>
              <quality>3.4722220897674561e-01</quality>
              <le>1.3197483122348785e-01</le></_></splits></_>
        <_>
          <depth>5</depth>
          <value>6.9444444444444448e-02</value></_>
        <_>
          <depth>5</depth>
          <value>0.</value></_>
        <_>
          <depth>3</depth>
          <value>4.9565217391304350e-01</value>
          <splits>
            <_><var>0</var>
              <quality>4.2887138366699219e+01</quality>
              <le>4.6152648925781250e+00</le></_></splits></_>
        <_>
          <depth>4</depth>
          <value>8.1632653061224483e-02</value>
          <splits>
            <_><var>2</var>
              <quality>1.5232558250427246e+00</quality>
              <le>4.8681144714355469e+00</le></_></splits></_>
        <_>
          <depth>5</depth>
          <value>2.3255813953488372e-02</value></_>
        <_>
          <depth>5</depth>
          <value>5.0000000000000000e-01</value></_>
        <_>
          <depth>4</depth>
          <value>8.0303030303030298e-01</value>
          <splits>
            <_><var>8</var>
              <quality>4.4756862640380859e+01</quality>
              <le>1.0462551563978195e-01</le></_></splits></_>
        <_>
          <depth>5</depth>
          <value>9.0196078431372551e-01</value></_>
        <_>
          <depth>5</depth>
          <value>4.6666666666666667e-01</value></_>
        <_>
          <depth>2</depth>
          <value>1.3322231473771857e-02</value>
          <splits>
            <_><var>7</var>
              <quality>5.4330402612686157e-01</quality>
              <le>5.5371904373168945e-01</le></_></splits></_>
        <_>
          <depth>3</depth>
          <value>4.1009463722397478e-02</value>
          <splits>
            <_><var>0</var>
              <quality>1.8571428060531616e+00</quality>
              <le>4.3184404373168945e+00</le></_></splits></_>
        <_>
          <depth>4</depth>
          <value>0.</value></_>
        <_>
          <depth>4</depth>
          <value>1.4285714285714285e-01</value>
          <splits>
            <_><var>7</var>
              <quality>9.6131582260131836e+00</quality>
              <le>5.4540657997131348e-01</le></_></splits></_>
        <_>
          <depth>5</depth>
          <value>1.3157894736842105e-02</value></_>
        <_>
          <depth>5</depth>
          <value>8.0000000000000004e-01</value></_>
        <_>
          <depth>3</depth>
          <value>3.3936651583710408e-03</value>
          <splits>
            <_><var>1</var>
              <quality>5.6250000000000000e-01</quality>
              <le>3.8278417587280273e+00</le></_></splits></_>
        <_>
          <depth>4</depth>
          <value>0.</value></_>
        <_>
          <depth>4</depth>
          <value>1.8750000000000000e-01</value>
          <splits>
            <_><var>5</var>
              <quality>3.</quality>
              <le>-7.3319661617279053e-01</le></_></splits></_>
        <_>
          <depth>5</depth>
          <value>1.</value></_>
        <_>
          <depth>5</depth>
          <value>0.</value></_></nodes></_>
    <_>
      <nodes>
        <_>
          <depth>0</depth>
          <value>2.2334293948126802e-01</value>
          <splits>
            <_><var>6</var>
              <quality>3.3964022827148438e+02</quality>
              <le>4.4089102745056152e-01</le></_></splits></_>
        <_>
          <depth>1</depth>
          <value>5.0394656952034003e-02</value>
          <splits>
            <_><var>3</var>
              <quality>2.5476354598999023e+01</quality>
              <le>6.4701479673385620e-01</le></_></splits></_>
        <_>
          <depth>2</depth>
          <value>2.4872448979591837e-02</value>
          <splits>
            <_><var>4</var>
              <quality>2.2991755008697510e+00</quality>
              <le>1.9545763731002808e-01</le></_></splits></_>
        <_>
          <depth>3</depth>
          <value>6.6929133858267723e-02</value>
          <splits>
            <_><var>4</var>
              <quality>4.0237154960632324e+00</quality>
              <le>1.9517719745635986e-01</le></_></splits></_>
        <_>
          <depth>4</depth>
          <value>6.3241106719367585e-02</value>
          <splits>
            <_><var>8</var>
              <quality>3.5525362491607666e+00</quality>
              <le>1.1015386134386063e-01</le></_></splits></_>
        <_>
          <depth>5</depth>
          <value>1.2133891213389121e-01</value></_>
        <_>
          <depth>5</depth>
          <value>1.1235955056179775e-02</value></_>
        <_>
          <depth>4</depth>
          <value>1.</value></_>
        <_>
          <depth>3</depth>
          <value>4.7169811320754715e-03</value>
          <splits>
            <_><var>0</var>
              <quality>3.0864197015762329e-01</quality>
              <le>4.3014373779296875e+00</le></_></splits></_>
        <_>
          <depth>4</depth>
          <value>0.</value></_>
        <_>
          <depth>4</depth>
          <value>6.1728395061728392e-02</value>
          <splits>
            <_><var>8</var>
              <quality>5.</quality>
              <le>1.0533840954303741e-01</le></_></splits></_>
        <_>
          <depth>5</depth>
          <value>1.</value></_>
        <_>
          <depth>5</depth>
          <value>0.</value></_>
        <_>
          <depth>2</depth>
          <value>5.5696202531645567e-01</value>
          <splits>
            <_><var>2</var>
              <quality>3.4071224212646484e+01</quality>
              <le>4.5886540412902832e+00</le></_></splits></_>
        <_>
          <depth>3</depth>
          <value>7.4074074074074070e-02</value>
          <splits>
            <_><var>5</var>
              <quality>3.7500000000000000e-01</quality>
              <le>-8.3254623413085938e-01</le></_></splits></_>
        <_>
          <depth>4</depth>
          <value>3.3333333333333331e-01</value></_>
        <_>
          <depth>4</depth>
          <value>4.1666666666666664e-02</value>
          <splits>
            <_><var>5</var>
              <quality>2.5000000000000000e-01</quality>
              <le>-7.6456981897354126e-01</le></_></splits></_>
        <_>
          <depth>5</depth>
          <value>0.</value></_>
        <_>
          <depth>5</depth>
          <value>2.5000000000000000e-01</value></_>
        <_>
          <depth>3</depth>
          <value>8.0769230769230771e-01</value>
          <splits>
            <_><var>1</var>
              <quality>3.6126983642578125e+01</quality>
              <le>3.7485637664794922e+00</le></_></splits></_>
        <_>
          <depth>4</depth>
          <value>2.8571428571428570e-01</value></_>
        <_>
          <depth>4</depth>
          <value>8.8888888888888884e-01</value>
          <splits>
            <_><var>0</var>
              <quality>3.6388889312744141e+01</quality>
              <le>4.8262257575988770e+00</le></_></splits></_>
        <_>
          <depth>5</depth>
          <value>7.2222222222222221e-01</value></_>
        <_>
          <depth>5</depth>
          <value>1.</value></_>
        <_>
          <depth>1</depth>
          <value>8.7816091954022990e-01</value>
          <splits>
            <_><var>0</var>
              <quality>3.5403411865234375e+02</quality>
              <le>4.9413633346557617e+00</le></_></splits></_>
        <_>
          <depth>2</depth>
          <value>4.5882352941176469e-01</value>
          <splits>
            <_><var>5</var>
              <quality>2.7654544830322266e+01</quality>
              <le>-5.9148669242858887e-01</le></_></splits></_>
        <_>
          <depth>3</depth>
          <value>7.0909090909090911e-01</value>
          <splits>
            <_><var>1</var>
              <quality>2.9250000000000000e+01</quality>
              <le>3.7472975254058838e+00</le></_></splits></_>
        <_>
          <depth>4</depth>
          <value>0.</value></_>
        <_>
          <depth>4</depth>
          <value>7.5000000000000000e-01</value>
          <splits>
            <_><var>8</var>
              <quality>3.1576923370361328e+01</quality>
              <le>7.8420177102088928e-02</le></_></splits></_>
        <_>
          <depth>5</depth>
          <value>9.6153846153846156e-01</value></_>
        <_>
          <depth>5</depth>
          <value>5.3846153846153844e-01</value></_>
        <_>
          <depth>3</depth>
          <value>0.</value></_>
        <_>
          <depth>2</depth>
          <value>9.7999999999999998e-01</value>
          <splits>
            <_><var>6</var>
              <quality>3.3710314941406250e+02</quality>
              <le>4.4509661197662354e-01</le></_></splits></_>
        <_>
          <depth>3</depth>
          <value>0.</value></_>
        <_>
          <depth>3</depth>
          <value>9.8280802292263614e-01</value>
          <splits>
            <_><var>3</var>
              <quality>3.4101159667968750e+02</quality>
              <le>6.4345312118530273e-01</le></_></splits></_>
        <_>
          <depth>4</depth>
          <value>0.</value></_>
        <_>
          <depth>4</depth>
          <value>9.9420289855072463e-01</value>
          <splits>
            <_><var>8</var>
              <quality>342.</quality>
              <le>9.5576100051403046e-02</le></_></splits></_>
        <_>
          <depth>5</depth>
          <value>1.</value></_>
        <_>
          <depth>5</depth>
          <value>5.0000000000000000e-01</value></_></nodes></_>
    <_>
      <nodes>
        <_>
          <depth>0</depth>
          <value>2.4303554274735831e-01</value>
          <splits>
            <_><var>0</var>
              <quality>3.7646536254882813e+02</quality>
              <le>4.8646936416625977e+00</le></_></splits></_>
        <_>
          <depth>1</depth>
          <value>5.5142503097893432e-02</value>
          <splits>
            <_><var>6</var>
              <quality>2.5676679611206055e+01</quality>
              <le>4.0343558788299561e-01</le></_></splits></_>
        <_>
          <depth>2</depth>
          <value>1.9099590723055934e-02</value>
          <splits>
            <_><var>4</var>
              <quality>1.5631849765777588e+00</quality>
              <le>1.9264914095401764e-01</le></_></splits></_>
        <_>
          <depth>3</depth>
          <value>6.2189054726368161e-02</value>
          <splits>
            <_><var>4</var>
              <quality>3.3224999904632568e+00</quality>
              <le>1.9178301095962524e-01</le></_></splits></_>
        <_>
          <depth>4</depth>
          <value>5.7500000000000002e-02</value>
          <splits>
            <_><var>3</var>
              <quality>1.8432055711746216e+00</quality>
              <le>4.5888078212738037e-01</le></_></splits></_>
        <_>
          <depth>5</depth>
          <value>0.</value></_>
        <_>
          <depth>5</depth>
          <value>8.0139372822299645e-02</value></_>
        <_>
          <depth>4</depth>
          <value>1.</value></_>
        <_>
          <depth>3</depth>
          <value>2.8195488721804510e-03</value>
          <splits>
            <_><var>8</var>
              <quality>3.6144576966762543e-02</quality>
              <le>1.0500587522983551e-01</le></_></splits></_>
        <_>
          <depth>4</depth>
          <value>1.2048192771084338e-02</value>
          <splits>
            <_><var>8</var>
              <quality>2.0040485858917236e+00</quality>
              <le>1.0496398806571960e-01</le></_></splits></_>
        <_>
          <depth>5</depth>
          <value>4.0485829959514170e-03</value></_>
        <_>
          <depth>5</depth>
          <value>1.</value></_>
        <_>
          <depth>4</depth>
          <value>0.</value></_>
        <_>
          <depth>2</depth>
          <value>4.1216216216216217e-01</value>
          <splits>
            <_><var>8</var>
              <quality>3.8377273559570313e+01</quality>
              <le>1.1000718921422958e-01</le></_></splits></_>
        <_>
          <depth>3</depth>
          <value>6.5909090909090906e-01</value>
          <splits>
            <_><var>1</var>
              <quality>4.7640625000000000e+01</quality>
              <le>3.7308182716369629e+00</le></_></splits></_>
        <_>
          <depth>4</depth>
          <value>1.2500000000000000e-01</value>
          <splits>
            <_><var>6</var>
              <quality>2.0454545021057129e+00</quality>
              <le>4.0713459253311157e-01</le></_></splits></_>
        <_>
          <depth>5</depth>
          <value>1.</value></_>
        <_>
          <depth>5</depth>
          <value>4.5454545454545456e-02</value></_>
        <_>
          <depth>4</depth>
          <value>8.5937500000000000e-01</value>
          <splits>
            <_><var>5</var>
              <quality>4.9580001831054688e+01</quality>
              <le>-7.7523148059844971e-01</le></_></splits></_>
        <_>
          <depth>5</depth>
          <value>5.0000000000000000e-01</value></_>
        <_>
          <depth>5</depth>
          <value>9.5999999999999996e-01</value></_>
        <_>
          <depth>3</depth>
          <value>5.0000000000000003e-02</value>
          <splits>
            <_><var>8</var>
              <quality>7.5000000000000000e-01</quality>
              <le>1.1347910761833191e-01</le></_></splits></_>
        <_>
          <depth>4</depth>
          <value>2.5000000000000000e-01</value>
          <splits>
            <_><var>8</var>
              <quality>3.</quality>
              <le>1.1268376559019089e-01</le></_></splits></_>
        <_>
          <depth>5</depth>
          <value>0.</value></_>
        <_>
          <depth>5</depth>
          <value>1.</value></_>
        <_>
          <depth>4</depth>
          <value>0.</value></_>
        <_>
          <depth>1</depth>
          <value>8.9102564102564108e-01</value>
          <splits>
            <_><var>8</var>
              <quality>4.0723419189453125e+02</quality>
              <le>1.1223275214433670e-01</le></_></splits></_>
        <_>
          <depth>2</depth>
          <value>9.7658079625292737e-01</value>
          <splits>
            <_><var>3</var>
              <quality>4.0856250000000000e+02</quality>
              <le>7.5321412086486816e-01</le></_></splits></_>
        <_>
          <depth>3</depth>
          <value>8.4375000000000000e-01</value>
          <splits>
            <_><var>7</var>
              <quality>4.7642513275146484e+01</quality>
              <le>4.5134201645851135e-01</le></_></splits></_>
        <_>
          <depth>4</depth>
          <value>5.5555555555555558e-01</value>
          <splits>
            <_><var>1</var>
              <quality>7.8181819915771484e+00</quality>
              <le>4.0038671493530273e+00</le></_></splits></_>
        <_>
          <depth>5</depth>
          <value>1.</value></_>
        <_>
          <depth>5</depth>
          <value>2.7272727272727271e-01</value></_>
        <_>
          <depth>4</depth>
          <value>9.5652173913043481e-01</value>
          <splits>
            <_><var>7</var>
              <quality>4.2400001525878906e+01</quality>
              <le>4.7439908981323242e-01</le></_></splits></_>
        <_>
          <depth>5</depth>
          <value>8.0000000000000004e-01</value></_>
        <_>
          <depth>5</depth>
          <value>1.</value></_>
        <_>
          <depth>3</depth>
          <value>1.</value></_>
        <_>
          <depth>2</depth>
          <value>0.</value></_></nodes></_>
    <_>
      <nodes>
        <_>
          <depth>0</depth>
          <value>2.2718539865513929e-01</value>
          <splits>
            <_><var>3</var>
              <quality>3.6861395263671875e+02</quality>
              <le>6.6996097564697266e-01</le></_></splits></_>
        <_>
          <depth>1</depth>
          <value>4.3848964677222900e-02</value>
          <splits>
            <_><var>3</var>
              <quality>9.4573726654052734e+00</quality>
              <le>6.0366857051849365e-01</le></_></splits></_>
        <_>
          <depth>2</depth>
          <value>2.6850032743942372e-02</value>
          <splits>
            <_><var>3</var>
              <quality>2.9933972358703613e+00</quality>
              <le>5.3757762908935547e-01</le></_></splits></_>
        <_>
          <depth>3</depth>
          <value>9.0460526315789477e-03</value>
          <splits>
            <_><var>6</var>
              <quality>3.2415544986724854e-01</quality>
              <le>3.5626152157783508e-01</le></_></splits></_>
        <_>
          <depth>4</depth>
          <value>2.9615004935834156e-03</value>
          <splits>
            <_><var>5</var>
              <quality>6.1224490404129028e-02</quality>
              <le>-7.3757654428482056e-01</le></_></splits></_>
        <_>
          <depth>5</depth>
          <value>2.0408163265306121e-02</value></_>
        <_>
          <depth>5</depth>
          <value>0.</value></_>
        <_>
          <depth>4</depth>
          <value>3.9408866995073892e-02</value>
          <splits>
            <_><var>7</var>
              <quality>1.5223463773727417e+00</quality>
              <le>5.0408518314361572e-01</le></_></splits></_>
        <_>
          <depth>5</depth>
          <value>1.1173184357541900e-02</value></_>
        <_>
          <depth>5</depth>
          <value>2.5000000000000000e-01</value></_>
        <_>
          <depth>3</depth>
          <value>9.6463022508038579e-02</value>
          <splits>
            <_><var>1</var>
              <quality>5.2269072532653809e+00</quality>
              <le>3.9543442726135254e+00</le></_></splits></_>
        <_>
          <depth>4</depth>
          <value>6.0377358490566038e-02</value>
          <splits>
            <_><var>1</var>
              <quality>1.7120642662048340e+00</quality>
              <le>3.6246747970581055e+00</le></_></splits></_>
        <_>
          <depth>5</depth>
          <value>1.1363636363636363e-01</value></_>
        <_>
          <depth>5</depth>
          <value>7.5187969924812026e-03</value></_>
        <_>
          <depth>4</depth>
          <value>3.0434782608695654e-01</value>
          <splits>
            <_><var>6</var>
              <quality>7.5999999046325684e+00</quality>
              <le>3.8322919607162476e-01</le></_></splits></_>
        <_>
          <depth>5</depth>
          <value>1.</value></_>
        <_>
          <depth>5</depth>
          <value>2.0000000000000001e-01</value></_>
        <_>
          <depth>2</depth>
          <value>2.6956521739130435e-01</value>
          <splits>
            <_><var>0</var>
              <quality>2.5289474487304688e+01</quality>
              <le>4.6175251007080078e+00</le></_></splits></_>
        <_>
          <depth>3</depth>
          <value>0.</value></_>
        <_>
          <depth>3</depth>
          <value>8.1578947368421051e-01</value>
          <splits>
            <_><var>8</var>
              <quality>2.7038461685180664e+01</quality>
              <le>1.0412511229515076e-01</le></_></splits></_>
        <_>
          <depth>4</depth>
          <value>9.6153846153846156e-01</value>
          <splits>
            <_><var>3</var>
              <quality>25.</quality>
              <le>6.0579961538314819e-01</le></_></splits></_>
        <_>
          <depth>5</depth>
          <value>0.</value></_>
        <_>
          <depth>5</depth>
          <value>1.</value></_>
        <_>
          <depth>4</depth>
          <value>5.0000000000000000e-01</value>
          <splits>
            <_><var>1</var>
              <quality>6.</quality>
              <le>3.9717273712158203e+00</le></_></splits></_>
        <_>
          <depth>5</depth>
          <value>1.</value></_>
        <_>
          <depth>5</depth>
          <value>0.</value></_>
        <_>
          <depth>1</depth>
          <value>9.1136363636363638e-01</value>
          <splits>
            <_><var>4</var>
              <quality>3.7080923461914063e+02</quality>
              <le>5.3549513220787048e-02</le></_></splits></_>
        <_>
          <depth>2</depth>
          <value>9.4527363184079605e-01</value>
          <splits>
            <_><var>8</var>
              <quality>3.6270440673828125e+02</quality>
              <le>8.8042743504047394e-02</le></_></splits></_>
        <_>
          <depth>3</depth>
          <value>9.6605744125326376e-01</value>
          <splits>
            <_><var>3</var>
              <quality>3.5817779541015625e+02</quality>
              <le>7.9968667030334473e-01</le></_></splits></_>
        <_>
          <depth>4</depth>
          <value>8.9423076923076927e-01</value>
          <splits>
            <_><var>2</var>
              <quality>8.5633666992187500e+01</quality>
              <le>4.2856483459472656e+00</le></_></splits></_>
        <_>
          <depth>5</depth>
          <value>0.</value></_>
        <_>
          <depth>5</depth>
          <value>9.2079207920792083e-01</value></_>
        <_>
          <depth>4</depth>
          <value>9.9283154121863804e-01</value>
          <splits>
            <_><var>2</var>
              <quality>2.7508511352539063e+02</quality>
              <le>4.6200461387634277e+00</le></_></splits></_>
        <_>
          <depth>5</depth>
          <value>9.5744680851063835e-01</value></_>
        <_>
          <depth>5</depth>
          <value>1.</value></_>
        <_>
          <depth>3</depth>
          <value>5.2631578947368418e-01</value>
          <splits>
            <_><var>0</var>
              <quality>8.2111110687255859e+00</quality>
              <le>4.9095449447631836e+00</le></_></splits></_>
        <_>
          <depth>4</depth>
          <value>1.1111111111111110e-01</value></_>
        <_>
          <depth>4</depth>
          <value>9.0000000000000002e-01</value></_>
        <_>
          <depth>2</depth>
          <value>5.5263157894736847e-01</value>
          <splits>
            <_><var>7</var>
              <quality>1.3781250000000000e+01</quality>
              <le>5.2427041530609131e-01</le></_></splits></_>
        <_>
          <depth>3</depth>
          <value>6.5625000000000000e-01</value>
          <splits>
            <_><var>0</var>
              <quality>21.</quality>
              <le>4.8262257575988770e+00</le></_></splits></_>
        <_>
          <depth>4</depth>
          <value>0.</value></_>
        <_>
          <depth>4</depth>
          <value>1.</value></_>
        <_>
          <depth>3</depth>
          <value>0.</value></_></nodes></_>
    <_>
      <nodes>
        <_>
          <depth>0</depth>
          <value>2.3535062439961577e-01</value>
          <splits>
            <_><var>4</var>
              <quality>3.3725796508789063e+02</quality>
              <le>7.1013875305652618e-02</le></_></splits></_>
        <_>
          <depth>1</depth>
          <value>7.7558348294434465e-01</value>
          <splits>
            <_><var>5</var>
              <quality>3.9322637939453125e+02</quality>
              <le>-6.2259656190872192e-01</le></_></splits></_>
        <_>
          <depth>2</depth>
          <value>9.2951541850220265e-01</value>
          <splits>
            <_><var>1</var>
              <quality>4.0572106933593750e+02</quality>
              <le>3.7308182716369629e+00</le></_></splits></_>
        <_>
          <depth>3</depth>
          <value>2.3076923076923078e-01</value>
          <splits>
            <_><var>0</var>
              <quality>6.</quality>
              <le>4.7282915115356445e+00</le></_></splits></_>
        <_>
          <depth>4</depth>
          <value>0.</value></_>
        <_>
          <depth>4</depth>
          <value>1.</value></_>
        <_>
          <depth>3</depth>
          <value>9.7196261682242990e-01</value>
          <splits>
            <_><var>3</var>
              <quality>4.0719058227539063e+02</quality>
              <le>6.0010123252868652e-01</le></_></splits></_>
        <_>
          <depth>4</depth>
          <value>0.</value></_>
        <_>
          <depth>4</depth>
          <value>9.7882352941176476e-01</value>
          <splits>
            <_><var>0</var>
              <quality>4.0772137451171875e+02</quality>
              <le>4.8755416870117188e+00</le></_></splits></_>
        <_>
          <depth>5</depth>
          <value>8.9855072463768115e-01</value></_>
        <_>
          <depth>5</depth>
          <value>9.9438202247191010e-01</value></_>
        <_>
          <depth>2</depth>
          <value>9.7087378640776698e-02</value>
          <splits>
            <_><var>0</var>
              <quality>2.0014984607696533e+00</quality>
              <le>4.8713383674621582e+00</le></_></splits></_>
        <_>
          <depth>3</depth>
          <value>3.8961038961038960e-02</value>
          <splits>
            <_><var>3</var>
              <quality>1.0526316165924072e+00</quality>
              <le>6.1393892765045166e-01</le></_></splits></_>
        <_>
          <depth>4</depth>
          <value>2.6315789473684209e-02</value>
          <splits>
            <_><var>6</var>
              <quality>2.6666668057441711e-01</quality>
              <le>4.5408654212951660e-01</le></_></splits></_>
        <_>
          <depth>5</depth>
          <value>0.</value></_>
        <_>
          <depth>5</depth>
          <value>1.3333333333333333e-01</value></_>
        <_>
          <depth>4</depth>
          <value>1.</value></_>
        <_>
          <depth>3</depth>
          <value>2.6923076923076922e-01</value>
          <splits>
            <_><var>0</var>
              <quality>6.1250000000000000e+00</quality>
              <le>4.8977808952331543e+00</le></_></splits></_>
        <_>
          <depth>4</depth>
          <value>8.7500000000000000e-01</value></_>
        <_>
          <depth>4</depth>
          <value>0.</value></_>
        <_>
          <depth>1</depth>
          <value>3.8032786885245903e-02</value>
          <splits>
            <_><var>3</var>
              <quality>1.0890567779541016e+01</quality>
              <le>6.6391646862030029e-01</le></_></splits></_>
        <_>
          <depth>2</depth>
          <value>2.6809651474530832e-02</value>
          <splits>
            <_><var>4</var>
              <quality>3.2679193019866943e+00</quality>
              <le>1.9989922642707825e-01</le></_></splits></_>
        <_>
          <depth>3</depth>
          <value>8.8095238095238101e-02</value>
          <splits>
            <_><var>0</var>
              <quality>6.1469645500183105e+00</quality>
              <le>4.3117604255676270e+00</le></_></splits></_>
        <_>
          <depth>4</depth>
          <value>4.7846889952153108e-03</value>
          <splits>
            <_><var>7</var>
              <quality>2.4390242993831635e-02</quality>
              <le>5.0641870498657227e-01</le></_></splits></_>
        <_>
          <depth>5</depth>
          <value>2.4390243902439025e-02</value></_>
        <_>
          <depth>5</depth>
          <value>0.</value></_>
        <_>
          <depth>4</depth>
          <value>1.7061611374407584e-01</value>
          <splits>
            <_><var>5</var>
              <quality>1.0219322204589844e+01</quality>
              <le>-6.1631250381469727e-01</le></_></splits></_>
        <_>
          <depth>5</depth>
          <value>2.9166666666666669e-01</value></_>
        <_>
          <depth>5</depth>
          <value>1.0989010989010990e-02</value></_>
        <_>
          <depth>3</depth>
          <value>2.7985074626865670e-03</value>
          <splits>
            <_><var>1</var>
              <quality>4.4975411146879196e-02</quality>
              <le>3.8278417587280273e+00</le></_></splits></_>
        <_>
          <depth>4</depth>
          <value>1.0193679918450561e-03</value>
          <splits>
            <_><var>4</var>
              <quality>2.3255813866853714e-02</quality>
              <le>2.0463997125625610e-01</le></_></splits></_>
        <_>
          <depth>5</depth>
          <value>2.3255813953488372e-02</value></_>
        <_>
          <depth>5</depth>
          <value>0.</value></_>
        <_>
          <depth>4</depth>
          <value>2.1978021978021980e-02</value>
          <splits>
            <_><var>3</var>
              <quality>1.</quality>
              <le>4.8195874691009521e-01</le></_></splits></_>
        <_>
          <depth>5</depth>
