<?xml version="1.0"?>
<opencv_storage>
<opencv_ml_rtrees>
  <format>3</format>
  <is_classifier>0</is_classifier>
  <var_all>10</var_all>
  <var_count>9</var_count>
  <ord_var_count>10</ord_var_count>
  <cat_var_count>0</cat_var_count>
  <training_params>
    <use_surrogates>0</use_surrogates>
    <max_categories>10</max_categories>
    <regression_accuracy>9.9999997473787516e-05</regression_accuracy>
    <max_depth>5</max_depth>
    <min_sample_count>10</min_sample_count>
    <cross_validation_folds>0</cross_validation_folds>
    <nactive_vars>0</nactive_vars></training_params>
  <global_var_idx>1</global_var_idx>
  <var_idx>
    0 1 2 3 4 5 6 7 8</var_idx>
  <var_type>
    0 0 0 0 0 0 0 0 0 0</var_type>
  <cat_ofs>
    0 0 0 0 0 0 0 0 0 0 0 0 0 0 0 0 0 0</cat_ofs>
  <missing_subst>
    0. 0. 0. 0. 0. 0. 0. 0. 0. 0.</missing_subst>
  <oob_error>1.1700462250681524e-02</oob_error>
  <var_importance>
    3.16002779e-02 1.25359163e-01 2.72386968e-01 5.89379258e-02
    3.34517844e-02 2.63339937e-01 3.22867632e-02 4.36864011e-02
    1.38950810e-01</var_importance>
  <ntrees>100</ntrees>
  <trees>
    <_>
      <nodes>
        <_>
          <depth>0</depth>
          <value>9.8966027028099299e-02</value>
          <splits>
            <_><var>2</var>
              <quality>4.6760181427001953e+01</quality>
              <le>6.0519576072692871e+00</le></_></splits></_>
        <_>
          <depth>1</depth>
          <value>2.7287319900518820e-02</value>
          <splits>
            <_><var>5</var>
              <quality>4.0425896644592285e+00</quality>
              <le>-5.1464557647705078e-01</le></_></splits></_>
        <_>
          <depth>2</depth>
          <value>8.5178876654252896e-03</value>
          <splits>
            <_><var>5</var>
              <quality>5.9523808956146240e-01</quality>
              <le>-5.6891810894012451e-01</le></_></splits></_>
        <_>
          <depth>3</depth>
          <value>0.</value></_>
        <_>
          <depth>3</depth>
          <value>1.1904762046677726e-01</value>
          <splits>
            <_><var>3</var>
              <quality>2.7777779102325439e+00</quality>
              <le>4.6650117635726929e-01</le></_></splits></_>
        <_>
          <depth>4</depth>
          <value>0.</value></_>
        <_>
          <depth>4</depth>
          <value>5.5555556217829383e-01</value></_>
        <_>
          <depth>2</depth>
          <value>3.3333333995607162e-01</value>
          <splits>
            <_><var>7</var>
              <quality>5.7600002288818359e+00</quality>
              <le>4.5969697833061218e-01</le></_></splits></_>
        <_>
          <depth>3</depth>
          <value>0.</value></_>
        <_>
          <depth>3</depth>
          <value>4.8000000953674316e-01</value>
          <splits>
            <_><var>2</var>
              <quality>7.0476193428039551e+00</quality>
              <le>5.3896522521972656e+00</le></_></splits></_>
        <_>
          <depth>4</depth>
          <value>3.8095239230564665e-01</value>
          <splits>
            <_><var>6</var>
              <quality>3.9047620296478271e+00</quality>
              <le>3.7182393670082092e-01</le></_></splits></_>
        <_>
          <depth>5</depth>
          <value>2.3809524519102915e-01</value></_>
        <_>
          <depth>5</depth>
          <value>6.6666668653488159e-01</value></_>
        <_>
          <depth>4</depth>
          <value>1.</value></_>
        <_>
          <depth>1</depth>
          <value>9.2592592592592593e-01</value>
          <splits>
            <_><var>6</var>
              <quality>50.</quality>
              <le>3.8572451472282410e-01</le></_></splits></_>
        <_>
          <depth>2</depth>
          <value>1.</value></_>
        <_>
          <depth>2</depth>
          <value>0.</value></_></nodes></_>
    <_>
      <nodes>
        <_>
          <depth>0</depth>
          <value>9.9950763332262701e-02</value>
          <splits>
            <_><var>1</var>
              <quality>4.4534225463867188e+01</quality>
              <le>4.2122592926025391e+00</le></_></splits></_>
        <_>
          <depth>1</depth>
          <value>2.6968716465925323e-02</value>
          <splits>
            <_><var>5</var>
              <quality>6.1528930664062500e+00</quality>
              <le>-5.3004431724548340e-01</le></_></splits></_>
        <_>
          <depth>2</depth>
          <value>3.4305317324185248e-03</value>
          <splits>
            <_><var>1</var>
              <quality>9.2657342553138733e-02</quality>
              <le>4.1521816253662109e+00</le></_></splits></_>
        <_>
          <depth>3</depth>
          <value>1.7482517482517483e-03</value>
          <splits>
            <_><var>5</var>
              <quality>6.6666670143604279e-02</quality>
              <le>-5.6631731986999512e-01</le></_></splits></_>
        <_>
          <depth>4</depth>
          <value>0.</value></_>
        <_>
          <depth>4</depth>
          <value>6.6666666666666666e-02</value>
          <splits>
            <_><var>8</var>
              <quality>5.0000000000000000e-01</quality>
              <le>1.3198706507682800e-01</le></_></splits></_>
        <_>
          <depth>5</depth>
          <value>5.0000000000000000e-01</value></_>
        <_>
          <depth>5</depth>
          <value>0.</value></_>
        <_>
          <depth>3</depth>
          <value>9.0909090909090912e-02</value>
          <splits>
            <_><var>3</var>
              <quality>1.</quality>
              <le>4.7165596485137939e-01</le></_></splits></_>
        <_>
          <depth>4</depth>
          <value>1.</value></_>
        <_>
          <depth>4</depth>
          <value>0.</value></_>
        <_>
          <depth>2</depth>
          <value>4.1904762216976710e-01</value>
          <splits>
            <_><var>2</var>
              <quality>1.0871110916137695e+01</quality>
              <le>5.7524971961975098e+00</le></_></splits></_>
        <_>
          <depth>3</depth>
          <value>1.8666667103767395e-01</value>
          <splits>
            <_><var>7</var>
              <quality>2.1777777671813965e+00</quality>
              <le>4.4287413358688354e-01</le></_></splits></_>
        <_>
          <depth>4</depth>
          <value>0.</value></_>
        <_>
          <depth>4</depth>
          <value>4.6666667759418490e-01</value></_>
        <_>
          <depth>3</depth>
          <value>1.</value></_>
        <_>
          <depth>1</depth>
          <value>8.6440677966101698e-01</value>
          <splits>
            <_><var>5</var>
              <quality>51.</quality>
              <le>-6.3583648204803467e-01</le></_></splits></_>
        <_>
          <depth>2</depth>
          <value>0.</value></_>
        <_>
          <depth>2</depth>
          <value>1.</value></_></nodes></_>
    <_>
      <nodes>
        <_>
          <depth>0</depth>
          <value>9.8473658457816610e-02</value>
          <splits>
            <_><var>2</var>
              <quality>4.5305755615234375e+01</quality>
              <le>5.7972407341003418e+00</le></_></splits></_>
        <_>
          <depth>1</depth>
          <value>1.2777777959903081e-02</value>
          <splits>
            <_><var>8</var>
              <quality>1.2708451747894287e+00</quality>
              <le>1.9373448193073273e-01</le></_></splits></_>
        <_>
          <depth>2</depth>
          <value>5.6980058168753598e-03</value>
          <splits>
            <_><var>8</var>
              <quality>1.6583748161792755e-01</quality>
              <le>1.3134960830211639e-01</le></_></splits></_>
        <_>
          <depth>3</depth>
          <value>0.</value></_>
        <_>
          <depth>3</depth>
          <value>4.9751244818986351e-02</value>
          <splits>
            <_><var>1</var>
              <quality>3.3162394165992737e-01</quality>
              <le>2.7810888290405273e+00</le></_></splits></_>
        <_>
          <depth>4</depth>
          <value>3.3333334326744080e-01</value></_>
        <_>
          <depth>4</depth>
          <value>4.1025641789803141e-02</value>
          <splits>
            <_><var>4</var>
              <quality>3.3862435817718506e-01</quality>
              <le>1.2287242710590363e-01</le></_></splits></_>
        <_>
          <depth>5</depth>
          <value>1.2698412934939066e-01</value></_>
        <_>
          <depth>5</depth>
          <value>0.</value></_>
        <_>
          <depth>2</depth>
          <value>2.8888889153798419e-01</value>
          <splits>
            <_><var>5</var>
              <quality>2.6825397014617920e+00</quality>
              <le>-3.1929475069046021e-01</le></_></splits></_>
        <_>
          <depth>3</depth>
          <value>6.1904762472425190e-01</value></_>
        <_>
          <depth>3</depth>
          <value>0.</value></_>
        <_>
          <depth>1</depth>
          <value>7.6623376623376627e-01</value>
          <splits>
            <_><var>6</var>
              <quality>5.4500000000000000e+01</quality>
              <le>3.6537373065948486e-01</le></_></splits></_>
        <_>
          <depth>2</depth>
          <value>1.</value></_>
        <_>
          <depth>2</depth>
          <value>2.5000000000000000e-01</value>
          <splits>
            <_><var>1</var>
              <quality>3.5999999046325684e+00</quality>
              <le>4.1019697189331055e+00</le></_></splits></_>
        <_>
          <depth>3</depth>
          <value>0.</value></_>
        <_>
          <depth>3</depth>
          <value>5.9999999999999998e-01</value></_></nodes></_>
    <_>
      <nodes>
        <_>
          <depth>0</depth>
          <value>9.1088134085586192e-02</value>
          <splits>
            <_><var>8</var>
              <quality>3.8395195007324219e+01</quality>
              <le>1.5851673483848572e-01</le></_></splits></_>
        <_>
          <depth>1</depth>
          <value>1.1686143622374495e-02</value>
          <splits>
            <_><var>5</var>
              <quality>1.4698516130447388e+00</quality>
              <le>-5.1469027996063232e-01</le></_></splits></_>
        <_>
          <depth>2</depth>
          <value>5.1020408163265302e-03</value>
          <splits>
            <_><var>7</var>
              <quality>1.3846154510974884e-01</quality>
              <le>4.8516747355461121e-01</le></_></splits></_>
        <_>
          <depth>3</depth>
          <value>4.6153846153846156e-02</value>
          <splits>
            <_><var>7</var>
              <quality>2.0158729553222656e+00</quality>
              <le>4.8447769880294800e-01</le></_></splits></_>
        <_>
          <depth>4</depth>
          <value>1.5873015873015872e-02</value>
          <splits>
            <_><var>2</var>
              <quality>7.6923079788684845e-02</quality>
              <le>5.8130722045898438e+00</le></_></splits></_>
        <_>
          <depth>5</depth>
          <value>0.</value></_>
        <_>
          <depth>5</depth>
          <value>7.6923076923076927e-02</value></_>
        <_>
          <depth>4</depth>
          <value>1.</value></_>
        <_>
          <depth>3</depth>
          <value>0.</value></_>
        <_>
          <depth>2</depth>
          <value>3.6363636634566565e-01</value>
          <splits>
            <_><var>0</var>
              <quality>3.1250000000000000e+00</quality>
              <le>5.0040321350097656e+00</le></_></splits></_>
        <_>
          <depth>3</depth>
          <value>1.2500000372529030e-01</value></_>
        <_>
          <depth>3</depth>
          <value>1.</value></_>
        <_>
          <depth>1</depth>
          <value>7.0085470187358367e-01</value>
          <splits>
            <_><var>4</var>
              <quality>4.5976070404052734e+01</quality>
              <le>1.2171877920627594e-01</le></_></splits></_>
        <_>
          <depth>2</depth>
          <value>0.</value></_>
        <_>
          <depth>2</depth>
          <value>8.4102564224830045e-01</value>
          <splits>
            <_><var>0</var>
              <quality>5.0182682037353516e+01</quality>
              <le>4.1676502227783203e+00</le></_></splits></_>
        <_>
          <depth>3</depth>
          <value>3.9583333767950535e-01</value>
          <splits>
            <_><var>8</var>
              <quality>4.4537038803100586e+00</quality>
              <le>2.2802266478538513e-01</le></_></splits></_>
        <_>
          <depth>4</depth>
          <value>1.9444445023934046e-01</value>
          <splits>
            <_><var>3</var>
              <quality>6.8055558204650879e-01</quality>
              <le>4.8167414963245392e-02</le></_></splits></_>
        <_>
          <depth>5</depth>
          <value>0.</value></_>
        <_>
          <depth>5</depth>
          <value>2.9166667535901070e-01</value></_>
        <_>
          <depth>4</depth>
          <value>1.</value></_>
        <_>
          <depth>3</depth>
          <value>9.8639455802586617e-01</value>
          <splits>
            <_><var>4</var>
              <quality>4.7711112976074219e+01</quality>
              <le>1.7340099811553955e-01</le></_></splits></_>
        <_>
          <depth>4</depth>
          <value>9.3333333432674404e-01</value></_>
        <_>
          <depth>4</depth>
          <value>1.</value></_></nodes></_>
    <_>
      <nodes>
        <_>
          <depth>0</depth>
          <value>8.7149187812424839e-02</value>
          <splits>
            <_><var>8</var>
              <quality>3.0773118972778320e+01</quality>
              <le>1.6679723560810089e-01</le></_></splits></_>
        <_>
          <depth>1</depth>
          <value>2.6472177362519299e-02</value>
          <splits>
            <_><var>2</var>
              <quality>5.3179025650024414e+00</quality>
              <le>6.1696209907531738e+00</le></_></splits></_>
        <_>
          <depth>2</depth>
          <value>1.6939890873236736e-02</value>
          <splits>
            <_><var>2</var>
              <quality>1.0894805192947388e+00</quality>
              <le>5.9610500335693359e+00</le></_></splits></_>
        <_>
          <depth>3</depth>
          <value>1.2201885911271894e-02</value>
          <splits>
            <_><var>0</var>
              <quality>3.2592594623565674e-01</quality>
              <le>4.3466453552246094e+00</le></_></splits></_>
        <_>
          <depth>4</depth>
          <value>0.</value></_>
        <_>
          <depth>4</depth>
          <value>4.4444445046511565e-02</value>
          <splits>
            <_><var>2</var>
              <quality>8.4556257724761963e-01</quality>
              <le>5.7730121612548828e+00</le></_></splits></_>
        <_>
          <depth>5</depth>
          <value>3.3542977563989988e-02</value></_>
        <_>
          <depth>5</depth>
          <value>3.3333333333333331e-01</value></_>
        <_>
          <depth>3</depth>
          <value>3.3333333333333331e-01</value></_>
        <_>
          <depth>2</depth>
          <value>8.5714285714285710e-01</value></_>
        <_>
          <depth>1</depth>
          <value>7.1111111193895338e-01</value>
          <splits>
            <_><var>0</var>
              <quality>3.6266666412353516e+01</quality>
              <le>4.1885833740234375e+00</le></_></splits></_>
        <_>
          <depth>2</depth>
          <value>2.6666666865348815e-01</value>
          <splits>
            <_><var>2</var>
              <quality>4.1111111640930176e+00</quality>
              <le>5.2142257690429688e+00</le></_></splits></_>
        <_>
          <depth>3</depth>
          <value>8.3333335816860199e-02</value>
          <splits>
            <_><var>6</var>
              <quality>1.9753088057041168e-01</quality>
              <le>2.2007440030574799e-01</le></_></splits></_>
        <_>
          <depth>4</depth>
          <value>0.</value></_>
        <_>
          <depth>4</depth>
          <value>1.4814815256330702e-01</value></_>
        <_>
          <depth>3</depth>
          <value>1.</value></_>
        <_>
          <depth>2</depth>
          <value>9.3333333358168602e-01</value>
          <splits>
            <_><var>7</var>
              <quality>3.6678363800048828e+01</quality>
              <le>4.4880098104476929e-01</le></_></splits></_>
        <_>
          <depth>3</depth>
          <value>0.</value></_>
        <_>
          <depth>3</depth>
          <value>9.8245614061230102e-01</value>
          <splits>
            <_><var>0</var>
              <quality>3.6888889312744141e+01</quality>
              <le>4.3042316436767578e+00</le></_></splits></_>
        <_>
          <depth>4</depth>
          <value>6.6666667163372040e-01</value></_>
        <_>
          <depth>4</depth>
          <value>1.</value></_></nodes></_>
    <_>
      <nodes>
        <_>
          <depth>0</depth>
          <value>8.2225504882930830e-02</value>
          <splits>
            <_><var>3</var>
              <quality>2.6011444091796875e+01</quality>
              <le>3.0624437332153320e-01</le></_></splits></_>
        <_>
          <depth>1</depth>
          <value>5.5823293256472395e-01</value>
          <splits>
            <_><var>7</var>
              <quality>3.5779628753662109e+01</quality>
              <le>5.8867692947387695e-01</le></_></splits></_>
        <_>
          <depth>2</depth>
          <value>7.7222222338120139e-01</value>
          <splits>
            <_><var>2</var>
              <quality>4.3385185241699219e+01</quality>
              <le>5.0853462219238281e+00</le></_></splits></_>
        <_>
          <depth>3</depth>
          <value>1.5555556019147238e-01</value>
          <splits>
            <_><var>2</var>
              <quality>6.8055558204650879e-01</quality>
              <le>3.9012849330902100e+00</le></_></splits></_>
        <_>
          <depth>4</depth>
          <value>2.9166667535901070e-01</value></_>
        <_>
          <depth>4</depth>
          <value>0.</value></_>
        <_>
          <depth>3</depth>
          <value>9.7777777777777775e-01</value>
          <splits>
            <_><var>8</var>
              <quality>44.</quality>
              <le>1.6377213597297668e-01</le></_></splits></_>
        <_>
          <depth>4</depth>
          <value>0.</value></_>
        <_>
          <depth>4</depth>
          <value>1.</value></_>
        <_>
          <depth>2</depth>
          <value>0.</value></_>
        <_>
          <depth>1</depth>
          <value>1.5712682496417652e-02</value>
          <splits>
            <_><var>0</var>
              <quality>4.0482110977172852e+00</quality>
              <le>5.2762346267700195e+00</le></_></splits></_>
        <_>
          <depth>2</depth>
          <value>9.0395481404611615e-03</value>
          <splits>
            <_><var>2</var>
              <quality>1.0318807363510132e+00</quality>
              <le>6.6162967681884766e+00</le></_></splits></_>
        <_>
          <depth>3</depth>
          <value>7.3571025515655102e-03</value>
          <splits>
            <_><var>7</var>
              <quality>2.3769339919090271e-01</quality>
              <le>4.8454600572586060e-01</le></_></splits></_>
        <_>
          <depth>4</depth>
          <value>5.4852321555342858e-02</value>
          <splits>
            <_><var>3</var>
              <quality>1.1045751571655273e+00</quality>
              <le>4.7180181741714478e-01</le></_></splits></_>
        <_>
          <depth>5</depth>
          <value>2.5490196487482858e-01</value></_>
        <_>
          <depth>5</depth>
          <value>0.</value></_>
        <_>
          <depth>4</depth>
          <value>0.</value></_>
        <_>
          <depth>3</depth>
          <value>1.</value></_>
        <_>
          <depth>2</depth>
          <value>1.</value></_></nodes></_>
    <_>
      <nodes>
        <_>
          <depth>0</depth>
          <value>1.0733628779253544e-01</value>
          <splits>
            <_><var>5</var>
              <quality>4.8958454132080078e+01</quality>
              <le>-5.2238744497299194e-01</le></_></splits></_>
        <_>
          <depth>1</depth>
          <value>1.0789324315280686e-02</value>
          <splits>
            <_><var>2</var>
              <quality>2.2951011657714844e+00</quality>
              <le>5.9559803009033203e+00</le></_></splits></_>
        <_>
          <depth>2</depth>
          <value>4.0229885742582121e-03</value>
          <splits>
            <_><var>0</var>
              <quality>5.0882659852504730e-02</quality>
              <le>4.4711971282958984e+00</le></_></splits></_>
        <_>
          <depth>3</depth>
          <value>0.</value></_>
        <_>
          <depth>3</depth>
          <value>2.1806853953923021e-02</value>
          <splits>
            <_><var>3</var>
              <quality>4.5370373129844666e-01</quality>
              <le>4.7533926367759705e-01</le></_></splits></_>
        <_>
          <depth>4</depth>
          <value>1.9444444775581360e-01</value>
          <splits>
            <_><var>2</var>
              <quality>1.1616162061691284e+00</quality>
              <le>5.1777176856994629e+00</le></_></splits></_>
        <_>
          <depth>5</depth>
          <value>1.2121212482452393e-01</value></_>
        <_>
          <depth>5</depth>
          <value>1.</value></_>
        <_>
          <depth>4</depth>
          <value>0.</value></_>
        <_>
          <depth>2</depth>
          <value>5.7142857142857140e-01</value></_>
        <_>
          <depth>1</depth>
          <value>7.3703703847196367e-01</value>
          <splits>
            <_><var>6</var>
              <quality>5.5062961578369141e+01</quality>
              <le>3.3828550577163696e-01</le></_></splits></_>
        <_>
          <depth>2</depth>
          <value>9.2222222338120141e-01</value>
          <splits>
            <_><var>2</var>
              <quality>5.3777778625488281e+01</quality>
              <le>4.4509134292602539e+00</le></_></splits></_>
        <_>
          <depth>3</depth>
          <value>3.3333334326744080e-01</value></_>
        <_>
          <depth>3</depth>
          <value>1.</value></_>
        <_>
          <depth>2</depth>
          <value>3.6666666865348818e-01</value>
          <splits>
            <_><var>1</var>
              <quality>9.1904764175415039e+00</quality>
              <le>4.0418515205383301e+00</le></_></splits></_>
        <_>
          <depth>3</depth>
          <value>9.5238098076411662e-02</value>
          <splits>
            <_><var>4</var>
              <quality>4.4444447755813599e-01</quality>
              <le>9.9443316459655762e-02</le></_></splits></_>
        <_>
          <depth>4</depth>
          <value>0.</value></_>
        <_>
          <depth>4</depth>
          <value>2.2222222884496054e-01</value></_>
        <_>
          <depth>3</depth>
          <value>1.</value></_></nodes></_>
    <_>
      <nodes>
        <_>
          <depth>0</depth>
          <value>8.1240768314640485e-02</value>
          <splits>
            <_><var>2</var>
              <quality>3.5623054504394531e+01</quality>
              <le>6.2692689895629883e+00</le></_></splits></_>
        <_>
          <depth>1</depth>
          <value>3.1152648207183196e-02</value>
          <splits>
            <_><var>0</var>
              <quality>2.0328748226165771e+00</quality>
              <le>4.5733413696289063e+00</le></_></splits></_>
        <_>
          <depth>2</depth>
          <value>1.4109347705487852e-02</value>
          <splits>
            <_><var>2</var>
              <quality>2.7621975541114807e-01</quality>
              <le>5.7792549133300781e+00</le></_></splits></_>
        <_>
          <depth>3</depth>
          <value>1.0948905381408051e-02</value>
          <splits>
            <_><var>3</var>
              <quality>3.6318409442901611e-01</quality>
              <le>1.5272313356399536e-01</le></_></splits></_>
        <_>
          <depth>4</depth>
          <value>1.6666666915019354e-01</value>
          <splits>
            <_><var>2</var>
              <quality>1.0909091234207153e+00</quality>
              <le>4.7591257095336914e+00</le></_></splits></_>
        <_>
          <depth>5</depth>
          <value>9.0909093618392944e-02</value></_>
        <_>
          <depth>5</depth>
          <value>1.</value></_>
        <_>
          <depth>4</depth>
          <value>7.4626867895695699e-03</value>
          <splits>
            <_><var>8</var>
              <quality>8.4210532903671265e-01</quality>
              <le>1.4679683744907379e-01</le></_></splits></_>
        <_>
          <depth>5</depth>
          <value>0.</value></_>
        <_>
          <depth>5</depth>
          <value>2.1052632206364683e-01</value></_>
        <_>
          <depth>3</depth>
          <value>1.0526315789473684e-01</value>
          <splits>
            <_><var>8</var>
              <quality>2.</quality>
              <le>1.7065382003784180e-01</le></_></splits></_>
        <_>
          <depth>4</depth>
          <value>0.</value></_>
        <_>
          <depth>4</depth>
          <value>1.</value></_>
        <_>
          <depth>2</depth>
          <value>1.6000000000000000e-01</value>
          <splits>
            <_><var>5</var>
              <quality>8.4705886840820313e+00</quality>
              <le>-5.7769501209259033e-01</le></_></splits></_>
        <_>
          <depth>3</depth>
          <value>0.</value></_>
        <_>
          <depth>3</depth>
          <value>7.0588235294117652e-01</value>
          <splits>
            <_><var>1</var>
              <quality>12.</quality>
              <le>3.8842575550079346e+00</le></_></splits></_>
        <_>
          <depth>4</depth>
          <value>0.</value></_>
        <_>
          <depth>4</depth>
          <value>1.</value></_>
        <_>
          <depth>1</depth>
          <value>1.</value></_></nodes></_>
    <_>
      <nodes>
        <_>
          <depth>0</depth>
          <value>9.9458395158170426e-02</value>
          <splits>
            <_><var>2</var>
              <quality>5.3223224639892578e+01</quality>
              <le>5.9610500335693359e+00</le></_></splits></_>
        <_>
          <depth>1</depth>
          <value>1.0433827878223024e-02</value>
          <splits>
            <_><var>2</var>
              <quality>3.6527797579765320e-01</quality>
              <le>3.3871672153472900e+00</le></_></splits></_>
        <_>
          <depth>2</depth>
          <value>1.1538461882334489e-01</value>
          <splits>
            <_><var>5</var>
              <quality>9.0000003576278687e-01</quality>
              <le>-5.3743600845336914e-01</le></_></splits></_>
        <_>
          <depth>3</depth>
          <value>0.</value></_>
        <_>
          <depth>3</depth>
          <value>3.0000000894069673e-01</value></_>
        <_>
          <depth>2</depth>
          <value>5.7372348238802200e-03</value>
          <splits>
            <_><var>4</var>
              <quality>1.0101010650396347e-01</quality>
              <le>1.1993636935949326e-01</le></_></splits></_>
        <_>
          <depth>3</depth>
          <value>3.0303031206130981e-02</value>
          <splits>
            <_><var>6</var>
              <quality>6.8376070261001587e-01</quality>
              <le>3.7111139297485352e-01</le></_></splits></_>
        <_>
          <depth>4</depth>
          <value>3.3333334326744080e-01</value></_>
        <_>
          <depth>4</depth>
          <value>1.2820513202593876e-02</value>
          <splits>
            <_><var>5</var>
              <quality>1.3675214350223541e-01</quality>
              <le>-5.5163192749023438e-01</le></_></splits></_>
        <_>
          <depth>5</depth>
          <value>0.</value></_>
        <_>
          <depth>5</depth>
          <value>1.0256410562075101e-01</value></_>
        <_>
          <depth>3</depth>
          <value>0.</value></_>
        <_>
          <depth>1</depth>
          <value>8.7142857142857144e-01</value>
          <splits>
            <_><var>3</var>
              <quality>5.9363636016845703e+01</quality>
              <le>4.6715953946113586e-01</le></_></splits></_>
        <_>
          <depth>2</depth>
          <value>1.</value></_>
        <_>
          <depth>2</depth>
          <value>1.8181818181818182e-01</value>
          <splits>
            <_><var>0</var>
              <quality>2.</quality>
              <le>4.9145946502685547e+00</le></_></splits></_>
        <_>
          <depth>3</depth>
          <value>0.</value></_>
        <_>
          <depth>3</depth>
          <value>1.</value></_></nodes></_>
    <_>
      <nodes>
        <_>
          <depth>0</depth>
          <value>1.1275233889612173e-01</value>
          <splits>
            <_><var>3</var>
              <quality>4.8560428619384766e+01</quality>
              <le>3.1220525503158569e-01</le></_></splits></_>
        <_>
          <depth>1</depth>
          <value>6.8954248463406287e-01</value>
          <splits>
            <_><var>1</var>
              <quality>6.7317459106445313e+01</quality>
              <le>3.8214387893676758e+00</le></_></splits></_>
        <_>
          <depth>2</depth>
          <value>9.5238098076411662e-02</value>
          <splits>
            <_><var>4</var>
              <quality>7.4074077606201172e-01</quality>
              <le>3.3296096324920654e-01</le></_></splits></_>
        <_>
          <depth>3</depth>
          <value>2.2222222884496054e-01</value>
          <splits>
            <_><var>4</var>
              <quality>1.1111111640930176e+00</quality>
              <le>1.2444406747817993e-01</le></_></splits></_>
        <_>
          <depth>4</depth>
          <value>0.</value></_>
        <_>
          <depth>4</depth>
          <value>3.3333334326744080e-01</value></_>
        <_>
          <depth>3</depth>
          <value>0.</value></_>
        <_>
          <depth>2</depth>
          <value>1.</value></_>
        <_>
          <depth>1</depth>
          <value>1.0434782608695653e-02</value>
          <splits>
            <_><var>2</var>
              <quality>3.2070176601409912e+00</quality>
              <le>6.1317701339721680e+00</le></_></splits></_>
        <_>
          <depth>2</depth>
          <value>3.5087719298245615e-03</value>
          <splits>
            <_><var>8</var>
              <quality>7.2727270424365997e-02</quality>
              <le>1.3082753121852875e-01</le></_></splits></_>
        <_>
          <depth>3</depth>
          <value>0.</value></_>
        <_>
          <depth>3</depth>
          <value>3.6363636363636362e-02</value>
          <splits>
            <_><var>8</var>
              <quality>1.3333333730697632e+00</quality>
              <le>1.3219973444938660e-01</le></_></splits></_>
        <_>
          <depth>4</depth>
          <value>6.6666666666666663e-01</value></_>
        <_>
          <depth>4</depth>
          <value>0.</value></_>
        <_>
          <depth>2</depth>
          <value>8.0000000000000004e-01</value></_></nodes></_>
    <_>
      <nodes>
        <_>
          <depth>0</depth>
          <value>8.6164451288155655e-02</value>
          <splits>
            <_><var>5</var>
              <quality>4.1688079833984375e+01</quality>
              <le>-5.2238744497299194e-01</le></_></splits></_>
        <_>
          <depth>1</depth>
          <value>7.1389347167541400e-03</value>
          <splits>
            <_><var>5</var>
              <quality>6.0573476552963257e-01</quality>
              <le>-5.6891810894012451e-01</le></_></splits></_>
        <_>
          <depth>2</depth>
          <value>0.</value></_>
        <_>
          <depth>2</depth>
          <value>1.3978494751837947e-01</value>
          <splits>
            <_><var>1</var>
              <quality>2.3158435821533203e+00</quality>
              <le>4.0357036590576172e+00</le></_></splits></_>
        <_>
          <depth>3</depth>
          <value>4.9382717521102341e-02</value>
          <splits>
            <_><var>8</var>
              <quality>4.4444447755813599e-01</quality>
              <le>1.3513654470443726e-01</le></_></splits></_>
        <_>
          <depth>4</depth>
          <value>3.3333334326744080e-01</value></_>
        <_>
          <depth>4</depth>
          <value>0.</value></_>
        <_>
          <depth>3</depth>
          <value>7.5000000000000000e-01</value></_>
        <_>
          <depth>1</depth>
          <value>7.7142857355730876e-01</value>
          <splits>
            <_><var>0</var>
              <quality>4.4721248626708984e+01</quality>
              <le>4.1735076904296875e+00</le></_></splits></_>
        <_>
          <depth>2</depth>
          <value>3.3333333868246812e-01</value>
          <splits>
            <_><var>3</var>
              <quality>2.4949495792388916e+00</quality>
              <le>6.8428277969360352e-02</le></_></splits></_>
        <_>
          <depth>3</depth>
          <value>1.</value></_>
        <_>
          <depth>3</depth>
          <value>2.1212121844291687e-01</value>
          <splits>
            <_><var>2</var>
              <quality>7.7777785062789917e-01</quality>
              <le>4.0044598579406738e+00</le></_></splits></_>
        <_>
          <depth>4</depth>
          <value>3.3333334326744080e-01</value></_>
        <_>
          <depth>4</depth>
          <value>0.</value></_>
        <_>
          <depth>2</depth>
          <value>8.7134503063402680e-01</value>
          <splits>
            <_><var>1</var>
              <quality>4.7711112976074219e+01</quality>
              <le>3.9815030097961426e+00</le></_></splits></_>
        <_>
          <depth>3</depth>
          <value>2.6666667461395266e-01</value></_>
        <_>
          <depth>3</depth>
          <value>1.</value></_></nodes></_>
    <_>
      <nodes>
        <_>
          <depth>0</depth>
          <value>1.0044313172646076e-01</value>
          <splits>
            <_><var>2</var>
              <quality>4.4743453979492188e+01</quality>
              <le>5.9831094741821289e+00</le></_></splits></_>
        <_>
          <depth>1</depth>
          <value>2.5974026264308336e-02</value>
          <splits>
            <_><var>5</var>
              <quality>4.7407407760620117e+00</quality>
              <le>-5.6394040584564209e-01</le></_></splits></_>
        <_>
          <depth>2</depth>
          <value>0.</value></_>
        <_>
          <depth>2</depth>
          <value>2.9629629960766546e-01</value>
          <splits>
            <_><var>0</var>
              <quality>7.3342804908752441e+00</quality>
              <le>4.4105176925659180e+00</le></_></splits></_>
        <_>
          <depth>3</depth>
          <value>1.1458333581686020e-01</value>
          <splits>
            <_><var>4</var>
              <quality>9.2020207643508911e-01</quality>
              <le>1.6842083632946014e-01</le></_></splits></_>
        <_>
          <depth>4</depth>
          <value>3.0303031206130981e-02</value>
          <splits>
            <_><var>2</var>
              <quality>6.3492067158222198e-02</quality>
              <le>4.5506529808044434e+00</le></_></splits></_>
        <_>
          <depth>5</depth>
          <value>9.5238098076411662e-02</value></_>
        <_>
          <depth>5</depth>
          <value>0.</value></_>
        <_>
          <depth>4</depth>
          <value>3.0000000596046450e-01</value></_>
        <_>
          <depth>3</depth>
          <value>5.6060606512156397e-01</value>
          <splits>
            <_><var>4</var>
              <quality>1.0140741348266602e+01</quality>
              <le>8.0127328634262085e-02</le></_></splits></_>
        <_>
          <depth>4</depth>
          <value>0.</value></_>
        <_>
          <depth>4</depth>
          <value>8.2222222884496055e-01</value>
          <splits>
            <_><var>2</var>
              <quality>1.0851852416992188e+01</quality>
              <le>5.0971817970275879e+00</le></_></splits></_>
        <_>
          <depth>5</depth>
          <value>5.5555557211240136e-01</value></_>
        <_>
          <depth>5</depth>
          <value>1.</value></_>
        <_>
          <depth>1</depth>
          <value>8.5245901639344257e-01</value>
          <splits>
            <_><var>5</var>
              <quality>52.</quality>
              <le>-5.3493416309356689e-01</le></_></splits></_>
        <_>
          <depth>2</depth>
          <value>0.</value></_>
        <_>
          <depth>2</depth>
          <value>1.</value></_></nodes></_>
    <_>
      <nodes>
        <_>
          <depth>0</depth>
          <value>7.2378139111985137e-02</value>
          <splits>
            <_><var>2</var>
              <quality>3.8305652618408203e+01</quality>
              <le>5.9831094741821289e+00</le></_></splits></_>
        <_>
          <depth>1</depth>
          <value>1.2638230930195789e-02</value>
          <splits>
            <_><var>8</var>
              <quality>7.4418610334396362e-01</quality>
              <le>1.3141286373138428e-01</le></_></splits></_>
        <_>
          <depth>2</depth>
          <value>0.</value></_>
        <_>
          <depth>2</depth>
          <value>9.3023257893185288e-02</value>
          <splits>
            <_><var>0</var>
              <quality>2.8031747341156006e+00</quality>
              <le>4.3625407218933105e+00</le></_></splits></_>
        <_>
          <depth>3</depth>
          <value>1.9047619615282330e-02</value>
          <splits>
            <_><var>4</var>
              <quality>5.0793655216693878e-02</quality>
              <le>2.5456193089485168e-01</le></_></splits></_>
        <_>
          <depth>4</depth>
          <value>3.8095239230564661e-02</value>
          <splits>
            <_><var>6</var>
              <quality>3.3680558204650879e-01</quality>
              <le>3.3174288272857666e-01</le></_></splits></_>
        <_>
          <depth>5</depth>
          <value>3.3333334326744080e-01</value></_>
        <_>
          <depth>5</depth>
          <value>1.0416666977107525e-02</value></_>
        <_>
          <depth>4</depth>
          <value>0.</value></_>
        <_>
          <depth>3</depth>
          <value>4.1666667535901070e-01</value>
          <splits>
            <_><var>7</var>
              <quality>4.4444446563720703e+00</quality>
              <le>4.7037839889526367e-01</le></_></splits></_>
        <_>
          <depth>4</depth>
          <value>0.</value></_>
        <_>
          <depth>4</depth>
          <value>6.6666668057441714e-01</value></_>
        <_>
          <depth>1</depth>
          <value>9.3181818181818177e-01</value>
          <splits>
            <_><var>4</var>
              <quality>3.9799999237060547e+01</quality>
              <le>1.2095174193382263e-01</le></_></splits></_>
        <_>
          <depth>2</depth>
          <value>4.0000000000000002e-01</value></_>
        <_>
          <depth>2</depth>
          <value>1.</value></_></nodes></_>
    <_>
      <nodes>
        <_>
          <depth>0</depth>
          <value>7.6809453603259928e-02</value>
          <splits>
            <_><var>3</var>
              <quality>2.1515020370483398e+01</quality>
              <le>3.0869293212890625e-01</le></_></splits></_>
        <_>
          <depth>1</depth>
          <value>5.3603603670725952e-01</value>
          <splits>
            <_><var>2</var>
              <quality>3.7105007171630859e+01</quality>
              <le>5.2840471267700195e+00</le></_></splits></_>
        <_>
          <depth>2</depth>
          <value>4.7619049038205831e-02</value>
          <splits>
            <_><var>6</var>
              <quality>3.0864199995994568e-01</quality>
              <le>2.7506959438323975e-01</le></_></splits></_>
        <_>
          <depth>3</depth>
          <value>0.</value></_>
        <_>
          <depth>3</depth>
          <value>1.8518519070413378e-01</value></_>
        <_>
          <depth>2</depth>
          <value>9.7435897435897434e-01</value>
          <splits>
            <_><var>3</var>
              <quality>3.7142856597900391e+01</quality>
              <le>2.5276935100555420e-01</le></_></splits></_>
        <_>
          <depth>3</depth>
          <value>1.</value></_>
        <_>
          <depth>3</depth>
          <value>8.5714285714285710e-01</value></_>
        <_>
          <depth>1</depth>
          <value>2.0453289175903420e-02</value>
          <splits>
            <_><var>2</var>
              <quality>6.7688007354736328e+00</quality>
              <le>6.1317701339721680e+00</le></_></splits></_>
        <_>
          <depth>2</depth>
          <value>5.6401579916578060e-03</value>
          <splits>
            <_><var>5</var>
              <quality>3.8314178586006165e-01</quality>
              <le>-5.6863653659820557e-01</le></_></splits></_>
        <_>
          <depth>3</depth>
          <value>0.</value></_>
        <_>
          <depth>3</depth>
          <value>1.1494253010585390e-01</value>
          <splits>
            <_><var>5</var>
              <quality>1.1944444179534912e+00</quality>
              <le>-5.6774413585662842e-01</le></_></splits></_>
        <_>
          <depth>4</depth>
          <value>1.</value></_>
        <_>
          <depth>4</depth>
          <value>8.3333334752491536e-02</value>
          <splits>
            <_><var>2</var>
              <quality>3.9903384447097778e-01</quality>
              <le>4.3975143432617188e+00</le></_></splits></_>
        <_>
          <depth>5</depth>
          <value>2.6666667461395266e-01</value></_>
        <_>
          <depth>5</depth>
          <value>4.3478260869565216e-02</value></_>
        <_>
          <depth>2</depth>
          <value>7.5000000000000000e-01</value>
          <splits>
            <_><var>6</var>
              <quality>7.5000000000000000e+00</quality>
              <le>3.8930392265319824e-01</le></_></splits></_>
        <_>
          <depth>3</depth>
          <value>1.</value></_>
        <_>
          <depth>3</depth>
          <value>5.0000000000000000e-01</value></_></nodes></_>
    <_>
      <nodes>
        <_>
          <depth>0</depth>
          <value>1.1176760250391601e-01</value>
          <splits>
            <_><var>2</var>
              <quality>5.7679328918457031e+01</quality>
              <le>6.0519576072692871e+00</le></_></splits></_>
        <_>
          <depth>1</depth>
          <value>2.2404371959264160e-02</value>
          <splits>
            <_><var>2</var>
              <quality>1.2641036510467529e+00</quality>
              <le>5.7792549133300781e+00</le></_></splits></_>
        <_>
          <depth>2</depth>
          <value>1.4739229413522344e-02</value>
          <splits>
            <_><var>8</var>
              <quality>1.3149032592773438e+00</quality>
              <le>1.4625489711761475e-01</le></_></splits></_>
        <_>
          <depth>3</depth>
          <value>2.4375381591768982e-03</value>
          <splits>
            <_><var>2</var>
              <quality>3.0651342123746872e-02</quality>
              <le>4.3706979751586914e+00</le></_></splits></_>
        <_>
          <depth>4</depth>
          <value>2.2988506432237297e-02</value>
          <splits>
            <_><var>2</var>
              <quality>8.8888895511627197e-01</quality>
              <le>4.3623800277709961e+00</le></_></splits></_>
        <_>
          <depth>5</depth>
          <value>0.</value></_>
        <_>
          <depth>5</depth>
          <value>6.6666668653488159e-01</value></_>
        <_>
          <depth>4</depth>
          <value>0.</value></_>
        <_>
          <depth>3</depth>
          <value>1.7886179322149695e-01</value>
          <splits>
            <_><var>8</var>
              <quality>2.3663663864135742e+00</quality>
              <le>1.4820042252540588e-01</le></_></splits></_>
        <_>
          <depth>4</depth>
          <value>6.6666668653488159e-01</value></_>
        <_>
          <depth>4</depth>
          <value>1.2612612907950943e-01</value>
          <splits>
            <_><var>0</var>
              <quality>8.3760684728622437e-01</quality>
              <le>3.9528107643127441e+00</le></_></splits></_>
        <_>
          <depth>5</depth>
          <value>0.</value></_>
        <_>
          <depth>5</depth>
          <value>1.7948718369007111e-01</value></_>
        <_>
          <depth>2</depth>
          <value>2.2727272727272727e-01</value>
          <splits>
            <_><var>4</var>
              <quality>5.</quality>
              <le>1.8580898642539978e-01</le></_></splits></_>
        <_>
          <depth>3</depth>
          <value>0.</value></_>
        <_>
          <depth>3</depth>
          <value>1.</value></_>
        <_>
          <depth>1</depth>
          <value>9.2537313432835822e-01</value>
          <splits>
            <_><var>3</var>
              <quality>6.0571430206298828e+01</quality>
              <le>4.6665608882904053e-01</le></_></splits></_>
        <_>
          <depth>2</depth>
          <value>1.</value></_>
        <_>
          <depth>2</depth>
          <value>2.8571428571428570e-01</value></_></nodes></_>
    <_>
      <nodes>
        <_>
          <depth>0</depth>
          <value>9.8473658501837771e-02</value>
          <splits>
            <_><var>2</var>
              <quality>5.2375061035156250e+01</quality>
              <le>6.0519576072692871e+00</le></_></splits></_>
        <_>
          <depth>1</depth>
          <value>1.8847603886501085e-02</value>
          <splits>
            <_><var>2</var>
              <quality>1.9482554197311401e+00</quality>
              <le>5.7734642028808594e+00</le></_></splits></_>
        <_>
          <depth>2</depth>
          <value>9.4444446762402857e-03</value>
          <splits>
            <_><var>1</var>
              <quality>5.9410053491592407e-01</quality>
              <le>2.7896683216094971e+00</le></_></splits></_>
        <_>
          <depth>3</depth>
          <value>2.8571429422923494e-01</value></_>
        <_>
          <depth>3</depth>
          <value>6.1832491503196058e-03</value>
          <splits>
            <_><var>4</var>
              <quality>1.1111111938953400e-01</quality>
              <le>1.1983586847782135e-01</le></_></splits></_>
        <_>
          <depth>4</depth>
          <value>3.0303030959830796e-02</value>
          <splits>
            <_><var>4</var>
              <quality>9.3464058637619019e-01</quality>
              <le>1.1856209486722946e-01</le></_></splits></_>
        <_>
          <depth>5</depth>
          <value>1.9607843471174481e-02</value></_>
        <_>
          <depth>5</depth>
          <value>6.6666668653488159e-01</value></_>
        <_>
          <depth>4</depth>
          <value>0.</value></_>
        <_>
          <depth>2</depth>
          <value>3.1578947368421051e-01</value>
          <splits>
            <_><var>8</var>
              <quality>5.0714287757873535e+00</quality>
              <le>1.5077292919158936e-01</le></_></splits></_>
        <_>
          <depth>3</depth>
          <value>7.1428571428571425e-02</value>
          <splits>
            <_><var>2</var>
              <quality>1.</quality>
              <le>5.8720693588256836e+00</le></_></splits></_>
        <_>
          <depth>4</depth>
          <value>1.</value></_>
        <_>
          <depth>4</depth>
          <value>0.</value></_>
        <_>
          <depth>3</depth>
          <value>1.</value></_>
        <_>
          <depth>1</depth>
          <value>9.4827586206896552e-01</value>
          <splits>
            <_><var>4</var>
              <quality>5.3285713195800781e+01</quality>
              <le>1.2036093324422836e-01</le></_></splits></_>
        <_>
          <depth>2</depth>
          <value>5.7142857142857140e-01</value></_>
        <_>
          <depth>2</depth>
          <value>1.</value></_></nodes></_>
    <_>
      <nodes>
        <_>
          <depth>0</depth>
          <value>9.8966026852014680e-02</value>
          <splits>
            <_><var>2</var>
              <quality>5.0650054931640625e+01</quality>
              <le>5.9831094741821289e+00</le></_></splits></_>
        <_>
          <depth>1</depth>
          <value>1.9448946805208971e-02</value>
          <splits>
            <_><var>2</var>
              <quality>1.8603014945983887e+00</quality>
              <le>5.7734642028808594e+00</le></_></splits></_>
        <_>
          <depth>2</depth>
          <value>1.0050251555802235e-02</value>
          <splits>
            <_><var>5</var>
              <quality>1.1612904071807861e+00</quality>
              <le>-5.5178928375244141e-01</le></_></splits></_>
        <_>
          <depth>3</depth>
          <value>0.</value></_>
        <_>
          <depth>3</depth>
          <value>1.9354839286496561e-01</value>
          <splits>
            <_><var>8</var>
              <quality>2.4523811340332031e+00</quality>
              <le>1.5340504050254822e-01</le></_></splits></_>
        <_>
          <depth>4</depth>
          <value>5.7142858845846989e-01</value></_>
        <_>
          <depth>4</depth>
          <value>8.3333335816860199e-02</value>
          <splits>
            <_><var>2</var>
              <quality>3.0769231915473938e-01</quality>
              <le>3.8437309265136719e+00</le></_></splits></_>
        <_>
          <depth>5</depth>
          <value>1.5384615843112653e-01</value></_>
        <_>
          <depth>5</depth>
          <value>0.</value></_>
        <_>
          <depth>2</depth>
          <value>2.9999999999999999e-01</value>
          <splits>
            <_><var>0</var>
              <quality>5.0666666030883789e+00</quality>
              <le>4.4417467117309570e+00</le></_></splits></_>
        <_>
          <depth>3</depth>
          <value>6.6666666666666666e-02</value>
          <splits>
            <_><var>6</var>
              <quality>1.</quality>
              <le>2.5808671116828918e-01</le></_></splits></_>
        <_>
          <depth>4</depth>
          <value>1.</value></_>
        <_>
          <depth>4</depth>
          <value>0.</value></_>
        <_>
          <depth>3</depth>
          <value>1.</value></_>
        <_>
          <depth>1</depth>
          <value>9.1666666666666663e-01</value>
          <splits>
            <_><var>4</var>
              <quality>5.3125000000000000e+01</quality>
              <le>1.1225093901157379e-01</le></_></splits></_>
        <_>
          <depth>2</depth>
          <value>3.7500000000000000e-01</value></_>
        <_>
          <depth>2</depth>
          <value>1.</value></_></nodes></_>
    <_>
      <nodes>
        <_>
          <depth>0</depth>
          <value>1.0930576084107381e-01</value>
          <splits>
            <_><var>8</var>
              <quality>4.8605800628662109e+01</quality>
              <le>1.5947946906089783e-01</le></_></splits></_>
        <_>
          <depth>1</depth>
          <value>1.8487395008071131e-02</value>
          <splits>
            <_><var>5</var>
              <quality>3.2702703475952148e+00</quality>
              <le>-5.6891810894012451e-01</le></_></splits></_>
        <_>
          <depth>2</depth>
          <value>0.</value></_>
        <_>
          <depth>2</depth>
          <value>2.9729729810276545e-01</value>
          <splits>
            <_><var>2</var>
              <quality>8.3103446960449219e+00</quality>
              <le>5.9559803009033203e+00</le></_></splits></_>
        <_>
          <depth>3</depth>
          <value>1.0344827688973525e-01</value>
          <splits>
            <_><var>3</var>
              <quality>8.4166669845581055e-01</quality>
              <le>4.6745163202285767e-01</le></_></splits></_>
        <_>
          <depth>4</depth>
          <value>4.1666667908430099e-02</value>
          <splits>
            <_><var>2</var>
              <quality>2.5000002980232239e-01</quality>
              <le>4.7461547851562500e+00</le></_></splits></_>
        <_>
          <depth>5</depth>
          <value>2.5000000745058060e-01</value></_>
        <_>
          <depth>5</depth>
          <value>0.</value></_>
        <_>
          <depth>4</depth>
          <value>4.0000000000000002e-01</value></_>
        <_>
          <depth>3</depth>
          <value>1.</value></_>
        <_>
          <depth>1</depth>
          <value>7.6829268365371517e-01</value>
          <splits>
            <_><var>2</var>
              <quality>6.1190475463867188e+01</quality>
              <le>5.2607727050781250e+00</le></_></splits></_>
        <_>
          <depth>2</depth>
          <value>9.5238098076411662e-02</value>
          <splits>
            <_><var>4</var>
              <quality>4.4444447755813599e-01</quality>
              <le>1.8527889251708984e-01</le></_></splits></_>
        <_>
          <depth>3</depth>
          <value>0.</value></_>
        <_>
          <depth>3</depth>
          <value>2.2222222884496054e-01</value></_>
        <_>
          <depth>2</depth>
          <value>1.</value></_></nodes></_>
    <_>
      <nodes>
        <_>
          <depth>0</depth>
          <value>9.1580502435763086e-02</value>
          <splits>
            <_><var>2</var>
              <quality>4.6389949798583984e+01</quality>
              <le>5.9559803009033203e+00</le></_></splits></_>
        <_>
          <depth>1</depth>
          <value>1.3029316203601975e-02</value>
          <splits>
            <_><var>2</var>
              <quality>8.5964119434356689e-01</quality>
              <le>5.7972407341003418e+00</le></_></splits></_>
        <_>
          <depth>2</depth>
          <value>8.2918742106328561e-03</value>
          <splits>
            <_><var>2</var>
              <quality>3.0698081851005554e-01</quality>
              <le>3.8253455162048340e+00</le></_></splits></_>
        <_>
          <depth>3</depth>
          <value>1.0000000298023223e-01</value>
          <splits>
            <_><var>8</var>
              <quality>6.4285719394683838e-01</quality>
              <le>1.5408703684806824e-01</le></_></splits></_>
        <_>
          <depth>4</depth>
          <value>0.</value></_>
        <_>
          <depth>4</depth>
          <value>2.1428572067192622e-01</value>
          <splits>
            <_><var>2</var>
              <quality>9.0000003576278687e-01</quality>
              <le>2.9684758186340332e+00</le></_></splits></_>
        <_>
          <depth>5</depth>
          <value>0.</value></_>
        <_>
          <depth>5</depth>
          <value>3.0000000894069673e-01</value></_>
        <_>
          <depth>3</depth>
          <value>3.4904015001826260e-03</value>
          <splits>
            <_><var>4</var>
              <quality>4.2105264961719513e-02</quality>
              <le>1.1993636935949326e-01</le></_></splits></_>
        <_>
          <depth>4</depth>
          <value>2.1052632206364680e-02</value>
          <splits>
            <_><var>5</var>
              <quality>2.6666668057441711e-01</quality>
              <le>-5.1988852024078369e-01</le></_></splits></_>
        <_>
          <depth>5</depth>
          <value>0.</value></_>
        <_>
          <depth>5</depth>
          <value>1.3333333730697633e-01</value></_>
        <_>
          <depth>4</depth>
          <value>0.</value></_>
        <_>
          <depth>2</depth>
          <value>2.7272727272727271e-01</value>
          <splits>
            <_><var>6</var>
              <quality>3.</quality>
              <le>3.4069061279296875e-01</le></_></splits></_>
        <_>
          <depth>3</depth>
          <value>1.</value></_>
        <_>
          <depth>3</depth>
          <value>0.</value></_>
        <_>
          <depth>1</depth>
          <value>8.5714285714285710e-01</value>
          <splits>
            <_><var>4</var>
              <quality>5.1230770111083984e+01</quality>
              <le>1.2095174193382263e-01</le></_></splits></_>
        <_>
          <depth>2</depth>
          <value>3.0769230769230771e-01</value>
          <splits>
            <_><var>2</var>
              <quality>2.3636362552642822e+00</quality>
              <le>6.3924155235290527e+00</le></_></splits></_>
        <_>
          <depth>3</depth>
          <value>1.8181818181818182e-01</value>
          <splits>
            <_><var>4</var>
              <quality>1.1000000238418579e+00</quality>
              <le>6.4578108489513397e-02</le></_></splits></_>
        <_>
          <depth>4</depth>
          <value>1.</value></_>
        <_>
          <depth>4</depth>
          <value>1.0000000000000001e-01</value></_>
        <_>
          <depth>3</depth>
          <value>1.</value></_>
        <_>
          <depth>2</depth>
          <value>1.</value></_></nodes></_>
    <_>
      <nodes>
        <_>
          <depth>0</depth>
          <value>8.1733136664817393e-02</value>
          <splits>
            <_><var>2</var>
              <quality>4.0670299530029297e+01</quality>
              <le>5.9735379219055176e+00</le></_></splits></_>
        <_>
          <depth>1</depth>
          <value>1.6480595728997408e-02</value>
          <splits>
            <_><var>3</var>
              <quality>1.1905276775360107e+00</quality>
              <le>1.7253120243549347e-01</le></_></splits></_>
        <_>
          <depth>2</depth>
          <value>3.3333333730697634e-01</value></_>
        <_>
          <depth>2</depth>
          <value>1.1345219042158204e-02</value>
          <splits>
            <_><var>7</var>
              <quality>3.2702839374542236e-01</quality>
              <le>5.0504839420318604e-01</le></_></splits></_>
        <_>
          <depth>3</depth>
          <value>4.9019608865765965e-02</value>
          <splits>
            <_><var>4</var>
              <quality>2.1625206470489502e+00</quality>
              <le>1.9052040576934814e-01</le></_></splits></_>
        <_>
          <depth>4</depth>
          <value>3.4825871684657991e-02</value>
          <splits>
            <_><var>2</var>
              <quality>7.2592598199844360e-01</quality>
              <le>4.5551233291625977e+00</le></_></splits></_>
        <_>
          <depth>5</depth>
          <value>1.5555556019147238e-01</value></_>
        <_>
          <depth>5</depth>
          <value>0.</value></_>
        <_>
          <depth>4</depth>
          <value>1.</value></_>
        <_>
          <depth>3</depth>
          <value>6.9300071365372307e-04</value>
          <splits>
            <_><var>5</var>
              <quality>1.1111111938953400e-01</quality>
              <le>-4.9842444062232971e-01</le></_></splits></_>
        <_>
          <depth>4</depth>
          <value>0.</value></_>
        <_>
          <depth>4</depth>
          <value>3.3333334326744080e-01</value></_>
        <_>
          <depth>1</depth>
          <value>9.0000000000000002e-01</value>
          <splits>
            <_><var>8</var>
              <quality>4.4166667938232422e+01</quality>
              <le>1.3545772433280945e-01</le></_></splits></_>
        <_>
          <depth>2</depth>
          <value>1.6666666666666666e-01</value></_>
        <_>
          <depth>2</depth>
          <value>1.</value></_></nodes></_>
    <_>
      <nodes>
        <_>
          <depth>0</depth>
          <value>6.9423929363092954e-02</value>
          <splits>
            <_><var>2</var>
              <quality>2.9352399826049805e+01</quality>
              <le>5.8100805282592773e+00</le></_></splits></_>
        <_>
          <depth>1</depth>
          <value>1.2800000286102295e-02</value>
          <splits>
            <_><var>1</var>
              <quality>1.0928962230682373e+00</quality>
              <le>2.8464207649230957e+00</le></_></splits></_>
        <_>
          <depth>2</depth>
          <value>2.6666667461395266e-01</value>
          <splits>
            <_><var>2</var>
              <quality>1.3333333730697632e+00</quality>
              <le>2.7664642333984375e+00</le></_></splits></_>
        <_>
          <depth>3</depth>
          <value>0.</value></_>
        <_>
          <depth>3</depth>
          <value>3.3333334326744080e-01</value></_>
        <_>
          <depth>2</depth>
          <value>6.5573771468928604e-03</value>
          <splits>
            <_><var>8</var>
              <quality>6.9565218687057495e-01</quality>
              <le>1.5060159564018250e-01</le></_></splits></_>
        <_>
          <depth>3</depth>
          <value>0.</value></_>
        <_>
          <depth>3</depth>
          <value>1.7391304606976715e-01</value>
          <splits>
            <_><var>5</var>
              <quality>1.1428571939468384e+00</quality>
              <le>-5.0613850355148315e-01</le></_></splits></_>
        <_>
          <depth>4</depth>
          <value>0.</value></_>
        <_>
          <depth>4</depth>
          <value>2.8571428997176035e-01</value>
          <splits>
            <_><var>4</var>
              <quality>2.3333332538604736e+00</quality>
              <le>2.6633220911026001e-01</le></_></splits></_>
        <_>
          <depth>5</depth>
          <value>1.6666667163372040e-01</value></_>
        <_>
          <depth>5</depth>
          <value>1.</value></_>
        <_>
          <depth>1</depth>
          <value>7.5000000000000000e-01</value>
          <splits>
            <_><var>5</var>
              <quality>3.7266666412353516e+01</quality>
              <le>-5.1464557647705078e-01</le></_></splits></_>
        <_>
          <depth>2</depth>
          <value>1.3333333333333333e-01</value>
          <splits>
            <_><var>3</var>
              <quality>5.7142859697341919e-01</quality>
              <le>4.6715953946113586e-01</le></_></splits></_>
        <_>
          <depth>3</depth>
          <value>2.8571428571428570e-01</value></_>
        <_>
          <depth>3</depth>
          <value>0.</value></_>
        <_>
          <depth>2</depth>
          <value>1.</value></_></nodes></_>
    <_>
      <nodes>
        <_>
          <depth>0</depth>
          <value>1.1718365365152345e-01</value>
          <splits>
            <_><var>1</var>
              <quality>4.6779159545898438e+01</quality>
              <le>4.0936479568481445e+00</le></_></splits></_>
        <_>
          <depth>1</depth>
          <value>2.4459613518910198e-02</value>
          <splits>
            <_><var>3</var>
              <quality>1.8464403152465820e+00</quality>
              <le>3.1401515007019043e-01</le></_></splits></_>
        <_>
          <depth>2</depth>
          <value>2.1367521545825860e-01</value>
          <splits>
            <_><var>1</var>
              <quality>5.3129959106445313e+00</quality>
              <le>3.8214387893676758e+00</le></_></splits></_>
        <_>
          <depth>3</depth>
          <value>7.2916668839752674e-02</value>
          <splits>
            <_><var>5</var>
              <quality>5.4444450139999390e-01</quality>
              <le>-5.1428461074829102e-01</le></_></splits></_>
        <_>
          <depth>4</depth>
          <value>0.</value></_>
        <_>
          <depth>4</depth>
          <value>2.3333334028720856e-01</value></_>
        <_>
          <depth>3</depth>
          <value>8.5714285714285710e-01</value></_>
        <_>
          <depth>2</depth>
          <value>1.0968921607329598e-02</value>
          <splits>
            <_><var>5</var>
              <quality>9.4736844301223755e-01</quality>
              <le>-5.6394040584564209e-01</le></_></splits></_>
        <_>
          <depth>3</depth>
          <value>0.</value></_>
        <_>
          <depth>3</depth>
          <value>1.5789473997919182e-01</value>
          <splits>
            <_><var>8</var>
              <quality>2.4444444179534912e+00</quality>
              <le>1.3198706507682800e-01</le></_></splits></_>
        <_>
          <depth>4</depth>
          <value>1.</value></_>
        <_>
          <depth>4</depth>
          <value>1.1111111442248027e-01</value>
          <splits>
            <_><var>8</var>
              <quality>8.8888895511627197e-01</quality>
              <le>1.4620544016361237e-01</le></_></splits></_>
        <_>
          <depth>5</depth>
          <value>0.</value></_>
        <_>
          <depth>5</depth>
          <value>2.2222222884496054e-01</value></_>
        <_>
          <depth>1</depth>
          <value>7.1428571428571430e-01</value>
          <splits>
            <_><var>3</var>
              <quality>6.3142856597900391e+01</quality>
              <le>4.7691577672958374e-01</le></_></splits></_>
        <_>
          <depth>2</depth>
          <value>1.</value></_>
        <_>
          <depth>2</depth>
          <value>7.1428571428571425e-02</value>
          <splits>
            <_><var>0</var>
              <quality>2.</quality>
              <le>5.2842288017272949e+00</le></_></splits></_>
        <_>
          <depth>3</depth>
          <value>0.</value></_>
        <_>
          <depth>3</depth>
          <value>1.</value></_></nodes></_>
    <_>
      <nodes>
        <_>
          <depth>0</depth>
          <value>9.6011817147143658e-02</value>
          <splits>
            <_><var>2</var>
              <quality>4.6282947540283203e+01</quality>
              <le>5.9831094741821289e+00</le></_></splits></_>
        <_>
          <depth>1</depth>
          <value>1.9480519819182234e-02</value>
          <splits>
            <_><var>3</var>
              <quality>3.1321370601654053e+00</quality>
              <le>1.4023738913238049e-03</le></_></splits></_>
        <_>
          <depth>2</depth>
          <value>1.</value></_>
        <_>
          <depth>2</depth>
          <value>1.4681892673109717e-02</value>
          <splits>
            <_><var>3</var>
              <quality>7.0295733213424683e-01</quality>
              <le>1.7203041911125183e-01</le></_></splits></_>
        <_>
          <depth>3</depth>
          <value>2.1428571854318892e-01</value>
          <splits>
            <_><var>1</var>
              <quality>1.3076922893524170e+00</quality>
              <le>3.7341375350952148e+00</le></_></splits></_>
        <_>
          <depth>4</depth>
          <value>1.5384615843112653e-01</value>
          <splits>
            <_><var>1</var>
              <quality>6.6666668653488159e-01</quality>
              <le>2.9569323062896729e+00</le></_></splits></_>
        <_>
          <depth>5</depth>
          <value>3.3333334326744080e-01</value></_>
        <_>
          <depth>5</depth>
          <value>0.</value></_>
        <_>
          <depth>4</depth>
          <value>1.</value></_>
        <_>
          <depth>3</depth>
          <value>1.0016694739585328e-02</value>
          <splits>
            <_><var>5</var>
              <quality>9.0000003576278687e-01</quality>
              <le>-5.5163192749023438e-01</le></_></splits></_>
        <_>
          <depth>4</depth>
          <value>0.</value></_>
        <_>
          <depth>4</depth>
          <value>1.5000000372529029e-01</value>
          <splits>
            <_><var>8</var>
              <quality>1.7657659053802490e+00</quality>
              <le>1.3586738705635071e-01</le></_></splits></_>
        <_>
          <depth>5</depth>
          <value>6.6666668653488159e-01</value></_>
        <_>
          <depth>5</depth>
          <value>1.0810811052451262e-01</value></_>
        <_>
          <depth>1</depth>
          <value>8.6885245901639341e-01</value>
          <splits>
            <_><var>1</var>
              <quality>4.8764705657958984e+01</quality>
              <le>4.1762456893920898e+00</le></_></splits></_>
        <_>
          <depth>2</depth>
          <value>5.2941176470588236e-01</value>
          <splits>
            <_><var>3</var>
              <quality>9.</quality>
              <le>4.6665608882904053e-01</le></_></splits></_>
        <_>
          <depth>3</depth>
          <value>1.</value></_>
        <_>
          <depth>3</depth>
          <value>0.</value></_>
        <_>
          <depth>2</depth>
          <value>1.</value></_></nodes></_>
    <_>
      <nodes>
        <_>
          <depth>0</depth>
          <value>9.2565239048074580e-02</value>
          <splits>
            <_><var>2</var>
              <quality>4.5493846893310547e+01</quality>
              <le>6.2175350189208984e+00</le></_></splits></_>
        <_>
          <depth>1</depth>
          <value>2.7953586765105211e-02</value>
          <splits>
            <_><var>5</var>
              <quality>5.2018518447875977e+00</quality>
              <le>-5.6891810894012451e-01</le></_></splits></_>
        <_>
          <depth>2</depth>
          <value>0.</value></_>
        <_>
          <depth>2</depth>
          <value>2.9444444725910823e-01</value>
          <splits>
            <_><var>5</var>
              <quality>7.9171719551086426e+00</quality>
              <le>-5.6276941299438477e-01</le></_></splits></_>
        <_>
          <depth>3</depth>
          <value>1.</value></_>
        <_>
          <depth>3</depth>
          <value>2.3030303337357261e-01</value>
          <splits>
            <_><var>4</var>
              <quality>5.2031745910644531e+00</quality>
              <le>1.8917341530323029e-01</le></_></splits></_>
        <_>
          <depth>4</depth>
          <value>7.6190478461129321e-02</value>
          <splits>
            <_><var>7</var>
              <quality>3.0917876958847046e-01</quality>
              <le>4.6382755041122437e-01</le></_></splits></_>
        <_>
          <depth>5</depth>
          <value>0.</value></_>
        <_>
          <depth>5</depth>
          <value>1.1594203244084897e-01</value></_>
        <_>
          <depth>4</depth>
          <value>5.0000000447034831e-01</value>
          <splits>
            <_><var>2</var>
              <quality>6.8750000000000000e+00</quality>
              <le>4.6632575988769531e+00</le></_></splits></_>
        <_>
          <depth>5</depth>
          <value>2.5000000745058060e-01</value></_>
        <_>
          <depth>5</depth>
          <value>8.7500000000000000e-01</value></_>
        <_>
          <depth>1</depth>
          <value>1.</value></_></nodes></_>
    <_>
      <nodes>
        <_>
          <depth>0</depth>
          <value>9.4534712272697566e-02</value>
          <splits>
            <_><var>6</var>
              <quality>1.2497081756591797e+01</quality>
              <le>2.8231960535049438e-01</le></_></splits></_>
        <_>
          <depth>1</depth>
          <value>3.4865900394560279e-01</value>
          <splits>
            <_><var>2</var>
              <quality>3.0001949310302734e+01</quality>
              <le>5.1498284339904785e+00</le></_></splits></_>
        <_>
          <depth>2</depth>
          <value>5.8479533906568562e-03</value>
          <splits>
            <_><var>7</var>
              <quality>1.1111111938953400e-01</quality>
              <le>5.5301916599273682e-01</le></_></splits></_>
        <_>
          <depth>3</depth>
          <value>3.3333334326744080e-01</value></_>
        <_>
          <depth>3</depth>
          <value>0.</value></_>
        <_>
          <depth>2</depth>
          <value>1.</value></_>
        <_>
          <depth>1</depth>
          <value>5.7062147229404774e-02</value>
          <splits>
            <_><var>8</var>
              <quality>1.5375555992126465e+01</quality>
              <le>1.4621321856975555e-01</le></_></splits></_>
        <_>
          <depth>2</depth>
          <value>1.1111111111111112e-02</value>
          <splits>
            <_><var>5</var>
              <quality>3.0167598724365234e+00</quality>
              <le>-5.2238744497299194e-01</le></_></splits></_>
        <_>
          <depth>3</depth>
          <value>5.5865921787709499e-03</value>
          <splits>
            <_><var>3</var>
              <quality>7.9076752066612244e-02</quality>
              <le>3.8303977251052856e-01</le></_></splits></_>
        <_>
          <depth>4</depth>
          <value>7.1428571428571425e-02</value>
          <splits>
            <_><var>4</var>
              <quality>1.</quality>
              <le>1.7065159976482391e-01</le></_></splits></_>
        <_>
          <depth>5</depth>
          <value>1.</value></_>
        <_>
          <depth>5</depth>
          <value>0.</value></_>
        <_>
          <depth>4</depth>
          <value>3.8240917782026767e-03</value>
          <splits>
            <_><var>2</var>
              <quality>8.5290282964706421e-02</quality>
              <le>5.9610500335693359e+00</le></_></splits></_>
        <_>
          <depth>5</depth>
          <value>1.9569471624266144e-03</value></_>
        <_>
          <depth>5</depth>
          <value>8.3333333333333329e-02</value></_>
        <_>
          <depth>3</depth>
          <value>1.</value></_>
        <_>
          <depth>2</depth>
          <value>5.5333333730697631e-01</value>
          <splits>
            <_><var>2</var>
              <quality>2.2532567977905273e+01</quality>
              <le>5.7863039970397949e+00</le></_></splits></_>
        <_>
          <depth>3</depth>
          <value>2.2988506432237296e-01</value>
          <splits>
            <_><var>5</var>
              <quality>2.9747476577758789e+00</quality>
              <le>-4.7309046983718872e-01</le></_></splits></_>
        <_>
          <depth>4</depth>
          <value>5.1515153050422668e-01</value>
          <splits>
            <_><var>7</var>
              <quality>3.2111113071441650e+00</quality>
              <le>4.5969697833061218e-01</le></_></splits></_>
        <_>
          <depth>5</depth>
          <value>0.</value></_>
        <_>
          <depth>5</depth>
          <value>5.6666668355464933e-01</value></_>
        <_>
          <depth>4</depth>
          <value>5.5555557211240135e-02</value>
          <splits>
            <_><var>4</var>
              <quality>3.3333334326744080e-01</quality>
              <le>1.3363070785999298e-01</le></_></splits></_>
        <_>
          <depth>5</depth>
          <value>0.</value></_>
        <_>
          <depth>5</depth>
          <value>3.3333334326744080e-01</value></_>
        <_>
          <depth>3</depth>
          <value>1.</value></_></nodes></_>
    <_>
      <nodes>
        <_>
          <depth>0</depth>
          <value>8.6656819418226769e-02</value>
          <splits>
            <_><var>3</var>
              <quality>3.1541885375976563e+01</quality>
              <le>2.0399095118045807e-01</le></_></splits></_>
        <_>
          <depth>1</depth>
          <value>8.1884058014206262e-01</value>
          <splits>
            <_><var>7</var>
              <quality>3.5469444274902344e+01</quality>
              <le>6.0659921169281006e-01</le></_></splits></_>
        <_>
          <depth>2</depth>
          <value>9.4166666716337200e-01</value>
          <splits>
            <_><var>1</var>
              <quality>3.7148147583007813e+01</quality>
              <le>3.6730189323425293e+00</le></_></splits></_>
        <_>
          <depth>3</depth>
          <value>2.2222222884496054e-01</value></_>
        <_>
          <depth>3</depth>
          <value>1.</value></_>
        <_>
          <depth>2</depth>
          <value>0.</value></_>
        <_>
          <depth>1</depth>
          <value>3.3280507225997853e-02</value>
          <splits>
            <_><var>2</var>
              <quality>1.2130856513977051e+01</quality>
              <le>6.2692689895629883e+00</le></_></splits></_>
        <_>
          <depth>2</depth>
          <value>1.4539580063981655e-02</value>
          <splits>
            <_><var>2</var>
              <quality>1.9494795799255371e+00</quality>
              <le>5.9559803009033203e+00</le></_></splits></_>
        <_>
          <depth>3</depth>
          <value>6.6006601643641000e-03</value>
          <splits>
            <_><var>3</var>
              <quality>1.6358025372028351e-01</quality>
              <le>2.5845605134963989e-01</le></_></splits></_>
        <_>
          <depth>4</depth>
          <value>9.2592593696382314e-02</value>
          <splits>
            <_><var>4</var>
              <quality>9.2592597007751465e-01</quality>
              <le>3.2425472140312195e-01</le></_></splits></_>
        <_>
          <depth>5</depth>
          <value>5.5555556217829383e-01</value></_>
        <_>
          <depth>5</depth>
          <value>0.</value></_>
        <_>
          <depth>4</depth>
          <value>3.9682540358329304e-03</value>
          <splits>
            <_><var>8</var>
              <quality>1.2026372551918030e-01</quality>
              <le>1.4839485287666321e-01</le></_></splits></_>
        <_>
          <depth>5</depth>
          <value>1.7452006980802793e-03</value></_>
        <_>
          <depth>5</depth>
          <value>8.8888891537984210e-02</value></_>
        <_>
          <depth>3</depth>
          <value>3.8461538461538464e-01</value>
          <splits>
            <_><var>4</var>
              <quality>5.</quality>
              <le>9.9922701716423035e-02</le></_></splits></_>
        <_>
          <depth>4</depth>
          <value>0.</value></_>
        <_>
          <depth>4</depth>
          <value>1.</value></_>
        <_>
          <depth>2</depth>
          <value>1.</value></_></nodes></_>
    <_>
      <nodes>
        <_>
          <depth>0</depth>
          <value>1.0487444626175671e-01</value>
          <splits>
            <_><var>2</var>
              <quality>5.3516620635986328e+01</quality>
              <le>6.1273455619812012e+00</le></_></splits></_>
        <_>
          <depth>1</depth>
          <value>2.4271844853089464e-02</value>
          <splits>
            <_><var>5</var>
              <quality>4.8799433708190918e+00</quality>
              <le>-5.1344645023345947e-01</le></_></splits></_>
        <_>
          <depth>2</depth>
          <value>5.6497175814741746e-03</value>
          <splits>
            <_><var>5</var>
              <quality>5.0505053997039795e-01</quality>
              <le>-5.6891810894012451e-01</le></_></splits></_>
        <_>
          <depth>3</depth>
          <value>0.</value></_>
        <_>
          <depth>3</depth>
          <value>1.5151515332135287e-01</value>
          <splits>
            <_><var>1</var>
              <quality>2.0888888835906982e+00</quality>
              <le>4.0982542037963867e+00</le></_></splits></_>
        <_>
          <depth>4</depth>
          <value>6.6666668653488165e-02</value>
          <splits>
            <_><var>0</var>
              <quality>5.9259265661239624e-01</quality>
              <le>4.4690475463867188e+00</le></_></splits></_>
        <_>
          <depth>5</depth>
          <value>0.</value></_>
        <_>
          <depth>5</depth>
          <value>4.4444445768992108e-01</value></_>
        <_>
          <depth>4</depth>
          <value>1.</value></_>
        <_>
          <depth>2</depth>
          <value>4.1666666950498310e-01</value>
          <splits>
            <_><var>2</var>
              <quality>7.7819371223449707e+00</quality>
              <le>5.2607727050781250e+00</le></_></splits></_>
        <_>
          <depth>3</depth>
          <value>1.5686274977291331e-01</value>
          <splits>
            <_><var>4</var>
              <quality>8.8888895511627197e-01</quality>
              <le>9.9443316459655762e-02</le></_></splits></_>
        <_>
          <depth>4</depth>
          <value>0.</value></_>
        <_>
          <depth>4</depth>
          <value>3.3333334326744080e-01</value></_>
        <_>
          <depth>3</depth>
          <value>8.1818181818181823e-01</value>
          <splits>
            <_><var>3</var>
              <quality>9.</quality>
              <le>3.7045443058013916e-01</le></_></splits></_>
        <_>
          <depth>4</depth>
          <value>1.</value></_>
        <_>
          <depth>4</depth>
          <value>0.</value></_>
        <_>
          <depth>1</depth>
          <value>9.4915254237288138e-01</value>
          <splits>
            <_><var>3</var>
              <quality>56.</quality>
              <le>4.2903125286102295e-01</le></_></splits></_>
        <_>
          <depth>2</depth>
          <value>1.</value></_>
        <_>
          <depth>2</depth>
          <value>0.</value></_></nodes></_>
    <_>
      <nodes>
        <_>
          <depth>0</depth>
          <value>1.0241260490706260e-01</value>
          <splits>
            <_><var>0</var>
              <quality>1.7427417755126953e+01</quality>
              <le>4.6078982353210449e+00</le></_></splits></_>
        <_>
          <depth>1</depth>
          <value>5.2208835666233001e-02</value>
          <splits>
            <_><var>5</var>
              <quality>2.0003353118896484e+01</quality>
              <le>-5.1988852024078369e-01</le></_></splits></_>
        <_>
          <depth>2</depth>
          <value>1.2414649656143047e-03</value>
          <splits>
            <_><var>7</var>
              <quality>2.3391814902424812e-02</quality>
              <le>4.7425535321235657e-01</le></_></splits></_>
        <_>
          <depth>3</depth>
          <value>3.5087720343941135e-02</value>
          <splits>
            <_><var>1</var>
              <quality>2.2222223877906799e-01</quality>
              <le>3.4463791847229004e+00</le></_></splits></_>
        <_>
          <depth>4</depth>
          <value>3.3333334326744080e-01</value></_>
        <_>
          <depth>4</depth>
          <value>0.</value></_>
        <_>
          <depth>3</depth>
          <value>0.</value></_>
        <_>
          <depth>2</depth>
          <value>6.7424242808060209e-01</value>
          <splits>
            <_><var>4</var>
              <quality>2.3223876953125000e+01</quality>
              <le>1.8630975484848022e-01</le></_></splits></_>
        <_>
          <depth>3</depth>
          <value>2.5641026405187756e-01</value>
          <splits>
            <_><var>5</var>
              <quality>1.3042328357696533e+00</quality>
              <le>-4.7355026006698608e-01</le></_></splits></_>
        <_>
          <depth>4</depth>
          <value>4.2857144134385244e-01</value></_>
        <_>
          <depth>4</depth>
          <value>5.5555557211240135e-02</value></_>
        <_>
          <depth>3</depth>
          <value>8.4946236783458340e-01</value>
          <splits>
            <_><var>6</var>
              <quality>2.2812866210937500e+01</quality>
              <le>2.5325548648834229e-01</le></_></splits></_>
        <_>
          <depth>4</depth>
          <value>1.</value></_>
        <_>
          <depth>4</depth>
          <value>7.5438596857221507e-01</value>
          <splits>
            <_><var>1</var>
              <quality>1.2777777671813965e+01</quality>
              <le>3.3374066352844238e+00</le></_></splits></_>
        <_>
          <depth>5</depth>
          <value>3.3333334326744080e-01</value></_>
        <_>
          <depth>5</depth>
          <value>1.</value></_>
        <_>
          <depth>1</depth>
          <value>4.0625000000000000e-01</value>
          <splits>
            <_><var>2</var>
              <quality>39.</quality>
              <le>5.6673030853271484e+00</le></_></splits></_>
        <_>
          <depth>2</depth>
          <value>0.</value></_>
        <_>
          <depth>2</depth>
          <value>1.</value></_></nodes></_>
    <_>
      <nodes>
        <_>
          <depth>0</depth>
          <value>9.0103397649359318e-02</value>
          <splits>
            <_><var>3</var>
              <quality>2.7973194122314453e+01</quality>
              <le>3.1220525503158569e-01</le></_></splits></_>
        <_>
          <depth>1</depth>
          <value>5.8436214114412854e-01</value>
          <splits>
            <_><var>1</var>
              <quality>4.4300300598144531e+01</quality>
              <le>3.9772610664367676e+00</le></_></splits></_>
        <_>
          <depth>2</depth>
          <value>9.0090092774984004e-02</value>
          <splits>
            <_><var>1</var>
              <quality>9.2592597007751465e-01</quality>
              <le>2.8692464828491211e+00</le></_></splits></_>
        <_>
          <depth>3</depth>
          <value>2.7777778605620068e-01</value>
          <splits>
            <_><var>2</var>
              <quality>1.1111111640930176e+00</quality>
              <le>2.6432437896728516e+00</le></_></splits></_>
        <_>
          <depth>4</depth>
          <value>0.</value></_>
        <_>
          <depth>4</depth>
          <value>3.3333334326744080e-01</value></_>
        <_>
          <depth>3</depth>
          <value>0.</value></_>
        <_>
          <depth>2</depth>
          <value>1.</value></_>
        <_>
          <depth>1</depth>
          <value>2.2930648952922565e-02</value>
          <splits>
            <_><var>2</var>
              <quality>8.0546112060546875e+00</quality>
              <le>6.2076768875122070e+00</le></_></splits></_>
        <_>
          <depth>2</depth>
          <value>9.6371883944589270e-03</value>
          <splits>
            <_><var>5</var>
              <quality>7.6455026865005493e-01</quality>
              <le>-5.6891810894012451e-01</le></_></splits></_>
        <_>
          <depth>3</depth>
          <value>0.</value></_>
        <_>
          <depth>3</depth>
          <value>1.3492063752242497e-01</value>
          <splits>
            <_><var>3</var>
              <quality>1.5490196943283081e+00</quality>
              <le>4.5946353673934937e-01</le></_></splits></_>
        <_>
          <depth>4</depth>
          <value>6.8627453025649571e-02</value>
          <splits>
            <_><var>1</var>
              <quality>4.1880345344543457e-01</quality>
              <le>3.5126318931579590e+00</le></_></splits></_>
        <_>
          <depth>5</depth>
          <value>1.7948718483631426e-01</value></_>
        <_>
          <depth>5</depth>
          <value>0.</value></_>
        <_>
          <depth>4</depth>
          <value>4.1666667163372040e-01</value></_>
        <_>
          <depth>2</depth>
          <value>1.</value></_></nodes></_>
    <_>
      <nodes>
        <_>
          <depth>0</depth>
          <value>1.0635155122424510e-01</value>
          <splits>
            <_><var>8</var>
              <quality>4.3258842468261719e+01</quality>
              <le>1.5856988728046417e-01</le></_></splits></_>
        <_>
          <depth>1</depth>
          <value>1.4840182835516864e-02</value>
          <splits>
            <_><var>0</var>
              <quality>2.0763649940490723e+00</quality>
              <le>5.2842288017272949e+00</le></_></splits></_>
        <_>
          <depth>2</depth>
          <value>1.1454753910553004e-02</value>
          <splits>
            <_><var>5</var>
              <quality>1.1695907115936279e+00</quality>
              <le>-5.6895625591278076e-01</le></_></splits></_>
        <_>
          <depth>3</depth>
          <value>0.</value></_>
        <_>
          <depth>3</depth>
          <value>1.7543859936689077e-01</value>
          <splits>
            <_><var>0</var>
              <quality>2.6454248428344727e+00</quality>
              <le>4.5411367416381836e+00</le></_></splits></_>
        <_>
          <depth>4</depth>
          <value>1.0784314046887790e-01</value>
          <splits>
            <_><var>1</var>
              <quality>1.3444445133209229e+00</quality>
              <le>3.4806046485900879e+00</le></_></splits></_>
        <_>
          <depth>5</depth>
          <value>3.6666667759418486e-01</value></_>
        <_>
          <depth>5</depth>
          <value>0.</value></_>
        <_>
          <depth>4</depth>
          <value>7.5000000000000000e-01</value></_>
        <_>
          <depth>2</depth>
          <value>1.</value></_>
        <_>
          <depth>1</depth>
          <value>6.8100358497711921e-01</value>
          <splits>
            <_><var>1</var>
              <quality>6.0191757202148438e+01</quality>
              <le>3.7825589179992676e+00</le></_></splits></_>
        <_>
          <depth>2</depth>
          <value>7.5268819447486632e-02</value>
          <splits>
            <_><var>1</var>
              <quality>5.4444450139999390e-01</quality>
              <le>2.9801831245422363e+00</le></_></splits></_>
        <_>
          <depth>3</depth>
          <value>2.3333334028720856e-01</value></_>
        <_>
          <depth>3</depth>
          <value>0.</value></_>
        <_>
          <depth>2</depth>
          <value>9.8387096774193550e-01</value>
          <splits>
            <_><var>1</var>
              <quality>6.0333332061767578e+01</quality>
              <le>3.9772610664367676e+00</le></_></splits></_>
        <_>
          <depth>3</depth>
          <value>6.6666666666666663e-01</value></_>
        <_>
          <depth>3</depth>
          <value>1.</value></_></nodes></_>
    <_>
      <nodes>
        <_>
          <depth>0</depth>
          <value>8.9118661037047825e-02</value>
          <splits>
            <_><var>5</var>
              <quality>3.7800487518310547e+01</quality>
              <le>-5.1464557647705078e-01</le></_></splits></_>
        <_>
          <depth>1</depth>
          <value>6.1936937272548676e-03</value>
          <splits>
            <_><var>5</var>
              <quality>8.4027779102325439e-01</quality>
              <le>-5.6891810894012451e-01</le></_></splits></_>
        <_>
          <depth>2</depth>
          <value>0.</value></_>
        <_>
          <depth>2</depth>
          <value>2.2916666790843010e-01</value>
          <splits>
            <_><var>3</var>
              <quality>1.8404040336608887e+00</quality>
              <le>4.6543675661087036e-01</le></_></splits></_>
        <_>
          <depth>3</depth>
          <value>6.0606062412261963e-02</value>
          <splits>
            <_><var>1</var>
              <quality>2.2222223877906799e-01</quality>
              <le>3.5083260536193848e+00</le></_></splits></_>
        <_>
          <depth>4</depth>
          <value>3.3333334326744080e-01</value></_>
        <_>
          <depth>4</depth>
          <value>0.</value></_>
        <_>
          <depth>3</depth>
          <value>5.9999999999999998e-01</value></_>
        <_>
          <depth>1</depth>
          <value>6.6666666865348811e-01</value>
          <splits>
            <_><var>3</var>
              <quality>4.2480648040771484e+01</quality>
              <le>3.1701698899269104e-01</le></_></splits></_>
        <_>
          <depth>2</depth>
          <value>8.1420765206462042e-01</value>
          <splits>
            <_><var>1</var>
              <quality>4.6896297454833984e+01</quality>
              <le>3.7060832977294922e+00</le></_></splits></_>
        <_>
          <depth>3</depth>
          <value>2.4444445172945659e-01</value>
          <splits>
            <_><var>6</var>
              <quality>1.2222223281860352e+00</quality>
              <le>3.4574878215789795e-01</le></_></splits></_>
        <_>
          <depth>4</depth>
          <value>3.3333334326744080e-01</value></_>
        <_>
          <depth>4</depth>
          <value>0.</value></_>
        <_>
          <depth>3</depth>
          <value>1.</value></_>
        <_>
          <depth>2</depth>
          <value>2.9166666915019351e-01</value>
          <splits>
            <_><var>2</var>
              <quality>5.2105264663696289e+00</quality>
              <le>6.0073447227478027e+00</le></_></splits></_>
        <_>
          <depth>3</depth>
          <value>1.0526316103182341e-01</value>
          <splits>
            <_><var>7</var>
              <quality>6.6666668653488159e-01</quality>
              <le>4.7516146302223206e-01</le></_></splits></_>
        <_>
          <depth>4</depth>
          <value>0.</value></_>
        <_>
          <depth>4</depth>
          <value>3.3333334326744080e-01</value></_>
        <_>
          <depth>3</depth>
          <value>1.</value></_></nodes></_>
    <_>
      <nodes>
        <_>
          <depth>0</depth>
          <value>8.3210241451221162e-02</value>
          <splits>
            <_><var>2</var>
              <quality>4.0303688049316406e+01</quality>
              <le>5.9610500335693359e+00</le></_></splits></_>
        <_>
          <depth>1</depth>
          <value>1.5005359264432042e-02</value>
          <splits>
            <_><var>7</var>
              <quality>4.4672366976737976e-01</quality>
              <le>5.2155005931854248e-01</le></_></splits></_>
        <_>
          <depth>2</depth>
          <value>4.7863248525521693e-02</value>
          <splits>
            <_><var>8</var>
              <quality>2.0981554985046387e+00</quality>
              <le>1.7828987538814545e-01</le></_></splits></_>
        <_>
          <depth>3</depth>
          <value>2.5362319272497425e-02</value>
          <splits>
            <_><var>8</var>
              <quality>4.7342997789382935e-01</quality>
              <le>1.3141286373138428e-01</le></_></splits></_>
        <_>
          <depth>4</depth>
          <value>0.</value></_>
        <_>
          <depth>4</depth>
          <value>1.0144927708998970e-01</value>
          <splits>
            <_><var>3</var>
              <quality>1.1693122386932373e+00</quality>
              <le>4.6187752485275269e-01</le></_></splits></_>
        <_>
          <depth>5</depth>
          <value>6.3492065384274432e-02</value></_>
        <_>
          <depth>5</depth>
          <value>5.0000000000000000e-01</value></_>
        <_>
          <depth>3</depth>
          <value>4.2424242875792761e-01</value>
          <splits>
            <_><var>2</var>
              <quality>3.3472223281860352e+00</quality>
              <le>4.9937925338745117e+00</le></_></splits></_>
        <_>
          <depth>4</depth>
          <value>2.0833333954215050e-01</value></_>
        <_>
          <depth>4</depth>
          <value>1.</value></_>
        <_>
          <depth>2</depth>
          <value>0.</value></_>
        <_>
          <depth>1</depth>
          <value>8.5454545454545450e-01</value>
          <splits>
            <_><var>8</var>
              <quality>47.</quality>
              <le>1.2938237190246582e-01</le></_></splits></_>
        <_>
          <depth>2</depth>
          <value>0.</value></_>
        <_>
          <depth>2</depth>
          <value>1.</value></_></nodes></_>
    <_>
      <nodes>
        <_>
          <depth>0</depth>
          <value>9.7488921933547426e-02</value>
          <splits>
            <_><var>1</var>
              <quality>4.1982704162597656e+01</quality>
              <le>4.4403910636901855e+00</le></_></splits></_>
        <_>
          <depth>1</depth>
          <value>3.9308176334923915e-02</value>
          <splits>
            <_><var>2</var>
              <quality>1.0041946411132813e+01</quality>
              <le>5.7734642028808594e+00</le></_></splits></_>
        <_>
          <depth>2</depth>
          <value>8.3892619949859255e-03</value>
          <splits>
            <_><var>8</var>
              <quality>5.0830262899398804e-01</quality>
              <le>1.4679683744907379e-01</le></_></splits></_>
        <_>
          <depth>3</depth>
          <value>1.1926058793110582e-03</value>
          <splits>
            <_><var>5</var>
              <quality>8.8888891041278839e-02</quality>
              <le>-5.5305039882659912e-01</le></_></splits></_>
        <_>
          <depth>4</depth>
          <value>0.</value></_>
        <_>
          <depth>4</depth>
          <value>1.3333333730697633e-01</value></_>
        <_>
          <depth>3</depth>
          <value>1.1711712060747920e-01</value>
          <splits>
            <_><var>4</var>
              <quality>7.8240746259689331e-01</quality>
              <le>1.0177129507064819e-01</le></_></splits></_>
        <_>
          <depth>4</depth>
          <value>0.</value></_>
        <_>
          <depth>4</depth>
          <value>1.8055556093653044e-01</value>
          <splits>
            <_><var>6</var>
              <quality>1.3412699699401855e+00</quality>
              <le>2.5439307093620300e-01</le></_></splits></_>
        <_>
          <depth>5</depth>
          <value>0.</value></_>
        <_>
          <depth>5</depth>
          <value>3.0952381874833790e-01</value></_>
        <_>
          <depth>2</depth>
          <value>5.0000000000000000e-01</value>
          <splits>
            <_><var>3</var>
              <quality>1.3793103218078613e+01</quality>
              <le>4.7691577672958374e-01</le></_></splits></_>
        <_>
          <depth>3</depth>
          <value>6.8965517241379315e-01</value>
          <splits>
            <_><var>5</var>
              <quality>1.6062500000000000e+01</quality>
              <le>-5.1464557647705078e-01</le></_></splits></_>
        <_>
          <depth>4</depth>
          <value>4.3750000000000000e-01</value>
          <splits>
            <_><var>6</var>
              <quality>7.</quality>
              <le>3.8184988498687744e-01</le></_></splits></_>
        <_>
          <depth>5</depth>
          <value>0.</value></_>
        <_>
          <depth>5</depth>
          <value>1.</value></_>
        <_>
          <depth>4</depth>
          <value>1.</value></_>
        <_>
          <depth>3</depth>
          <value>0.</value></_>
        <_>
          <depth>1</depth>
          <value>1.</value></_></nodes></_>
    <_>
      <nodes>
        <_>
          <depth>0</depth>
          <value>9.6996553715434003e-02</value>
          <splits>
            <_><var>5</var>
              <quality>4.4917823791503906e+01</quality>
              <le>-5.6895625591278076e-01</le></_></splits></_>
        <_>
          <depth>1</depth>
          <value>0.</value></_>
        <_>
          <depth>1</depth>
          <value>6.8402777984738350e-01</value>
          <splits>
            <_><var>6</var>
              <quality>4.9625308990478516e+01</quality>
              <le>3.5822364687919617e-01</le></_></splits></_>
        <_>
          <depth>2</depth>
          <value>8.5555555721124010e-01</value>
          <splits>
            <_><var>6</var>
              <quality>4.4942760467529297e+01</quality>
              <le>2.8436607122421265e-01</le></_></splits></_>
        <_>
          <depth>3</depth>
          <value>1.</value></_>
        <_>
          <depth>3</depth>
          <value>7.3737374038407300e-01</value>
          <splits>
            <_><var>2</var>
              <quality>2.0361110687255859e+01</quality>
              <le>5.9362864494323730e+00</le></_></splits></_>
        <_>
          <depth>4</depth>
          <value>4.5833333954215050e-01</value>
          <splits>
            <_><var>6</var>
              <quality>4.0317459106445313e+00</quality>
              <le>3.3072668313980103e-01</le></_></splits></_>
        <_>
          <depth>5</depth>
          <value>3.8095238804817200e-01</value></_>
        <_>
          <depth>5</depth>
          <value>1.</value></_>
        <_>
          <depth>4</depth>
          <value>1.</value></_>
        <_>
          <depth>2</depth>
          <value>3.9814815090762246e-01</value>
          <splits>
            <_><var>1</var>
              <quality>1.1444444656372070e+01</quality>
              <le>3.9538264274597168e+00</le></_></splits></_>
        <_>
          <depth>3</depth>
          <value>1.3333333730697633e-01</value>
          <splits>
            <_><var>8</var>
              <quality>9.2592597007751465e-01</quality>
              <le>1.5192250907421112e-01</le></_></splits></_>
