<?xml version="1.0"?>
<opencv_storage>
<opencv_ml_rtrees>
  <format>3</format>
  <is_classifier>0</is_classifier>
  <var_all>10</var_all>
  <var_count>9</var_count>
  <ord_var_count>10</ord_var_count>
  <cat_var_count>0</cat_var_count>
  <training_params>
    <use_surrogates>0</use_surrogates>
    <max_categories>10</max_categories>
    <regression_accuracy>9.9999997473787516e-05</regression_accuracy>
    <max_depth>5</max_depth>
    <min_sample_count>10</min_sample_count>
    <cross_validation_folds>0</cross_validation_folds>
    <nactive_vars>0</nactive_vars></training_params>
  <global_var_idx>1</global_var_idx>
  <var_idx>
    0 1 2 3 4 5 6 7 8</var_idx>
  <var_type>
    0 0 0 0 0 0 0 0 0 0</var_type>
  <cat_ofs>
    0 0 0 0 0 0 0 0 0 0 0 0 0 0 0 0 0 0</cat_ofs>
  <missing_subst>
    0. 0. 0. 0. 0. 0. 0. 0. 0. 0.</missing_subst>
  <oob_error>9.6121173971051369e-03</oob_error>
  <var_importance>
    3.04394662e-02 6.07012063e-02 4.04646754e-01 5.91786653e-02
    4.15202044e-02 2.09855407e-01 3.39446664e-02 5.82271852e-02
    1.01486444e-01</var_importance>
  <ntrees>100</ntrees>
  <trees>
    <_>
      <nodes>
        <_>
          <depth>0</depth>
          <value>1.6588345864661655e-01</value>
          <splits>
            <_><var>2</var>
              <quality>2.8478628540039063e+02</quality>
              <le>5.3770055770874023e+00</le></_></splits></_>
        <_>
          <depth>1</depth>
          <value>1.7035775127768313e-02</value>
          <splits>
            <_><var>5</var>
              <quality>5.9920096397399902e+00</quality>
              <le>-6.1400365829467773e-01</le></_></splits></_>
        <_>
          <depth>2</depth>
          <value>2.4271844660194173e-03</value>
          <splits>
            <_><var>5</var>
              <quality>7.3059357702732086e-02</quality>
              <le>-6.7534780502319336e-01</le></_></splits></_>
        <_>
          <depth>3</depth>
          <value>0.</value></_>
        <_>
          <depth>3</depth>
          <value>1.8264840182648401e-02</value>
          <splits>
            <_><var>7</var>
              <quality>8.2298952341079712e-01</quality>
              <le>4.6443128585815430e-01</le></_></splits></_>
        <_>
          <depth>4</depth>
          <value>2.7272727272727271e-01</value>
          <splits>
            <_><var>0</var>
              <quality>1.5000000000000000e+00</quality>
              <le>4.8911075592041016e+00</le></_></splits></_>
        <_>
          <depth>5</depth>
          <value>0.</value></_>
        <_>
          <depth>5</depth>
          <value>5.0000000000000000e-01</value></_>
        <_>
          <depth>4</depth>
          <value>4.8076923076923080e-03</value>
          <splits>
            <_><var>6</var>
              <quality>4.7619048506021500e-02</quality>
              <le>3.8602691888809204e-01</le></_></splits></_>
        <_>
          <depth>5</depth>
          <value>0.</value></_>
        <_>
          <depth>5</depth>
          <value>4.7619047619047616e-02</value></_>
        <_>
          <depth>2</depth>
          <value>2.3008849557522124e-01</value>
          <splits>
            <_><var>8</var>
              <quality>1.2311056137084961e+01</quality>
              <le>1.2895524501800537e-01</le></_></splits></_>
        <_>
          <depth>3</depth>
          <value>9.1666666666666663e-01</value>
          <splits>
            <_><var>5</var>
              <quality>11.</quality>
              <le>-5.9121155738830566e-01</le></_></splits></_>
        <_>
          <depth>4</depth>
          <value>1.</value></_>
        <_>
          <depth>4</depth>
          <value>0.</value></_>
        <_>
          <depth>3</depth>
          <value>1.4851485148514851e-01</value>
          <splits>
            <_><var>2</var>
              <quality>1.4062500000000000e+01</quality>
              <le>4.7162714004516602e+00</le></_></splits></_>
        <_>
          <depth>4</depth>
          <value>0.</value></_>
        <_>
          <depth>4</depth>
          <value>9.3750000000000000e-01</value>
          <splits>
            <_><var>1</var>
              <quality>15.</quality>
              <le>3.9225122928619385e+00</le></_></splits></_>
        <_>
          <depth>5</depth>
          <value>1.</value></_>
        <_>
          <depth>5</depth>
          <value>0.</value></_>
        <_>
          <depth>1</depth>
          <value>8.8010899182561309e-01</value>
          <splits>
            <_><var>5</var>
              <quality>3.1519335937500000e+02</quality>
              <le>-6.4741706848144531e-01</le></_></splits></_>
        <_>
          <depth>2</depth>
          <value>0.</value></_>
        <_>
          <depth>2</depth>
          <value>9.7583081570996977e-01</value>
          <splits>
            <_><var>6</var>
              <quality>3.1614849853515625e+02</quality>
              <le>5.0324136018753052e-01</le></_></splits></_>
        <_>
          <depth>3</depth>
          <value>9.7878787878787876e-01</value>
          <splits>
            <_><var>6</var>
              <quality>3.1654925537109375e+02</quality>
              <le>4.1656857728958130e-01</le></_></splits></_>
        <_>
          <depth>4</depth>
          <value>9.9621212121212122e-01</value>
          <splits>
            <_><var>7</var>
              <quality>2.6203332519531250e+02</quality>
              <le>4.5481407642364502e-01</le></_></splits></_>
        <_>
          <depth>5</depth>
          <value>9.6666666666666667e-01</value></_>
        <_>
          <depth>5</depth>
          <value>1.</value></_>
        <_>
          <depth>4</depth>
          <value>9.0909090909090906e-01</value>
          <splits>
            <_><var>1</var>
              <quality>5.5947540283203125e+01</quality>
              <le>3.8164901733398438e+00</le></_></splits></_>
        <_>
          <depth>5</depth>
          <value>4.0000000000000002e-01</value></_>
        <_>
          <depth>5</depth>
          <value>9.5081967213114749e-01</value></_>
        <_>
          <depth>3</depth>
          <value>0.</value></_></nodes></_>
    <_>
      <nodes>
        <_>
          <depth>0</depth>
          <value>1.4567669172932332e-01</value>
          <splits>
            <_><var>1</var>
              <quality>8.6127105712890625e+01</quality>
              <le>3.8584008216857910e+00</le></_></splits></_>
        <_>
          <depth>1</depth>
          <value>3.7121212121212124e-02</value>
          <splits>
            <_><var>2</var>
              <quality>4.2327087402343750e+01</quality>
              <le>4.9356937408447266e+00</le></_></splits></_>
        <_>
          <depth>2</depth>
          <value>2.3622047244094488e-03</value>
          <splits>
            <_><var>0</var>
              <quality>1.0317460447549820e-01</quality>
              <le>4.7445383071899414e+00</le></_></splits></_>
        <_>
          <depth>3</depth>
          <value>1.5873015873015873e-03</value>
          <splits>
            <_><var>5</var>
              <quality>4.3010752648115158e-02</quality>
              <le>-6.1169302463531494e-01</le></_></splits></_>
        <_>
          <depth>4</depth>
          <value>0.</value></_>
        <_>
          <depth>4</depth>
          <value>2.1505376344086023e-02</value>
          <splits>
            <_><var>0</var>
              <quality>1.2903225421905518e-01</quality>
              <le>4.0793123245239258e+00</le></_></splits></_>
        <_>
          <depth>5</depth>
          <value>0.</value></_>
        <_>
          <depth>5</depth>
          <value>6.4516129032258063e-02</value></_>
        <_>
          <depth>3</depth>
          <value>1.0000000000000001e-01</value></_>
        <_>
          <depth>2</depth>
          <value>9.2000000000000004e-01</value>
          <splits>
            <_><var>7</var>
              <quality>4.3418437957763672e+01</quality>
              <le>4.6693229675292969e-01</le></_></splits></_>
        <_>
          <depth>3</depth>
          <value>3.3333333333333331e-01</value></_>
        <_>
          <depth>3</depth>
          <value>9.5744680851063835e-01</value>
          <splits>
            <_><var>5</var>
              <quality>45.</quality>
              <le>-6.4817184209823608e-01</le></_></splits></_>
        <_>
          <depth>4</depth>
          <value>0.</value></_>
        <_>
          <depth>4</depth>
          <value>1.</value></_>
        <_>
          <depth>1</depth>
          <value>3.2301980198019803e-01</value>
          <splits>
            <_><var>2</var>
              <quality>2.1725712585449219e+02</quality>
              <le>5.5773911476135254e+00</le></_></splits></_>
        <_>
          <depth>2</depth>
          <value>4.0441176470588237e-02</value>
          <splits>
            <_><var>5</var>
              <quality>1.1608169555664063e+01</quality>
              <le>-6.4946389198303223e-01</le></_></splits></_>
        <_>
          <depth>3</depth>
          <value>9.6339113680154135e-03</value>
          <splits>
            <_><var>0</var>
              <quality>1.5432098507881165e-01</quality>
              <le>4.9416384696960449e+00</le></_></splits></_>
        <_>
          <depth>4</depth>
          <value>3.0864197530864196e-02</value>
          <splits>
            <_><var>0</var>
              <quality>4.0063290596008301e+00</quality>
              <le>4.9372363090515137e+00</le></_></splits></_>
        <_>
          <depth>5</depth>
          <value>6.3291139240506328e-03</value></_>
        <_>
          <depth>5</depth>
          <value>1.</value></_>
        <_>
          <depth>4</depth>
          <value>0.</value></_>
        <_>
          <depth>3</depth>
          <value>6.8000000000000005e-01</value>
          <splits>
            <_><var>8</var>
              <quality>1.4333333015441895e+01</quality>
              <le>1.1197692155838013e-01</le></_></splits></_>
        <_>
          <depth>4</depth>
          <value>3.3333333333333331e-01</value>
          <splits>
            <_><var>5</var>
              <quality>2.4000000953674316e+00</quality>
              <le>-6.4370262622833252e-01</le></_></splits></_>
        <_>
          <depth>5</depth>
          <value>1.</value></_>
        <_>
          <depth>5</depth>
          <value>2.0000000000000001e-01</value></_>
        <_>
          <depth>4</depth>
          <value>1.</value></_>
        <_>
          <depth>2</depth>
          <value>9.0530303030303028e-01</value>
          <splits>
            <_><var>3</var>
              <quality>2.3603718566894531e+02</quality>
              <le>6.9657504558563232e-01</le></_></splits></_>
        <_>
          <depth>3</depth>
          <value>9.8760330578512401e-01</value>
          <splits>
            <_><var>7</var>
              <quality>2.3626679992675781e+02</quality>
              <le>4.0328255295753479e-01</le></_></splits></_>
        <_>
          <depth>4</depth>
          <value>7.5000000000000000e-01</value></_>
        <_>
          <depth>4</depth>
          <value>9.9159663865546221e-01</value>
          <splits>
            <_><var>4</var>
              <quality>2.3409091186523438e+02</quality>
              <le>4.9006752669811249e-02</le></_></splits></_>
        <_>
          <depth>5</depth>
          <value>9.5454545454545459e-01</value></_>
        <_>
          <depth>5</depth>
          <value>1.</value></_>
        <_>
          <depth>3</depth>
          <value>0.</value></_></nodes></_>
    <_>
      <nodes>
        <_>
          <depth>0</depth>
          <value>1.6212406015037595e-01</value>
          <splits>
            <_><var>2</var>
              <quality>2.7121456909179688e+02</quality>
              <le>5.3725714683532715e+00</le></_></splits></_>
        <_>
          <depth>1</depth>
          <value>2.0281690140845070e-02</value>
          <splits>
            <_><var>2</var>
              <quality>6.1638584136962891e+00</quality>
              <le>5.0398073196411133e+00</le></_></splits></_>
        <_>
          <depth>2</depth>
          <value>4.8573163327261691e-03</value>
          <splits>
            <_><var>2</var>
              <quality>6.9565218687057495e-01</quality>
              <le>4.9038920402526855e+00</le></_></splits></_>
        <_>
          <depth>3</depth>
          <value>0.</value></_>
        <_>
          <depth>3</depth>
          <value>8.6956521739130432e-02</value>
          <splits>
            <_><var>5</var>
              <quality>6.4000000953674316e+00</quality>
              <le>-6.6785126924514771e-01</le></_></splits></_>
        <_>
          <depth>4</depth>
          <value>0.</value></_>
        <_>
          <depth>4</depth>
          <value>8.0000000000000004e-01</value></_>
        <_>
          <depth>2</depth>
          <value>2.1875000000000000e-01</value>
          <splits>
            <_><var>8</var>
              <quality>2.1451814651489258e+01</quality>
              <le>1.1049202084541321e-01</le></_></splits></_>
        <_>
          <depth>3</depth>
          <value>1.0638297872340425e-02</value>
          <splits>
            <_><var>3</var>
              <quality>2.0000000298023224e-01</quality>
              <le>6.2065422534942627e-01</le></_></splits></_>
        <_>
          <depth>4</depth>
          <value>2.0000000000000001e-01</value></_>
        <_>
          <depth>4</depth>
          <value>0.</value></_>
        <_>
          <depth>3</depth>
          <value>7.9411764705882348e-01</value>
          <splits>
            <_><var>5</var>
              <quality>2.2781250000000000e+01</quality>
              <le>-6.2105739116668701e-01</le></_></splits></_>
        <_>
          <depth>4</depth>
          <value>0.</value></_>
        <_>
          <depth>4</depth>
          <value>8.4375000000000000e-01</value>
          <splits>
            <_><var>4</var>
              <quality>2.3821256637573242e+01</quality>
              <le>6.4651951193809509e-02</le></_></splits></_>
        <_>
          <depth>5</depth>
          <value>5.5555555555555558e-01</value></_>
        <_>
          <depth>5</depth>
          <value>9.5652173913043481e-01</value></_>
        <_>
          <depth>1</depth>
          <value>8.7535410764872523e-01</value>
          <splits>
            <_><var>8</var>
              <quality>2.9573852539062500e+02</quality>
              <le>1.0298595577478409e-01</le></_></splits></_>
        <_>
          <depth>2</depth>
          <value>1.0526315789473684e-01</value>
          <splits>
            <_><var>1</var>
              <quality>1.8303030729293823e+00</quality>
              <le>4.2201423645019531e+00</le></_></splits></_>
        <_>
          <depth>3</depth>
          <value>5.9999999999999998e-01</value></_>
        <_>
          <depth>3</depth>
          <value>3.0303030303030304e-02</value>
          <splits>
            <_><var>5</var>
              <quality>1.</quality>
              <le>-6.3250797986984253e-01</le></_></splits></_>
        <_>
          <depth>4</depth>
          <value>0.</value></_>
        <_>
          <depth>4</depth>
          <value>1.</value></_>
        <_>
          <depth>2</depth>
          <value>9.6825396825396826e-01</value>
          <splits>
            <_><var>7</var>
              <quality>2.9611111450195313e+02</quality>
              <le>4.5417547225952148e-01</le></_></splits></_>
        <_>
          <depth>3</depth>
          <value>8.8888888888888884e-01</value>
          <splits>
            <_><var>7</var>
              <quality>7.3563217163085938e+01</quality>
              <le>4.5229259133338928e-01</le></_></splits></_>
        <_>
          <depth>4</depth>
          <value>9.1954022988505746e-01</value>
          <splits>
            <_><var>2</var>
              <quality>7.5722221374511719e+01</quality>
              <le>5.8378076553344727e+00</le></_></splits></_>
        <_>
          <depth>5</depth>
          <value>6.1111111111111116e-01</value></_>
        <_>
          <depth>5</depth>
          <value>1.</value></_>
        <_>
          <depth>4</depth>
          <value>0.</value></_>
        <_>
          <depth>3</depth>
          <value>1.</value></_></nodes></_>
    <_>
      <nodes>
        <_>
          <depth>0</depth>
          <value>1.5460526315789475e-01</value>
          <splits>
            <_><var>1</var>
              <quality>9.6721832275390625e+01</quality>
              <le>3.7852659225463867e+00</le></_></splits></_>
        <_>
          <depth>1</depth>
          <value>3.6405886909372583e-02</value>
          <splits>
            <_><var>2</var>
              <quality>4.1198722839355469e+01</quality>
              <le>4.9300041198730469e+00</le></_></splits></_>
        <_>
          <depth>2</depth>
          <value>2.4115755627009648e-03</value>
          <splits>
            <_><var>5</var>
              <quality>1.0714285820722580e-01</quality>
              <le>-6.1169302463531494e-01</le></_></splits></_>
        <_>
          <depth>3</depth>
          <value>0.</value></_>
        <_>
          <depth>3</depth>
          <value>3.5714285714285712e-02</value>
          <splits>
            <_><var>3</var>
              <quality>3.6000001430511475e-01</quality>
              <le>3.8261640071868896e-01</le></_></splits></_>
        <_>
          <depth>4</depth>
          <value>0.</value></_>
        <_>
          <depth>4</depth>
          <value>1.2000000000000000e-01</value>
          <splits>
            <_><var>4</var>
              <quality>3.</quality>
              <le>2.1580287814140320e-01</le></_></splits></_>
        <_>
          <depth>5</depth>
          <value>0.</value></_>
        <_>
          <depth>5</depth>
          <value>1.</value></_>
        <_>
          <depth>2</depth>
          <value>9.3617021276595747e-01</value>
          <splits>
            <_><var>5</var>
              <quality>4.3022220611572266e+01</quality>
              <le>-6.7023754119873047e-01</le></_></splits></_>
        <_>
          <depth>3</depth>
          <value>0.</value></_>
        <_>
          <depth>3</depth>
          <value>9.7777777777777775e-01</value>
          <splits>
            <_><var>3</var>
              <quality>4.3166667938232422e+01</quality>
              <le>4.8912668228149414e-01</le></_></splits></_>
        <_>
          <depth>4</depth>
          <value>1.</value></_>
        <_>
          <depth>4</depth>
          <value>8.3333333333333337e-01</value></_>
        <_>
          <depth>1</depth>
          <value>3.3691756272401435e-01</value>
          <splits>
            <_><var>5</var>
              <quality>2.6064709472656250e+02</quality>
              <le>-6.3178873062133789e-01</le></_></splits></_>
        <_>
          <depth>2</depth>
          <value>1.9819819819819819e-02</value>
          <splits>
            <_><var>3</var>
              <quality>4.9387755990028381e-01</quality>
              <le>7.8413337469100952e-01</le></_></splits></_>
        <_>
          <depth>3</depth>
          <value>4.4897959183673466e-02</value>
          <splits>
            <_><var>3</var>
              <quality>4.2033195495605469e+00</quality>
              <le>7.8387641906738281e-01</le></_></splits></_>
        <_>
          <depth>4</depth>
          <value>2.9045643153526972e-02</value>
          <splits>
            <_><var>1</var>
              <quality>8.1986898183822632e-01</quality>
              <le>4.4873857498168945e+00</le></_></splits></_>
        <_>
          <depth>5</depth>
          <value>1.7467248908296942e-02</value></_>
        <_>
          <depth>5</depth>
          <value>2.5000000000000000e-01</value></_>
        <_>
          <depth>4</depth>
          <value>1.</value></_>
        <_>
          <depth>3</depth>
          <value>0.</value></_>
        <_>
          <depth>2</depth>
          <value>9.6099290780141844e-01</value>
          <splits>
            <_><var>8</var>
              <quality>2.6337689208984375e+02</quality>
              <le>1.0832522809505463e-01</le></_></splits></_>
        <_>
          <depth>3</depth>
          <value>2.0000000000000001e-01</value></_>
        <_>
          <depth>3</depth>
          <value>9.7472924187725629e-01</value>
          <splits>
            <_><var>2</var>
              <quality>2.6373135375976563e+02</quality>
              <le>5.8356504440307617e+00</le></_></splits></_>
        <_>
          <depth>4</depth>
          <value>8.9552238805970152e-01</value>
          <splits>
            <_><var>7</var>
              <quality>5.4884616851806641e+01</quality>
              <le>4.5762056112289429e-01</le></_></splits></_>
        <_>
          <depth>5</depth>
          <value>7.3076923076923073e-01</value></_>
        <_>
          <depth>5</depth>
          <value>1.</value></_>
        <_>
          <depth>4</depth>
          <value>1.</value></_></nodes></_>
    <_>
      <nodes>
        <_>
          <depth>0</depth>
          <value>1.5225563909774437e-01</value>
          <splits>
            <_><var>2</var>
              <quality>2.4980308532714844e+02</quality>
              <le>5.3738164901733398e+00</le></_></splits></_>
        <_>
          <depth>1</depth>
          <value>2.0055710306406686e-02</value>
          <splits>
            <_><var>7</var>
              <quality>1.8454442024230957e+00</quality>
              <le>4.8501706123352051e-01</le></_></splits></_>
        <_>
          <depth>2</depth>
          <value>6.2365591397849460e-02</value>
          <splits>
            <_><var>3</var>
              <quality>7.4824709892272949e+00</quality>
              <le>6.1466747522354126e-01</le></_></splits></_>
        <_>
          <depth>3</depth>
          <value>2.9761904761904762e-01</value>
          <splits>
            <_><var>5</var>
              <quality>1.6025640487670898e+01</quality>
              <le>-4.7335258126258850e-01</le></_></splits></_>
        <_>
          <depth>4</depth>
          <value>6.4102564102564108e-01</value>
          <splits>
            <_><var>1</var>
              <quality>2.3148147583007813e+01</quality>
              <le>3.6343369483947754e+00</le></_></splits></_>
        <_>
          <depth>5</depth>
          <value>0.</value></_>
        <_>
          <depth>5</depth>
          <value>9.2592592592592593e-01</value></_>
        <_>
          <depth>4</depth>
          <value>0.</value></_>
        <_>
          <depth>3</depth>
          <value>1.0498687664041995e-02</value>
          <splits>
            <_><var>5</var>
              <quality>2.3880596458911896e-01</quality>
              <le>-7.3304116725921631e-01</le></_></splits></_>
        <_>
          <depth>4</depth>
          <value>0.</value></_>
        <_>
          <depth>4</depth>
          <value>5.9701492537313432e-02</value>
          <splits>
            <_><var>5</var>
              <quality>2.0615384578704834e+00</quality>
              <le>-7.3168724775314331e-01</le></_></splits></_>
        <_>
          <depth>5</depth>
          <value>1.</value></_>
        <_>
          <depth>5</depth>
          <value>3.0769230769230771e-02</value></_>
        <_>
          <depth>2</depth>
          <value>5.2631578947368420e-03</value>
          <splits>
            <_><var>2</var>
              <quality>2.1184086799621582e+00</quality>
              <le>5.1232242584228516e+00</le></_></splits></_>
        <_>
          <depth>3</depth>
          <value>7.6161462300076163e-04</value>
          <splits>
            <_><var>5</var>
              <quality>2.3809524253010750e-02</quality>
              <le>-5.8119106292724609e-01</le></_></splits></_>
        <_>
          <depth>4</depth>
          <value>0.</value></_>
        <_>
          <depth>4</depth>
          <value>2.3809523809523808e-02</value>
          <splits>
            <_><var>8</var>
              <quality>1.</quality>
              <le>1.4224630594253540e-01</le></_></splits></_>
        <_>
          <depth>5</depth>
          <value>1.</value></_>
        <_>
          <depth>5</depth>
          <value>0.</value></_>
        <_>
          <depth>3</depth>
          <value>3.5294117647058826e-01</value>
          <splits>
            <_><var>1</var>
              <quality>6.</quality>
              <le>3.8561310768127441e+00</le></_></splits></_>
        <_>
          <depth>4</depth>
          <value>1.</value></_>
        <_>
          <depth>4</depth>
          <value>0.</value></_>
        <_>
          <depth>1</depth>
          <value>8.6486486486486491e-01</value>
          <splits>
            <_><var>8</var>
              <quality>2.7926724243164063e+02</quality>
              <le>1.0485026240348816e-01</le></_></splits></_>
        <_>
          <depth>2</depth>
          <value>5.0000000000000003e-02</value>
          <splits>
            <_><var>3</var>
              <quality>1.</quality>
              <le>7.1656060218811035e-01</le></_></splits></_>
        <_>
          <depth>3</depth>
          <value>5.0000000000000000e-01</value></_>
        <_>
          <depth>3</depth>
          <value>0.</value></_>
        <_>
          <depth>2</depth>
          <value>9.7610921501706482e-01</value>
          <splits>
            <_><var>6</var>
              <quality>2.7977777099609375e+02</quality>
              <le>4.0022885799407959e-01</le></_></splits></_>
        <_>
          <depth>3</depth>
          <value>1.</value></_>
        <_>
          <depth>3</depth>
          <value>8.8888888888888884e-01</value>
          <splits>
            <_><var>2</var>
              <quality>5.1578948974609375e+01</quality>
              <le>5.8019762039184570e+00</le></_></splits></_>
        <_>
          <depth>4</depth>
          <value>6.3157894736842102e-01</value>
          <splits>
            <_><var>2</var>
              <quality>1.1125000000000000e+01</quality>
              <le>5.7278194427490234e+00</le></_></splits></_>
        <_>
          <depth>5</depth>
          <value>1.</value></_>
        <_>
          <depth>5</depth>
          <value>1.2500000000000000e-01</value></_>
        <_>
          <depth>4</depth>
          <value>1.</value></_></nodes></_>
    <_>
      <nodes>
        <_>
          <depth>0</depth>
          <value>1.6024436090225563e-01</value>
          <splits>
            <_><var>5</var>
              <quality>2.3984223937988281e+02</quality>
              <le>-6.1994189023971558e-01</le></_></splits></_>
        <_>
          <depth>1</depth>
          <value>1.0059171597633136e-02</value>
          <splits>
            <_><var>0</var>
              <quality>5.9752959012985229e-01</quality>
              <le>4.8803081512451172e+00</le></_></splits></_>
        <_>
          <depth>2</depth>
          <value>7.9302141157811261e-04</value>
          <splits>
            <_><var>2</var>
              <quality>4.3478261679410934e-02</quality>
              <le>4.9897460937500000e+00</le></_></splits></_>
        <_>
          <depth>3</depth>
          <value>0.</value></_>
        <_>
          <depth>3</depth>
          <value>4.3478260869565216e-02</value>
          <splits>
            <_><var>2</var>
              <quality>1.</quality>
              <le>4.9995579719543457e+00</le></_></splits></_>
        <_>
          <depth>4</depth>
          <value>1.</value></_>
        <_>
          <depth>4</depth>
          <value>0.</value></_>
        <_>
          <depth>2</depth>
          <value>3.7296037296037296e-02</value>
          <splits>
            <_><var>3</var>
              <quality>6.8675060272216797e+00</quality>
              <le>6.2065422534942627e-01</le></_></splits></_>
        <_>
          <depth>3</depth>
          <value>7.5000000000000000e-01</value>
          <splits>
            <_><var>4</var>
              <quality>9.</quality>
              <le>8.5290744900703430e-02</le></_></splits></_>
        <_>
          <depth>4</depth>
          <value>1.</value></_>
        <_>
          <depth>4</depth>
          <value>0.</value></_>
        <_>
          <depth>3</depth>
          <value>1.6786570743405275e-02</value>
          <splits>
            <_><var>5</var>
              <quality>1.2600755691528320e+00</quality>
              <le>-6.7538797855377197e-01</le></_></splits></_>
        <_>
          <depth>4</depth>
          <value>5.0377833753148613e-03</value>
          <splits>
            <_><var>2</var>
              <quality>1.0526315867900848e-01</quality>
              <le>5.3439388275146484e+00</le></_></splits></_>
        <_>
          <depth>5</depth>
          <value>0.</value></_>
        <_>
          <depth>5</depth>
          <value>5.2631578947368418e-02</value></_>
        <_>
          <depth>4</depth>
          <value>2.5000000000000000e-01</value>
          <splits>
            <_><var>8</var>
              <quality>2.5000000000000000e+00</quality>
              <le>9.6977367997169495e-02</le></_></splits></_>
        <_>
          <depth>5</depth>
          <value>5.0000000000000000e-01</value></_>
        <_>
          <depth>5</depth>
          <value>0.</value></_>
        <_>
          <depth>1</depth>
          <value>7.3972602739726023e-01</value>
          <splits>
            <_><var>7</var>
              <quality>2.5559844970703125e+02</quality>
              <le>5.6176561117172241e-01</le></_></splits></_>
        <_>
          <depth>2</depth>
          <value>8.0100755667506296e-01</value>
          <splits>
            <_><var>4</var>
              <quality>2.6105676269531250e+02</quality>
              <le>-3.3064842224121094e-02</le></_></splits></_>
        <_>
          <depth>3</depth>
          <value>3.3333333333333331e-01</value>
          <splits>
            <_><var>1</var>
              <quality>7.1999998092651367e+00</quality>
              <le>4.0812163352966309e+00</le></_></splits></_>
        <_>
          <depth>4</depth>
          <value>1.0000000000000001e-01</value>
          <splits>
            <_><var>0</var>
              <quality>2.</quality>
              <le>4.5906028747558594e+00</le></_></splits></_>
        <_>
          <depth>5</depth>
          <value>0.</value></_>
        <_>
          <depth>5</depth>
          <value>1.</value></_>
        <_>
          <depth>4</depth>
          <value>1.</value></_>
        <_>
          <depth>3</depth>
          <value>8.3513513513513515e-01</value>
          <splits>
            <_><var>0</var>
              <quality>2.6337805175781250e+02</quality>
              <le>4.1184120178222656e+00</le></_></splits></_>
        <_>
          <depth>4</depth>
          <value>5.0000000000000000e-01</value>
          <splits>
            <_><var>5</var>
              <quality>1.3407322883605957e+01</quality>
              <le>-4.8388087749481201e-01</le></_></splits></_>
        <_>
          <depth>5</depth>
          <value>2.6086956521739130e-01</value></_>
        <_>
          <depth>5</depth>
          <value>7.8947368421052633e-01</value></_>
        <_>
          <depth>4</depth>
          <value>8.7804878048780488e-01</value>
          <splits>
            <_><var>1</var>
              <quality>2.8212243652343750e+02</quality>
              <le>3.3959093093872070e+00</le></_></splits></_>
        <_>
          <depth>5</depth>
          <value>0.</value></_>
        <_>
          <depth>5</depth>
          <value>9.7959183673469385e-01</value></_>
        <_>
          <depth>2</depth>
          <value>1.4634146341463414e-01</value>
          <splits>
            <_><var>0</var>
              <quality>6.</quality>
              <le>4.0204048156738281e+00</le></_></splits></_>
        <_>
          <depth>3</depth>
          <value>0.</value></_>
        <_>
          <depth>3</depth>
          <value>1.</value></_></nodes></_>
    <_>
      <nodes>
        <_>
          <depth>0</depth>
          <value>1.6165413533834586e-01</value>
          <splits>
            <_><var>2</var>
              <quality>2.7401608276367188e+02</quality>
              <le>5.3803272247314453e+00</le></_></splits></_>
        <_>
          <depth>1</depth>
          <value>1.8058690744920992e-02</value>
          <splits>
            <_><var>5</var>
              <quality>6.6275181770324707e+00</quality>
              <le>-6.1528158187866211e-01</le></_></splits></_>
        <_>
          <depth>2</depth>
          <value>1.8237082066869300e-03</value>
          <splits>
            <_><var>2</var>
              <quality>5.0061088800430298e-01</quality>
              <le>5.3385639190673828e+00</le></_></splits></_>
        <_>
          <depth>3</depth>
          <value>6.1087354917532073e-04</value>
          <splits>
            <_><var>7</var>
              <quality>2.2727272007614374e-03</quality>
              <le>5.0208383798599243e-01</le></_></splits></_>
        <_>
          <depth>4</depth>
          <value>2.2727272727272726e-03</value>
          <splits>
            <_><var>7</var>
              <quality>1.</quality>
              <le>5.0159561634063721e-01</le></_></splits></_>
        <_>
          <depth>5</depth>
          <value>0.</value></_>
        <_>
          <depth>5</depth>
          <value>1.</value></_>
        <_>
          <depth>4</depth>
          <value>0.</value></_>
        <_>
          <depth>3</depth>
          <value>2.5000000000000000e-01</value></_>
        <_>
          <depth>2</depth>
          <value>2.2834645669291340e-01</value>
          <splits>
            <_><var>2</var>
              <quality>2.3069576263427734e+01</quality>
              <le>4.8618927001953125e+00</le></_></splits></_>
        <_>
          <depth>3</depth>
          <value>1.0752688172043012e-02</value>
          <splits>
            <_><var>2</var>
              <quality>3.3333334326744080e-01</quality>
              <le>4.7126913070678711e+00</le></_></splits></_>
        <_>
          <depth>4</depth>
          <value>0.</value></_>
        <_>
          <depth>4</depth>
          <value>3.3333333333333331e-01</value></_>
        <_>
          <depth>3</depth>
          <value>8.2352941176470584e-01</value>
          <splits>
            <_><var>0</var>
              <quality>26.</quality>
              <le>4.8280563354492188e+00</le></_></splits></_>
        <_>
          <depth>4</depth>
          <value>1.</value></_>
        <_>
          <depth>4</depth>
          <value>3.3333333333333331e-01</value></_>
        <_>
          <depth>1</depth>
          <value>8.7640449438202250e-01</value>
          <splits>
            <_><var>4</var>
              <quality>2.9343405151367188e+02</quality>
              <le>-3.1159322708845139e-02</le></_></splits></_>
        <_>
          <depth>2</depth>
          <value>1.4705882352941177e-01</value>
          <splits>
            <_><var>5</var>
              <quality>4.1666665077209473e+00</quality>
              <le>-5.3550219535827637e-01</le></_></splits></_>
        <_>
          <depth>3</depth>
          <value>0.</value></_>
        <_>
          <depth>3</depth>
          <value>8.3333333333333337e-01</value></_>
        <_>
          <depth>2</depth>
          <value>9.5341614906832295e-01</value>
          <splits>
            <_><var>6</var>
              <quality>2.9739999389648438e+02</quality>
              <le>4.5490688085556030e-01</le></_></splits></_>
        <_>
          <depth>3</depth>
          <value>9.7142857142857142e-01</value>
          <splits>
            <_><var>2</var>
              <quality>2.9807998657226563e+02</quality>
              <le>5.8378076553344727e+00</le></_></splits></_>
        <_>
          <depth>4</depth>
          <value>8.8000000000000000e-01</value>
          <splits>
            <_><var>6</var>
              <quality>6.0115383148193359e+01</quality>
              <le>3.9636147022247314e-01</le></_></splits></_>
        <_>
          <depth>5</depth>
          <value>1.</value></_>
        <_>
          <depth>5</depth>
          <value>6.5384615384615385e-01</value></_>
        <_>
          <depth>4</depth>
          <value>1.</value></_>
        <_>
          <depth>3</depth>
          <value>1.4285714285714285e-01</value></_></nodes></_>
    <_>
      <nodes>
        <_>
          <depth>0</depth>
          <value>1.7246240601503759e-01</value>
          <splits>
            <_><var>5</var>
              <quality>2.7150018310546875e+02</quality>
              <le>-6.0707926750183105e-01</le></_></splits></_>
        <_>
          <depth>1</depth>
          <value>1.6431924882629109e-02</value>
          <splits>
            <_><var>5</var>
              <quality>4.1140351295471191e+00</quality>
              <le>-6.4776504039764404e-01</le></_></splits></_>
        <_>
          <depth>2</depth>
          <value>4.3859649122807015e-03</value>
          <splits>
            <_><var>2</var>
              <quality>5.0258731842041016e-01</quality>
              <le>5.3287568092346191e+00</le></_></splits></_>
        <_>
          <depth>3</depth>
          <value>1.2936610608020700e-03</value>
          <splits>
            <_><var>4</var>
              <quality>8.9285718277096748e-03</quality>
              <le>1.1288774013519287e-01</le></_></splits></_>
        <_>
          <depth>4</depth>
          <value>4.4642857142857140e-03</value>
          <splits>
            <_><var>0</var>
              <quality>2.</quality>
              <le>4.0810298919677734e+00</le></_></splits></_>
        <_>
          <depth>5</depth>
          <value>1.</value></_>
        <_>
          <depth>5</depth>
          <value>0.</value></_>
        <_>
          <depth>4</depth>
          <value>0.</value></_>
        <_>
          <depth>3</depth>
          <value>1.0000000000000001e-01</value>
          <splits>
            <_><var>3</var>
              <quality>2.0833332538604736e+00</quality>
              <le>7.5748705863952637e-01</le></_></splits></_>
        <_>
          <depth>4</depth>
          <value>4.1666666666666669e-01</value>
          <splits>
            <_><var>0</var>
              <quality>5.</quality>
              <le>5.0694160461425781e+00</le></_></splits></_>
        <_>
          <depth>5</depth>
          <value>1.</value></_>
        <_>
          <depth>5</depth>
          <value>0.</value></_>
        <_>
          <depth>4</depth>
          <value>0.</value></_>
        <_>
          <depth>2</depth>
          <value>1.9444444444444445e-01</value>
          <splits>
            <_><var>2</var>
              <quality>1.4192838668823242e+01</quality>
              <le>5.3693456649780273e+00</le></_></splits></_>
        <_>
          <depth>3</depth>
          <value>3.5294117647058823e-02</value>
          <splits>
            <_><var>8</var>
              <quality>6.7932486534118652e-01</quality>
              <le>1.0668773204088211e-01</le></_></splits></_>
        <_>
          <depth>4</depth>
          <value>3.3333333333333331e-01</value></_>
        <_>
          <depth>4</depth>
          <value>1.2658227848101266e-02</value>
          <splits>
            <_><var>2</var>
              <quality>2.5000000000000000e-01</quality>
              <le>5.2002058029174805e+00</le></_></splits></_>
        <_>
          <depth>5</depth>
          <value>0.</value></_>
        <_>
          <depth>5</depth>
          <value>2.5000000000000000e-01</value></_>
        <_>
          <depth>3</depth>
          <value>7.8260869565217395e-01</value>
          <splits>
            <_><var>6</var>
              <quality>18.</quality>
              <le>4.9718660116195679e-01</le></_></splits></_>
        <_>
          <depth>4</depth>
          <value>1.</value></_>
        <_>
          <depth>4</depth>
          <value>0.</value></_>
        <_>
          <depth>1</depth>
          <value>7.9952830188679247e-01</value>
          <splits>
            <_><var>2</var>
              <quality>3.2648010253906250e+02</quality>
              <le>4.8592677116394043e+00</le></_></splits></_>
        <_>
          <depth>2</depth>
          <value>0.</value></_>
        <_>
          <depth>2</depth>
          <value>9.6306818181818177e-01</value>
          <splits>
            <_><var>0</var>
              <quality>3.2697131347656250e+02</quality>
              <le>4.3754963874816895e+00</le></_></splits></_>
        <_>
          <depth>3</depth>
          <value>9.0654205607476634e-01</value>
          <splits>
            <_><var>7</var>
              <quality>9.1775817871093750e+01</quality>
              <le>4.7151601314544678e-01</le></_></splits></_>
        <_>
          <depth>4</depth>
          <value>4.7058823529411764e-01</value>
          <splits>
            <_><var>8</var>
              <quality>5.7500000000000000e+00</quality>
              <le>1.8789446353912354e-01</le></_></splits></_>
        <_>
          <depth>5</depth>
          <value>2.5000000000000000e-01</value></_>
        <_>
          <depth>5</depth>
          <value>1.</value></_>
        <_>
          <depth>4</depth>
          <value>9.8888888888888893e-01</value>
          <splits>
            <_><var>3</var>
              <quality>8.8166664123535156e+01</quality>
              <le>4.5866239070892334e-01</le></_></splits></_>
        <_>
          <depth>5</depth>
          <value>1.</value></_>
        <_>
          <depth>5</depth>
          <value>8.3333333333333337e-01</value></_>
        <_>
          <depth>3</depth>
          <value>9.8775510204081629e-01</value>
          <splits>
            <_><var>4</var>
              <quality>2.3912806701660156e+02</quality>
              <le>-3.4151040017604828e-02</le></_></splits></_>
        <_>
          <depth>4</depth>
          <value>8.8888888888888884e-01</value></_>
        <_>
          <depth>4</depth>
          <value>9.9152542372881358e-01</value>
          <splits>
            <_><var>7</var>
              <quality>2.3206779479980469e+02</quality>
              <le>4.5417547225952148e-01</le></_></splits></_>
        <_>
          <depth>5</depth>
          <value>9.6610169491525422e-01</value></_>
        <_>
          <depth>5</depth>
          <value>1.</value></_></nodes></_>
    <_>
      <nodes>
        <_>
          <depth>0</depth>
          <value>1.4990601503759399e-01</value>
          <splits>
            <_><var>8</var>
              <quality>1.5254618835449219e+02</quality>
              <le>1.4896486699581146e-01</le></_></splits></_>
        <_>
          <depth>1</depth>
          <value>6.6058002148227712e-02</value>
          <splits>
            <_><var>8</var>
              <quality>2.8922534942626953e+01</quality>
              <le>1.2169159203767776e-01</le></_></splits></_>
        <_>
          <depth>2</depth>
          <value>1.9833653230966090e-02</value>
          <splits>
            <_><var>2</var>
              <quality>7.2330412864685059e+00</quality>
              <le>5.3490738868713379e+00</le></_></splits></_>
        <_>
          <depth>3</depth>
          <value>4.7201618341200270e-03</value>
          <splits>
            <_><var>5</var>
              <quality>4.0006785392761230e+00</quality>
              <le>-6.1774122714996338e-01</le></_></splits></_>
        <_>
          <depth>4</depth>
          <value>6.7842605156037987e-04</value>
          <splits>
            <_><var>0</var>
              <quality>3.0030030757188797e-03</quality>
              <le>4.9178495407104492e+00</le></_></splits></_>
        <_>
          <depth>5</depth>
          <value>0.</value></_>
        <_>
          <depth>5</depth>
          <value>3.0030030030030030e-03</value></_>
        <_>
          <depth>4</depth>
          <value>6.6666666666666663e-01</value></_>
        <_>
          <depth>3</depth>
          <value>2.9999999999999999e-01</value>
          <splits>
            <_><var>3</var>
              <quality>1.8689458847045898e+01</quality>
              <le>7.1109157800674438e-01</le></_></splits></_>
        <_>
          <depth>4</depth>
          <value>8.4615384615384615e-01</value>
          <splits>
            <_><var>4</var>
              <quality>2.0295454025268555e+01</quality>
              <le>-3.1420949846506119e-02</le></_></splits></_>
        <_>
          <depth>5</depth>
          <value>2.5000000000000000e-01</value></_>
        <_>
          <depth>5</depth>
          <value>9.5454545454545459e-01</value></_>
        <_>
          <depth>4</depth>
          <value>3.7037037037037035e-02</value>
          <splits>
            <_><var>0</var>
              <quality>4.4444444775581360e-01</quality>
              <le>5.0521311759948730e+00</le></_></splits></_>
        <_>
          <depth>5</depth>
          <value>2.2222222222222221e-01</value></_>
        <_>
          <depth>5</depth>
          <value>0.</value></_>
        <_>
          <depth>2</depth>
          <value>3.0769230769230771e-01</value>
          <splits>
            <_><var>3</var>
              <quality>7.1592727661132813e+01</quality>
              <le>4.2554038763046265e-01</le></_></splits></_>
        <_>
          <depth>3</depth>
          <value>4.0000000000000001e-02</value>
          <splits>
            <_><var>2</var>
              <quality>3.2938911914825439e+00</quality>
              <le>4.8984017372131348e+00</le></_></splits></_>
        <_>
          <depth>4</depth>
          <value>1.0582010582010581e-02</value>
          <splits>
            <_><var>2</var>
              <quality>2.3529411852359772e-01</quality>
              <le>4.7174592018127441e+00</le></_></splits></_>
        <_>
          <depth>5</depth>
          <value>0.</value></_>
        <_>
          <depth>5</depth>
          <value>1.1764705882352941e-01</value></_>
        <_>
          <depth>4</depth>
          <value>5.4545454545454541e-01</value>
          <splits>
            <_><var>4</var>
              <quality>4.5000000000000000e+00</quality>
              <le>8.8249422609806061e-02</le></_></splits></_>
        <_>
          <depth>5</depth>
          <value>0.</value></_>
        <_>
          <depth>5</depth>
          <value>7.5000000000000000e-01</value></_>
        <_>
          <depth>3</depth>
          <value>8.4848484848484851e-01</value>
          <splits>
            <_><var>4</var>
              <quality>7.6695655822753906e+01</quality>
              <le>1.5836986899375916e-01</le></_></splits></_>
        <_>
          <depth>4</depth>
          <value>9.1304347826086951e-01</value>
          <splits>
            <_><var>1</var>
              <quality>8.2046508789062500e+01</quality>
              <le>3.6161837577819824e+00</le></_></splits></_>
        <_>
          <depth>5</depth>
          <value>0.</value></_>
        <_>
          <depth>5</depth>
          <value>9.7674418604651159e-01</value></_>
        <_>
          <depth>4</depth>
          <value>0.</value></_>
        <_>
          <depth>1</depth>
          <value>7.3684210526315785e-01</value>
          <splits>
            <_><var>0</var>
              <quality>1.6496423339843750e+02</quality>
              <le>4.0281410217285156e+00</le></_></splits></_>
        <_>
          <depth>2</depth>
          <value>1.7307692307692307e-01</value>
          <splits>
            <_><var>7</var>
              <quality>3.</quality>
              <le>5.6360137462615967e-01</le></_></splits></_>
        <_>
          <depth>3</depth>
          <value>3.3333333333333331e-01</value>
          <splits>
            <_><var>7</var>
              <quality>4.5000000000000000e+00</quality>
              <le>4.3192172050476074e-01</le></_></splits></_>
        <_>
          <depth>4</depth>
          <value>0.</value></_>
        <_>
          <depth>4</depth>
          <value>5.0000000000000000e-01</value>
          <splits>
            <_><var>2</var>
              <quality>9.</quality>
              <le>4.9907798767089844e+00</le></_></splits></_>
        <_>
          <depth>5</depth>
          <value>0.</value></_>
        <_>
          <depth>5</depth>
          <value>1.</value></_>
        <_>
          <depth>3</depth>
          <value>0.</value></_>
        <_>
          <depth>2</depth>
          <value>8.7383177570093462e-01</value>
          <splits>
            <_><var>2</var>
              <quality>1.8308377075195313e+02</quality>
              <le>4.6973714828491211e+00</le></_></splits></_>
        <_>
          <depth>3</depth>
          <value>0.</value></_>
        <_>
          <depth>3</depth>
          <value>9.7905759162303663e-01</value>
          <splits>
            <_><var>6</var>
              <quality>1.8384210205078125e+02</quality>
              <le>3.9357131719589233e-01</le></_></splits></_>
        <_>
          <depth>4</depth>
          <value>1.</value></_>
        <_>
          <depth>4</depth>
          <value>7.8947368421052633e-01</value>
          <splits>
            <_><var>4</var>
              <quality>1.4062500000000000e+01</quality>
              <le>4.1121259331703186e-02</le></_></splits></_>
        <_>
          <depth>5</depth>
          <value>9.3750000000000000e-01</value></_>
        <_>
          <depth>5</depth>
          <value>0.</value></_></nodes></_>
    <_>
      <nodes>
        <_>
          <depth>0</depth>
          <value>1.5460526315789475e-01</value>
          <splits>
            <_><var>5</var>
              <quality>2.4212788391113281e+02</quality>
              <le>-6.1997705698013306e-01</le></_></splits></_>
        <_>
          <depth>1</depth>
          <value>5.2785923753665689e-03</value>
          <splits>
            <_><var>5</var>
              <quality>1.7734958231449127e-01</quality>
              <le>-6.3030368089675903e-01</le></_></splits></_>
        <_>
          <depth>2</depth>
          <value>4.1716328963051254e-03</value>
          <splits>
            <_><var>4</var>
              <quality>1.2072569131851196e-01</quality>
              <le>-2.6911087334156036e-02</le></_></splits></_>
        <_>
          <depth>3</depth>
          <value>2.0000000000000000e-02</value>
          <splits>
            <_><var>6</var>
              <quality>4.1700682640075684e+00</quality>
              <le>4.7715181112289429e-01</le></_></splits></_>
        <_>
          <depth>4</depth>
          <value>8.3333333333333337e-01</value></_>
        <_>
          <depth>4</depth>
          <value>3.4013605442176869e-03</value>
          <splits>
            <_><var>8</var>
              <quality>3.3333335071802139e-02</quality>
              <le>8.1275701522827148e-02</le></_></splits></_>
        <_>
          <depth>5</depth>
          <value>0.</value></_>
        <_>
          <depth>5</depth>
          <value>3.3333333333333333e-02</value></_>
        <_>
          <depth>3</depth>
          <value>7.2568940493468795e-04</value>
          <splits>
            <_><var>5</var>
              <quality>1.8867924809455872e-02</quality>
              <le>-6.4776504039764404e-01</le></_></splits></_>
        <_>
          <depth>4</depth>
          <value>0.</value></_>
        <_>
          <depth>4</depth>
          <value>1.8867924528301886e-02</value>
          <splits>
            <_><var>0</var>
              <quality>1.</quality>
              <le>4.8530216217041016e+00</le></_></splits></_>
        <_>
          <depth>5</depth>
          <value>0.</value></_>
        <_>
          <depth>5</depth>
          <value>1.</value></_>
        <_>
          <depth>2</depth>
          <value>7.4074074074074070e-02</value>
          <splits>
            <_><var>1</var>
              <quality>2.</quality>
              <le>4.3485879898071289e+00</le></_></splits></_>
        <_>
          <depth>3</depth>
          <value>0.</value></_>
        <_>
          <depth>3</depth>
          <value>1.</value></_>
        <_>
          <depth>1</depth>
          <value>7.5650118203309691e-01</value>
          <splits>
            <_><var>2</var>
              <quality>3.0567163085937500e+02</quality>
              <le>4.8200407028198242e+00</le></_></splits></_>
        <_>
          <depth>2</depth>
          <value>0.</value></_>
        <_>
          <depth>2</depth>
          <value>9.5522388059701491e-01</value>
          <splits>
            <_><var>3</var>
              <quality>3.0947061157226563e+02</quality>
              <le>6.1352819204330444e-01</le></_></splits></_>
        <_>
          <depth>3</depth>
          <value>9.6960486322188455e-01</value>
          <splits>
            <_><var>2</var>
              <quality>3.1013635253906250e+02</quality>
              <le>5.8430423736572266e+00</le></_></splits></_>
        <_>
          <depth>4</depth>
          <value>8.8636363636363635e-01</value>
          <splits>
            <_><var>2</var>
              <quality>7.0744186401367188e+01</quality>
              <le>5.8286337852478027e+00</le></_></splits></_>
        <_>
          <depth>5</depth>
          <value>9.0697674418604646e-01</value></_>
        <_>
          <depth>5</depth>
          <value>0.</value></_>
        <_>
          <depth>4</depth>
          <value>1.</value></_>
        <_>
          <depth>3</depth>
          <value>1.6666666666666666e-01</value></_></nodes></_>
    <_>
      <nodes>
        <_>
          <depth>0</depth>
          <value>1.6306390977443608e-01</value>
          <splits>
            <_><var>5</var>
              <quality>2.5514999389648438e+02</quality>
              <le>-6.0707926750183105e-01</le></_></splits></_>
        <_>
          <depth>1</depth>
          <value>1.1137162954279016e-02</value>
          <splits>
            <_><var>2</var>
              <quality>4.4192543029785156e+00</quality>
              <le>5.3385639190673828e+00</le></_></splits></_>
        <_>
          <depth>2</depth>
          <value>1.8203883495145632e-03</value>
          <splits>
            <_><var>5</var>
              <quality>1.</quality>
              <le>-6.1306369304656982e-01</le></_></splits></_>
        <_>
          <depth>3</depth>
          <value>0.</value></_>
        <_>
          <depth>3</depth>
          <value>3.3333333333333331e-01</value></_>
        <_>
          <depth>2</depth>
          <value>2.7586206896551724e-01</value>
          <splits>
            <_><var>5</var>
              <quality>9.8461542129516602e+00</quality>
              <le>-7.3516255617141724e-01</le></_></splits></_>
        <_>
          <depth>3</depth>
          <value>0.</value></_>
        <_>
          <depth>3</depth>
          <value>6.1538461538461542e-01</value>
          <splits>
            <_><var>4</var>
              <quality>1.5090909004211426e+01</quality>
              <le>-4.6299386769533157e-02</le></_></splits></_>
        <_>
          <depth>4</depth>
          <value>9.0909090909090912e-02</value>
          <splits>
            <_><var>5</var>
              <quality>1.</quality>
              <le>-7.2176885604858398e-01</le></_></splits></_>
        <_>
          <depth>5</depth>
          <value>1.</value></_>
        <_>
          <depth>5</depth>
          <value>0.</value></_>
        <_>
          <depth>4</depth>
          <value>1.</value></_>
        <_>
          <depth>1</depth>
          <value>7.7725118483412325e-01</value>
          <splits>
            <_><var>4</var>
              <quality>2.6088577270507813e+02</quality>
              <le>4.9997681379318237e-01</le></_></splits></_>
        <_>
          <depth>2</depth>
          <value>7.9756097560975614e-01</value>
          <splits>
            <_><var>7</var>
              <quality>2.6934255981445313e+02</quality>
              <le>5.6959271430969238e-01</le></_></splits></_>
        <_>
          <depth>3</depth>
          <value>8.2367758186397988e-01</value>
          <splits>
            <_><var>1</var>
              <quality>3.0907742309570313e+02</quality>
              <le>3.5423362255096436e+00</le></_></splits></_>
        <_>
          <depth>4</depth>
          <value>9.5238095238095233e-02</value>
          <splits>
            <_><var>1</var>
              <quality>2.2500000000000000e+00</quality>
              <le>3.4411852359771729e+00</le></_></splits></_>
        <_>
          <depth>5</depth>
          <value>0.</value></_>
        <_>
          <depth>5</depth>
          <value>3.7500000000000000e-01</value></_>
        <_>
          <depth>4</depth>
          <value>9.6107784431137722e-01</value>
          <splits>
            <_><var>7</var>
              <quality>3.0948309326171875e+02</quality>
              <le>4.1187936067581177e-01</le></_></splits></_>
        <_>
          <depth>5</depth>
          <value>6.9230769230769229e-01</value></_>
        <_>
          <depth>5</depth>
          <value>9.7196261682242990e-01</value></_>
        <_>
          <depth>3</depth>
          <value>0.</value></_>
        <_>
          <depth>2</depth>
          <value>8.3333333333333329e-02</value>
          <splits>
            <_><var>4</var>
              <quality>1.</quality>
              <le>7.0183968544006348e-01</le></_></splits></_>
        <_>
          <depth>3</depth>
          <value>0.</value></_>
        <_>
          <depth>3</depth>
          <value>1.</value></_></nodes></_>
    <_>
      <nodes>
        <_>
          <depth>0</depth>
          <value>1.4473684210526316e-01</value>
          <splits>
            <_><var>2</var>
              <quality>2.3546324157714844e+02</quality>
              <le>5.3490738868713379e+00</le></_></splits></_>
        <_>
          <depth>1</depth>
          <value>1.8272425249169437e-02</value>
          <splits>
            <_><var>8</var>
              <quality>2.9883775711059570e+00</quality>
              <le>1.3579249382019043e-01</le></_></splits></_>
        <_>
          <depth>2</depth>
          <value>7.2551390568319227e-03</value>
          <splits>
            <_><var>7</var>
              <quality>1.9807428121566772e-01</quality>
              <le>5.4350763559341431e-01</le></_></splits></_>
        <_>
          <depth>3</depth>
          <value>1.6506189821182942e-02</value>
          <splits>
            <_><var>5</var>
              <quality>4.3535079956054688e+00</quality>
              <le>-6.1716783046722412e-01</le></_></splits></_>
        <_>
          <depth>4</depth>
          <value>2.8409090909090910e-03</value>
          <splits>
            <_><var>5</var>
              <quality>5.4794520139694214e-02</quality>
              <le>-6.7534780502319336e-01</le></_></splits></_>
        <_>
          <depth>5</depth>
          <value>0.</value></_>
        <_>
          <depth>5</depth>
          <value>2.7397260273972601e-02</value></_>
        <_>
          <depth>4</depth>
          <value>4.3478260869565216e-01</value>
          <splits>
            <_><var>3</var>
              <quality>6.3888888359069824e+00</quality>
              <le>5.0018858909606934e-01</le></_></splits></_>
        <_>
          <depth>5</depth>
          <value>2.7777777777777779e-01</value></_>
        <_>
          <depth>5</depth>
          <value>1.</value></_>
        <_>
          <depth>3</depth>
          <value>0.</value></_>
        <_>
          <depth>2</depth>
          <value>1.3815789473684212e-01</value>
          <splits>
            <_><var>1</var>
              <quality>1.3460432052612305e+01</quality>
              <le>3.6372692584991455e+00</le></_></splits></_>
        <_>
          <depth>3</depth>
          <value>5.7553956834532377e-02</value>
          <splits>
            <_><var>1</var>
              <quality>1.7240309715270996e+00</quality>
              <le>3.5833082199096680e+00</le></_></splits></_>
        <_>
          <depth>4</depth>
          <value>3.1007751937984496e-02</value>
          <splits>
            <_><var>0</var>
              <quality>5.9259259700775146e-01</quality>
              <le>4.0819940567016602e+00</le></_></splits></_>
        <_>
          <depth>5</depth>
          <value>0.</value></_>
        <_>
          <depth>5</depth>
          <value>1.4814814814814814e-01</value></_>
        <_>
          <depth>4</depth>
          <value>4.0000000000000002e-01</value></_>
        <_>
          <depth>3</depth>
          <value>1.</value></_>
        <_>
          <depth>1</depth>
          <value>8.5403726708074534e-01</value>
          <splits>
            <_><var>3</var>
              <quality>2.6911285400390625e+02</quality>
              <le>7.4827736616134644e-01</le></_></splits></_>
        <_>
          <depth>2</depth>
          <value>9.8207885304659504e-01</value>
          <splits>
            <_><var>2</var>
              <quality>2.7005755615234375e+02</quality>
              <le>5.3515000343322754e+00</le></_></splits></_>
        <_>
          <depth>3</depth>
          <value>0.</value></_>
        <_>
          <depth>3</depth>
          <value>9.8561151079136688e-01</value>
          <splits>
            <_><var>0</var>
              <quality>2.7103250122070313e+02</quality>
              <le>5.4066276550292969e+00</le></_></splits></_>
        <_>
          <depth>4</depth>
          <value>9.8916967509025266e-01</value>
          <splits>
            <_><var>0</var>
              <quality>2.7123077392578125e+02</quality>
              <le>4.1522216796875000e+00</le></_></splits></_>
        <_>
          <depth>5</depth>
          <value>9.2307692307692313e-01</value></_>
        <_>
          <depth>5</depth>
          <value>1.</value></_>
        <_>
          <depth>4</depth>
          <value>0.</value></_>
        <_>
          <depth>2</depth>
          <value>2.3255813953488372e-02</value>
          <splits>
            <_><var>3</var>
              <quality>1.4285714924335480e-01</quality>
              <le>7.8187525272369385e-01</le></_></splits></_>
        <_>
          <depth>3</depth>
          <value>1.4285714285714285e-01</value></_>
        <_>
          <depth>3</depth>
          <value>0.</value></_></nodes></_>
    <_>
      <nodes>
        <_>
          <depth>0</depth>
          <value>1.5648496240601503e-01</value>
          <splits>
            <_><var>5</var>
              <quality>2.3512948608398438e+02</quality>
              <le>-6.1997705698013306e-01</le></_></splits></_>
        <_>
          <depth>1</depth>
          <value>8.2595870206489674e-03</value>
          <splits>
            <_><var>5</var>
              <quality>4.6131262183189392e-01</quality>
              <le>-6.7534780502319336e-01</le></_></splits></_>
        <_>
          <depth>2</depth>
          <value>2.7155465037338763e-03</value>
          <splits>
            <_><var>2</var>
              <quality>5.3333336114883423e-01</quality>
              <le>5.3490738868713379e+00</le></_></splits></_>
        <_>
          <depth>3</depth>
          <value>0.</value></_>
        <_>
          <depth>3</depth>
          <value>1.3333333333333333e-01</value>
          <splits>
            <_><var>1</var>
              <quality>3.2000000476837158e+00</quality>
              <le>4.2955532073974609e+00</le></_></splits></_>
        <_>
          <depth>4</depth>
          <value>8.0000000000000004e-01</value></_>
        <_>
          <depth>4</depth>
          <value>0.</value></_>
        <_>
          <depth>2</depth>
          <value>4.5045045045045043e-02</value>
          <splits>
            <_><var>2</var>
              <quality>4.2859902381896973e+00</quality>
              <le>5.3175477981567383e+00</le></_></splits></_>
        <_>
          <depth>3</depth>
          <value>9.6618357487922701e-03</value>
          <splits>
            <_><var>3</var>
              <quality>1.3333334028720856e-01</quality>
              <le>5.3935903310775757e-01</le></_></splits></_>
        <_>
          <depth>4</depth>
          <value>0.</value></_>
        <_>
          <depth>4</depth>
          <value>6.6666666666666666e-02</value>
          <splits>
            <_><var>3</var>
              <quality>1.0344827175140381e+00</quality>
              <le>5.5313873291015625e-01</le></_></splits></_>
        <_>
          <depth>5</depth>
          <value>1.</value></_>
        <_>
          <depth>5</depth>
          <value>3.4482758620689655e-02</value></_>
        <_>
          <depth>3</depth>
          <value>5.3333333333333333e-01</value>
          <splits>
            <_><var>3</var>
              <quality>8.</quality>
              <le>7.2112840414047241e-01</le></_></splits></_>
        <_>
          <depth>4</depth>
          <value>1.</value></_>
        <_>
          <depth>4</depth>
          <value>0.</value></_>
        <_>
          <depth>1</depth>
          <value>7.3672055427251737e-01</value>
          <splits>
            <_><var>2</var>
              <quality>3.0467364501953125e+02</quality>
              <le>4.7162714004516602e+00</le></_></splits></_>
        <_>
          <depth>2</depth>
          <value>0.</value></_>
        <_>
          <depth>2</depth>
          <value>9.5508982035928147e-01</value>
          <splits>
            <_><var>3</var>
              <quality>3.0584390258789063e+02</quality>
              <le>6.1352819204330444e-01</le></_></splits></_>
        <_>
          <depth>3</depth>
          <value>9.6072507552870090e-01</value>
          <splits>
            <_><var>8</var>
              <quality>3.0627069091796875e+02</quality>
              <le>1.5034654736518860e-01</le></_></splits></_>
        <_>
          <depth>4</depth>
          <value>9.0225563909774431e-01</value>
          <splits>
            <_><var>8</var>
              <quality>1.0992366790771484e+02</quality>
              <le>1.4923588931560516e-01</le></_></splits></_>
        <_>
          <depth>5</depth>
          <value>9.1603053435114501e-01</value></_>
        <_>
          <depth>5</depth>
          <value>0.</value></_>
        <_>
          <depth>4</depth>
          <value>1.</value></_>
        <_>
          <depth>3</depth>
          <value>3.3333333333333331e-01</value></_></nodes></_>
    <_>
      <nodes>
        <_>
          <depth>0</depth>
          <value>1.7293233082706766e-01</value>
          <splits>
            <_><var>5</var>
              <quality>2.7288281250000000e+02</quality>
              <le>-6.1948597431182861e-01</le></_></splits></_>
        <_>
          <depth>1</depth>
          <value>7.8031212484993995e-03</value>
          <splits>
            <_><var>2</var>
              <quality>2.1252930164337158e+00</quality>
              <le>5.3385639190673828e+00</le></_></splits></_>
        <_>
          <depth>2</depth>
          <value>1.2430080795525170e-03</value>
          <splits>
            <_><var>2</var>
              <quality>3.0534351244568825e-02</quality>
              <le>4.9955930709838867e+00</le></_></splits></_>
        <_>
          <depth>3</depth>
          <value>0.</value></_>
        <_>
          <depth>3</depth>
          <value>1.5267175572519083e-02</value>
          <splits>
            <_><var>3</var>
              <quality>8.0000001192092896e-01</quality>
              <le>5.5120003223419189e-01</le></_></splits></_>
        <_>
          <depth>4</depth>
          <value>4.0000000000000002e-01</value></_>
        <_>
          <depth>4</depth>
          <value>0.</value></_>
        <_>
          <depth>2</depth>
          <value>1.9298245614035087e-01</value>
          <splits>
            <_><var>8</var>
              <quality>4.9245281219482422e+00</quality>
              <le>1.0202953219413757e-01</le></_></splits></_>
        <_>
          <depth>3</depth>
          <value>1.3207547169811321e-01</value>
          <splits>
            <_><var>3</var>
              <quality>2.7222223281860352e+00</quality>
              <le>7.8416687250137329e-01</le></_></splits></_>
        <_>
          <depth>4</depth>
          <value>3.8888888888888890e-01</value>
          <splits>
            <_><var>1</var>
              <quality>6.1250000000000000e+00</quality>
              <le>4.2147512435913086e+00</le></_></splits></_>
        <_>
          <depth>5</depth>
          <value>8.7500000000000000e-01</value></_>
        <_>
          <depth>5</depth>
          <value>0.</value></_>
        <_>
          <depth>4</depth>
          <value>0.</value></_>
        <_>
          <depth>3</depth>
          <value>1.</value></_>
        <_>
          <depth>1</depth>
          <value>7.6839826839826841e-01</value>
          <splits>
            <_><var>1</var>
              <quality>3.3077429199218750e+02</quality>
              <le>3.4375262260437012e+00</le></_></splits></_>
        <_>
          <depth>2</depth>
          <value>0.</value></_>
        <_>
          <depth>2</depth>
          <value>9.3175853018372701e-01</value>
          <splits>
            <_><var>4</var>
              <quality>3.3428381347656250e+02</quality>
              <le>-9.2472411692142487e-02</le></_></splits></_>
        <_>
          <depth>3</depth>
          <value>0.</value></_>
        <_>
          <depth>3</depth>
          <value>9.4164456233421756e-01</value>
          <splits>
            <_><var>2</var>
              <quality>3.3969003295898438e+02</quality>
              <le>4.6533336639404297e+00</le></_></splits></_>
        <_>
          <depth>4</depth>
          <value>0.</value></_>
        <_>
          <depth>4</depth>
          <value>9.5687331536388143e-01</value>
          <splits>
            <_><var>2</var>
              <quality>3.4128570556640625e+02</quality>
              <le>5.8394699096679688e+00</le></_></splits></_>
        <_>
          <depth>5</depth>
          <value>8.5714285714285710e-01</value></_>
        <_>
          <depth>5</depth>
          <value>1.</value></_></nodes></_>
    <_>
      <nodes>
        <_>
          <depth>0</depth>
          <value>1.5319548872180452e-01</value>
          <splits>
            <_><var>2</var>
              <quality>2.4526763916015625e+02</quality>
              <le>5.3746237754821777e+00</le></_></splits></_>
        <_>
          <depth>1</depth>
          <value>2.1775544388609715e-02</value>
          <splits>
            <_><var>5</var>
              <quality>9.2201766967773438e+00</quality>
              <le>-6.1360037326812744e-01</le></_></splits></_>
        <_>
          <depth>2</depth>
          <value>2.4125452352231603e-03</value>
          <splits>
            <_><var>2</var>
              <quality>1.1256060600280762e+00</quality>
              <le>5.3343620300292969e+00</le></_></splits></_>
        <_>
          <depth>3</depth>
          <value>6.0606060606060606e-04</value>
          <splits>
            <_><var>2</var>
              <quality>8.3333337679505348e-03</quality>
              <le>4.9955930709838867e+00</le></_></splits></_>
        <_>
          <depth>4</depth>
          <value>0.</value></_>
        <_>
          <depth>4</depth>
          <value>8.3333333333333332e-03</value>
          <splits>
            <_><var>2</var>
              <quality>1.</quality>
              <le>4.9956941604614258e+00</le></_></splits></_>
        <_>
          <depth>5</depth>
          <value>1.</value></_>
        <_>
          <depth>5</depth>
          <value>0.</value></_>
        <_>
          <depth>3</depth>
          <value>3.7500000000000000e-01</value></_>
        <_>
          <depth>2</depth>
          <value>2.6315789473684209e-01</value>
          <splits>
            <_><var>2</var>
              <quality>3.3108108520507813e+01</quality>
              <le>4.7687401771545410e+00</le></_></splits></_>
        <_>
          <depth>3</depth>
          <value>0.</value></_>
        <_>
          <depth>3</depth>
          <value>9.4594594594594594e-01</value>
          <splits>
            <_><var>2</var>
              <quality>3.3280303955078125e+01</quality>
              <le>4.9300041198730469e+00</le></_></splits></_>
        <_>
          <depth>4</depth>
          <value>7.5000000000000000e-01</value></_>
        <_>
          <depth>4</depth>
          <value>9.6969696969696972e-01</value>
          <splits>
            <_><var>5</var>
              <quality>3.1071428298950195e+01</quality>
              <le>-5.7036226987838745e-01</le></_></splits></_>
        <_>
          <depth>5</depth>
          <value>9.2857142857142860e-01</value></_>
        <_>
          <depth>5</depth>
          <value>1.</value></_>
        <_>
          <depth>1</depth>
          <value>8.5163204747774479e-01</value>
          <splits>
            <_><var>8</var>
              <quality>2.7548098754882813e+02</quality>
              <le>1.0202953219413757e-01</le></_></splits></_>
        <_>
          <depth>2</depth>
          <value>6.8181818181818177e-02</value>
          <splits>
            <_><var>2</var>
              <quality>3.</quality>
              <le>5.4100456237792969e+00</le></_></splits></_>
        <_>
          <depth>3</depth>
          <value>1.</value></_>
        <_>
          <depth>3</depth>
          <value>0.</value></_>
        <_>
          <depth>2</depth>
          <value>9.6928327645051193e-01</value>
          <splits>
            <_><var>0</var>
              <quality>2.7635000610351563e+02</quality>
              <le>4.2169370651245117e+00</le></_></splits></_>
        <_>
          <depth>3</depth>
          <value>8.4999999999999998e-01</value>
          <splits>
            <_><var>3</var>
              <quality>4.5681819915771484e+01</quality>
              <le>3.0612888932228088e-01</le></_></splits></_>
        <_>
          <depth>4</depth>
          <value>1.</value></_>
        <_>
          <depth>4</depth>
          <value>5.9090909090909094e-01</value>
          <splits>
            <_><var>6</var>
              <quality>13.</quality>
              <le>3.9300951361656189e-01</le></_></splits></_>
        <_>
          <depth>5</depth>
          <value>1.</value></_>
        <_>
          <depth>5</depth>
          <value>0.</value></_>
        <_>
          <depth>3</depth>
          <value>1.</value></_></nodes></_>
    <_>
      <nodes>
        <_>
          <depth>0</depth>
          <value>1.7011278195488722e-01</value>
          <splits>
            <_><var>5</var>
              <quality>2.4836599731445313e+02</quality>
              <le>-6.1997705698013306e-01</le></_></splits></_>
        <_>
          <depth>1</depth>
          <value>6.1387354205033762e-03</value>
          <splits>
            <_><var>5</var>
              <quality>1.0945707559585571e+00</quality>
              <le>-6.3798534870147705e-01</le></_></splits></_>
        <_>
          <depth>2</depth>
          <value>1.8939393939393940e-03</value>
          <splits>
            <_><var>7</var>
              <quality>4.5454546809196472e-02</quality>
              <le>4.3914884328842163e-01</le></_></splits></_>
        <_>
          <depth>3</depth>
          <value>1.5151515151515152e-02</value>
          <splits>
            <_><var>6</var>
              <quality>2.2500000000000000e+00</quality>
              <le>4.7740364074707031e-01</le></_></splits></_>
        <_>
          <depth>4</depth>
          <value>7.5000000000000000e-01</value></_>
        <_>
          <depth>4</depth>
          <value>0.</value></_>
        <_>
          <depth>3</depth>
          <value>0.</value></_>
        <_>
          <depth>2</depth>
          <value>1.5555555555555556e-01</value>
          <splits>
            <_><var>2</var>
              <quality>5.4444446563720703e+00</quality>
              <le>5.6804504394531250e+00</le></_></splits></_>
        <_>
          <depth>3</depth>
          <value>0.</value></_>
        <_>
          <depth>3</depth>
          <value>7.7777777777777779e-01</value></_>
        <_>
          <depth>1</depth>
          <value>7.0541082164328661e-01</value>
          <splits>
            <_><var>2</var>
              <quality>3.4133334350585938e+02</quality>
              <le>4.7162714004516602e+00</le></_></splits></_>
        <_>
          <depth>2</depth>
          <value>0.</value></_>
        <_>
          <depth>2</depth>
          <value>9.6969696969696972e-01</value>
          <splits>
            <_><var>4</var>
              <quality>3.4255831909179688e+02</quality>
              <le>4.8901766538619995e-01</le></_></splits></_>
        <_>
          <depth>3</depth>
          <value>9.7499999999999998e-01</value>
          <splits>
            <_><var>3</var>
              <quality>3.4413687133789063e+02</quality>
              <le>6.3695120811462402e-01</le></_></splits></_>
        <_>
          <depth>4</depth>
          <value>9.8044692737430172e-01</value>
          <splits>
            <_><var>1</var>
              <quality>3.4442242431640625e+02</quality>
              <le>3.9661777019500732e+00</le></_></splits></_>
        <_>
          <depth>5</depth>
          <value>9.3965517241379315e-01</value></_>
        <_>
          <depth>5</depth>
          <value>1.</value></_>
        <_>
          <depth>4</depth>
          <value>0.</value></_>
        <_>
          <depth>3</depth>
          <value>3.3333333333333331e-01</value></_></nodes></_>
    <_>
      <nodes>
        <_>
          <depth>0</depth>
          <value>1.6259398496240601e-01</value>
          <splits>
            <_><var>1</var>
              <quality>1.0521892547607422e+02</quality>
              <le>3.8305788040161133e+00</le></_></splits></_>
        <_>
          <depth>1</depth>
          <value>4.1538461538461538e-02</value>
          <splits>
            <_><var>2</var>
              <quality>4.5069892883300781e+01</quality>
              <le>4.9300041198730469e+00</le></_></splits></_>
        <_>
          <depth>2</depth>
          <value>1.6129032258064516e-03</value>
          <splits>
            <_><var>2</var>
              <quality>8.0000001192092896e-01</quality>
              <le>4.8973779678344727e+00</le></_></splits></_>
        <_>
          <depth>3</depth>
          <value>0.</value></_>
        <_>
          <depth>3</depth>
          <value>4.0000000000000002e-01</value></_>
        <_>
          <depth>2</depth>
          <value>8.6666666666666670e-01</value>
          <splits>
            <_><var>8</var>
              <quality>5.1018867492675781e+01</quality>
              <le>1.1607794463634491e-01</le></_></splits></_>
        <_>
          <depth>3</depth>
          <value>0.</value></_>
        <_>
          <depth>3</depth>
          <value>9.8113207547169812e-01</value>
          <splits>
            <_><var>7</var>
              <quality>52.</quality>
              <le>5.7396680116653442e-01</le></_></splits></_>
        <_>
          <depth>4</depth>
          <value>1.</value></_>
        <_>
          <depth>4</depth>
          <value>0.</value></_>
        <_>
          <depth>1</depth>
          <value>3.5265700483091789e-01</value>
          <splits>
            <_><var>8</var>
              <quality>2.6526940917968750e+02</quality>
              <le>1.0904221236705780e-01</le></_></splits></_>
        <_>
          <depth>2</depth>
          <value>1.8939393939393940e-02</value>
          <splits>
            <_><var>7</var>
              <quality>3.4520858526229858e-01</quality>
              <le>4.3914884328842163e-01</le></_></splits></_>
        <_>
          <depth>3</depth>
          <value>3.7974683544303799e-02</value>
          <splits>
            <_><var>3</var>
              <quality>4.9176211357116699e+00</quality>
              <le>7.4827736616134644e-01</le></_></splits></_>
        <_>
          <depth>4</depth>
          <value>6.9999999999999996e-01</value></_>
        <_>
          <depth>4</depth>
          <value>8.8105726872246704e-03</value>
          <splits>
            <_><var>4</var>
              <quality>2.6666668057441711e-01</quality>
              <le>-5.8359377086162567e-02</le></_></splits></_>
        <_>
          <depth>5</depth>
          <value>0.</value></_>
        <_>
          <depth>5</depth>
          <value>1.3333333333333333e-01</value></_>
        <_>
          <depth>3</depth>
          <value>3.4364261168384879e-03</value>
          <splits>
            <_><var>6</var>
              <quality>9.7087379544973373e-03</quality>
              <le>4.3042886257171631e-01</le></_></splits></_>
        <_>
          <depth>4</depth>
          <value>9.7087378640776691e-03</value>
          <splits>
            <_><var>6</var>
              <quality>1.</quality>
              <le>4.2950868606567383e-01</le></_></splits></_>
        <_>
          <depth>5</depth>
          <value>0.</value></_>
        <_>
          <depth>5</depth>
          <value>1.</value></_>
        <_>
          <depth>4</depth>
          <value>0.</value></_>
        <_>
          <depth>2</depth>
          <value>9.3999999999999995e-01</value>
          <splits>
            <_><var>2</var>
              <quality>2.7402951049804688e+02</quality>
              <le>5.1878118515014648e+00</le></_></splits></_>
        <_>
          <depth>3</depth>
          <value>2.3529411764705882e-01</value>
          <splits>
            <_><var>3</var>
              <quality>2.6666667461395264e+00</quality>
              <le>5.4546880722045898e-01</le></_></splits></_>
        <_>
          <depth>4</depth>
          <value>0.</value></_>
        <_>
          <depth>4</depth>
          <value>6.6666666666666663e-01</value></_>
        <_>
          <depth>3</depth>
          <value>9.8233215547703179e-01</value>
          <splits>
            <_><var>8</var>
              <quality>2.7403225708007813e+02</quality>
              <le>1.1108295619487762e-01</le></_></splits></_>
        <_>
          <depth>4</depth>
          <value>5.0000000000000000e-01</value></_>
        <_>
          <depth>4</depth>
          <value>9.8924731182795700e-01</value>
          <splits>
            <_><var>7</var>
              <quality>2.7326455688476563e+02</quality>
              <le>4.0328255295753479e-01</le></_></splits></_>
        <_>
          <depth>5</depth>
          <value>7.5000000000000000e-01</value></_>
        <_>
          <depth>5</depth>
          <value>9.9272727272727268e-01</value></_></nodes></_>
    <_>
      <nodes>
        <_>
          <depth>0</depth>
          <value>1.6353383458646617e-01</value>
          <splits>
            <_><var>8</var>
              <quality>1.7347702026367188e+02</quality>
              <le>1.4422176778316498e-01</le></_></splits></_>
        <_>
          <depth>1</depth>
          <value>6.7069818581638269e-02</value>
          <splits>
            <_><var>5</var>
              <quality>8.3769790649414063e+01</quality>
              <le>-6.1994189023971558e-01</le></_></splits></_>
        <_>
          <depth>2</depth>
          <value>7.7519379844961239e-03</value>
          <splits>
            <_><var>5</var>
              <quality>6.4811784029006958e-01</quality>
              <le>-6.5826934576034546e-01</le></_></splits></_>
        <_>
          <depth>3</depth>
          <value>2.5806451612903226e-03</value>
          <splits>
            <_><var>2</var>
              <quality>4.5714285969734192e-01</quality>
              <le>5.3377113342285156e+00</le></_></splits></_>
        <_>
          <depth>4</depth>
          <value>0.</value></_>
        <_>
          <depth>4</depth>
          <value>1.1428571428571428e-01</value>
          <splits>
            <_><var>7</var>
              <quality>8.0000001192092896e-01</quality>
              <le>4.2060238122940063e-01</le></_></splits></_>
        <_>
          <depth>5</depth>
          <value>0.</value></_>
        <_>
          <depth>5</depth>
          <value>2.0000000000000001e-01</value></_>
        <_>
          <depth>3</depth>
          <value>7.0866141732283464e-02</value>
          <splits>
            <_><var>8</var>
              <quality>3.3750000000000000e+00</quality>
              <le>1.1041483283042908e-01</le></_></splits></_>
        <_>
          <depth>4</depth>
          <value>3.7500000000000000e-01</value>
          <splits>
            <_><var>2</var>
              <quality>5.0625000000000000e+00</quality>
              <le>4.8778486251831055e+00</le></_></splits></_>
        <_>
          <depth>5</depth>
          <value>0.</value></_>
        <_>
          <depth>5</depth>
          <value>5.6250000000000000e-01</value></_>
        <_>
          <depth>4</depth>
          <value>0.</value></_>
        <_>
          <depth>2</depth>
          <value>7.6760563380281688e-01</value>
          <splits>
            <_><var>0</var>
              <quality>9.3291824340820313e+01</quality>
              <le>4.0693254470825195e+00</le></_></splits></_>
        <_>
          <depth>3</depth>
          <value>1.0526315789473684e-01</value>
          <splits>
            <_><var>3</var>
              <quality>2.</quality>
              <le>4.1404020786285400e-01</le></_></splits></_>
        <_>
          <depth>4</depth>
          <value>0.</value></_>
        <_>
          <depth>4</depth>
          <value>1.</value></_>
        <_>
          <depth>3</depth>
          <value>8.6991869918699183e-01</value>
          <splits>
            <_><var>2</var>
              <quality>9.6210083007812500e+01</quality>
              <le>4.6617307662963867e+00</le></_></splits></_>
        <_>
          <depth>4</depth>
          <value>0.</value></_>
        <_>
          <depth>4</depth>
          <value>8.9915966386554624e-01</value>
          <splits>
            <_><var>5</var>
              <quality>9.8698272705078125e+01</quality>
              <le>-4.8170217871665955e-01</le></_></splits></_>
        <_>
          <depth>5</depth>
          <value>9.2241379310344829e-01</value></_>
        <_>
          <depth>5</depth>
          <value>0.</value></_>
        <_>
          <depth>1</depth>
          <value>7.3139158576051777e-01</value>
          <splits>
            <_><var>2</var>
              <quality>2.2110823059082031e+02</quality>
              <le>4.8200407028198242e+00</le></_></splits></_>
        <_>
          <depth>2</depth>
          <value>0.</value></_>
        <_>
          <depth>2</depth>
          <value>9.7835497835497831e-01</value>
          <splits>
            <_><var>4</var>
              <quality>2.2214294433593750e+02</quality>
              <le>-3.0360259115695953e-02</le></_></splits></_>
        <_>
          <depth>3</depth>
          <value>6.2500000000000000e-01</value></_>
        <_>
          <depth>3</depth>
          <value>9.9103139013452912e-01</value>
          <splits>
            <_><var>3</var>
              <quality>2.1930769348144531e+02</quality>
              <le>4.1543567180633545e-01</le></_></splits></_>
        <_>
          <depth>4</depth>
          <value>1.</value></_>
        <_>
          <depth>4</depth>
          <value>8.4615384615384615e-01</value>
          <splits>
            <_><var>0</var>
              <quality>1.0333333015441895e+01</quality>
              <le>4.5792808532714844e+00</le></_></splits></_>
        <_>
          <depth>5</depth>
          <value>3.3333333333333331e-01</value></_>
        <_>
          <depth>5</depth>
          <value>1.</value></_></nodes></_>
    <_>
      <nodes>
        <_>
          <depth>0</depth>
          <value>1.6917293233082706e-01</value>
          <splits>
            <_><var>8</var>
              <quality>1.8996330261230469e+02</quality>
              <le>1.4784976840019226e-01</le></_></splits></_>
        <_>
          <depth>1</depth>
          <value>7.0376432078559745e-02</value>
          <splits>
            <_><var>1</var>
              <quality>2.2312965393066406e+01</quality>
              <le>3.8583352565765381e+00</le></_></splits></_>
        <_>
          <depth>2</depth>
          <value>1.3438735177865613e-02</value>
          <splits>
            <_><var>2</var>
              <quality>1.4223024368286133e+01</quality>
              <le>4.9339885711669922e+00</le></_></splits></_>
        <_>
          <depth>3</depth>
          <value>8.0192461908580592e-04</value>
          <splits>
            <_><var>7</var>
              <quality>4.5454544015228748e-03</quality>
              <le>5.4350763559341431e-01</le></_></splits></_>
        <_>
          <depth>4</depth>
          <value>4.5454545454545452e-03</value>
          <splits>
            <_><var>7</var>
              <quality>1.</quality>
              <le>5.4338598251342773e-01</le></_></splits></_>
        <_>
          <depth>5</depth>
          <value>0.</value></_>
        <_>
          <depth>5</depth>
          <value>1.</value></_>
        <_>
          <depth>4</depth>
          <value>0.</value></_>
        <_>
          <depth>3</depth>
          <value>8.8888888888888884e-01</value>
          <splits>
            <_><var>8</var>
              <quality>1.5333333015441895e+01</quality>
              <le>1.2389103323221207e-01</le></_></splits></_>
        <_>
          <depth>4</depth>
          <value>3.3333333333333331e-01</value></_>
        <_>
          <depth>4</depth>
          <value>1.</value></_>
        <_>
          <depth>2</depth>
          <value>1.9718309859154928e-01</value>
          <splits>
            <_><var>2</var>
              <quality>7.3611717224121094e+01</quality>
              <le>5.5773911476135254e+00</le></_></splits></_>
        <_>
          <depth>3</depth>
          <value>4.6255506607929514e-02</value>
          <splits>
            <_><var>3</var>
              <quality>4.1209878921508789e+00</quality>
              <le>5.8857023715972900e-01</le></_></splits></_>
        <_>
          <depth>4</depth>
          <value>2.8571428571428570e-01</value>
          <splits>
            <_><var>4</var>
              <quality>1.0592803001403809e+01</quality>
              <le>7.7264092862606049e-02</le></_></splits></_>
        <_>
          <depth>5</depth>
          <value>8.1250000000000000e-01</value></_>
        <_>
          <depth>5</depth>
          <value>3.0303030303030304e-02</value></_>
        <_>
          <depth>4</depth>
          <value>1.7283950617283949e-02</value>
          <splits>
            <_><var>5</var>
              <quality>9.4230771064758301e-01</quality>
              <le>-7.2611314058303833e-01</le></_></splits></_>
        <_>
          <depth>5</depth>
          <value>0.</value></_>
        <_>
          <depth>5</depth>
          <value>1.3461538461538461e-01</value></_>
        <_>
          <depth>3</depth>
          <value>7.9824561403508776e-01</value>
          <splits>
            <_><var>6</var>
              <quality>8.6260414123535156e+01</quality>
              <le>4.8451998829841614e-01</le></_></splits></_>
        <_>
          <depth>4</depth>
          <value>9.4791666666666663e-01</value>
          <splits>
            <_><var>2</var>
              <quality>8.7388885498046875e+01</quality>
              <le>5.7706274986267090e+00</le></_></splits></_>
        <_>
          <depth>5</depth>
          <value>7.2222222222222221e-01</value></_>
        <_>
          <depth>5</depth>
          <value>1.</value></_>
        <_>
          <depth>4</depth>
          <value>0.</value></_>
        <_>
          <depth>1</depth>
          <value>7.8305084745762710e-01</value>
          <splits>
            <_><var>1</var>
              <quality>2.2420588684082031e+02</quality>
              <le>3.5358052253723145e+00</le></_></splits></_>
        <_>
          <depth>2</depth>
          <value>0.</value></_>
        <_>
          <depth>2</depth>
          <value>9.7058823529411764e-01</value>
          <splits>
            <_><var>6</var>
              <quality>2.2706808471679688e+02</quality>
              <le>4.7750204801559448e-01</le></_></splits></_>
        <_>
          <depth>3</depth>
          <value>9.8297872340425529e-01</value>
          <splits>
            <_><var>8</var>
              <quality>2.2768412780761719e+02</quality>
              <le>1.5061655640602112e-01</le></_></splits></_>
        <_>
          <depth>4</depth>
          <value>6.6666666666666663e-01</value></_>
        <_>
          <depth>4</depth>
          <value>9.9126637554585151e-01</value>
          <splits>
            <_><var>3</var>
              <quality>2.2507142639160156e+02</quality>
              <le>3.2341158390045166e-01</le></_></splits></_>
        <_>
          <depth>5</depth>
          <value>1.</value></_>
        <_>
          <depth>5</depth>
          <value>9.6428571428571430e-01</value></_>
        <_>
          <depth>3</depth>
          <value>0.</value></_></nodes></_>
    <_>
      <nodes>
        <_>
          <depth>0</depth>
          <value>1.5084586466165414e-01</value>
          <splits>
            <_><var>8</var>
              <quality>1.5548570251464844e+02</quality>
              <le>1.4546528458595276e-01</le></_></splits></_>
        <_>
          <depth>1</depth>
          <value>6.5158858373721054e-02</value>
          <splits>
            <_><var>2</var>
              <quality>6.4781852722167969e+01</quality>
              <le>5.3490738868713379e+00</le></_></splits></_>
        <_>
          <depth>2</depth>
          <value>1.4026884862653419e-02</value>
          <splits>
            <_><var>5</var>
              <quality>9.0054149627685547e+00</quality>
              <le>-6.1528158187866211e-01</le></_></splits></_>
        <_>
          <depth>3</depth>
          <value>1.8050541516245488e-03</value>
          <splits>
            <_><var>2</var>
              <quality>6.3380278646945953e-02</quality>
              <le>4.9944210052490234e+00</le></_></splits></_>
        <_>
          <depth>4</depth>
          <value>0.</value></_>
        <_>
          <depth>4</depth>
          <value>2.1126760563380281e-02</value>
          <splits>
            <_><var>2</var>
              <quality>2.0071427822113037e+00</quality>
              <le>4.9958152770996094e+00</le></_></splits></_>
        <_>
          <depth>5</depth>
          <value>1.</value></_>
        <_>
          <depth>5</depth>
          <value>7.1428571428571426e-03</value></_>
        <_>
          <depth>3</depth>
          <value>4.2857142857142855e-01</value>
          <splits>
            <_><var>2</var>
              <quality>1.4699999809265137e+01</quality>
              <le>4.6685962677001953e+00</le></_></splits></_>
        <_>
          <depth>4</depth>
          <value>0.</value></_>
        <_>
          <depth>4</depth>
          <value>6.9999999999999996e-01</value>
          <splits>
            <_><var>8</var>
              <quality>1.6961538314819336e+01</quality>
              <le>1.0988977551460266e-01</le></_></splits></_>
        <_>
          <depth>5</depth>
          <value>0.</value></_>
        <_>
          <depth>5</depth>
          <value>8.0769230769230771e-01</value></_>
        <_>
          <depth>2</depth>
          <value>6.6438356164383561e-01</value>
          <splits>
            <_><var>8</var>
              <quality>8.8788055419921875e+01</quality>
              <le>9.5576100051403046e-02</le></_></splits></_>
        <_>
          <depth>3</depth>
          <value>1.1538461538461539e-01</value>
          <splits>
            <_><var>1</var>
              <quality>5.1428570747375488e+00</quality>
              <le>4.2122230529785156e+00</le></_></splits></_>
        <_>
          <depth>4</depth>
          <value>8.5714285714285710e-01</value></_>
        <_>
          <depth>4</depth>
          <value>0.</value></_>
        <_>
          <depth>3</depth>
          <value>9.6808510638297873e-01</value>
          <splits>
            <_><var>8</var>
              <quality>9.0010871887207031e+01</quality>
              <le>1.4470005035400391e-01</le></_></splits></_>
        <_>
          <depth>4</depth>
          <value>9.8913043478260865e-01</value>
          <splits>
            <_><var>3</var>
              <quality>91.</quality>
              <le>7.1764421463012695e-01</le></_></splits></_>
        <_>
          <depth>5</depth>
          <value>1.</value></_>
        <_>
          <depth>5</depth>
          <value>0.</value></_>
        <_>
          <depth>4</depth>
          <value>0.</value></_>
        <_>
          <depth>1</depth>
          <value>7.3800738007380073e-01</value>
          <splits>
            <_><var>0</var>
              <quality>1.7204039001464844e+02</quality>
              <le>3.9421536922454834e+00</le></_></splits></_>
        <_>
          <depth>2</depth>
          <value>4.6511627906976744e-02</value>
          <splits>
            <_><var>1</var>
              <quality>2.</quality>
              <le>3.5986752510070801e+00</le></_></splits></_>
        <_>
          <depth>3</depth>
          <value>0.</value></_>
        <_>
          <depth>3</depth>
          <value>1.</value></_>
        <_>
          <depth>2</depth>
          <value>8.6842105263157898e-01</value>
          <splits>
            <_><var>4</var>
              <quality>1.8062347412109375e+02</quality>
              <le>-3.0227791517972946e-02</le></_></splits></_>
        <_>
          <depth>3</depth>
          <value>1.3333333333333333e-01</value>
          <splits>
            <_><var>5</var>
              <quality>2.</quality>
              <le>-4.0603518486022949e-01</le></_></splits></_>
        <_>
          <depth>4</depth>
          <value>1.</value></_>
        <_>
          <depth>4</depth>
          <value>0.</value></_>
        <_>
          <depth>3</depth>
          <value>9.2018779342723001e-01</value>
          <splits>
            <_><var>5</var>
              <quality>1.8386231994628906e+02</quality>
              <le>-2.8248822689056396e-01</le></_></splits></_>
        <_>
          <depth>4</depth>
          <value>9.4202898550724634e-01</value>
          <splits>
            <_><var>1</var>
              <quality>195.</quality>
              <le>3.5358052253723145e+00</le></_></splits></_>
        <_>
          <depth>5</depth>
          <value>0.</value></_>
        <_>
          <depth>5</depth>
          <value>1.</value></_>
        <_>
          <depth>4</depth>
          <value>1.6666666666666666e-01</value></_></nodes></_>
    <_>
      <nodes>
        <_>
          <depth>0</depth>
          <value>1.4238721804511278e-01</value>
          <splits>
            <_><var>5</var>
              <quality>2.2375144958496094e+02</quality>
              <le>-6.1636269092559814e-01</le></_></splits></_>
        <_>
          <depth>1</depth>
          <value>4.6003450258769408e-03</value>
          <splits>
            <_><var>2</var>
              <quality>9.5522385835647583e-01</quality>
              <le>5.3385639190673828e+00</le></_></splits></_>
        <_>
          <depth>2</depth>
          <value>0.</value></_>
        <_>
          <depth>2</depth>
          <value>1.1940298507462686e-01</value>
          <splits>
            <_><var>3</var>
              <quality>3.3441557884216309e+00</quality>
              <le>7.2004473209381104e-01</le></_></splits></_>
        <_>
          <depth>3</depth>
          <value>5.4545454545454541e-01</value>
          <splits>
            <_><var>4</var>
              <quality>4.5000000000000000e+00</quality>
              <le>1.1678676307201385e-01</le></_></splits></_>
        <_>
          <depth>4</depth>
          <value>7.5000000000000000e-01</value></_>
        <_>
          <depth>4</depth>
          <value>0.</value></_>
        <_>
          <depth>3</depth>
          <value>3.5714285714285712e-02</value>
          <splits>
            <_><var>2</var>
