<?xml version="1.0"?>
<opencv_storage>
<opencv_ml_rtrees>
  <format>3</format>
  <is_classifier>0</is_classifier>
  <var_all>10</var_all>
  <var_count>9</var_count>
  <ord_var_count>10</ord_var_count>
  <cat_var_count>0</cat_var_count>
  <training_params>
    <use_surrogates>0</use_surrogates>
    <max_categories>10</max_categories>
    <regression_accuracy>9.9999997473787516e-05</regression_accuracy>
    <max_depth>5</max_depth>
    <min_sample_count>10</min_sample_count>
    <cross_validation_folds>0</cross_validation_folds>
    <nactive_vars>0</nactive_vars></training_params>
  <global_var_idx>1</global_var_idx>
  <var_idx>
    0 1 2 3 4 5 6 7 8</var_idx>
  <var_type>
    0 0 0 0 0 0 0 0 0 0</var_type>
  <cat_ofs>
    0 0 0 0 0 0 0 0 0 0 0 0 0 0 0 0 0 0</cat_ofs>
  <missing_subst>
    0. 0. 0. 0. 0. 0. 0. 0. 0. 0.</missing_subst>
  <oob_error>1.0053919797548140e-02</oob_error>
  <var_importance>
    3.06770485e-02 5.64389713e-02 3.79826903e-01 6.62815347e-02
    5.05058914e-02 1.57411247e-01 4.06040698e-02 8.22266117e-02
    1.36027738e-01</var_importance>
  <ntrees>100</ntrees>
  <trees>
    <_>
      <nodes>
        <_>
          <depth>0</depth>
          <value>1.5177713736791545e-01</value>
          <splits>
            <_><var>2</var>
              <quality>2.4122883605957031e+02</quality>
              <le>5.3795204162597656e+00</le></_></splits></_>
        <_>
          <depth>1</depth>
          <value>2.0501138952164009e-02</value>
          <splits>
            <_><var>2</var>
              <quality>5.6687040328979492e+00</quality>
              <le>4.9955930709838867e+00</le></_></splits></_>
        <_>
          <depth>2</depth>
          <value>3.1525851197982345e-03</value>
          <splits>
            <_><var>8</var>
              <quality>5.3648069500923157e-02</quality>
              <le>1.1543935537338257e-01</le></_></splits></_>
        <_>
          <depth>3</depth>
          <value>0.</value></_>
        <_>
          <depth>3</depth>
          <value>1.0729613733905579e-02</value>
          <splits>
            <_><var>2</var>
              <quality>2.0021834373474121e+00</quality>
              <le>4.9040446281433105e+00</le></_></splits></_>
        <_>
          <depth>4</depth>
          <value>2.1834061135371178e-03</value>
          <splits>
            <_><var>1</var>
              <quality>5.0000000000000000e-01</quality>
              <le>3.9577941894531250e+00</le></_></splits></_>
        <_>
          <depth>5</depth>
          <value>0.</value></_>
        <_>
          <depth>5</depth>
          <value>5.0000000000000000e-01</value></_>
        <_>
          <depth>4</depth>
          <value>5.0000000000000000e-01</value></_>
        <_>
          <depth>2</depth>
          <value>1.8235294117647058e-01</value>
          <splits>
            <_><var>8</var>
              <quality>2.1671140670776367e+01</quality>
              <le>1.3399088382720947e-01</le></_></splits></_>
        <_>
          <depth>3</depth>
          <value>6.7114093959731544e-02</value>
          <splits>
            <_><var>8</var>
              <quality>2.9505348205566406e+00</quality>
              <le>1.0989706963300705e-01</le></_></splits></_>
        <_>
          <depth>4</depth>
          <value>2.2727272727272728e-02</value>
          <splits>
            <_><var>5</var>
              <quality>5.6250000000000000e-01</quality>
              <le>-6.7708390951156616e-01</le></_></splits></_>
        <_>
          <depth>5</depth>
          <value>0.</value></_>
        <_>
          <depth>5</depth>
          <value>1.8750000000000000e-01</value></_>
        <_>
          <depth>4</depth>
          <value>4.1176470588235292e-01</value>
          <splits>
            <_><var>7</var>
              <quality>4.0833334922790527e+00</quality>
              <le>5.0992798805236816e-01</le></_></splits></_>
        <_>
          <depth>5</depth>
          <value>5.8333333333333337e-01</value></_>
        <_>
          <depth>5</depth>
          <value>0.</value></_>
        <_>
          <depth>3</depth>
          <value>1.</value></_>
        <_>
          <depth>1</depth>
          <value>8.5889570552147243e-01</value>
          <splits>
            <_><var>8</var>
              <quality>2.7030755615234375e+02</quality>
              <le>9.4705447554588318e-02</le></_></splits></_>
        <_>
          <depth>2</depth>
          <value>2.6315789473684209e-02</value>
          <splits>
            <_><var>5</var>
              <quality>1.4285714924335480e-01</quality>
              <le>-6.6214323043823242e-01</le></_></splits></_>
        <_>
          <depth>3</depth>
          <value>0.</value></_>
        <_>
          <depth>3</depth>
          <value>1.4285714285714285e-01</value></_>
        <_>
          <depth>2</depth>
          <value>9.6875000000000000e-01</value>
          <splits>
            <_><var>2</var>
              <quality>2.7126562500000000e+02</quality>
              <le>5.7956018447875977e+00</le></_></splits></_>
        <_>
          <depth>3</depth>
          <value>8.5937500000000000e-01</value>
          <splits>
            <_><var>2</var>
              <quality>4.8967460632324219e+01</quality>
              <le>5.7344293594360352e+00</le></_></splits></_>
        <_>
          <depth>4</depth>
          <value>9.5744680851063835e-01</value>
          <splits>
            <_><var>6</var>
              <quality>4.3666667938232422e+01</quality>
              <le>4.5765244960784912e-01</le></_></splits></_>
        <_>
          <depth>5</depth>
          <value>1.</value></_>
        <_>
          <depth>5</depth>
          <value>6.6666666666666663e-01</value></_>
        <_>
          <depth>4</depth>
          <value>5.8823529411764708e-01</value>
          <splits>
            <_><var>7</var>
              <quality>10.</quality>
              <le>4.6024277806282043e-01</le></_></splits></_>
        <_>
          <depth>5</depth>
          <value>0.</value></_>
        <_>
          <depth>5</depth>
          <value>1.</value></_>
        <_>
          <depth>3</depth>
          <value>1.</value></_></nodes></_>
    <_>
      <nodes>
        <_>
          <depth>0</depth>
          <value>1.4409221902017291e-01</value>
          <splits>
            <_><var>2</var>
              <quality>2.3503109741210938e+02</quality>
              <le>5.3007035255432129e+00</le></_></splits></_>
        <_>
          <depth>1</depth>
          <value>9.7645031591039634e-03</value>
          <splits>
            <_><var>5</var>
              <quality>2.0471377372741699e+00</quality>
              <le>-6.1021274328231812e-01</le></_></splits></_>
        <_>
          <depth>2</depth>
          <value>1.8237082066869300e-03</value>
          <splits>
            <_><var>5</var>
              <quality>6.5693430602550507e-02</quality>
              <le>-6.5842926502227783e-01</le></_></splits></_>
        <_>
          <depth>3</depth>
          <value>0.</value></_>
        <_>
          <depth>3</depth>
          <value>2.1897810218978103e-02</value>
          <splits>
            <_><var>1</var>
              <quality>3.4133332967758179e-01</quality>
              <le>3.8298785686492920e+00</le></_></splits></_>
        <_>
          <depth>4</depth>
          <value>8.0000000000000002e-03</value>
          <splits>
            <_><var>5</var>
              <quality>1.</quality>
              <le>-6.5806633234024048e-01</le></_></splits></_>
        <_>
          <depth>5</depth>
          <value>1.</value></_>
        <_>
          <depth>5</depth>
          <value>0.</value></_>
        <_>
          <depth>4</depth>
          <value>1.6666666666666666e-01</value>
          <splits>
            <_><var>2</var>
              <quality>1.</quality>
              <le>5.1405682563781738e+00</le></_></splits></_>
        <_>
          <depth>5</depth>
          <value>0.</value></_>
        <_>
          <depth>5</depth>
          <value>5.0000000000000000e-01</value></_>
        <_>
          <depth>2</depth>
          <value>1.4583333333333334e-01</value>
          <splits>
            <_><var>2</var>
              <quality>1.0888889312744141e+01</quality>
              <le>4.8200407028198242e+00</le></_></splits></_>
        <_>
          <depth>3</depth>
          <value>0.</value></_>
        <_>
          <depth>3</depth>
          <value>7.7777777777777779e-01</value>
          <splits>
            <_><var>3</var>
              <quality>1.2666666984558105e+01</quality>
              <le>4.5866239070892334e-01</le></_></splits></_>
        <_>
          <depth>4</depth>
          <value>1.</value></_>
        <_>
          <depth>4</depth>
          <value>3.3333333333333331e-01</value></_>
        <_>
          <depth>1</depth>
          <value>8.2991202346041060e-01</value>
          <splits>
            <_><var>3</var>
              <quality>2.7428952026367188e+02</quality>
              <le>7.2004473209381104e-01</le></_></splits></_>
        <_>
          <depth>2</depth>
          <value>9.7902097902097907e-01</value>
          <splits>
            <_><var>7</var>
              <quality>2.7447308349609375e+02</quality>
              <le>4.2173206806182861e-01</le></_></splits></_>
        <_>
          <depth>3</depth>
          <value>8.8571428571428568e-01</value>
          <splits>
            <_><var>7</var>
              <quality>2.9121212005615234e+01</quality>
              <le>4.2089462280273438e-01</le></_></splits></_>
        <_>
          <depth>4</depth>
          <value>9.3939393939393945e-01</value>
          <splits>
            <_><var>0</var>
              <quality>31.</quality>
              <le>4.2975068092346191e+00</le></_></splits></_>
        <_>
          <depth>5</depth>
          <value>0.</value></_>
        <_>
          <depth>5</depth>
          <value>1.</value></_>
        <_>
          <depth>4</depth>
          <value>0.</value></_>
        <_>
          <depth>3</depth>
          <value>9.9203187250996017e-01</value>
          <splits>
            <_><var>2</var>
              <quality>2.4720407104492188e+02</quality>
              <le>5.3343620300292969e+00</le></_></splits></_>
        <_>
          <depth>4</depth>
          <value>8.0000000000000004e-01</value></_>
        <_>
          <depth>4</depth>
          <value>9.9593495934959353e-01</value>
          <splits>
            <_><var>6</var>
              <quality>2.4401818847656250e+02</quality>
              <le>3.9610326290130615e-01</le></_></splits></_>
        <_>
          <depth>5</depth>
          <value>1.</value></_>
        <_>
          <depth>5</depth>
          <value>9.8181818181818181e-01</value></_>
        <_>
          <depth>2</depth>
          <value>5.4545454545454543e-02</value>
          <splits>
            <_><var>6</var>
              <quality>6.4285713434219360e-01</quality>
              <le>4.9164855480194092e-01</le></_></splits></_>
        <_>
          <depth>3</depth>
          <value>2.1428571428571427e-01</value>
          <splits>
            <_><var>7</var>
              <quality>2.2500000000000000e+00</quality>
              <le>4.4088554382324219e-01</le></_></splits></_>
        <_>
          <depth>4</depth>
          <value>7.5000000000000000e-01</value></_>
        <_>
          <depth>4</depth>
          <value>0.</value></_>
        <_>
          <depth>3</depth>
          <value>0.</value></_></nodes></_>
    <_>
      <nodes>
        <_>
          <depth>0</depth>
          <value>1.5513928914505284e-01</value>
          <splits>
            <_><var>2</var>
              <quality>2.5871618652343750e+02</quality>
              <le>5.3662338256835938e+00</le></_></splits></_>
        <_>
          <depth>1</depth>
          <value>1.3824884792626729e-02</value>
          <splits>
            <_><var>5</var>
              <quality>4.5518827438354492e+00</quality>
              <le>-6.1360037326812744e-01</le></_></splits></_>
        <_>
          <depth>2</depth>
          <value>1.8303843807199512e-03</value>
          <splits>
            <_><var>5</var>
              <quality>4.1666667908430099e-02</quality>
              <le>-6.7546820640563965e-01</le></_></splits></_>
        <_>
          <depth>3</depth>
          <value>0.</value></_>
        <_>
          <depth>3</depth>
          <value>1.3888888888888888e-02</value>
          <splits>
            <_><var>2</var>
              <quality>1.3380281925201416e+00</quality>
              <le>5.2610096931457520e+00</le></_></splits></_>
        <_>
          <depth>4</depth>
          <value>4.6948356807511738e-03</value>
          <splits>
            <_><var>2</var>
              <quality>1.0000000149011612e-01</quality>
              <le>4.9118223190307617e+00</le></_></splits></_>
        <_>
          <depth>5</depth>
          <value>0.</value></_>
        <_>
          <depth>5</depth>
          <value>1.0000000000000001e-01</value></_>
        <_>
          <depth>4</depth>
          <value>6.6666666666666663e-01</value></_>
        <_>
          <depth>2</depth>
          <value>2.1649484536082475e-01</value>
          <splits>
            <_><var>1</var>
              <quality>1.2250000000000000e+01</quality>
              <le>3.4458999633789063e+00</le></_></splits></_>
        <_>
          <depth>3</depth>
          <value>0.</value></_>
        <_>
          <depth>3</depth>
          <value>5.8333333333333337e-01</value>
          <splits>
            <_><var>4</var>
              <quality>1.3500000000000000e+01</quality>
              <le>-2.7232833206653595e-02</le></_></splits></_>
        <_>
          <depth>4</depth>
          <value>1.6666666666666666e-01</value></_>
        <_>
          <depth>4</depth>
          <value>6.6666666666666663e-01</value>
          <splits>
            <_><var>2</var>
              <quality>1.9090909957885742e+01</quality>
              <le>4.9654054641723633e+00</le></_></splits></_>
        <_>
          <depth>5</depth>
          <value>9.0909090909090912e-02</value></_>
        <_>
          <depth>5</depth>
          <value>1.</value></_>
        <_>
          <depth>1</depth>
          <value>8.6416184971098264e-01</value>
          <splits>
            <_><var>3</var>
              <quality>2.9128305053710938e+02</quality>
              <le>7.2329527139663696e-01</le></_></splits></_>
        <_>
          <depth>2</depth>
          <value>9.8338870431893688e-01</value>
          <splits>
            <_><var>7</var>
              <quality>2.9126596069335938e+02</quality>
              <le>4.5585334300994873e-01</le></_></splits></_>
        <_>
          <depth>3</depth>
          <value>9.4680851063829785e-01</value>
          <splits>
            <_><var>6</var>
              <quality>8.4504051208496094e+01</quality>
              <le>4.0419083833694458e-01</le></_></splits></_>
        <_>
          <depth>4</depth>
          <value>8.4999999999999998e-01</value>
          <splits>
            <_><var>8</var>
              <quality>17.</quality>
              <le>1.6250188648700714e-01</le></_></splits></_>
        <_>
          <depth>5</depth>
          <value>0.</value></_>
        <_>
          <depth>5</depth>
          <value>1.</value></_>
        <_>
          <depth>4</depth>
          <value>9.7297297297297303e-01</value>
          <splits>
            <_><var>5</var>
              <quality>7.0181373596191406e+01</quality>
              <le>-5.9887373447418213e-01</le></_></splits></_>
        <_>
          <depth>5</depth>
          <value>8.3333333333333337e-01</value></_>
        <_>
          <depth>5</depth>
          <value>9.8529411764705888e-01</value></_>
        <_>
          <depth>3</depth>
          <value>1.</value></_>
        <_>
          <depth>2</depth>
          <value>6.6666666666666666e-02</value>
          <splits>
            <_><var>1</var>
              <quality>1.2857142686843872e+00</quality>
              <le>4.2122230529785156e+00</le></_></splits></_>
        <_>
          <depth>3</depth>
          <value>4.2857142857142855e-01</value></_>
        <_>
          <depth>3</depth>
          <value>0.</value></_></nodes></_>
    <_>
      <nodes>
        <_>
          <depth>0</depth>
          <value>1.4793467819404418e-01</value>
          <splits>
            <_><var>5</var>
              <quality>2.2200959777832031e+02</quality>
              <le>-6.1000329256057739e-01</le></_></splits></_>
        <_>
          <depth>1</depth>
          <value>1.1709601873536301e-02</value>
          <splits>
            <_><var>0</var>
              <quality>6.3671690225601196e-01</quality>
              <le>4.8679776191711426e+00</le></_></splits></_>
        <_>
          <depth>2</depth>
          <value>3.0816640986132513e-03</value>
          <splits>
            <_><var>2</var>
              <quality>1.0069390535354614e+00</quality>
              <le>5.5172576904296875e+00</le></_></splits></_>
        <_>
          <depth>3</depth>
          <value>2.3130300693909021e-03</value>
          <splits>
            <_><var>7</var>
              <quality>6.5217390656471252e-02</quality>
              <le>5.0987946987152100e-01</le></_></splits></_>
        <_>
          <depth>4</depth>
          <value>2.1739130434782608e-02</value>
          <splits>
            <_><var>7</var>
              <quality>1.0291970968246460e+00</quality>
              <le>5.0888168811798096e-01</le></_></splits></_>
        <_>
          <depth>5</depth>
          <value>1.4598540145985401e-02</value></_>
        <_>
          <depth>5</depth>
          <value>1.</value></_>
        <_>
          <depth>4</depth>
          <value>0.</value></_>
        <_>
          <depth>3</depth>
          <value>1.</value></_>
        <_>
          <depth>2</depth>
          <value>3.9024390243902439e-02</value>
          <splits>
            <_><var>3</var>
              <quality>7.2707118988037109e+00</quality>
              <le>6.3512402772903442e-01</le></_></splits></_>
        <_>
          <depth>3</depth>
          <value>8.8888888888888884e-01</value></_>
        <_>
          <depth>3</depth>
          <value>1.9950124688279301e-02</value>
          <splits>
            <_><var>5</var>
              <quality>1.6360287666320801e+00</quality>
              <le>-6.9667923450469971e-01</le></_></splits></_>
        <_>
          <depth>4</depth>
          <value>2.6954177897574125e-03</value>
          <splits>
            <_><var>2</var>
              <quality>2.3255813866853714e-02</quality>
              <le>5.3517198562622070e+00</le></_></splits></_>
        <_>
          <depth>5</depth>
          <value>0.</value></_>
        <_>
          <depth>5</depth>
          <value>2.3255813953488372e-02</value></_>
        <_>
          <depth>4</depth>
          <value>2.3333333333333334e-01</value>
          <splits>
            <_><var>2</var>
              <quality>3.2666666507720947e+00</quality>
              <le>5.3676099777221680e+00</le></_></splits></_>
        <_>
          <depth>5</depth>
          <value>0.</value></_>
        <_>
          <depth>5</depth>
          <value>4.6666666666666667e-01</value></_>
        <_>
          <depth>1</depth>
          <value>7.7005347593582885e-01</value>
          <splits>
            <_><var>2</var>
              <quality>2.7833557128906250e+02</quality>
              <le>4.8200407028198242e+00</le></_></splits></_>
        <_>
          <depth>2</depth>
          <value>0.</value></_>
        <_>
          <depth>2</depth>
          <value>9.6644295302013428e-01</value>
          <splits>
            <_><var>2</var>
              <quality>2.7940539550781250e+02</quality>
              <le>5.1375832557678223e+00</le></_></splits></_>
        <_>
          <depth>3</depth>
          <value>7.3684210526315785e-01</value>
          <splits>
            <_><var>1</var>
              <quality>1.2571428298950195e+01</quality>
              <le>3.8890981674194336e+00</le></_></splits></_>
        <_>
          <depth>4</depth>
          <value>1.</value></_>
        <_>
          <depth>4</depth>
          <value>2.8571428571428570e-01</value></_>
        <_>
          <depth>3</depth>
          <value>9.8207885304659504e-01</value>
          <splits>
            <_><var>8</var>
              <quality>2.7005755615234375e+02</quality>
              <le>1.1012227833271027e-01</le></_></splits></_>
        <_>
          <depth>4</depth>
          <value>0.</value></_>
        <_>
          <depth>4</depth>
          <value>9.8561151079136688e-01</value>
          <splits>
            <_><var>4</var>
              <quality>2.7022857666015625e+02</quality>
              <le>6.6907986998558044e-02</le></_></splits></_>
        <_>
          <depth>5</depth>
          <value>9.4285714285714284e-01</value></_>
        <_>
          <depth>5</depth>
          <value>1.</value></_></nodes></_>
    <_>
      <nodes>
        <_>
          <depth>0</depth>
          <value>1.5465898174831894e-01</value>
          <splits>
            <_><var>5</var>
              <quality>2.3868278503417969e+02</quality>
              <le>-6.1021274328231812e-01</le></_></splits></_>
        <_>
          <depth>1</depth>
          <value>1.2338425381903642e-02</value>
          <splits>
            <_><var>4</var>
              <quality>7.5127768516540527e-01</quality>
              <le>1.2787228822708130e-01</le></_></splits></_>
        <_>
          <depth>2</depth>
          <value>3.5775127768313458e-02</value>
          <splits>
            <_><var>4</var>
              <quality>3.5547945499420166e+00</quality>
              <le>1.2756189703941345e-01</le></_></splits></_>
        <_>
          <depth>3</depth>
          <value>3.0821917808219176e-02</value>
          <splits>
            <_><var>5</var>
              <quality>3.8552980422973633e+00</quality>
              <le>-6.8043303489685059e-01</le></_></splits></_>
        <_>
          <depth>4</depth>
          <value>1.9646365422396855e-03</value>
          <splits>
            <_><var>7</var>
              <quality>5.3475936874747276e-03</quality>
              <le>4.3372014164924622e-01</le></_></splits></_>
        <_>
          <depth>5</depth>
          <value>5.3475935828877002e-03</value></_>
        <_>
          <depth>5</depth>
          <value>0.</value></_>
        <_>
          <depth>4</depth>
          <value>2.2666666666666666e-01</value>
          <splits>
            <_><var>5</var>
              <quality>5.0821919441223145e+00</quality>
              <le>-6.7999094724655151e-01</le></_></splits></_>
        <_>
          <depth>5</depth>
          <value>1.</value></_>
        <_>
          <depth>5</depth>
          <value>2.0547945205479451e-01</value></_>
        <_>
          <depth>3</depth>
          <value>1.</value></_>
        <_>
          <depth>2</depth>
          <value>0.</value></_>
        <_>
          <depth>1</depth>
          <value>7.9210526315789476e-01</value>
          <splits>
            <_><var>1</var>
              <quality>2.8031948852539063e+02</quality>
              <le>3.5212116241455078e+00</le></_></splits></_>
        <_>
          <depth>2</depth>
          <value>3.2786885245901641e-02</value>
          <splits>
            <_><var>8</var>
              <quality>8.0000001192092896e-01</quality>
              <le>1.2922671437263489e-01</le></_></splits></_>
        <_>
          <depth>3</depth>
          <value>4.0000000000000002e-01</value></_>
        <_>
          <depth>3</depth>
          <value>0.</value></_>
        <_>
          <depth>2</depth>
          <value>9.3730407523510972e-01</value>
          <splits>
            <_><var>6</var>
              <quality>2.8400323486328125e+02</quality>
              <le>4.5911723375320435e-01</le></_></splits></_>
        <_>
          <depth>3</depth>
          <value>9.5779220779220775e-01</value>
          <splits>
            <_><var>2</var>
              <quality>2.8626644897460938e+02</quality>
              <le>4.7142000198364258e+00</le></_></splits></_>
        <_>
          <depth>4</depth>
          <value>0.</value></_>
        <_>
          <depth>4</depth>
          <value>9.7039473684210531e-01</value>
          <splits>
            <_><var>2</var>
              <quality>2.8691012573242188e+02</quality>
              <le>5.8356504440307617e+00</le></_></splits></_>
        <_>
          <depth>5</depth>
          <value>8.9887640449438200e-01</value></_>
        <_>
          <depth>5</depth>
          <value>1.</value></_>
        <_>
          <depth>3</depth>
          <value>3.6363636363636365e-01</value>
          <splits>
            <_><var>2</var>
              <quality>3.2000000476837158e+00</quality>
              <le>5.3135175704956055e+00</le></_></splits></_>
        <_>
          <depth>4</depth>
          <value>0.</value></_>
        <_>
          <depth>4</depth>
          <value>8.0000000000000004e-01</value></_></nodes></_>
    <_>
      <nodes>
        <_>
          <depth>0</depth>
          <value>1.4601344860710855e-01</value>
          <splits>
            <_><var>2</var>
              <quality>2.3280447387695313e+02</quality>
              <le>5.3385639190673828e+00</le></_></splits></_>
        <_>
          <depth>1</depth>
          <value>1.2643678160919540e-02</value>
          <splits>
            <_><var>8</var>
              <quality>1.1292579174041748e+00</quality>
              <le>1.3783739507198334e-01</le></_></splits></_>
        <_>
          <depth>2</depth>
          <value>7.2992700729927005e-03</value>
          <splits>
            <_><var>6</var>
              <quality>2.3841059207916260e-01</quality>
              <le>3.6639255285263062e-01</le></_></splits></_>
        <_>
          <depth>3</depth>
          <value>0.</value></_>
        <_>
          <depth>3</depth>
          <value>1.9867549668874173e-02</value>
          <splits>
            <_><var>8</var>
              <quality>3.4552323818206787e+00</quality>
              <le>1.1023241281509399e-01</le></_></splits></_>
        <_>
          <depth>4</depth>
          <value>3.4782608695652175e-03</value>
          <splits>
            <_><var>5</var>
              <quality>2.8571429848670959e-01</quality>
              <le>-6.4974492788314819e-01</le></_></splits></_>
        <_>
          <depth>5</depth>
          <value>0.</value></_>
        <_>
          <depth>5</depth>
          <value>1.4285714285714285e-01</value></_>
        <_>
          <depth>4</depth>
          <value>3.4482758620689657e-01</value>
          <splits>
            <_><var>0</var>
              <quality>5.4400000572204590e+00</quality>
              <le>4.7291011810302734e+00</le></_></splits></_>
        <_>
          <depth>5</depth>
          <value>2.3999999999999999e-01</value></_>
        <_>
          <depth>5</depth>
          <value>1.</value></_>
        <_>
          <depth>2</depth>
          <value>1.0416666666666667e-01</value>
          <splits>
            <_><var>0</var>
              <quality>4.4444446563720703e+00</quality>
              <le>4.6757287979125977e+00</le></_></splits></_>
        <_>
          <depth>3</depth>
          <value>5.5555555555555552e-02</value>
          <splits>
            <_><var>2</var>
              <quality>5.</quality>
              <le>4.8013286590576172e+00</le></_></splits></_>
        <_>
          <depth>4</depth>
          <value>0.</value></_>
        <_>
          <depth>4</depth>
          <value>1.</value></_>
        <_>
          <depth>3</depth>
          <value>8.3333333333333337e-01</value></_>
        <_>
          <depth>1</depth>
          <value>8.2456140350877194e-01</value>
          <splits>
            <_><var>3</var>
              <quality>2.6884603881835938e+02</quality>
              <le>7.2112840414047241e-01</le></_></splits></_>
        <_>
          <depth>2</depth>
          <value>9.7183098591549300e-01</value>
          <splits>
            <_><var>7</var>
              <quality>2.6879342651367188e+02</quality>
              <le>4.3893218040466309e-01</le></_></splits></_>
        <_>
          <depth>3</depth>
          <value>8.4848484848484851e-01</value>
          <splits>
            <_><var>8</var>
              <quality>2.4648147583007813e+01</quality>
              <le>1.2267698347568512e-01</le></_></splits></_>
        <_>
          <depth>4</depth>
          <value>5.0000000000000000e-01</value></_>
        <_>
          <depth>4</depth>
          <value>9.2592592592592593e-01</value>
          <splits>
            <_><var>0</var>
              <quality>2.4333333969116211e+01</quality>
              <le>4.1820154190063477e+00</le></_></splits></_>
        <_>
          <depth>5</depth>
          <value>3.3333333333333331e-01</value></_>
        <_>
          <depth>5</depth>
          <value>1.</value></_>
        <_>
          <depth>3</depth>
          <value>9.8804780876494025e-01</value>
          <splits>
            <_><var>7</var>
              <quality>2.4512956237792969e+02</quality>
              <le>4.5417547225952148e-01</le></_></splits></_>
        <_>
          <depth>4</depth>
          <value>9.3750000000000000e-01</value>
          <splits>
            <_><var>0</var>
              <quality>2.8285715103149414e+01</quality>
              <le>4.2910661697387695e+00</le></_></splits></_>
        <_>
          <depth>5</depth>
          <value>7.5000000000000000e-01</value></_>
        <_>
          <depth>5</depth>
          <value>9.6428571428571430e-01</value></_>
        <_>
          <depth>4</depth>
          <value>9.9543378995433784e-01</value>
          <splits>
            <_><var>8</var>
              <quality>2.1705262756347656e+02</quality>
              <le>1.2342911213636398e-01</le></_></splits></_>
        <_>
          <depth>5</depth>
          <value>9.4736842105263153e-01</value></_>
        <_>
          <depth>5</depth>
          <value>1.</value></_>
        <_>
          <depth>2</depth>
          <value>1.0344827586206896e-01</value>
          <splits>
            <_><var>2</var>
              <quality>4.1858973503112793e+00</quality>
              <le>5.3587288856506348e+00</le></_></splits></_>
        <_>
          <depth>3</depth>
          <value>8.3333333333333337e-01</value></_>
        <_>
          <depth>3</depth>
          <value>1.9230769230769232e-02</value>
          <splits>
            <_><var>2</var>
              <quality>5.8823529630899429e-02</quality>
              <le>5.5879001617431641e+00</le></_></splits></_>
        <_>
          <depth>4</depth>
          <value>5.8823529411764705e-02</value>
          <splits>
            <_><var>5</var>
              <quality>1.</quality>
              <le>-6.6200315952301025e-01</le></_></splits></_>
        <_>
          <depth>5</depth>
          <value>0.</value></_>
        <_>
          <depth>5</depth>
          <value>1.</value></_>
        <_>
          <depth>4</depth>
          <value>0.</value></_></nodes></_>
    <_>
      <nodes>
        <_>
          <depth>0</depth>
          <value>1.5081652257444764e-01</value>
          <splits>
            <_><var>2</var>
              <quality>2.4083859252929688e+02</quality>
              <le>5.3687009811401367e+00</le></_></splits></_>
        <_>
          <depth>1</depth>
          <value>1.8275271273557967e-02</value>
          <splits>
            <_><var>7</var>
              <quality>1.2201726436614990e+00</quality>
              <le>5.4324519634246826e-01</le></_></splits></_>
        <_>
          <depth>2</depth>
          <value>4.0540540540540543e-02</value>
          <splits>
            <_><var>2</var>
              <quality>5.7973504066467285e+00</quality>
              <le>5.1981163024902344e+00</le></_></splits></_>
        <_>
          <depth>3</depth>
          <value>1.7595307917888565e-02</value>
          <splits>
            <_><var>8</var>
              <quality>1.4421484470367432e+00</quality>
              <le>1.1036999523639679e-01</le></_></splits></_>
        <_>
          <depth>4</depth>
          <value>1.6722408026755853e-03</value>
          <splits>
            <_><var>2</var>
              <quality>7.6923079788684845e-02</quality>
              <le>5.1701412200927734e+00</le></_></splits></_>
        <_>
          <depth>5</depth>
          <value>0.</value></_>
        <_>
          <depth>5</depth>
          <value>7.6923076923076927e-02</value></_>
        <_>
          <depth>4</depth>
          <value>1.3095238095238096e-01</value>
          <splits>
            <_><var>2</var>
              <quality>7.5625000000000000e+00</quality>
              <le>4.8070511817932129e+00</le></_></splits></_>
        <_>
          <depth>5</depth>
          <value>0.</value></_>
        <_>
          <depth>5</depth>
          <value>6.8750000000000000e-01</value></_>
        <_>
          <depth>3</depth>
          <value>3.1034482758620691e-01</value>
          <splits>
            <_><var>5</var>
              <quality>1.4363636016845703e+01</quality>
              <le>-6.2078350782394409e-01</le></_></splits></_>
        <_>
          <depth>4</depth>
          <value>9.0909090909090912e-02</value>
          <splits>
            <_><var>0</var>
              <quality>1.3333333730697632e+00</quality>
              <le>5.0192947387695313e+00</le></_></splits></_>
        <_>
          <depth>5</depth>
          <value>3.3333333333333331e-01</value></_>
        <_>
          <depth>5</depth>
          <value>0.</value></_>
        <_>
          <depth>4</depth>
          <value>1.</value></_>
        <_>
          <depth>2</depth>
          <value>1.9782393669634025e-03</value>
          <splits>
            <_><var>6</var>
              <quality>5.4794520139694214e-02</quality>
              <le>2.5298118591308594e-01</le></_></splits></_>
        <_>
          <depth>3</depth>
          <value>2.7397260273972601e-02</value>
          <splits>
            <_><var>4</var>
              <quality>1.0138888359069824e+00</quality>
              <le>3.6180669069290161e-01</le></_></splits></_>
        <_>
          <depth>4</depth>
          <value>1.</value></_>
        <_>
          <depth>4</depth>
          <value>1.3888888888888888e-02</value>
          <splits>
            <_><var>8</var>
              <quality>3.3333334326744080e-01</quality>
              <le>1.9812071323394775e-01</le></_></splits></_>
        <_>
          <depth>5</depth>
          <value>0.</value></_>
        <_>
          <depth>5</depth>
          <value>3.3333333333333331e-01</value></_>
        <_>
          <depth>3</depth>
          <value>0.</value></_>
        <_>
          <depth>1</depth>
          <value>8.5196374622356497e-01</value>
          <splits>
            <_><var>3</var>
              <quality>2.6992315673828125e+02</quality>
              <le>6.2329638004302979e-01</le></_></splits></_>
        <_>
          <depth>2</depth>
          <value>9.7526501766784457e-01</value>
          <splits>
            <_><var>4</var>
              <quality>2.6989089965820313e+02</quality>
              <le>5.0924889743328094e-02</le></_></splits></_>
        <_>
          <depth>3</depth>
          <value>8.7272727272727268e-01</value>
          <splits>
            <_><var>6</var>
              <quality>4.2828571319580078e+01</quality>
              <le>4.2134141921997070e-01</le></_></splits></_>
        <_>
          <depth>4</depth>
          <value>6.9999999999999996e-01</value>
          <splits>
            <_><var>0</var>
              <quality>14.</quality>
              <le>4.3043689727783203e+00</le></_></splits></_>
        <_>
          <depth>5</depth>
          <value>0.</value></_>
        <_>
          <depth>5</depth>
          <value>1.</value></_>
        <_>
          <depth>4</depth>
          <value>9.7142857142857142e-01</value>
          <splits>
            <_><var>4</var>
              <quality>3.3166667938232422e+01</quality>
              <le>-3.3235028386116028e-02</le></_></splits></_>
        <_>
          <depth>5</depth>
          <value>8.3333333333333337e-01</value></_>
        <_>
          <depth>5</depth>
          <value>1.</value></_>
        <_>
          <depth>3</depth>
          <value>1.</value></_>
        <_>
          <depth>2</depth>
          <value>1.2500000000000000e-01</value>
          <splits>
            <_><var>2</var>
              <quality>4.0909090042114258e+00</quality>
              <le>5.4089984893798828e+00</le></_></splits></_>
        <_>
          <depth>3</depth>
          <value>1.</value></_>
        <_>
          <depth>3</depth>
          <value>4.5454545454545456e-02</value>
          <splits>
            <_><var>1</var>
              <quality>1.</quality>
              <le>4.0691800117492676e+00</le></_></splits></_>
        <_>
          <depth>4</depth>
          <value>5.0000000000000000e-01</value></_>
        <_>
          <depth>4</depth>
          <value>0.</value></_></nodes></_>
    <_>
      <nodes>
        <_>
          <depth>0</depth>
          <value>1.5033621517771373e-01</value>
          <splits>
            <_><var>5</var>
              <quality>2.2472181701660156e+02</quality>
              <le>-6.1500763893127441e-01</le></_></splits></_>
        <_>
          <depth>1</depth>
          <value>1.1196228638774307e-02</value>
          <splits>
            <_><var>5</var>
              <quality>1.9502096176147461e+00</quality>
              <le>-6.4554047584533691e-01</le></_></splits></_>
        <_>
          <depth>2</depth>
          <value>4.3156596794081377e-03</value>
          <splits>
            <_><var>5</var>
              <quality>1.1614797264337540e-01</quality>
              <le>-6.9320905208587646e-01</le></_></splits></_>
        <_>
          <depth>3</depth>
          <value>7.6335877862595419e-04</value>
          <splits>
            <_><var>3</var>
              <quality>2.7322403620928526e-03</quality>
              <le>7.8003406524658203e-01</le></_></splits></_>
        <_>
          <depth>4</depth>
          <value>0.</value></_>
        <_>
          <depth>4</depth>
          <value>2.7322404371584699e-03</value>
          <splits>
            <_><var>3</var>
              <quality>1.</quality>
              <le>7.8177738189697266e-01</le></_></splits></_>
        <_>
          <depth>5</depth>
          <value>1.</value></_>
        <_>
          <depth>5</depth>
          <value>0.</value></_>
        <_>
          <depth>3</depth>
          <value>1.9230769230769232e-02</value>
          <splits>
            <_><var>2</var>
              <quality>1.8947368860244751e+00</quality>
              <le>4.9897460937500000e+00</le></_></splits></_>
        <_>
          <depth>4</depth>
          <value>0.</value></_>
        <_>
          <depth>4</depth>
          <value>3.1578947368421051e-01</value>
          <splits>
            <_><var>6</var>
              <quality>4.</quality>
              <le>5.0925207138061523e-01</le></_></splits></_>
        <_>
          <depth>5</depth>
          <value>6.6666666666666663e-01</value></_>
        <_>
          <depth>5</depth>
          <value>0.</value></_>
        <_>
          <depth>2</depth>
          <value>1.6000000000000000e-01</value>
          <splits>
            <_><var>0</var>
              <quality>9.1534090042114258e+00</quality>
              <le>4.9596710205078125e+00</le></_></splits></_>
        <_>
          <depth>3</depth>
          <value>3.1250000000000000e-02</value>
          <splits>
            <_><var>4</var>
              <quality>2.8571429848670959e-01</quality>
              <le>1.4124135673046112e-01</le></_></splits></_>
        <_>
          <depth>4</depth>
          <value>1.4285714285714285e-01</value>
          <splits>
            <_><var>4</var>
              <quality>2.</quality>
              <le>1.2105283141136169e-01</le></_></splits></_>
        <_>
          <depth>5</depth>
          <value>0.</value></_>
        <_>
          <depth>5</depth>
          <value>1.</value></_>
        <_>
          <depth>4</depth>
          <value>0.</value></_>
        <_>
          <depth>3</depth>
          <value>9.0909090909090906e-01</value>
          <splits>
            <_><var>3</var>
              <quality>10.</quality>
              <le>7.4565196037292480e-01</le></_></splits></_>
        <_>
          <depth>4</depth>
          <value>1.</value></_>
        <_>
          <depth>4</depth>
          <value>0.</value></_>
        <_>
          <depth>1</depth>
          <value>7.6363636363636367e-01</value>
          <splits>
            <_><var>2</var>
              <quality>2.7972814941406250e+02</quality>
              <le>4.8200407028198242e+00</le></_></splits></_>
        <_>
          <depth>2</depth>
          <value>0.</value></_>
        <_>
          <depth>2</depth>
          <value>9.5145631067961167e-01</value>
          <splits>
            <_><var>3</var>
              <quality>2.8247058105468750e+02</quality>
              <le>6.0308331251144409e-01</le></_></splits></_>
        <_>
          <depth>3</depth>
          <value>9.6078431372549022e-01</value>
          <splits>
            <_><var>1</var>
              <quality>283.</quality>
              <le>4.1977739334106445e+00</le></_></splits></_>
        <_>
          <depth>4</depth>
          <value>9.1666666666666663e-01</value>
          <splits>
            <_><var>6</var>
              <quality>1.2257142639160156e+02</quality>
              <le>3.7642192840576172e-01</le></_></splits></_>
        <_>
          <depth>5</depth>
          <value>1.</value></_>
        <_>
          <depth>5</depth>
          <value>7.8571428571428570e-01</value></_>
        <_>
          <depth>4</depth>
          <value>1.</value></_>
        <_>
          <depth>3</depth>
          <value>0.</value></_></nodes></_>
    <_>
      <nodes>
        <_>
          <depth>0</depth>
          <value>1.6858789625360229e-01</value>
          <splits>
            <_><var>7</var>
              <quality>1.0429402160644531e+02</quality>
              <le>5.4426383972167969e-01</le></_></splits></_>
        <_>
          <depth>1</depth>
          <value>3.0889092575618698e-01</value>
          <splits>
            <_><var>8</var>
              <quality>2.5259889221191406e+02</quality>
              <le>1.1597657203674316e-01</le></_></splits></_>
        <_>
          <depth>2</depth>
          <value>3.8081805359661498e-02</value>
          <splits>
            <_><var>2</var>
              <quality>7.0785698890686035e+00</quality>
              <le>5.3377113342285156e+00</le></_></splits></_>
        <_>
          <depth>3</depth>
          <value>6.3091482649842269e-03</value>
          <splits>
            <_><var>2</var>
              <quality>1.8604651093482971e-01</quality>
              <le>5.0396375656127930e+00</le></_></splits></_>
        <_>
          <depth>4</depth>
          <value>0.</value></_>
        <_>
          <depth>4</depth>
          <value>4.6511627906976744e-02</value>
          <splits>
            <_><var>1</var>
              <quality>3.2000000476837158e+00</quality>
              <le>3.9411447048187256e+00</le></_></splits></_>
        <_>
          <depth>5</depth>
          <value>8.0000000000000004e-01</value></_>
        <_>
          <depth>5</depth>
          <value>0.</value></_>
        <_>
          <depth>3</depth>
          <value>3.0666666666666664e-01</value>
          <splits>
            <_><var>0</var>
              <quality>1.8635793685913086e+01</quality>
              <le>5.1578702926635742e+00</le></_></splits></_>
        <_>
          <depth>4</depth>
          <value>8.4615384615384615e-01</value>
          <splits>
            <_><var>7</var>
              <quality>22.</quality>
              <le>4.0378013253211975e-01</le></_></splits></_>
        <_>
          <depth>5</depth>
          <value>0.</value></_>
        <_>
          <depth>5</depth>
          <value>1.</value></_>
        <_>
          <depth>4</depth>
          <value>2.0408163265306121e-02</value>
          <splits>
            <_><var>6</var>
              <quality>1.</quality>
              <le>4.3133187294006348e-01</le></_></splits></_>
        <_>
          <depth>5</depth>
          <value>1.</value></_>
        <_>
          <depth>5</depth>
          <value>0.</value></_>
        <_>
          <depth>2</depth>
          <value>8.1151832460732987e-01</value>
          <splits>
            <_><var>7</var>
              <quality>2.6043359375000000e+02</quality>
              <le>3.8593453168869019e-01</le></_></splits></_>
        <_>
          <depth>3</depth>
          <value>0.</value></_>
        <_>
          <depth>3</depth>
          <value>8.4010840108401086e-01</value>
          <splits>
            <_><var>2</var>
              <quality>3.0220126342773438e+02</quality>
              <le>4.7545938491821289e+00</le></_></splits></_>
        <_>
          <depth>4</depth>
          <value>0.</value></_>
        <_>
          <depth>4</depth>
          <value>9.7484276729559749e-01</value>
          <splits>
            <_><var>2</var>
              <quality>3.0264529418945313e+02</quality>
              <le>5.2173032760620117e+00</le></_></splits></_>
        <_>
          <depth>5</depth>
          <value>8.1250000000000000e-01</value></_>
        <_>
          <depth>5</depth>
          <value>9.8344370860927155e-01</value></_>
        <_>
          <depth>1</depth>
          <value>1.4127144298688193e-02</value>
          <splits>
            <_><var>2</var>
              <quality>14.</quality>
              <le>5.0074372291564941e+00</le></_></splits></_>
        <_>
          <depth>2</depth>
          <value>0.</value></_>
        <_>
          <depth>2</depth>
          <value>1.</value></_></nodes></_>
    <_>
      <nodes>
        <_>
          <depth>0</depth>
          <value>1.4265129682997119e-01</value>
          <splits>
            <_><var>8</var>
              <quality>1.4882614135742188e+02</quality>
              <le>1.5019509196281433e-01</le></_></splits></_>
        <_>
          <depth>1</depth>
          <value>6.0836501901140684e-02</value>
          <splits>
            <_><var>2</var>
              <quality>6.3282089233398438e+01</quality>
              <le>5.3490738868713379e+00</le></_></splits></_>
        <_>
          <depth>2</depth>
          <value>1.0011778563015312e-02</value>
          <splits>
            <_><var>4</var>
              <quality>4.7847682237625122e-01</quality>
              <le>1.4312961697578430e-01</le></_></splits></_>
        <_>
          <depth>3</depth>
          <value>2.8145695364238412e-02</value>
          <splits>
            <_><var>3</var>
              <quality>4.5957860946655273e+00</quality>
              <le>5.5878174304962158e-01</le></_></splits></_>
        <_>
          <depth>4</depth>
          <value>3.5135135135135137e-01</value>
          <splits>
            <_><var>0</var>
              <quality>6.2333331108093262e+00</quality>
              <le>4.6778745651245117e+00</le></_></splits></_>
        <_>
          <depth>5</depth>
          <value>2.2222222222222221e-01</value></_>
        <_>
          <depth>5</depth>
          <value>6.9999999999999996e-01</value></_>
        <_>
          <depth>4</depth>
          <value>7.0546737213403876e-03</value>
          <splits>
            <_><var>8</var>
              <quality>3.0017731189727783e+00</quality>
              <le>1.1368905007839203e-01</le></_></splits></_>
        <_>
          <depth>5</depth>
          <value>1.7730496453900709e-03</value></_>
        <_>
          <depth>5</depth>
          <value>1.</value></_>
        <_>
          <depth>3</depth>
          <value>0.</value></_>
        <_>
          <depth>2</depth>
          <value>6.6433566433566438e-01</value>
          <splits>
            <_><var>3</var>
              <quality>8.4010101318359375e+01</quality>
              <le>7.2946357727050781e-01</le></_></splits></_>
        <_>
          <depth>3</depth>
          <value>9.1919191919191923e-01</value>
          <splits>
            <_><var>5</var>
              <quality>8.4708335876464844e+01</quality>
              <le>-4.4785732030868530e-01</le></_></splits></_>
        <_>
          <depth>4</depth>
          <value>9.3750000000000000e-01</value>
          <splits>
            <_><var>2</var>
              <quality>8.5263160705566406e+01</quality>
              <le>5.3604984283447266e+00</le></_></splits></_>
        <_>
          <depth>5</depth>
          <value>0.</value></_>
        <_>
          <depth>5</depth>
          <value>9.4736842105263153e-01</value></_>
        <_>
          <depth>4</depth>
          <value>3.3333333333333331e-01</value></_>
        <_>
          <depth>3</depth>
          <value>9.0909090909090912e-02</value>
          <splits>
            <_><var>1</var>
              <quality>1.7777777910232544e+00</quality>
              <le>4.2160964012145996e+00</le></_></splits></_>
        <_>
          <depth>4</depth>
          <value>4.4444444444444442e-01</value></_>
        <_>
          <depth>4</depth>
          <value>0.</value></_>
        <_>
          <depth>1</depth>
          <value>7.6763485477178428e-01</value>
          <splits>
            <_><var>1</var>
              <quality>1.8204786682128906e+02</quality>
              <le>3.5260181427001953e+00</le></_></splits></_>
        <_>
          <depth>2</depth>
          <value>0.</value></_>
        <_>
          <depth>2</depth>
          <value>9.8404255319148937e-01</value>
          <splits>
            <_><var>2</var>
              <quality>1.8400537109375000e+02</quality>
              <le>4.6446352005004883e+00</le></_></splits></_>
        <_>
          <depth>3</depth>
          <value>0.</value></_>
        <_>
          <depth>3</depth>
          <value>9.9462365591397850e-01</value>
          <splits>
            <_><var>6</var>
              <quality>1.8410000610351563e+02</quality>
              <le>3.9462029933929443e-01</le></_></splits></_>
        <_>
          <depth>4</depth>
          <value>1.</value></_>
        <_>
          <depth>4</depth>
          <value>9.0000000000000002e-01</value></_></nodes></_>
    <_>
      <nodes>
        <_>
          <depth>0</depth>
          <value>1.4073006724303555e-01</value>
          <splits>
            <_><var>1</var>
              <quality>8.6847930908203125e+01</quality>
              <le>3.9061484336853027e+00</le></_></splits></_>
        <_>
          <depth>1</depth>
          <value>3.7195994277539342e-02</value>
          <splits>
            <_><var>1</var>
              <quality>4.2861881256103516e+00</quality>
              <le>3.6581284999847412e+00</le></_></splits></_>
        <_>
          <depth>2</depth>
          <value>1.2633624878522837e-02</value>
          <splits>
            <_><var>8</var>
              <quality>8.6762189865112305e-01</quality>
              <le>1.4688429236412048e-01</le></_></splits></_>
        <_>
          <depth>3</depth>
          <value>6.1855670103092781e-03</value>
          <splits>
            <_><var>4</var>
              <quality>2.2363738715648651e-01</quality>
              <le>1.4428055286407471e-01</le></_></splits></_>
        <_>
          <depth>4</depth>
          <value>5.4794520547945202e-02</value>
          <splits>
            <_><var>6</var>
              <quality>2.6666667461395264e+00</quality>
              <le>3.7009003758430481e-01</le></_></splits></_>
        <_>
          <depth>5</depth>
          <value>6.6666666666666663e-01</value></_>
        <_>
          <depth>5</depth>
          <value>0.</value></_>
        <_>
          <depth>4</depth>
          <value>2.2296544035674470e-03</value>
          <splits>
            <_><var>2</var>
              <quality>1.3333333730697632e+00</quality>
              <le>4.9834794998168945e+00</le></_></splits></_>
        <_>
          <depth>5</depth>
          <value>0.</value></_>
        <_>
          <depth>5</depth>
          <value>6.6666666666666663e-01</value></_>
        <_>
          <depth>3</depth>
          <value>1.1864406779661017e-01</value>
          <splits>
            <_><var>3</var>
              <quality>1.6420454978942871e+00</quality>
              <le>3.5467585921287537e-01</le></_></splits></_>
        <_>
          <depth>4</depth>
          <value>6.2500000000000000e-02</value>
          <splits>
            <_><var>5</var>
              <quality>4.4999998807907104e-01</quality>
              <le>-4.8622596263885498e-01</le></_></splits></_>
        <_>
          <depth>5</depth>
          <value>0.</value></_>
        <_>
          <depth>5</depth>
          <value>1.4999999999999999e-01</value></_>
        <_>
          <depth>4</depth>
          <value>3.6363636363636365e-01</value>
          <splits>
            <_><var>7</var>
              <quality>4.</quality>
              <le>4.6198928356170654e-01</le></_></splits></_>
        <_>
          <depth>5</depth>
          <value>0.</value></_>
        <_>
          <depth>5</depth>
          <value>1.</value></_>
        <_>
          <depth>2</depth>
          <value>1.0569105691056911e-01</value>
          <splits>
            <_><var>5</var>
              <quality>3.4237159729003906e+01</quality>
              <le>-6.2094628810882568e-01</le></_></splits></_>
        <_>
          <depth>3</depth>
          <value>6.0790273556231003e-03</value>
          <splits>
            <_><var>4</var>
              <quality>4.4444445520639420e-02</quality>
              <le>1.2793859839439392e-01</le></_></splits></_>
        <_>
          <depth>4</depth>
          <value>2.2222222222222223e-02</value>
          <splits>
            <_><var>8</var>
              <quality>1.0112359523773193e+00</quality>
              <le>1.1243771761655807e-01</le></_></splits></_>
        <_>
          <depth>5</depth>
          <value>1.1235955056179775e-02</value></_>
        <_>
          <depth>5</depth>
          <value>1.</value></_>
        <_>
          <depth>4</depth>
          <value>0.</value></_>
        <_>
          <depth>3</depth>
          <value>9.2500000000000004e-01</value>
          <splits>
            <_><var>8</var>
              <quality>3.4642856597900391e+01</quality>
              <le>1.4615336060523987e-01</le></_></splits></_>
        <_>
          <depth>4</depth>
          <value>7.8571428571428570e-01</value>
          <splits>
            <_><var>3</var>
              <quality>11.</quality>
              <le>4.2001459002494812e-01</le></_></splits></_>
        <_>
          <depth>5</depth>
          <value>0.</value></_>
        <_>
          <depth>5</depth>
          <value>1.</value></_>
        <_>
          <depth>4</depth>
          <value>1.</value></_>
        <_>
          <depth>1</depth>
          <value>3.5233918128654973e-01</value>
          <splits>
            <_><var>5</var>
              <quality>2.2351895141601563e+02</quality>
              <le>-6.2309944629669189e-01</le></_></splits></_>
        <_>
          <depth>2</depth>
          <value>2.0316027088036117e-02</value>
          <splits>
            <_><var>8</var>
              <quality>2.3097643852233887e+00</quality>
              <le>1.0518969595432281e-01</le></_></splits></_>
        <_>
          <depth>3</depth>
          <value>9.2592592592592587e-03</value>
          <splits>
            <_><var>2</var>
              <quality>3.5555556416511536e-01</quality>
              <le>5.3490738868713379e+00</le></_></splits></_>
        <_>
          <depth>4</depth>
          <value>0.</value></_>
        <_>
          <depth>4</depth>
          <value>8.8888888888888892e-02</value>
          <splits>
            <_><var>2</var>
              <quality>1.6000000238418579e+00</quality>
              <le>5.4067935943603516e+00</le></_></splits></_>
        <_>
          <depth>5</depth>
          <value>4.0000000000000002e-01</value></_>
        <_>
          <depth>5</depth>
          <value>0.</value></_>
        <_>
          <depth>3</depth>
          <value>4.5454545454545453e-01</value>
          <splits>
            <_><var>3</var>
              <quality>5.</quality>
              <le>5.7064533233642578e-01</le></_></splits></_>
        <_>
          <depth>4</depth>
          <value>0.</value></_>
        <_>
          <depth>4</depth>
          <value>1.</value></_>
        <_>
          <depth>2</depth>
          <value>9.6265560165975106e-01</value>
          <splits>
            <_><var>8</var>
              <quality>2.2615126037597656e+02</quality>
              <le>1.1012227833271027e-01</le></_></splits></_>
        <_>
          <depth>3</depth>
          <value>0.</value></_>
        <_>
          <depth>3</depth>
          <value>9.7478991596638653e-01</value>
          <splits>
            <_><var>3</var>
              <quality>2.2703930664062500e+02</quality>
              <le>5.8626765012741089e-01</le></_></splits></_>
        <_>
          <depth>4</depth>
          <value>9.8689956331877726e-01</value>
          <splits>
            <_><var>1</var>
              <quality>2.2330000305175781e+02</quality>
              <le>4.0146570205688477e+00</le></_></splits></_>
        <_>
          <depth>5</depth>
          <value>9.0000000000000002e-01</value></_>
        <_>
          <depth>5</depth>
          <value>1.</value></_>
        <_>
          <depth>4</depth>
          <value>6.6666666666666663e-01</value></_></nodes></_>
    <_>
      <nodes>
        <_>
          <depth>0</depth>
          <value>1.4505283381364073e-01</value>
          <splits>
            <_><var>5</var>
              <quality>2.2630764770507813e+02</quality>
              <le>-5.9568142890930176e-01</le></_></splits></_>
        <_>
          <depth>1</depth>
          <value>1.3793103448275862e-02</value>
          <splits>
            <_><var>6</var>
              <quality>8.9859592914581299e-01</quality>
              <le>3.7762725353240967e-01</le></_></splits></_>
        <_>
          <depth>2</depth>
          <value>0.</value></_>
        <_>
          <depth>2</depth>
          <value>3.7441497659906398e-02</value>
          <splits>
            <_><var>8</var>
              <quality>8.3366346359252930e+00</quality>
              <le>1.0920174419879913e-01</le></_></splits></_>
        <_>
          <depth>3</depth>
          <value>2.0766773162939296e-02</value>
          <splits>
            <_><var>8</var>
              <quality>8.7871712446212769e-01</quality>
              <le>8.9549824595451355e-02</le></_></splits></_>
        <_>
          <depth>4</depth>
          <value>4.1067761806981521e-03</value>
          <splits>
            <_><var>2</var>
              <quality>9.5238097012042999e-02</quality>
              <le>5.3457326889038086e+00</le></_></splits></_>
        <_>
          <depth>5</depth>
          <value>0.</value></_>
        <_>
          <depth>5</depth>
          <value>4.7619047619047616e-02</value></_>
        <_>
          <depth>4</depth>
          <value>7.9136690647482008e-02</value>
          <splits>
            <_><var>8</var>
              <quality>4.3629631996154785e+00</quality>
              <le>9.0452268719673157e-02</le></_></splits></_>
        <_>
          <depth>5</depth>
          <value>1.</value></_>
        <_>
          <depth>5</depth>
          <value>5.1851851851851850e-02</value></_>
        <_>
          <depth>3</depth>
          <value>7.3333333333333328e-01</value>
          <splits>
            <_><var>7</var>
              <quality>8.7777776718139648e+00</quality>
              <le>4.7383064031600952e-01</le></_></splits></_>
        <_>
          <depth>4</depth>
          <value>1.</value></_>
        <_>
          <depth>4</depth>
          <value>5.5555555555555558e-01</value></_>
        <_>
          <depth>1</depth>
          <value>8.1286549707602340e-01</value>
          <splits>
            <_><var>0</var>
              <quality>2.4577655029296875e+02</quality>
              <le>4.0338549613952637e+00</le></_></splits></_>
        <_>
          <depth>2</depth>
          <value>2.2448979591836735e-01</value>
          <splits>
            <_><var>2</var>
              <quality>11.</quality>
              <le>5.1027774810791016e+00</le></_></splits></_>
        <_>
          <depth>3</depth>
          <value>0.</value></_>
        <_>
          <depth>3</depth>
          <value>1.</value></_>
        <_>
          <depth>2</depth>
          <value>9.1126279863481230e-01</value>
          <splits>
            <_><var>1</var>
              <quality>2.5596343994140625e+02</quality>
              <le>3.5431952476501465e+00</le></_></splits></_>
        <_>
          <depth>3</depth>
          <value>1.8181818181818182e-01</value>
          <splits>
            <_><var>8</var>
              <quality>2.2857143878936768e+00</quality>
              <le>1.3279624283313751e-01</le></_></splits></_>
        <_>
          <depth>4</depth>
          <value>5.7142857142857140e-01</value></_>
        <_>
          <depth>4</depth>
          <value>0.</value></_>
        <_>
          <depth>3</depth>
          <value>9.7047970479704793e-01</value>
          <splits>
            <_><var>6</var>
              <quality>2.5618148803710938e+02</quality>
              <le>5.0243389606475830e-01</le></_></splits></_>
        <_>
          <depth>4</depth>
          <value>9.7407407407407409e-01</value>
          <splits>
            <_><var>4</var>
              <quality>2.5736822509765625e+02</quality>
              <le>-3.2148830592632294e-02</le></_></splits></_>
        <_>
          <depth>5</depth>
          <value>6.6666666666666663e-01</value></_>
        <_>
          <depth>5</depth>
          <value>9.8837209302325579e-01</value></_>
        <_>
          <depth>4</depth>
          <value>0.</value></_></nodes></_>
    <_>
      <nodes>
        <_>
          <depth>0</depth>
          <value>1.5946205571565802e-01</value>
          <splits>
            <_><var>7</var>
              <quality>8.3990135192871094e+01</quality>
              <le>5.4396057128906250e-01</le></_></splits></_>
        <_>
          <depth>1</depth>
          <value>2.7362736273627364e-01</value>
          <splits>
            <_><var>2</var>
              <quality>2.2818307495117188e+02</quality>
              <le>5.3377113342285156e+00</le></_></splits></_>
        <_>
          <depth>2</depth>
          <value>3.7275064267352186e-02</value>
          <splits>
            <_><var>3</var>
              <quality>5.0632920265197754e+00</quality>
              <le>4.4239908456802368e-01</le></_></splits></_>
        <_>
          <depth>3</depth>
          <value>3.0188679245283018e-01</value>
          <splits>
            <_><var>8</var>
              <quality>8.2580642700195313e+00</quality>
              <le>1.7153745889663696e-01</le></_></splits></_>
        <_>
          <depth>4</depth>
          <value>5.1612903225806450e-01</value>
          <splits>
            <_><var>1</var>
              <quality>16.</quality>
              <le>3.5212116241455078e+00</le></_></splits></_>
        <_>
          <depth>5</depth>
          <value>0.</value></_>
        <_>
          <depth>5</depth>
          <value>1.</value></_>
        <_>
          <depth>4</depth>
          <value>0.</value></_>
        <_>
          <depth>3</depth>
          <value>1.7931034482758620e-02</value>
          <splits>
            <_><var>8</var>
              <quality>2.9649121761322021e+00</quality>
              <le>1.1204715073108673e-01</le></_></splits></_>
        <_>
          <depth>4</depth>
          <value>0.</value></_>
        <_>
          <depth>4</depth>
          <value>2.2807017543859648e-01</value>
          <splits>
            <_><var>7</var>
              <quality>7.2270269393920898e+00</quality>
              <le>4.7876065969467163e-01</le></_></splits></_>
        <_>
          <depth>5</depth>
          <value>5.9999999999999998e-01</value></_>
        <_>
          <depth>5</depth>
          <value>2.7027027027027029e-02</value></_>
        <_>
          <depth>2</depth>
          <value>8.2582582582582587e-01</value>
          <splits>
            <_><var>3</var>
              <quality>2.5987973022460938e+02</quality>
              <le>7.9038912057876587e-01</le></_></splits></_>
        <_>
          <depth>3</depth>
          <value>9.4501718213058417e-01</value>
          <splits>
            <_><var>7</var>
              <quality>2.6187673950195313e+02</quality>
              <le>4.1187936067581177e-01</le></_></splits></_>
        <_>
          <depth>4</depth>
          <value>6.3157894736842102e-01</value>
          <splits>
            <_><var>8</var>
              <quality>9.</quality>
              <le>8.8742733001708984e-02</le></_></splits></_>
        <_>
          <depth>5</depth>
          <value>0.</value></_>
        <_>
          <depth>5</depth>
          <value>7.5000000000000000e-01</value></_>
        <_>
          <depth>4</depth>
          <value>9.6691176470588236e-01</value>
          <splits>
            <_><var>2</var>
              <quality>2.5501249694824219e+02</quality>
              <le>5.7964363098144531e+00</le></_></splits></_>
        <_>
          <depth>5</depth>
          <value>8.8749999999999996e-01</value></_>
        <_>
          <depth>5</depth>
          <value>1.</value></_>
        <_>
          <depth>3</depth>
          <value>0.</value></_>
        <_>
          <depth>1</depth>
          <value>2.8836251287332648e-02</value>
          <splits>
            <_><var>5</var>
              <quality>2.5290323257446289e+01</quality>
              <le>-5.1969206333160400e-01</le></_></splits></_>
        <_>
          <depth>2</depth>
          <value>0.</value></_>
        <_>
          <depth>2</depth>
          <value>9.0322580645161288e-01</value>
          <splits>
            <_><var>6</var>
              <quality>2.6037036895751953e+01</quality>
              <le>1.7038188874721527e-01</le></_></splits></_>
        <_>
          <depth>3</depth>
          <value>5.0000000000000000e-01</value></_>
        <_>
          <depth>3</depth>
          <value>9.6296296296296291e-01</value>
          <splits>
            <_><var>3</var>
              <quality>2.5100000381469727e+01</quality>
              <le>1.0378700494766235e-01</le></_></splits></_>
        <_>
          <depth>4</depth>
          <value>1.</value></_>
        <_>
          <depth>4</depth>
          <value>9.0000000000000002e-01</value></_></nodes></_>
    <_>
      <nodes>
        <_>
          <depth>0</depth>
          <value>1.5465898174831894e-01</value>
          <splits>
            <_><var>8</var>
              <quality>1.6011720275878906e+02</quality>
              <le>1.4394271373748779e-01</le></_></splits></_>
        <_>
          <depth>1</depth>
          <value>6.2430323299888520e-02</value>
          <splits>
            <_><var>7</var>
              <quality>1.8590290069580078e+01</quality>
              <le>5.0981891155242920e-01</le></_></splits></_>
        <_>
          <depth>2</depth>
          <value>1.6897081413210446e-01</value>
          <splits>
            <_><var>2</var>
              <quality>6.1043952941894531e+01</quality>
              <le>5.3007035255432129e+00</le></_></splits></_>
        <_>
          <depth>3</depth>
          <value>2.6209677419354840e-02</value>
          <splits>
            <_><var>8</var>
              <quality>4.8484926223754883e+00</quality>
              <le>1.1197692155838013e-01</le></_></splits></_>
        <_>
          <depth>4</depth>
          <value>4.2462845010615710e-03</value>
          <splits>
            <_><var>6</var>
              <quality>5.0213217735290527e-01</quality>
              <le>3.9064794778823853e-01</le></_></splits></_>
        <_>
          <depth>5</depth>
          <value>5.0000000000000000e-01</value></_>
        <_>
          <depth>5</depth>
          <value>2.1321961620469083e-03</value></_>
        <_>
          <depth>4</depth>
          <value>4.4000000000000000e-01</value>
          <splits>
            <_><var>2</var>
              <quality>11.</quality>
              <le>4.7883501052856445e+00</le></_></splits></_>
        <_>
          <depth>5</depth>
          <value>0.</value></_>
        <_>
          <depth>5</depth>
          <value>1.</value></_>
        <_>
          <depth>3</depth>
          <value>6.2580645161290327e-01</value>
          <splits>
            <_><var>3</var>
              <quality>9.2178184509277344e+01</quality>
              <le>7.2221159934997559e-01</le></_></splits></_>
        <_>
          <depth>4</depth>
          <value>9.5999999999999996e-01</value>
          <splits>
            <_><var>8</var>
              <quality>9.3810523986816406e+01</quality>
              <le>1.4019323885440826e-01</le></_></splits></_>
        <_>
          <depth>5</depth>
          <value>9.8947368421052628e-01</value></_>
        <_>
          <depth>5</depth>
          <value>4.0000000000000002e-01</value></_>
        <_>
          <depth>4</depth>
          <value>1.8181818181818181e-02</value>
          <splits>
            <_><var>0</var>
              <quality>1.0000000149011612e-01</quality>
              <le>5.0603647232055664e+00</le></_></splits></_>
        <_>
          <depth>5</depth>
          <value>1.0000000000000001e-01</value></_>
        <_>
          <depth>5</depth>
          <value>0.</value></_>
        <_>
          <depth>2</depth>
          <value>1.7497812773403325e-03</value>
          <splits>
            <_><var>2</var>
              <quality>2.</quality>
              <le>5.4004154205322266e+00</le></_></splits></_>
        <_>
          <depth>3</depth>
          <value>0.</value></_>
        <_>
          <depth>3</depth>
          <value>1.</value></_>
        <_>
          <depth>1</depth>
          <value>7.2916666666666663e-01</value>
          <splits>
            <_><var>0</var>
              <quality>1.8248800659179688e+02</quality>
              <le>4.0329847335815430e+00</le></_></splits></_>
        <_>
          <depth>2</depth>
          <value>1.4925373134328357e-01</value>
          <splits>
            <_><var>2</var>
              <quality>10.</quality>
              <le>5.0657873153686523e+00</le></_></splits></_>
        <_>
          <depth>3</depth>
          <value>0.</value></_>
        <_>
          <depth>3</depth>
          <value>1.</value></_>
        <_>
          <depth>2</depth>
          <value>9.0497737556561086e-01</value>
          <splits>
            <_><var>2</var>
              <quality>1.9801980590820313e+02</quality>
              <le>4.7504024505615234e+00</le></_></splits></_>
        <_>
          <depth>3</depth>
          <value>0.</value></_>
        <_>
          <depth>3</depth>
          <value>9.9009900990099009e-01</value>
          <splits>
            <_><var>0</var>
              <quality>1.9818182373046875e+02</quality>
              <le>4.1764039993286133e+00</le></_></splits></_>
        <_>
          <depth>4</depth>
          <value>9.0909090909090906e-01</value>
          <splits>
            <_><var>3</var>
              <quality>20.</quality>
              <le>3.0612888932228088e-01</le></_></splits></_>
        <_>
          <depth>5</depth>
          <value>1.</value></_>
        <_>
          <depth>5</depth>
          <value>0.</value></_>
        <_>
          <depth>4</depth>
          <value>1.</value></_></nodes></_>
    <_>
      <nodes>
        <_>
          <depth>0</depth>
          <value>1.6714697406340057e-01</value>
          <splits>
            <_><var>2</var>
              <quality>2.7300436401367188e+02</quality>
              <le>5.3717641830444336e+00</le></_></splits></_>
        <_>
          <depth>1</depth>
          <value>1.4142604596346494e-02</value>
          <splits>
            <_><var>8</var>
              <quality>1.6192092895507813e+00</quality>
              <le>1.3628073036670685e-01</le></_></splits></_>
        <_>
          <depth>2</depth>
          <value>6.3653723742838958e-03</value>
          <splits>
            <_><var>6</var>
              <quality>1.6233766078948975e-01</quality>
              <le>3.6627054214477539e-01</le></_></splits></_>
        <_>
          <depth>3</depth>
          <value>0.</value></_>
        <_>
          <depth>3</depth>
          <value>1.6233766233766232e-02</value>
          <splits>
            <_><var>8</var>
              <quality>2.5940227508544922e+00</quality>
              <le>1.1379478126764297e-01</le></_></splits></_>
        <_>
          <depth>4</depth>
          <value>5.0251256281407036e-03</value>
          <splits>
            <_><var>2</var>
              <quality>5.7312351465225220e-01</quality>
              <le>5.3490738868713379e+00</le></_></splits></_>
        <_>
          <depth>5</depth>
          <value>1.6949152542372881e-03</value></_>
        <_>
          <depth>5</depth>
          <value>2.8571428571428570e-01</value></_>
        <_>
          <depth>4</depth>
          <value>3.6842105263157893e-01</value>
          <splits>
            <_><var>4</var>
              <quality>4.5999999046325684e+00</quality>
              <le>1.2915250658988953e-01</le></_></splits></_>
        <_>
          <depth>5</depth>
          <value>2.0000000000000001e-01</value></_>
        <_>
          <depth>5</depth>
          <value>1.</value></_>
        <_>
          <depth>2</depth>
          <value>1.1111111111111110e-01</value>
          <splits>
            <_><var>2</var>
              <quality>14.</quality>
              <le>4.8200407028198242e+00</le></_></splits></_>
        <_>
          <depth>3</depth>
          <value>0.</value></_>
        <_>
          <depth>3</depth>
          <value>1.</value></_>
        <_>
          <depth>1</depth>
          <value>8.4155844155844151e-01</value>
          <splits>
            <_><var>3</var>
              <quality>3.0975036621093750e+02</quality>
              <le>6.9658708572387695e-01</le></_></splits></_>
        <_>
          <depth>2</depth>
          <value>9.6960486322188455e-01</value>
          <splits>
            <_><var>6</var>
              <quality>3.1006384277343750e+02</quality>
              <le>3.9610326290130615e-01</le></_></splits></_>
        <_>
          <depth>3</depth>
          <value>1.</value></_>
        <_>
          <depth>3</depth>
          <value>8.9361702127659570e-01</value>
          <splits>
            <_><var>0</var>
              <quality>7.9280899047851563e+01</quality>
              <le>4.2910661697387695e+00</le></_></splits></_>
        <_>
          <depth>4</depth>
          <value>0.</value></_>
        <_>
          <depth>4</depth>
          <value>9.4382022471910110e-01</value>
          <splits>
            <_><var>6</var>
              <quality>8.2046508789062500e+01</quality>
              <le>3.9776197075843811e-01</le></_></splits></_>
        <_>
          <depth>5</depth>
          <value>0.</value></_>
        <_>
          <depth>5</depth>
          <value>9.7674418604651159e-01</value></_>
        <_>
          <depth>2</depth>
          <value>8.9285714285714288e-02</value>
          <splits>
            <_><var>1</var>
              <quality>2.1666667461395264e+00</quality>
              <le>4.1107473373413086e+00</le></_></splits></_>
        <_>
          <depth>3</depth>
          <value>1.</value></_>
        <_>
          <depth>3</depth>
          <value>5.5555555555555552e-02</value>
          <splits>
            <_><var>6</var>
              <quality>6.9230771064758301e-01</quality>
              <le>4.9428147077560425e-01</le></_></splits></_>
        <_>
          <depth>4</depth>
          <value>2.3076923076923078e-01</value>
          <splits>
            <_><var>2</var>
              <quality>3.</quality>
              <le>5.4100456237792969e+00</le></_></splits></_>
        <_>
          <depth>5</depth>
          <value>1.</value></_>
        <_>
          <depth>5</depth>
          <value>0.</value></_>
        <_>
          <depth>4</depth>
          <value>0.</value></_></nodes></_>
    <_>
      <nodes>
        <_>
          <depth>0</depth>
          <value>1.5225744476464936e-01</value>
          <splits>
            <_><var>5</var>
              <quality>2.2928126525878906e+02</quality>
              <le>-5.9294056892395020e-01</le></_></splits></_>
        <_>
          <depth>1</depth>
          <value>1.6307513104251603e-02</value>
          <splits>
            <_><var>1</var>
              <quality>1.4638600349426270e+00</quality>
              <le>4.0204906463623047e+00</le></_></splits></_>
        <_>
          <depth>2</depth>
          <value>3.7009622501850479e-03</value>
          <splits>
            <_><var>6</var>
              <quality>8.9605733752250671e-02</quality>
              <le>3.6627054214477539e-01</le></_></splits></_>
        <_>
          <depth>3</depth>
          <value>0.</value></_>
        <_>
          <depth>3</depth>
          <value>1.7921146953405017e-02</value>
          <splits>
            <_><var>3</var>
              <quality>1.1397601366043091e+00</quality>
              <le>5.1810175180435181e-01</le></_></splits></_>
        <_>
          <depth>4</depth>
          <value>3.7500000000000000e-01</value></_>
        <_>
          <depth>4</depth>
          <value>7.3800738007380072e-03</value>
          <splits>
            <_><var>3</var>
              <quality>1.3333334028720856e-01</quality>
              <le>5.7182359695434570e-01</le></_></splits></_>
        <_>
          <depth>5</depth>
          <value>6.6666666666666666e-02</value></_>
        <_>
          <depth>5</depth>
          <value>0.</value></_>
        <_>
          <depth>2</depth>
          <value>6.2841530054644809e-02</value>
          <splits>
            <_><var>5</var>
              <quality>1.1761503219604492e+01</quality>
              <le>-6.4497208595275879e-01</le></_></splits></_>
        <_>
          <depth>3</depth>
          <value>2.5787965616045846e-02</value>
          <splits>
            <_><var>5</var>
              <quality>1.8409091234207153e+00</quality>
              <le>-7.2970318794250488e-01</le></_></splits></_>
        <_>
          <depth>4</depth>
          <value>0.</value></_>
        <_>
          <depth>4</depth>
          <value>2.0454545454545456e-01</value>
          <splits>
            <_><var>1</var>
              <quality>3.5217392444610596e+00</quality>
              <le>4.2104148864746094e+00</le></_></splits></_>
        <_>
          <depth>5</depth>
          <value>0.</value></_>
        <_>
          <depth>5</depth>
          <value>3.9130434782608697e-01</value></_>
        <_>
          <depth>3</depth>
          <value>8.2352941176470584e-01</value>
          <splits>
            <_><var>8</var>
              <quality>1.3250000000000000e+01</quality>
              <le>1.0185545682907104e-01</le></_></splits></_>
        <_>
          <depth>4</depth>
          <value>2.5000000000000000e-01</value></_>
        <_>
          <depth>4</depth>
          <value>1.</value></_>
        <_>
          <depth>1</depth>
          <value>7.9178082191780819e-01</value>
          <splits>
            <_><var>1</var>
              <quality>2.6942257690429688e+02</quality>
              <le>3.4588432312011719e+00</le></_></splits></_>
        <_>
          <depth>2</depth>
          <value>0.</value></_>
        <_>
          <depth>2</depth>
          <value>9.3225806451612903e-01</value>
          <splits>
            <_><var>6</var>
              <quality>2.7311007690429688e+02</quality>
              <le>4.5728582143783569e-01</le></_></splits></_>
        <_>
          <depth>3</depth>
          <value>9.5317725752508364e-01</value>
          <splits>
            <_><var>7</var>
              <quality>2.7267831420898438e+02</quality>
              <le>4.6335661411285400e-01</le></_></splits></_>
        <_>
          <depth>4</depth>
          <value>8.7128712871287128e-01</value>
          <splits>
            <_><var>1</var>
              <quality>7.9020408630371094e+01</quality>
              <le>3.7972886562347412e+00</le></_></splits></_>
        <_>
          <depth>5</depth>
          <value>0.</value></_>
        <_>
          <depth>5</depth>
          <value>8.9795918367346939e-01</value></_>
        <_>
          <depth>4</depth>
          <value>9.9494949494949492e-01</value>
          <splits>
            <_><var>3</var>
              <quality>1.9605555725097656e+02</quality>
              <le>4.5941621065139771e-01</le></_></splits></_>
        <_>
          <depth>5</depth>
          <value>1.</value></_>
        <_>
          <depth>5</depth>
          <value>9.4444444444444442e-01</value></_>
        <_>
          <depth>3</depth>
          <value>3.6363636363636365e-01</value>
          <splits>
            <_><var>1</var>
              <quality>3.1250000000000000e+00</quality>
              <le>4.0985889434814453e+00</le></_></splits></_>
        <_>
          <depth>4</depth>
          <value>1.2500000000000000e-01</value></_>
        <_>
          <depth>4</depth>
          <value>1.</value></_></nodes></_>
    <_>
      <nodes>
        <_>
          <depth>0</depth>
          <value>1.4937560038424591e-01</value>
          <splits>
            <_><var>1</var>
              <quality>8.9166992187500000e+01</quality>
              <le>3.8586537837982178e+00</le></_></splits></_>
        <_>
          <depth>1</depth>
          <value>3.6575875486381325e-02</value>
          <splits>
            <_><var>3</var>
              <quality>7.5729384422302246e+00</quality>
              <le>1.8091812729835510e-01</le></_></splits></_>
        <_>
          <depth>2</depth>
          <value>3.8297872340425532e-01</value>
          <splits>
            <_><var>2</var>
              <quality>18.</quality>
              <le>4.9092941284179688e+00</le></_></splits></_>
        <_>
          <depth>3</depth>
          <value>0.</value></_>
        <_>
          <depth>3</depth>
          <value>1.</value></_>
        <_>
          <depth>2</depth>
          <value>2.3424878836833602e-02</value>
          <splits>
            <_><var>2</var>
              <quality>2.2400831222534180e+01</quality>
              <le>4.9577846527099609e+00</le></_></splits></_>
        <_>
          <depth>3</depth>
          <value>8.3125519534497092e-04</value>
          <splits>
            <_><var>0</var>
              <quality>5.0000000745058060e-02</quality>
              <le>4.7552642822265625e+00</le></_></splits></_>
        <_>
          <depth>4</depth>
          <value>0.</value></_>
        <_>
          <depth>4</depth>
          <value>5.0000000000000003e-02</value>
          <splits>
            <_><var>1</var>
              <quality>3.3333334326744080e-01</quality>
              <le>3.8072838783264160e+00</le></_></splits></_>
        <_>
          <depth>5</depth>
          <value>0.</value></_>
        <_>
          <depth>5</depth>
          <value>3.3333333333333331e-01</value></_>
        <_>
          <depth>3</depth>
          <value>8.0000000000000004e-01</value>
          <splits>
            <_><var>1</var>
              <quality>2.5304597854614258e+01</quality>
              <le>3.7890038490295410e+00</le></_></splits></_>
        <_>
          <depth>4</depth>
          <value>9.3103448275862066e-01</value>
          <splits>
            <_><var>8</var>
              <quality>27.</quality>
              <le>1.1876438558101654e-01</le></_></splits></_>
        <_>
          <depth>5</depth>
          <value>0.</value></_>
        <_>
          <depth>5</depth>
          <value>1.</value></_>
        <_>
          <depth>4</depth>
          <value>1.6666666666666666e-01</value></_>
        <_>
          <depth>1</depth>
          <value>3.3124215809284818e-01</value>
          <splits>
            <_><var>8</var>
              <quality>2.4074960327148438e+02</quality>
              <le>1.1155524849891663e-01</le></_></splits></_>
        <_>
          <depth>2</depth>
          <value>2.6070763500931099e-02</value>
          <splits>
            <_><var>2</var>
              <quality>3.1907453536987305e+00</quality>
              <le>5.3377113342285156e+00</le></_></splits></_>
        <_>
          <depth>3</depth>
          <value>2.0661157024793389e-03</value>
          <splits>
            <_><var>8</var>
              <quality>1.4285714924335480e-01</quality>
              <le>1.0590042173862457e-01</le></_></splits></_>
        <_>
          <depth>4</depth>
          <value>0.</value></_>
        <_>
          <depth>4</depth>
          <value>1.4285714285714285e-01</value></_>
        <_>
          <depth>3</depth>
          <value>2.4528301886792453e-01</value>
          <splits>
            <_><var>8</var>
              <quality>6.4932432174682617e+00</quality>
              <le>8.8713511824607849e-02</le></_></splits></_>
        <_>
          <depth>4</depth>
          <value>8.1081081081081086e-02</value>
          <splits>
            <_><var>6</var>
              <quality>8.9999997615814209e-01</quality>
              <le>4.9164855480194092e-01</le></_></splits></_>
        <_>
          <depth>5</depth>
          <value>2.9999999999999999e-01</value></_>
        <_>
          <depth>5</depth>
          <value>0.</value></_>
        <_>
          <depth>4</depth>
          <value>6.2500000000000000e-01</value>
          <splits>
            <_><var>4</var>
              <quality>7.1428570747375488e+00</quality>
              <le>-9.5493450760841370e-02</le></_></splits></_>
        <_>
          <depth>5</depth>
          <value>0.</value></_>
        <_>
          <depth>5</depth>
          <value>7.1428571428571430e-01</value></_>
        <_>
          <depth>2</depth>
          <value>9.6153846153846156e-01</value>
          <splits>
            <_><var>8</var>
              <quality>2.4257702636718750e+02</quality>
              <le>1.2030495703220367e-01</le></_></splits></_>
        <_>
          <depth>3</depth>
          <value>6.8000000000000005e-01</value>
          <splits>
            <_><var>2</var>
              <quality>1.6111110687255859e+01</quality>
              <le>5.3373537063598633e+00</le></_></splits></_>
        <_>
          <depth>4</depth>
          <value>1.1111111111111110e-01</value></_>
        <_>
          <depth>4</depth>
          <value>1.</value></_>
        <_>
          <depth>3</depth>
          <value>9.9148936170212765e-01</value>
          <splits>
            <_><var>1</var>
              <quality>2.3114285278320313e+02</quality>
              <le>3.9659833908081055e+00</le></_></splits></_>
        <_>
          <depth>4</depth>
          <value>9.2857142857142860e-01</value>
          <splits>
            <_><var>2</var>
              <quality>2.5037036895751953e+01</quality>
              <le>5.1369700431823730e+00</le></_></splits></_>
        <_>
          <depth>5</depth>
          <value>0.</value></_>
        <_>
          <depth>5</depth>
          <value>9.6296296296296291e-01</value></_>
        <_>
          <depth>4</depth>
          <value>1.</value></_></nodes></_>
    <_>
      <nodes>
        <_>
          <depth>0</depth>
          <value>1.5033621517771373e-01</value>
          <splits>
            <_><var>0</var>
              <quality>7.1343002319335938e+01</quality>
              <le>4.2553009986877441e+00</le></_></splits></_>
        <_>
          <depth>1</depth>
          <value>4.9460431654676257e-02</value>
          <splits>
            <_><var>5</var>
              <quality>2.7109498977661133e+01</quality>
              <le>-5.9294056892395020e-01</le></_></splits></_>
        <_>
          <depth>2</depth>
          <value>3.9370078740157480e-03</value>
          <splits>
            <_><var>2</var>
              <quality>3.0009870529174805e+00</quality>
              <le>5.1250095367431641e+00</le></_></splits></_>
        <_>
          <depth>3</depth>
          <value>9.8716683119447180e-04</value>
          <splits>
            <_><var>2</var>
              <quality>2.0000000298023224e-01</quality>
              <le>4.9118223190307617e+00</le></_></splits></_>
        <_>
          <depth>4</depth>
          <value>0.</value></_>
        <_>
          <depth>4</depth>
          <value>2.0000000000000001e-01</value></_>
        <_>
          <depth>3</depth>
          <value>1.</value></_>
        <_>
          <depth>2</depth>
          <value>5.3125000000000000e-01</value>
          <splits>
            <_><var>1</var>
              <quality>4.2639343261718750e+01</quality>
              <le>3.4640049934387207e+00</le></_></splits></_>
        <_>
          <depth>3</depth>
          <value>0.</value></_>
        <_>
          <depth>3</depth>
          <value>8.3606557377049184e-01</value>
          <splits>
            <_><var>6</var>
              <quality>5.0019229888916016e+01</quality>
              <le>3.8658624887466431e-01</le></_></splits></_>
        <_>
          <depth>4</depth>
          <value>9.8076923076923073e-01</value>
          <splits>
            <_><var>1</var>
              <quality>5.0333332061767578e+01</quality>
              <le>3.5145597457885742e+00</le></_></splits></_>
        <_>
          <depth>5</depth>
          <value>6.6666666666666663e-01</value></_>
        <_>
          <depth>5</depth>
          <value>1.</value></_>
        <_>
          <depth>4</depth>
          <value>0.</value></_>
        <_>
          <depth>1</depth>
          <value>2.6597938144329897e-01</value>
          <splits>
            <_><var>3</var>
              <quality>1.7216284179687500e+02</quality>
              <le>5.2484548091888428e-01</le></_></splits></_>
        <_>
          <depth>2</depth>
          <value>8.1746031746031744e-01</value>
          <splits>
            <_><var>8</var>
              <quality>1.8944642639160156e+02</quality>
              <le>1.2226022779941559e-01</le></_></splits></_>
        <_>
          <depth>3</depth>
          <value>0.</value></_>
        <_>
          <depth>3</depth>
          <value>9.1964285714285710e-01</value>
          <splits>
            <_><var>6</var>
              <quality>1.9115315246582031e+02</quality>
              <le>4.6660959720611572e-01</le></_></splits></_>
        <_>
          <depth>4</depth>
          <value>9.2792792792792789e-01</value>
          <splits>
            <_><var>2</var>
              <quality>2.0111848449707031e+02</quality>
              <le>4.7898602485656738e+00</le></_></splits></_>
        <_>
          <depth>5</depth>
          <value>0.</value></_>
        <_>
          <depth>5</depth>
          <value>9.7630331753554500e-01</value></_>
        <_>
          <depth>4</depth>
          <value>0.</value></_>
        <_>
          <depth>2</depth>
          <value>7.2423398328690811e-02</value>
          <splits>
            <_><var>5</var>
              <quality>2.7341072082519531e+01</quality>
              <le>-6.2078917026519775e-01</le></_></splits></_>
        <_>
          <depth>3</depth>
          <value>3.0791788856304986e-02</value>
          <splits>
            <_><var>5</var>
              <quality>3.8852221965789795e+00</quality>
              <le>-6.9536751508712769e-01</le></_></splits></_>
        <_>
          <depth>4</depth>
          <value>1.7271157167530224e-03</value>
          <splits>
            <_><var>8</var>
              <quality>5.1282052882015705e-03</quality>
              <le>8.0673724412918091e-02</le></_></splits></_>
        <_>
          <depth>5</depth>
          <value>0.</value></_>
        <_>
          <depth>5</depth>
          <value>5.1282051282051282e-03</value></_>
        <_>
          <depth>4</depth>
          <value>1.9417475728155340e-01</value>
          <splits>
            <_><var>1</var>
              <quality>8.7604169845581055e+00</quality>
              <le>4.4175996780395508e+00</le></_></splits></_>
        <_>
          <depth>5</depth>
          <value>1.3541666666666666e-01</value></_>
        <_>
          <depth>5</depth>
          <value>1.</value></_>
        <_>
          <depth>3</depth>
          <value>8.6111111111111116e-01</value>
          <splits>
            <_><var>5</var>
              <quality>2.8272727966308594e+01</quality>
              <le>-5.8903235197067261e-01</le></_></splits></_>
        <_>
          <depth>4</depth>
          <value>5.4545454545454541e-01</value>
          <splits>
            <_><var>5</var>
              <quality>4.5714287757873535e+00</quality>
              <le>-5.9403169155120850e-01</le></_></splits></_>
        <_>
          <depth>5</depth>
          <value>1.</value></_>
        <_>
          <depth>5</depth>
          <value>2.8571428571428570e-01</value></_>
        <_>
          <depth>4</depth>
          <value>1.</value></_></nodes></_>
    <_>
      <nodes>
        <_>
          <depth>0</depth>
          <value>1.4121037463976946e-01</value>
          <splits>
            <_><var>3</var>
              <quality>8.7234046936035156e+01</quality>
              <le>2.0985457301139832e-01</le></_></splits></_>
        <_>
          <depth>1</depth>
          <value>7.4576271186440679e-01</value>
          <splits>
            <_><var>1</var>
              <quality>88.</quality>
              <le>3.5296277999877930e+00</le></_></splits></_>
        <_>
          <depth>2</depth>
          <value>0.</value></_>
        <_>
          <depth>2</depth>
          <value>1.</value></_>
        <_>
          <depth>1</depth>
          <value>1.0488798370672098e-01</value>
          <splits>
            <_><var>5</var>
              <quality>1.4884304809570313e+02</quality>
              <le>-6.1994189023971558e-01</le></_></splits></_>
        <_>
          <depth>2</depth>
          <value>7.0134424313267095e-03</value>
          <splits>
            <_><var>5</var>
              <quality>5.0623780488967896e-01</quality>
              <le>-6.5919744968414307e-01</le></_></splits></_>
        <_>
          <depth>3</depth>
          <value>2.5284450063211127e-03</value>
          <splits>
            <_><var>7</var>
              <quality>3.9408866316080093e-02</quality>
              <le>4.7737532854080200e-01</le></_></splits></_>
        <_>
          <depth>4</depth>
          <value>9.8522167487684730e-03</value>
          <splits>
            <_><var>7</var>
              <quality>1.0222222805023193e+00</quality>
              <le>4.7721904516220093e-01</le></_></splits></_>
        <_>
          <depth>5</depth>
          <value>7.4074074074074077e-03</value></_>
        <_>
          <depth>5</depth>
          <value>1.</value></_>
        <_>
          <depth>4</depth>
          <value>0.</value></_>
        <_>
          <depth>3</depth>
          <value>6.2015503875968991e-02</value>
          <splits>
            <_><var>0</var>
              <quality>5.4527778625488281e+00</quality>
              <le>4.8367223739624023e+00</le></_></splits></_>
        <_>
          <depth>4</depth>
          <value>8.3333333333333332e-03</value>
          <splits>
            <_><var>8</var>
              <quality>4.3478261679410934e-02</quality>
              <le>1.1611991375684738e-01</le></_></splits></_>
        <_>
          <depth>5</depth>
          <value>4.3478260869565216e-02</value></_>
        <_>
          <depth>5</depth>
          <value>0.</value></_>
        <_>
          <depth>4</depth>
          <value>7.7777777777777779e-01</value></_>
        <_>
          <depth>2</depth>
          <value>7.6679841897233203e-01</value>
          <splits>
            <_><var>2</var>
              <quality>1.8359024047851563e+02</quality>
              <le>4.8013286590576172e+00</le></_></splits></_>
        <_>
          <depth>3</depth>
          <value>0.</value></_>
        <_>
          <depth>3</depth>
          <value>9.4634146341463410e-01</value>
          <splits>
            <_><var>8</var>
              <quality>1.8675325012207031e+02</quality>
              <le>1.1197692155838013e-01</le></_></splits></_>
        <_>
          <depth>4</depth>
          <value>2.8571428571428570e-01</value></_>
        <_>
          <depth>4</depth>
          <value>9.6969696969696972e-01</value>
          <splits>
            <_><var>0</var>
              <quality>1.8646022033691406e+02</quality>
              <le>4.2377572059631348e+00</le></_></splits></_>
        <_>
          <depth>5</depth>
          <value>8.6363636363636365e-01</value></_>
        <_>
          <depth>5</depth>
          <value>9.8295454545454541e-01</value></_></nodes></_>
    <_>
      <nodes>
        <_>
          <depth>0</depth>
          <value>1.7195004803073968e-01</value>
          <splits>
            <_><var>2</var>
              <quality>2.8777786254882813e+02</quality>
              <le>5.3377113342285156e+00</le></_></splits></_>
        <_>
          <depth>1</depth>
          <value>1.2448132780082987e-02</value>
          <splits>
            <_><var>7</var>
              <quality>5.9009367227554321e-01</quality>
              <le>5.3974699974060059e-01</le></_></splits></_>
        <_>
          <depth>2</depth>
          <value>2.9455081001472753e-02</value>
          <splits>
            <_><var>5</var>
              <quality>4.9156160354614258e+00</quality>
              <le>-6.1635720729827881e-01</le></_></splits></_>
        <_>
          <depth>3</depth>
          <value>3.2626427406199023e-03</value>
          <splits>
            <_><var>5</var>
              <quality>2.0000000298023224e-01</quality>
              <le>-6.4827597141265869e-01</le></_></splits></_>
        <_>
          <depth>4</depth>
          <value>0.</value></_>
        <_>
          <depth>4</depth>
          <value>1.0000000000000001e-01</value>
          <splits>
            <_><var>8</var>
              <quality>1.</quality>
              <le>1.0718460381031036e-01</le></_></splits></_>
        <_>
          <depth>5</depth>
          <value>5.0000000000000000e-01</value></_>
        <_>
          <depth>5</depth>
          <value>0.</value></_>
        <_>
          <depth>3</depth>
          <value>2.7272727272727271e-01</value>
          <splits>
            <_><var>4</var>
              <quality>7.0434784889221191e+00</quality>
              <le>2.0492544397711754e-02</le></_></splits></_>
        <_>
          <depth>4</depth>
          <value>0.</value></_>
        <_>
          <depth>4</depth>
          <value>3.9130434782608697e-01</value>
          <splits>
            <_><var>0</var>
              <quality>1.0631579399108887e+01</quality>
              <le>4.6593990325927734e+00</le></_></splits></_>
        <_>
          <depth>5</depth>
          <value>2.6315789473684209e-01</value></_>
        <_>
          <depth>5</depth>
          <value>1.</value></_>
        <_>
          <depth>2</depth>
          <value>9.9206349206349201e-04</value>
          <splits>
            <_><var>2</var>
              <quality>1.</quality>
              <le>5.0738067626953125e+00</le></_></splits></_>
        <_>
          <depth>3</depth>
          <value>0.</value></_>
        <_>
          <depth>3</depth>
