<?xml version="1.0"?>
<opencv_storage>
<opencv_ml_rtrees>
  <format>3</format>
  <is_classifier>0</is_classifier>
  <var_all>10</var_all>
  <var_count>9</var_count>
  <ord_var_count>10</ord_var_count>
  <cat_var_count>0</cat_var_count>
  <training_params>
    <use_surrogates>0</use_surrogates>
    <max_categories>10</max_categories>
    <regression_accuracy>9.9999997473787516e-05</regression_accuracy>
    <max_depth>5</max_depth>
    <min_sample_count>10</min_sample_count>
    <cross_validation_folds>0</cross_validation_folds>
    <nactive_vars>0</nactive_vars></training_params>
  <global_var_idx>1</global_var_idx>
  <var_idx>
    0 1 2 3 4 5 6 7 8</var_idx>
  <var_type>
    0 0 0 0 0 0 0 0 0 0</var_type>
  <cat_ofs>
    0 0 0 0 0 0 0 0 0 0 0 0 0 0 0 0 0 0</cat_ofs>
  <missing_subst>
    0. 0. 0. 0. 0. 0. 0. 0. 0. 0.</missing_subst>
  <oob_error>2.6761855764855298e-02</oob_error>
  <var_importance>
    2.78713964e-02 4.54757698e-02 4.96471286e-01 3.70094590e-02
    1.58448257e-02 2.13801920e-01 1.61272474e-02 3.57559845e-02
    1.11642115e-01</var_importance>
  <ntrees>100</ntrees>
  <trees>
    <_>
      <nodes>
        <_>
          <depth>0</depth>
          <value>2.5509190392831754e-01</value>
          <splits>
            <_><var>2</var>
              <quality>2.6916299438476563e+02</quality>
              <le>5.1322813034057617e+00</le></_></splits></_>
        <_>
          <depth>1</depth>
          <value>5.8429120401084653e-02</value>
          <splits>
            <_><var>5</var>
              <quality>1.4870034217834473e+01</quality>
              <le>-6.4304471015930176e-01</le></_></splits></_>
        <_>
          <depth>2</depth>
          <value>1.0452961983996402e-02</value>
          <splits>
            <_><var>4</var>
              <quality>1.9844962656497955e-01</quality>
              <le>-1.8070006370544434e-01</le></_></splits></_>
        <_>
          <depth>3</depth>
          <value>3.3333334326744080e-01</value></_>
        <_>
          <depth>3</depth>
          <value>1.0077519680178443e-02</value>
          <splits>
            <_><var>8</var>
              <quality>1.8865498900413513e-01</quality>
              <le>1.1848402768373489e-01</le></_></splits></_>
        <_>
          <depth>4</depth>
          <value>6.1403510601896992e-03</value>
          <splits>
            <_><var>7</var>
              <quality>4.8938829451799393e-02</quality>
              <le>5.2343726158142090e-01</le></_></splits></_>
        <_>
          <depth>5</depth>
          <value>0.</value></_>
        <_>
          <depth>5</depth>
          <value>1.0486891698301509e-02</value></_>
        <_>
          <depth>4</depth>
          <value>4.0000001192092897e-02</value>
          <splits>
            <_><var>1</var>
              <quality>1.1160494089126587e+00</quality>
              <le>3.8550508022308350e+00</le></_></splits></_>
        <_>
          <depth>5</depth>
          <value>7.4074076281653509e-03</value></_>
        <_>
          <depth>5</depth>
          <value>3.3333334326744080e-01</value></_>
        <_>
          <depth>2</depth>
          <value>2.8415301328148346e-01</value>
          <splits>
            <_><var>1</var>
              <quality>1.6733686447143555e+01</quality>
              <le>3.8161540031433105e+00</le></_></splits></_>
        <_>
          <depth>3</depth>
          <value>2.4691358686965190e-01</value>
          <splits>
            <_><var>0</var>
              <quality>1.1215701103210449e+01</quality>
              <le>4.0509557723999023e+00</le></_></splits></_>
        <_>
          <depth>4</depth>
          <value>1.0884354065875618e-01</value>
          <splits>
            <_><var>8</var>
              <quality>1.1361111402511597e+00</quality>
              <le>1.9703939557075500e-01</le></_></splits></_>
        <_>
          <depth>5</depth>
          <value>5.8333335071802141e-02</value></_>
        <_>
          <depth>5</depth>
          <value>3.3333334326744080e-01</value></_>
        <_>
          <depth>4</depth>
          <value>3.0678466885490757e-01</value>
          <splits>
            <_><var>0</var>
              <quality>1.2439922332763672e+01</quality>
              <le>4.4592695236206055e+00</le></_></splits></_>
        <_>
          <depth>5</depth>
          <value>4.1538462593005254e-01</value></_>
        <_>
          <depth>5</depth>
          <value>1.5972222698231539e-01</value></_>
        <_>
          <depth>3</depth>
          <value>5.7142858845846989e-01</value>
          <splits>
            <_><var>2</var>
              <quality>8.0000009536743164e+00</quality>
              <le>5.0738019943237305e+00</le></_></splits></_>
        <_>
          <depth>4</depth>
          <value>6.6666668653488159e-01</value></_>
        <_>
          <depth>4</depth>
          <value>0.</value></_>
        <_>
          <depth>1</depth>
          <value>9.4407158850023409e-01</value>
          <splits>
            <_><var>2</var>
              <quality>2.6656100463867188e+02</quality>
              <le>5.2042260169982910e+00</le></_></splits></_>
        <_>
          <depth>2</depth>
          <value>6.6666666666666663e-01</value>
          <splits>
            <_><var>7</var>
              <quality>6.</quality>
              <le>4.5660078525543213e-01</le></_></splits></_>
        <_>
          <depth>3</depth>
          <value>1.</value></_>
        <_>
          <depth>3</depth>
          <value>5.0000000000000000e-01</value></_>
        <_>
          <depth>2</depth>
          <value>9.5571095584989429e-01</value>
          <splits>
            <_><var>3</var>
              <quality>2.6176559448242188e+02</quality>
              <le>3.5167348384857178e-01</le></_></splits></_>
        <_>
          <depth>3</depth>
          <value>1.</value></_>
        <_>
          <depth>3</depth>
          <value>9.1324200940458744e-01</value>
          <splits>
            <_><var>6</var>
              <quality>1.2357479858398438e+02</quality>
              <le>3.5513916611671448e-01</le></_></splits></_>
        <_>
          <depth>4</depth>
          <value>5.7142857142857140e-01</value>
          <splits>
            <_><var>0</var>
              <quality>6.</quality>
              <le>4.4526066780090332e+00</le></_></splits></_>
        <_>
          <depth>5</depth>
          <value>1.</value></_>
        <_>
          <depth>5</depth>
          <value>3.3333333333333331e-01</value></_>
        <_>
          <depth>4</depth>
          <value>9.4949494979598303e-01</value>
          <splits>
            <_><var>0</var>
              <quality>1.1943295288085938e+02</quality>
              <le>5.0230646133422852e+00</le></_></splits></_>
        <_>
          <depth>5</depth>
          <value>8.8505747194947870e-01</value></_>
        <_>
          <depth>5</depth>
          <value>1.</value></_></nodes></_>
    <_>
      <nodes>
        <_>
          <depth>0</depth>
          <value>2.8142076644119313e-01</value>
          <splits>
            <_><var>0</var>
              <quality>1.3019941711425781e+02</quality>
              <le>5.1174278259277344e+00</le></_></splits></_>
        <_>
          <depth>1</depth>
          <value>2.4848484988269126e-01</value>
          <splits>
            <_><var>2</var>
              <quality>2.3911645507812500e+02</quality>
              <le>5.1610770225524902e+00</le></_></splits></_>
        <_>
          <depth>2</depth>
          <value>6.5268067034569888e-02</value>
          <splits>
            <_><var>5</var>
              <quality>1.4302286148071289e+01</quality>
              <le>-6.6249406337738037e-01</le></_></splits></_>
        <_>
          <depth>3</depth>
          <value>1.2738853882832132e-02</value>
          <splits>
            <_><var>5</var>
              <quality>1.5844348073005676e-01</quality>
              <le>-7.2414374351501465e-01</le></_></splits></_>
        <_>
          <depth>4</depth>
          <value>1.7579446095240286e-02</value>
          <splits>
            <_><var>5</var>
              <quality>1.4240363836288452e+00</quality>
              <le>-7.2436213493347168e-01</le></_></splits></_>
        <_>
          <depth>5</depth>
          <value>1.3605442582344522e-02</value></_>
        <_>
          <depth>5</depth>
          <value>6.6666668653488159e-01</value></_>
        <_>
          <depth>4</depth>
          <value>4.5662101817457645e-03</value>
          <splits>
            <_><var>1</var>
              <quality>4.9382720142602921e-02</quality>
              <le>3.9163408279418945e+00</le></_></splits></_>
        <_>
          <depth>5</depth>
          <value>0.</value></_>
        <_>
          <depth>5</depth>
          <value>3.7037038140826754e-02</value></_>
        <_>
          <depth>3</depth>
          <value>2.5617284631287612e-01</value>
          <splits>
            <_><var>2</var>
              <quality>1.6913581848144531e+01</quality>
              <le>4.9836969375610352e+00</le></_></splits></_>
        <_>
          <depth>4</depth>
          <value>2.2222222884496054e-01</value>
          <splits>
            <_><var>1</var>
              <quality>1.1148034095764160e+01</quality>
              <le>3.8075060844421387e+00</le></_></splits></_>
        <_>
          <depth>5</depth>
          <value>1.9927536825770917e-01</value></_>
        <_>
          <depth>5</depth>
          <value>5.2380953942026409e-01</value></_>
        <_>
          <depth>4</depth>
          <value>6.2962963845994735e-01</value>
          <splits>
            <_><var>0</var>
              <quality>8.5629634857177734e+00</quality>
              <le>4.6916618347167969e+00</le></_></splits></_>
        <_>
          <depth>5</depth>
          <value>7.5555556615193686e-01</value></_>
        <_>
          <depth>5</depth>
          <value>0.</value></_>
        <_>
          <depth>2</depth>
          <value>9.4318181818181823e-01</value>
          <splits>
            <_><var>2</var>
              <quality>2.3796308898925781e+02</quality>
              <le>5.2465372085571289e+00</le></_></splits></_>
        <_>
          <depth>3</depth>
          <value>5.2941176470588236e-01</value>
          <splits>
            <_><var>3</var>
              <quality>8.1111106872558594e+00</quality>
              <le>4.1727477312088013e-01</le></_></splits></_>
        <_>
          <depth>4</depth>
          <value>1.</value></_>
        <_>
          <depth>4</depth>
          <value>1.1111111111111110e-01</value></_>
        <_>
          <depth>3</depth>
          <value>9.7165991902834004e-01</value>
          <splits>
            <_><var>5</var>
              <quality>2.3369013977050781e+02</quality>
              <le>-5.2372944355010986e-01</le></_></splits></_>
        <_>
          <depth>4</depth>
          <value>9.0140845070422537e-01</value>
          <splits>
            <_><var>2</var>
              <quality>5.8324325561523438e+01</quality>
              <le>5.7828402519226074e+00</le></_></splits></_>
        <_>
          <depth>5</depth>
          <value>1.</value></_>
        <_>
          <depth>5</depth>
          <value>8.1081081081081086e-01</value></_>
        <_>
          <depth>4</depth>
          <value>1.</value></_>
        <_>
          <depth>1</depth>
          <value>8.2251082418800947e-01</value>
          <splits>
            <_><var>2</var>
              <quality>5.9121242523193359e+01</quality>
              <le>5.0673065185546875e+00</le></_></splits></_>
        <_>
          <depth>2</depth>
          <value>2.5490196838098411e-01</value>
          <splits>
            <_><var>7</var>
              <quality>1.4444445371627808e+00</quality>
              <le>4.5674005150794983e-01</le></_></splits></_>
        <_>
          <depth>3</depth>
          <value>3.3333334326744080e-01</value>
          <splits>
            <_><var>3</var>
              <quality>1.8777779340744019e+00</quality>
              <le>6.2875139713287354e-01</le></_></splits></_>
        <_>
          <depth>4</depth>
          <value>6.6666668653488159e-01</value></_>
        <_>
          <depth>4</depth>
          <value>2.3333334028720856e-01</value></_>
        <_>
          <depth>3</depth>
          <value>0.</value></_>
        <_>
          <depth>2</depth>
          <value>9.8333333333333328e-01</value>
          <splits>
            <_><var>3</var>
              <quality>5.8250000000000000e+01</quality>
              <le>9.4524753093719482e-01</le></_></splits></_>
        <_>
          <depth>3</depth>
          <value>1.</value></_>
        <_>
          <depth>3</depth>
          <value>7.5000000000000000e-01</value></_></nodes></_>
    <_>
      <nodes>
        <_>
          <depth>0</depth>
          <value>2.4118231603356657e-01</value>
          <splits>
            <_><var>1</var>
              <quality>1.3490509033203125e+02</quality>
              <le>4.2922377586364746e+00</le></_></splits></_>
        <_>
          <depth>1</depth>
          <value>1.7435475133199865e-01</value>
          <splits>
            <_><var>1</var>
              <quality>5.1266044616699219e+01</quality>
              <le>3.9842464923858643e+00</le></_></splits></_>
        <_>
          <depth>2</depth>
          <value>1.2561820109921087e-01</value>
          <splits>
            <_><var>2</var>
              <quality>7.3333213806152344e+01</quality>
              <le>5.1719131469726563e+00</le></_></splits></_>
        <_>
          <depth>3</depth>
          <value>4.8451731830346782e-02</value>
          <splits>
            <_><var>3</var>
              <quality>3.7169995307922363e+00</quality>
              <le>2.5934302806854248e-01</le></_></splits></_>
        <_>
          <depth>4</depth>
          <value>1.9696970238830103e-01</value>
          <splits>
            <_><var>8</var>
              <quality>3.5558722019195557e+00</quality>
              <le>1.6599768400192261e-01</le></_></splits></_>
        <_>
          <depth>5</depth>
          <value>4.9382717521102341e-02</value></_>
        <_>
          <depth>5</depth>
          <value>2.9914530729636168e-01</value></_>
        <_>
          <depth>4</depth>
          <value>3.6906165214534083e-02</value>
          <splits>
            <_><var>5</var>
              <quality>4.7717504501342773e+00</quality>
              <le>-5.5275166034698486e-01</le></_></splits></_>
        <_>
          <depth>5</depth>
          <value>1.9731318808022313e-02</value></_>
        <_>
          <depth>5</depth>
          <value>2.8484849333763124e-01</value></_>
        <_>
          <depth>3</depth>
          <value>8.6111111131807172e-01</value>
          <splits>
            <_><var>5</var>
              <quality>7.4720535278320313e+01</quality>
              <le>-5.2355164289474487e-01</le></_></splits></_>
        <_>
          <depth>4</depth>
          <value>5.9595959656166309e-01</value>
          <splits>
            <_><var>0</var>
              <quality>1.6281454086303711e+01</quality>
              <le>4.6165952682495117e+00</le></_></splits></_>
        <_>
          <depth>5</depth>
          <value>9.7916666790843010e-01</value></_>
        <_>
          <depth>5</depth>
          <value>2.3529411764705882e-01</value></_>
        <_>
          <depth>4</depth>
          <value>1.</value></_>
        <_>
          <depth>2</depth>
          <value>4.1707717638297620e-01</value>
          <splits>
            <_><var>2</var>
              <quality>7.8228759765625000e+01</quality>
              <le>5.2702426910400391e+00</le></_></splits></_>
        <_>
          <depth>3</depth>
          <value>3.8567494262348519e-02</value>
          <splits>
            <_><var>8</var>
              <quality>3.1111114025115967e+00</quality>
              <le>1.2359949946403503e-01</le></_></splits></_>
        <_>
          <depth>4</depth>
          <value>0.</value></_>
        <_>
          <depth>4</depth>
          <value>6.6666668653488159e-01</value></_>
        <_>
          <depth>3</depth>
          <value>9.7560975609756095e-01</value>
          <splits>
            <_><var>3</var>
              <quality>7.8199996948242188e+01</quality>
              <le>5.9059041738510132e-01</le></_></splits></_>
        <_>
          <depth>4</depth>
          <value>1.</value></_>
        <_>
          <depth>4</depth>
          <value>9.0000000000000002e-01</value>
          <splits>
            <_><var>7</var>
              <quality>1.7333333969116211e+01</quality>
              <le>4.3759638071060181e-01</le></_></splits></_>
        <_>
          <depth>5</depth>
          <value>1.</value></_>
        <_>
          <depth>5</depth>
          <value>3.3333333333333331e-01</value></_>
        <_>
          <depth>1</depth>
          <value>8.7500000000000000e-01</value>
          <splits>
            <_><var>8</var>
              <quality>1.0541176605224609e+02</quality>
              <le>6.4157888293266296e-02</le></_></splits></_>
        <_>
          <depth>2</depth>
          <value>0.</value></_>
        <_>
          <depth>2</depth>
          <value>9.4117647058823528e-01</value>
          <splits>
            <_><var>6</var>
              <quality>1.0628947448730469e+02</quality>
              <le>3.7554436922073364e-01</le></_></splits></_>
        <_>
          <depth>3</depth>
          <value>1.</value></_>
        <_>
          <depth>3</depth>
          <value>8.1578947368421051e-01</value>
          <splits>
            <_><var>5</var>
              <quality>31.</quality>
              <le>-7.4235945940017700e-01</le></_></splits></_>
        <_>
          <depth>4</depth>
          <value>0.</value></_>
        <_>
          <depth>4</depth>
          <value>1.</value></_></nodes></_>
    <_>
      <nodes>
        <_>
          <depth>0</depth>
          <value>2.6279185439186553e-01</value>
          <splits>
            <_><var>2</var>
              <quality>2.7284503173828125e+02</quality>
              <le>5.2317228317260742e+00</le></_></splits></_>
        <_>
          <depth>1</depth>
          <value>7.2532326011242682e-02</value>
          <splits>
            <_><var>3</var>
              <quality>9.4079418182373047e+00</quality>
              <le>2.5934302806854248e-01</le></_></splits></_>
        <_>
          <depth>2</depth>
          <value>3.1216931910741896e-01</value>
          <splits>
            <_><var>2</var>
              <quality>8.7088127136230469e+00</quality>
              <le>4.9624776840209961e+00</le></_></splits></_>
        <_>
          <depth>3</depth>
          <value>2.5287357075461026e-01</value>
          <splits>
            <_><var>1</var>
              <quality>4.6457023620605469e+00</quality>
              <le>3.6788713932037354e+00</le></_></splits></_>
        <_>
          <depth>4</depth>
          <value>2.1383648436024505e-01</value>
          <splits>
            <_><var>7</var>
              <quality>3.4633159637451172e+00</quality>
              <le>5.2202492952346802e-01</le></_></splits></_>
        <_>
          <depth>5</depth>
          <value>3.1428572365215846e-01</value></_>
        <_>
          <depth>5</depth>
          <value>1.8518519070413377e-02</value></_>
        <_>
          <depth>4</depth>
          <value>6.6666668653488159e-01</value></_>
        <_>
          <depth>3</depth>
          <value>1.</value></_>
        <_>
          <depth>2</depth>
          <value>5.7344065885428688e-02</value>
          <splits>
            <_><var>7</var>
              <quality>5.1063847541809082e+00</quality>
              <le>4.7653925418853760e-01</le></_></splits></_>
        <_>
          <depth>3</depth>
          <value>1.5894040169305360e-01</value>
          <splits>
            <_><var>5</var>
              <quality>7.8904113769531250e+00</quality>
              <le>-6.6158199310302734e-01</le></_></splits></_>
        <_>
          <depth>4</depth>
          <value>0.</value></_>
        <_>
          <depth>4</depth>
          <value>3.2876713226919307e-01</value>
          <splits>
            <_><var>2</var>
              <quality>1.0090212821960449e+01</quality>
              <le>3.9595980644226074e+00</le></_></splits></_>
        <_>
          <depth>5</depth>
          <value>1.1494253216118648e-01</value></_>
        <_>
          <depth>5</depth>
          <value>4.6969698234037921e-01</value></_>
        <_>
          <depth>3</depth>
          <value>3.9145908463185088e-02</value>
          <splits>
            <_><var>5</var>
              <quality>5.6406373977661133e+00</quality>
              <le>-6.4304471015930176e-01</le></_></splits></_>
        <_>
          <depth>4</depth>
          <value>1.8041237651072826e-02</value>
          <splits>
            <_><var>5</var>
              <quality>5.2545565366744995e-01</quality>
              <le>-6.5686511993408203e-01</le></_></splits></_>
        <_>
          <depth>5</depth>
          <value>1.4991182104620353e-02</value></_>
        <_>
          <depth>5</depth>
          <value>1.3333333730697633e-01</value></_>
        <_>
          <depth>4</depth>
          <value>2.8358209577958976e-01</value>
          <splits>
            <_><var>5</var>
              <quality>6.9975714683532715e+00</quality>
              <le>-6.4028346538543701e-01</le></_></splits></_>
        <_>
          <depth>5</depth>
          <value>7.7777779102325439e-01</value></_>
        <_>
          <depth>5</depth>
          <value>2.3497268313267192e-01</value></_>
        <_>
          <depth>1</depth>
          <value>9.6842105263157896e-01</value>
          <splits>
            <_><var>2</var>
              <quality>2.6837594604492188e+02</quality>
              <le>5.3765697479248047e+00</le></_></splits></_>
        <_>
          <depth>2</depth>
          <value>7.3684210526315785e-01</value>
          <splits>
            <_><var>4</var>
              <quality>1.3166666984558105e+01</quality>
              <le>9.3083262443542480e-02</le></_></splits></_>
        <_>
          <depth>3</depth>
          <value>1.6666666666666666e-01</value></_>
        <_>
          <depth>3</depth>
          <value>1.</value></_>
        <_>
          <depth>2</depth>
          <value>9.8496240601503759e-01</value>
          <splits>
            <_><var>2</var>
              <quality>2.5818389892578125e+02</quality>
              <le>5.8427906036376953e+00</le></_></splits></_>
        <_>
          <depth>3</depth>
          <value>9.5402298850574707e-01</value>
          <splits>
            <_><var>2</var>
              <quality>8.2011901855468750e+01</quality>
              <le>5.8309116363525391e+00</le></_></splits></_>
        <_>
          <depth>4</depth>
          <value>9.8809523809523814e-01</value>
          <splits>
            <_><var>3</var>
              <quality>8.2047622680664063e+01</quality>
              <le>5.6131911277770996e-01</le></_></splits></_>
        <_>
          <depth>5</depth>
          <value>1.</value></_>
        <_>
          <depth>5</depth>
          <value>9.5238095238095233e-01</value></_>
        <_>
          <depth>4</depth>
          <value>0.</value></_>
        <_>
          <depth>3</depth>
          <value>1.</value></_></nodes></_>
    <_>
      <nodes>
        <_>
          <depth>0</depth>
          <value>2.5782414426924399e-01</value>
          <splits>
            <_><var>5</var>
              <quality>2.2596170043945313e+02</quality>
              <le>-6.2896740436553955e-01</le></_></splits></_>
        <_>
          <depth>1</depth>
          <value>3.6751194851926829e-02</value>
          <splits>
            <_><var>6</var>
              <quality>7.2770304679870605e+00</quality>
              <le>5.2768707275390625e-01</le></_></splits></_>
        <_>
          <depth>2</depth>
          <value>2.6158445886432322e-02</value>
          <splits>
            <_><var>2</var>
              <quality>6.0197057723999023e+00</quality>
              <le>5.1253118515014648e+00</le></_></splits></_>
        <_>
          <depth>3</depth>
          <value>1.6324981470042861e-02</value>
          <splits>
            <_><var>4</var>
              <quality>3.7247824668884277e-01</quality>
              <le>-8.0265283584594727e-02</le></_></splits></_>
        <_>
          <depth>4</depth>
          <value>1.3333333730697633e-01</value></_>
        <_>
          <depth>4</depth>
          <value>1.4976958937359296e-02</value>
          <splits>
            <_><var>2</var>
              <quality>3.6685979366302490e-01</quality>
              <le>5.1010122299194336e+00</le></_></splits></_>
        <_>
          <depth>5</depth>
          <value>1.3904983033172502e-02</value></_>
        <_>
          <depth>5</depth>
          <value>2.0000000000000001e-01</value></_>
        <_>
          <depth>3</depth>
          <value>6.4285714285714290e-01</value>
          <splits>
            <_><var>7</var>
              <quality>7.5714287757873535e+00</quality>
              <le>4.6175834536552429e-01</le></_></splits></_>
        <_>
          <depth>4</depth>
          <value>1.</value></_>
        <_>
          <depth>4</depth>
          <value>2.8571428571428570e-01</value></_>
        <_>
          <depth>2</depth>
          <value>6.6666666666666663e-01</value>
          <splits>
            <_><var>8</var>
              <quality>9.1666669845581055e+00</quality>
              <le>6.3754387199878693e-02</le></_></splits></_>
        <_>
          <depth>3</depth>
          <value>1.6666666666666666e-01</value></_>
        <_>
          <depth>3</depth>
          <value>1.</value></_>
        <_>
          <depth>1</depth>
          <value>7.1877394914627080e-01</value>
          <splits>
            <_><var>2</var>
              <quality>2.7135714721679688e+02</quality>
              <le>5.1936583518981934e+00</le></_></splits></_>
        <_>
          <depth>2</depth>
          <value>2.8958334065973756e-01</value>
          <splits>
            <_><var>5</var>
              <quality>1.4515452384948730e+01</quality>
              <le>-6.2431740760803223e-01</le></_></splits></_>
        <_>
          <depth>3</depth>
          <value>8.8888889551162720e-01</value></_>
        <_>
          <depth>3</depth>
          <value>2.7813164215938302e-01</value>
          <splits>
            <_><var>2</var>
              <quality>1.4001049041748047e+01</quality>
              <le>3.8026788234710693e+00</le></_></splits></_>
        <_>
          <depth>4</depth>
          <value>1.6444444934527080e-01</value>
          <splits>
            <_><var>2</var>
              <quality>2.6368451118469238e+00</quality>
              <le>2.7454552650451660e+00</le></_></splits></_>
        <_>
          <depth>5</depth>
          <value>2.8985508110212242e-02</value></_>
        <_>
          <depth>5</depth>
          <value>2.2435898104539284e-01</value></_>
        <_>
          <depth>4</depth>
          <value>3.8211383070887589e-01</value>
          <splits>
            <_><var>2</var>
              <quality>1.3974617958068848e+01</quality>
              <le>4.3527860641479492e+00</le></_></splits></_>
        <_>
          <depth>5</depth>
          <value>6.2500001862645149e-01</value></_>
        <_>
          <depth>5</depth>
          <value>2.8160920122574118e-01</value></_>
        <_>
          <depth>2</depth>
          <value>9.6848484862934459e-01</value>
          <splits>
            <_><var>6</var>
              <quality>2.5830819702148438e+02</quality>
              <le>4.2654874920845032e-01</le></_></splits></_>
        <_>
          <depth>3</depth>
          <value>9.8531571227548409e-01</value>
          <splits>
            <_><var>5</var>
              <quality>2.2058390808105469e+02</quality>
              <le>-5.2346169948577881e-01</le></_></splits></_>
        <_>
          <depth>4</depth>
          <value>9.1666666666666663e-01</value>
          <splits>
            <_><var>8</var>
              <quality>3.0899999618530273e+01</quality>
              <le>1.4714893698692322e-01</le></_></splits></_>
        <_>
          <depth>5</depth>
          <value>1.</value></_>
        <_>
          <depth>5</depth>
          <value>6.9999999999999996e-01</value></_>
        <_>
          <depth>4</depth>
          <value>9.9825479940594175e-01</value>
          <splits>
            <_><var>2</var>
              <quality>1.9044444274902344e+02</quality>
              <le>5.2152671813964844e+00</le></_></splits></_>
        <_>
          <depth>5</depth>
          <value>6.6666668653488159e-01</value></_>
        <_>
          <depth>5</depth>
          <value>1.</value></_>
        <_>
          <depth>3</depth>
          <value>8.8888888930281007e-01</value>
          <splits>
            <_><var>0</var>
              <quality>4.0040264129638672e+01</quality>
              <le>4.7465934753417969e+00</le></_></splits></_>
        <_>
          <depth>4</depth>
          <value>3.8095238379069735e-01</value></_>
        <_>
          <depth>4</depth>
          <value>9.7560975609756095e-01</value>
          <splits>
            <_><var>0</var>
              <quality>3.9099998474121094e+01</quality>
              <le>5.0230646133422852e+00</le></_></splits></_>
        <_>
          <depth>5</depth>
          <value>9.0000000000000002e-01</value></_>
        <_>
          <depth>5</depth>
          <value>1.</value></_></nodes></_>
    <_>
      <nodes>
        <_>
          <depth>0</depth>
          <value>2.6030799930834736e-01</value>
          <splits>
            <_><var>5</var>
              <quality>2.2196211242675781e+02</quality>
              <le>-6.2784737348556519e-01</le></_></splits></_>
        <_>
          <depth>1</depth>
          <value>5.0144300767869660e-02</value>
          <splits>
            <_><var>2</var>
              <quality>2.2829364776611328e+01</quality>
              <le>5.2390727996826172e+00</le></_></splits></_>
        <_>
          <depth>2</depth>
          <value>2.3809524452579871e-02</value>
          <splits>
            <_><var>0</var>
              <quality>1.4619491100311279e+00</quality>
              <le>5.3849854469299316e+00</le></_></splits></_>
        <_>
          <depth>3</depth>
          <value>2.2718808837443091e-02</value>
          <splits>
            <_><var>5</var>
              <quality>1.2934113740921021e+00</quality>
              <le>-6.6231369972229004e-01</le></_></splits></_>
        <_>
          <depth>4</depth>
          <value>1.3104013494543126e-02</value>
          <splits>
            <_><var>0</var>
              <quality>2.0186294615268707e-01</quality>
              <le>4.4339456558227539e+00</le></_></splits></_>
        <_>
          <depth>5</depth>
          <value>2.1116139392507560e-02</value></_>
        <_>
          <depth>5</depth>
          <value>3.5842294974993633e-03</value></_>
        <_>
          <depth>4</depth>
          <value>1.1934156697473408e-01</value>
          <splits>
            <_><var>3</var>
              <quality>2.1771337985992432e+00</quality>
              <le>3.7796503305435181e-01</le></_></splits></_>
        <_>
          <depth>5</depth>
          <value>3.8888890047868091e-01</value></_>
        <_>
          <depth>5</depth>
          <value>7.2463769843612885e-02</value></_>
        <_>
          <depth>3</depth>
          <value>1.</value></_>
        <_>
          <depth>2</depth>
          <value>8.9285714285714290e-01</value>
          <splits>
            <_><var>7</var>
              <quality>2.2750000000000000e+01</quality>
              <le>3.8371488451957703e-01</le></_></splits></_>
        <_>
          <depth>3</depth>
          <value>1.</value></_>
        <_>
          <depth>3</depth>
          <value>7.5000000000000000e-01</value>
          <splits>
            <_><var>7</var>
              <quality>9.</quality>
              <le>3.9304548501968384e-01</le></_></splits></_>
        <_>
          <depth>4</depth>
          <value>0.</value></_>
        <_>
          <depth>4</depth>
          <value>1.</value></_>
        <_>
          <depth>1</depth>
          <value>7.2488038555571910e-01</value>
          <splits>
            <_><var>5</var>
              <quality>2.2460177612304688e+02</quality>
              <le>-5.0974404811859131e-01</le></_></splits></_>
        <_>
          <depth>2</depth>
          <value>6.0493827591497429e-01</value>
          <splits>
            <_><var>2</var>
              <quality>9.1253181457519531e+01</quality>
              <le>5.2148637771606445e+00</le></_></splits></_>
        <_>
          <depth>3</depth>
          <value>2.7551021198837122e-01</value>
          <splits>
            <_><var>8</var>
              <quality>8.6581716537475586e+00</quality>
              <le>1.4247614145278931e-01</le></_></splits></_>
        <_>
          <depth>4</depth>
          <value>3.4782609689062921e-01</value>
          <splits>
            <_><var>0</var>
              <quality>9.6671895980834961e+00</quality>
              <le>4.2241106033325195e+00</le></_></splits></_>
        <_>
          <depth>5</depth>
          <value>3.0303031206130981e-02</value></_>
        <_>
          <depth>5</depth>
          <value>4.0804598865837888e-01</value></_>
        <_>
          <depth>4</depth>
          <value>1.0344827894506783e-01</value>
          <splits>
            <_><var>8</var>
              <quality>9.9176961183547974e-01</quality>
              <le>1.7877021431922913e-01</le></_></splits></_>
        <_>
          <depth>5</depth>
          <value>6.1728396901377929e-02</value></_>
        <_>
          <depth>5</depth>
          <value>6.6666668653488159e-01</value></_>
        <_>
          <depth>3</depth>
          <value>9.5970696014362378e-01</value>
          <splits>
            <_><var>5</var>
              <quality>8.3990554809570313e+01</quality>
              <le>-5.9368324279785156e-01</le></_></splits></_>
        <_>
          <depth>4</depth>
          <value>8.8405797274216358e-01</value>
          <splits>
            <_><var>3</var>
              <quality>1.8196296691894531e+01</quality>
              <le>5.9378516674041748e-01</le></_></splits></_>
        <_>
          <depth>5</depth>
          <value>9.5555555820465088e-01</value></_>
        <_>
          <depth>5</depth>
          <value>7.5000000000000000e-01</value></_>
        <_>
          <depth>4</depth>
          <value>9.8529411764705888e-01</value>
          <splits>
            <_><var>3</var>
              <quality>6.6090911865234375e+01</quality>
              <le>3.6004018783569336e-01</le></_></splits></_>
        <_>
          <depth>5</depth>
          <value>9.0909090909090906e-01</value></_>
        <_>
          <depth>5</depth>
          <value>1.</value></_>
        <_>
          <depth>2</depth>
          <value>8.2387190835965252e-01</value>
          <splits>
            <_><var>2</var>
              <quality>1.7970651245117188e+02</quality>
              <le>5.1662817001342773e+00</le></_></splits></_>
        <_>
          <depth>3</depth>
          <value>2.1568628093775580e-01</value>
          <splits>
            <_><var>0</var>
              <quality>3.1032259464263916e+00</quality>
              <le>4.5573577880859375e+00</le></_></splits></_>
        <_>
          <depth>4</depth>
          <value>3.1182796628244464e-01</value>
          <splits>
            <_><var>2</var>
              <quality>3.7386245727539063e+00</quality>
              <le>3.8009874820709229e+00</le></_></splits></_>
        <_>
          <depth>5</depth>
          <value>2.0634921249889193e-01</value></_>
        <_>
          <depth>5</depth>
          <value>5.3333334922790532e-01</value></_>
        <_>
          <depth>4</depth>
          <value>6.6666668653488165e-02</value>
          <splits>
            <_><var>4</var>
              <quality>4.6783629059791565e-01</quality>
              <le>1.1829499900341034e-01</le></_></splits></_>
        <_>
          <depth>5</depth>
          <value>3.5087720343941135e-02</value></_>
        <_>
          <depth>5</depth>
          <value>6.6666668653488159e-01</value></_>
        <_>
          <depth>3</depth>
          <value>9.9812734093558919e-01</value>
          <splits>
            <_><var>4</var>
              <quality>1.7733950805664063e+02</quality>
              <le>9.9713683128356934e-02</le></_></splits></_>
        <_>
          <depth>4</depth>
          <value>9.8148148258527124e-01</value>
          <splits>
            <_><var>6</var>
              <quality>1.7444444656372070e+01</quality>
              <le>3.7740904092788696e-01</le></_></splits></_>
        <_>
          <depth>5</depth>
          <value>6.6666668653488159e-01</value></_>
        <_>
          <depth>5</depth>
          <value>1.</value></_>
        <_>
          <depth>4</depth>
          <value>1.</value></_></nodes></_>
    <_>
      <nodes>
        <_>
          <depth>0</depth>
          <value>2.3720814827302175e-01</value>
          <splits>
            <_><var>2</var>
              <quality>2.5147804260253906e+02</quality>
              <le>5.1981487274169922e+00</le></_></splits></_>
        <_>
          <depth>1</depth>
          <value>5.6744187543558519e-02</value>
          <splits>
            <_><var>1</var>
              <quality>5.3789010047912598e+00</quality>
              <le>3.5099320411682129e+00</le></_></splits></_>
        <_>
          <depth>2</depth>
          <value>1.2020202333276922e-01</value>
          <splits>
            <_><var>0</var>
              <quality>6.8896126747131348e+00</quality>
              <le>4.0541286468505859e+00</le></_></splits></_>
        <_>
          <depth>3</depth>
          <value>4.2884991531483611e-02</value>
          <splits>
            <_><var>5</var>
              <quality>2.2251656055450439e+00</quality>
              <le>-4.9893662333488464e-01</le></_></splits></_>
        <_>
          <depth>4</depth>
          <value>4.4150111691051760e-03</value>
          <splits>
            <_><var>5</var>
              <quality>1.7094017937779427e-02</quality>
              <le>-6.5174007415771484e-01</le></_></splits></_>
        <_>
          <depth>5</depth>
          <value>0.</value></_>
        <_>
          <depth>5</depth>
          <value>2.5641026405187752e-02</value></_>
        <_>
          <depth>4</depth>
          <value>3.3333334326744080e-01</value>
          <splits>
            <_><var>7</var>
              <quality>2.3611111640930176e+00</quality>
              <le>5.2735167741775513e-01</le></_></splits></_>
        <_>
          <depth>5</depth>
          <value>2.9166667535901070e-01</value></_>
        <_>
          <depth>5</depth>
          <value>5.0000001490116119e-01</value></_>
        <_>
          <depth>3</depth>
          <value>2.0335430281717073e-01</value>
          <splits>
            <_><var>0</var>
              <quality>8.2295331954956055e+00</quality>
              <le>4.4589557647705078e+00</le></_></splits></_>
        <_>
          <depth>4</depth>
          <value>2.6843658485243804e-01</value>
          <splits>
            <_><var>7</var>
              <quality>1.0698966979980469e+01</quality>
              <le>5.5633008480072021e-01</le></_></splits></_>
        <_>
          <depth>5</depth>
          <value>3.5271318707355231e-01</value></_>
        <_>
          <depth>5</depth>
          <value>0.</value></_>
        <_>
          <depth>4</depth>
          <value>4.3478262165318367e-02</value>
          <splits>
            <_><var>7</var>
              <quality>3.6363637447357178e-01</quality>
              <le>4.2122372984886169e-01</le></_></splits></_>
        <_>
          <depth>5</depth>
          <value>1.8181818723678589e-01</value></_>
        <_>
          <depth>5</depth>
          <value>0.</value></_>
        <_>
          <depth>2</depth>
          <value>2.8635347529545725e-02</value>
          <splits>
            <_><var>5</var>
              <quality>3.8903841972351074e+00</quality>
              <le>-6.4738798141479492e-01</le></_></splits></_>
        <_>
          <depth>3</depth>
          <value>6.9341260115069409e-03</value>
          <splits>
            <_><var>8</var>
              <quality>7.5149625539779663e-02</quality>
              <le>1.1848402768373489e-01</le></_></splits></_>
        <_>
          <depth>4</depth>
          <value>4.3715848297369289e-03</value>
          <splits>
            <_><var>5</var>
              <quality>2.7955194935202599e-02</quality>
              <le>-8.2766717672348022e-01</le></_></splits></_>
        <_>
          <depth>5</depth>
          <value>3.1746032692137216e-02</value></_>
        <_>
          <depth>5</depth>
          <value>3.3955858397362389e-03</value></_>
        <_>
          <depth>4</depth>
          <value>3.1746032692137216e-02</value>
          <splits>
            <_><var>8</var>
              <quality>4.7311830520629883e-01</quality>
              <le>1.1854372918605804e-01</le></_></splits></_>
        <_>
          <depth>5</depth>
          <value>6.6666668653488159e-01</value></_>
        <_>
          <depth>5</depth>
          <value>2.1505376984996181e-02</value></_>
        <_>
          <depth>3</depth>
          <value>2.3148148755232492e-01</value>
          <splits>
            <_><var>8</var>
              <quality>5.0730161666870117e+00</quality>
              <le>1.0834896564483643e-01</le></_></splits></_>
        <_>
          <depth>4</depth>
          <value>1.</value></_>
        <_>
          <depth>4</depth>
          <value>2.0952381576810564e-01</value>
          <splits>
            <_><var>8</var>
              <quality>4.1982908248901367e+00</quality>
              <le>1.7286679148674011e-01</le></_></splits></_>
        <_>
          <depth>5</depth>
          <value>1.7435897955527671e-01</value></_>
        <_>
          <depth>5</depth>
          <value>6.6666668653488159e-01</value></_>
        <_>
          <depth>1</depth>
          <value>9.6379525607891292e-01</value>
          <splits>
            <_><var>8</var>
              <quality>2.4894903564453125e+02</quality>
              <le>6.3754387199878693e-02</le></_></splits></_>
        <_>
          <depth>2</depth>
          <value>0.</value></_>
        <_>
          <depth>2</depth>
          <value>9.6741854651529990e-01</value>
          <splits>
            <_><var>2</var>
              <quality>2.4990924072265625e+02</quality>
              <le>5.2297148704528809e+00</le></_></splits></_>
        <_>
          <depth>3</depth>
          <value>5.3333333730697630e-01</value></_>
        <_>
          <depth>3</depth>
          <value>9.7573435512082329e-01</value>
          <splits>
            <_><var>8</var>
              <quality>2.4876913452148438e+02</quality>
              <le>1.2137222290039063e-01</le></_></splits></_>
        <_>
          <depth>4</depth>
          <value>9.0370370414521961e-01</value>
          <splits>
            <_><var>3</var>
              <quality>3.7343303680419922e+01</quality>
              <le>5.7979571819305420e-01</le></_></splits></_>
        <_>
          <depth>5</depth>
          <value>6.1111111442248023e-01</value></_>
        <_>
          <depth>5</depth>
          <value>9.4871794871794868e-01</value></_>
        <_>
          <depth>4</depth>
          <value>9.9074074074074070e-01</value>
          <splits>
            <_><var>5</var>
              <quality>2.1211111450195313e+02</quality>
              <le>-5.2355164289474487e-01</le></_></splits></_>
        <_>
          <depth>5</depth>
          <value>9.4444444444444442e-01</value></_>
        <_>
          <depth>5</depth>
          <value>1.</value></_></nodes></_>
    <_>
      <nodes>
        <_>
          <depth>0</depth>
          <value>2.6030799917510300e-01</value>
          <splits>
            <_><var>5</var>
              <quality>2.2974505615234375e+02</quality>
              <le>-6.1529093980789185e-01</le></_></splits></_>
        <_>
          <depth>1</depth>
          <value>5.1851852419515135e-02</value>
          <splits>
            <_><var>2</var>
              <quality>2.2385227203369141e+01</quality>
              <le>5.2270898818969727e+00</le></_></splits></_>
        <_>
          <depth>2</depth>
          <value>2.5164114372474622e-02</value>
          <splits>
            <_><var>5</var>
              <quality>1.3198795318603516e+00</quality>
              <le>-6.6231369972229004e-01</le></_></splits></_>
        <_>
          <depth>3</depth>
          <value>1.5466015926938645e-02</value>
          <splits>
            <_><var>8</var>
              <quality>2.8599724173545837e-01</quality>
              <le>1.0662148892879486e-01</le></_></splits></_>
        <_>
          <depth>4</depth>
          <value>2.2578729133979947e-02</value>
          <splits>
            <_><var>1</var>
              <quality>7.2318249940872192e-01</quality>
              <le>3.4374241828918457e+00</le></_></splits></_>
        <_>
          <depth>5</depth>
          <value>9.0534982122020963e-02</value></_>
        <_>
          <depth>5</depth>
          <value>1.1111111442248026e-02</value></_>
        <_>
          <depth>4</depth>
          <value>0.</value></_>
        <_>
          <depth>3</depth>
          <value>1.0877193149767424e-01</value>
          <splits>
            <_><var>2</var>
              <quality>3.7636251449584961e+00</quality>
              <le>4.9180927276611328e+00</le></_></splits></_>
        <_>
          <depth>4</depth>
          <value>3.3755275267588938e-02</value>
          <splits>
            <_><var>4</var>
              <quality>4.9572652578353882e-01</quality>
              <le>-5.4904017597436905e-02</le></_></splits></_>
        <_>
          <depth>5</depth>
          <value>6.6666668653488159e-01</value></_>
        <_>
          <depth>5</depth>
          <value>2.5641026405187752e-02</value></_>
        <_>
          <depth>4</depth>
          <value>4.7916667163372040e-01</value>
          <splits>
            <_><var>1</var>
              <quality>4.2936506271362305e+00</quality>
              <le>3.3732874393463135e+00</le></_></splits></_>
        <_>
          <depth>5</depth>
          <value>1.</value></_>
        <_>
          <depth>5</depth>
          <value>4.0476191043853760e-01</value></_>
        <_>
          <depth>2</depth>
          <value>8.3870967741935487e-01</value>
          <splits>
            <_><var>5</var>
              <quality>2.2654762268066406e+01</quality>
              <le>-7.8133940696716309e-01</le></_></splits></_>
        <_>
          <depth>3</depth>
          <value>3.3333333333333331e-01</value></_>
        <_>
          <depth>3</depth>
          <value>8.9285714285714290e-01</value>
          <splits>
            <_><var>4</var>
              <quality>2.2899999618530273e+01</quality>
              <le>-2.8134932741522789e-02</le></_></splits></_>
        <_>
          <depth>4</depth>
          <value>1.</value></_>
        <_>
          <depth>4</depth>
          <value>6.9999999999999996e-01</value></_>
        <_>
          <depth>1</depth>
          <value>7.5650713943714454e-01</value>
          <splits>
            <_><var>1</var>
              <quality>2.5066044616699219e+02</quality>
              <le>3.8104786872863770e+00</le></_></splits></_>
        <_>
          <depth>2</depth>
          <value>4.5911950154124564e-01</value>
          <splits>
            <_><var>2</var>
              <quality>5.3718429565429688e+01</quality>
              <le>4.9888548851013184e+00</le></_></splits></_>
        <_>
          <depth>3</depth>
          <value>2.2121212780475616e-01</value>
          <splits>
            <_><var>2</var>
              <quality>6.4359908103942871e+00</quality>
              <le>4.6016187667846680e+00</le></_></splits></_>
        <_>
          <depth>4</depth>
          <value>2.6449276150568674e-01</value>
          <splits>
            <_><var>0</var>
              <quality>7.1631121635437012e+00</quality>
              <le>4.4494729042053223e+00</le></_></splits></_>
        <_>
          <depth>5</depth>
          <value>3.2786886223026962e-01</value></_>
        <_>
          <depth>5</depth>
          <value>1.3978495040247518e-01</value></_>
        <_>
          <depth>4</depth>
          <value>0.</value></_>
        <_>
          <depth>3</depth>
          <value>9.9319727931703838e-01</value>
          <splits>
            <_><var>3</var>
              <quality>4.8388889312744141e+01</quality>
              <le>5.2380239963531494e-01</le></_></splits></_>
        <_>
          <depth>4</depth>
          <value>1.</value></_>
        <_>
          <depth>4</depth>
          <value>8.3333334326744080e-01</value></_>
        <_>
          <depth>2</depth>
          <value>9.5518207399785016e-01</value>
          <splits>
            <_><var>8</var>
              <quality>2.1777255249023438e+02</quality>
              <le>1.5262553095817566e-01</le></_></splits></_>
        <_>
          <depth>3</depth>
          <value>8.8627451237510235e-01</value>
          <splits>
            <_><var>0</var>
              <quality>6.8189544677734375e+01</quality>
              <le>4.7452464103698730e+00</le></_></splits></_>
        <_>
          <depth>4</depth>
          <value>6.2745098506703101e-01</value>
          <splits>
            <_><var>0</var>
              <quality>7.9567904472351074e+00</quality>
              <le>4.6417293548583984e+00</le></_></splits></_>
        <_>
          <depth>5</depth>
          <value>9.1666667163372040e-01</value></_>
        <_>
          <depth>5</depth>
          <value>3.7037037478552925e-01</value></_>
        <_>
          <depth>4</depth>
          <value>9.5098039420212022e-01</value>
          <splits>
            <_><var>3</var>
              <quality>6.1915824890136719e+01</quality>
              <le>7.0219147205352783e-01</le></_></splits></_>
        <_>
          <depth>5</depth>
          <value>9.6464646675369958e-01</value></_>
        <_>
          <depth>5</depth>
          <value>5.0000000000000000e-01</value></_>
        <_>
          <depth>3</depth>
          <value>9.9346405267715454e-01</value>
          <splits>
            <_><var>2</var>
              <quality>1.5133332824707031e+02</quality>
              <le>5.3177909851074219e+00</le></_></splits></_>
        <_>
          <depth>4</depth>
          <value>6.6666668653488159e-01</value></_>
        <_>
          <depth>4</depth>
          <value>1.</value></_></nodes></_>
    <_>
      <nodes>
        <_>
          <depth>0</depth>
          <value>2.5608544586845378e-01</value>
          <splits>
            <_><var>1</var>
              <quality>1.6275332641601563e+02</quality>
              <le>4.2422685623168945e+00</le></_></splits></_>
        <_>
          <depth>1</depth>
          <value>1.7018284249406324e-01</value>
          <splits>
            <_><var>0</var>
              <quality>4.3297790527343750e+01</quality>
              <le>5.1259689331054688e+00</le></_></splits></_>
        <_>
          <depth>2</depth>
          <value>1.5821152330982408e-01</value>
          <splits>
            <_><var>8</var>
              <quality>8.8803581237792969e+01</quality>
              <le>1.3239300251007080e-01</le></_></splits></_>
        <_>
          <depth>3</depth>
          <value>4.5422032315587793e-02</value>
          <splits>
            <_><var>4</var>
              <quality>3.3275544643402100e+00</quality>
              <le>-3.9283372461795807e-03</le></_></splits></_>
        <_>
          <depth>4</depth>
          <value>2.0512820665652937e-01</value>
          <splits>
            <_><var>5</var>
              <quality>5.9883041381835938e+00</quality>
              <le>-6.6402626037597656e-01</le></_></splits></_>
        <_>
          <depth>5</depth>
          <value>0.</value></_>
        <_>
          <depth>5</depth>
          <value>5.6140351295471191e-01</value></_>
        <_>
          <depth>4</depth>
          <value>3.5984849286350339e-02</value>
          <splits>
            <_><var>2</var>
              <quality>4.7366528511047363e+00</quality>
              <le>4.9837865829467773e+00</le></_></splits></_>
        <_>
          <depth>5</depth>
          <value>2.1851411060440099e-02</value></_>
        <_>
          <depth>5</depth>
          <value>3.2520325590924520e-01</value></_>
        <_>
          <depth>3</depth>
          <value>6.1327561684501120e-01</value>
          <splits>
            <_><var>0</var>
              <quality>9.1628509521484375e+01</quality>
              <le>3.9824671745300293e+00</le></_></splits></_>
        <_>
          <depth>4</depth>
          <value>3.0000000372529029e-01</value>
          <splits>
            <_><var>1</var>
              <quality>8.1497411727905273e+00</quality>
              <le>3.5199446678161621e+00</le></_></splits></_>
        <_>
          <depth>5</depth>
          <value>1.1827957341747899e-01</value></_>
        <_>
          <depth>5</depth>
          <value>9.2592593034108484e-01</value></_>
        <_>
          <depth>4</depth>
          <value>6.7888307508997892e-01</value>
          <splits>
            <_><var>2</var>
              <quality>1.1061737823486328e+02</quality>
              <le>5.1488971710205078e+00</le></_></splits></_>
        <_>
          <depth>5</depth>
          <value>2.6495727285360676e-01</value></_>
        <_>
          <depth>5</depth>
          <value>9.6460177043897921e-01</value></_>
        <_>
          <depth>2</depth>
          <value>8.0303030664270569e-01</value>
          <splits>
            <_><var>8</var>
              <quality>1.5605555534362793e+01</quality>
              <le>7.7068313956260681e-02</le></_></splits></_>
        <_>
          <depth>3</depth>
          <value>0.</value></_>
        <_>
          <depth>3</depth>
          <value>8.8333333730697627e-01</value>
          <splits>
            <_><var>1</var>
              <quality>1.6277778625488281e+01</quality>
              <le>3.7136559486389160e+00</le></_></splits></_>
        <_>
          <depth>4</depth>
          <value>3.3333334326744080e-01</value></_>
        <_>
          <depth>4</depth>
          <value>9.4444444775581360e-01</value>
          <splits>
            <_><var>1</var>
              <quality>1.6200000762939453e+01</quality>
              <le>4.0297927856445313e+00</le></_></splits></_>
        <_>
          <depth>5</depth>
          <value>8.0000001192092896e-01</value></_>
        <_>
          <depth>5</depth>
          <value>1.</value></_>
        <_>
          <depth>1</depth>
          <value>9.0445859872611467e-01</value>
          <splits>
            <_><var>2</var>
              <quality>1.4023529052734375e+02</quality>
              <le>5.3818140029907227e+00</le></_></splits></_>
        <_>
          <depth>2</depth>
          <value>1.1764705882352941e-01</value>
          <splits>
            <_><var>5</var>
              <quality>2.</quality>
              <le>-6.6832423210144043e-01</le></_></splits></_>
        <_>
          <depth>3</depth>
          <value>0.</value></_>
        <_>
          <depth>3</depth>
          <value>1.</value></_>
        <_>
          <depth>2</depth>
          <value>1.</value></_></nodes></_>
    <_>
      <nodes>
        <_>
          <depth>0</depth>
          <value>2.7570789992453976e-01</value>
          <splits>
            <_><var>3</var>
              <quality>1.7789907836914063e+02</quality>
              <le>3.6196854710578918e-01</le></_></splits></_>
        <_>
          <depth>1</depth>
          <value>7.1888889044523241e-01</value>
          <splits>
            <_><var>5</var>
              <quality>1.8749073791503906e+02</quality>
              <le>-5.6232917308807373e-01</le></_></splits></_>
        <_>
          <depth>2</depth>
          <value>6.1111111442248026e-02</value>
          <splits>
            <_><var>4</var>
              <quality>3.0077972412109375e+00</quality>
              <le>2.7265655994415283e-01</le></_></splits></_>
        <_>
          <depth>3</depth>
          <value>1.</value></_>
        <_>
          <depth>3</depth>
          <value>1.1695906781313712e-02</value>
          <splits>
            <_><var>0</var>
              <quality>1.1111111938953400e-01</quality>
              <le>4.2972307205200195e+00</le></_></splits></_>
        <_>
          <depth>4</depth>
          <value>0.</value></_>
        <_>
          <depth>4</depth>
          <value>1.6666667163372040e-01</value></_>
        <_>
          <depth>2</depth>
          <value>8.8333333519597845e-01</value>
          <splits>
            <_><var>0</var>
              <quality>1.8926785278320313e+02</quality>
              <le>3.9311242103576660e+00</le></_></splits></_>
        <_>
          <depth>3</depth>
          <value>5.4166667349636555e-01</value>
          <splits>
            <_><var>7</var>
              <quality>5.8148150444030762e+00</quality>
              <le>5.0754958391189575e-01</le></_></splits></_>
        <_>
          <depth>4</depth>
          <value>1.</value></_>
        <_>
          <depth>4</depth>
          <value>3.8888889799515408e-01</value>
          <splits>
            <_><var>6</var>
              <quality>2.2888889312744141e+00</quality>
              <le>2.3113328218460083e-01</le></_></splits></_>
        <_>
          <depth>5</depth>
          <value>8.3333334326744080e-01</value></_>
        <_>
          <depth>5</depth>
          <value>3.0000000894069673e-01</value></_>
        <_>
          <depth>3</depth>
          <value>9.0773809674595085e-01</value>
          <splits>
            <_><var>1</var>
              <quality>1.9344221496582031e+02</quality>
              <le>3.4659130573272705e+00</le></_></splits></_>
        <_>
          <depth>4</depth>
          <value>3.3333334326744080e-01</value>
          <splits>
            <_><var>2</var>
              <quality>3.0617284774780273e+00</quality>
              <le>3.2456421852111816e+00</le></_></splits></_>
        <_>
          <depth>5</depth>
          <value>1.1111111442248027e-01</value></_>
        <_>
          <depth>5</depth>
          <value>4.0740741954909432e-01</value></_>
        <_>
          <depth>4</depth>
          <value>9.7666666716337203e-01</value>
          <splits>
            <_><var>6</var>
              <quality>1.9170294189453125e+02</quality>
              <le>3.6480820178985596e-01</le></_></splits></_>
        <_>
          <depth>5</depth>
          <value>9.8639455832997147e-01</value></_>
        <_>
          <depth>5</depth>
          <value>5.0000000000000000e-01</value></_>
        <_>
          <depth>1</depth>
          <value>1.4811260514890850e-01</value>
          <splits>
            <_><var>2</var>
              <quality>1.0149004364013672e+02</quality>
              <le>5.2317228317260742e+00</le></_></splits></_>
        <_>
          <depth>2</depth>
          <value>4.9476346564060428e-02</value>
          <splits>
            <_><var>5</var>
              <quality>1.1925544738769531e+01</quality>
              <le>-6.1173492670059204e-01</le></_></splits></_>
        <_>
          <depth>3</depth>
          <value>1.8167457026892930e-02</value>
          <splits>
            <_><var>0</var>
              <quality>1.2437063455581665e+00</quality>
              <le>5.3555865287780762e+00</le></_></splits></_>
        <_>
          <depth>4</depth>
          <value>1.7002768363816881e-02</value>
          <splits>
            <_><var>0</var>
              <quality>3.5667440295219421e-01</quality>
              <le>4.2009425163269043e+00</le></_></splits></_>
        <_>
          <depth>5</depth>
          <value>0.</value></_>
        <_>
          <depth>5</depth>
          <value>2.4884259949127834e-02</value></_>
        <_>
          <depth>4</depth>
          <value>1.</value></_>
        <_>
          <depth>3</depth>
          <value>3.8396625503709042e-01</value>
          <splits>
            <_><var>1</var>
              <quality>1.2931162834167480e+01</quality>
              <le>3.8104786872863770e+00</le></_></splits></_>
        <_>
          <depth>4</depth>
          <value>3.1720431004801103e-01</value>
          <splits>
            <_><var>0</var>
              <quality>7.3584232330322266e+00</quality>
              <le>4.6821384429931641e+00</le></_></splits></_>
        <_>
          <depth>5</depth>
          <value>4.5161291572355455e-01</value></_>
        <_>
          <depth>5</depth>
          <value>1.8279570437246753e-01</value></_>
        <_>
          <depth>4</depth>
          <value>6.2745099558549766e-01</value>
          <splits>
            <_><var>1</var>
              <quality>7.0074076652526855e+00</quality>
              <le>3.8183865547180176e+00</le></_></splits></_>
        <_>
          <depth>5</depth>
          <value>1.</value></_>
        <_>
          <depth>5</depth>
          <value>5.7777779499689741e-01</value></_>
        <_>
          <depth>2</depth>
          <value>9.1316526627340233e-01</value>
          <splits>
            <_><var>5</var>
              <quality>1.0009920501708984e+02</quality>
              <le>-7.6418614387512207e-01</le></_></splits></_>
        <_>
          <depth>3</depth>
          <value>5.7142857142857140e-01</value></_>
        <_>
          <depth>3</depth>
          <value>9.3452380970120430e-01</value>
          <splits>
            <_><var>3</var>
              <quality>9.8107093811035156e+01</quality>
              <le>5.5960100889205933e-01</le></_></splits></_>
        <_>
          <depth>4</depth>
          <value>9.8305084745762716e-01</value>
          <splits>
            <_><var>3</var>
              <quality>5.7333332061767578e+01</quality>
              <le>3.7714403867721558e-01</le></_></splits></_>
        <_>
          <depth>5</depth>
          <value>6.6666666666666663e-01</value></_>
        <_>
          <depth>5</depth>
          <value>1.</value></_>
        <_>
          <depth>4</depth>
          <value>8.8050314502895999e-01</value>
          <splits>
            <_><var>3</var>
              <quality>4.3294784545898438e+01</quality>
              <le>5.7151693105697632e-01</le></_></splits></_>
        <_>
          <depth>5</depth>
          <value>1.6666667163372040e-01</value></_>
        <_>
          <depth>5</depth>
          <value>9.3877551020408168e-01</value></_></nodes></_>
    <_>
      <nodes>
        <_>
          <depth>0</depth>
          <value>2.7521112914323453e-01</value>
          <splits>
            <_><var>2</var>
              <quality>2.8711499023437500e+02</quality>
              <le>5.1322813034057617e+00</le></_></splits></_>
        <_>
          <depth>1</depth>
          <value>6.7188521158205325e-02</value>
          <splits>
            <_><var>1</var>
              <quality>6.1491832733154297e+00</quality>
              <le>3.4798688888549805e+00</le></_></splits></_>
        <_>
          <depth>2</depth>
          <value>1.2937063301776672e-01</value>
          <splits>
            <_><var>5</var>
              <quality>9.7946891784667969e+00</quality>
              <le>-5.6832611560821533e-01</le></_></splits></_>
        <_>
          <depth>3</depth>
          <value>4.1876048149175976e-02</value>
          <splits>
            <_><var>7</var>
              <quality>6.2000423669815063e-01</quality>
              <le>5.5484747886657715e-01</le></_></splits></_>
        <_>
          <depth>4</depth>
          <value>8.6419755661929096e-02</value>
          <splits>
            <_><var>7</var>
              <quality>2.4708995819091797e+00</quality>
              <le>5.4430109262466431e-01</le></_></splits></_>
        <_>
          <depth>5</depth>
          <value>5.2910054486895366e-03</value></_>
        <_>
          <depth>5</depth>
          <value>3.7037038140826756e-01</value></_>
        <_>
          <depth>4</depth>
          <value>1.1299435364997994e-02</value>
          <splits>
            <_><var>0</var>
              <quality>9.2822030186653137e-02</quality>
              <le>4.1731877326965332e+00</le></_></splits></_>
        <_>
          <depth>5</depth>
          <value>5.8997051905741735e-03</value></_>
        <_>
          <depth>5</depth>
          <value>1.3333333730697633e-01</value></_>
        <_>
          <depth>3</depth>
          <value>3.2950192484362373e-01</value>
          <splits>
            <_><var>0</var>
              <quality>1.1474544525146484e+01</quality>
              <le>4.5837354660034180e+00</le></_></splits></_>
        <_>
          <depth>4</depth>
          <value>4.1293533479989464e-01</value>
          <splits>
            <_><var>4</var>
              <quality>1.2236715316772461e+01</quality>
              <le>1.6287529468536377e-01</le></_></splits></_>
        <_>
          <depth>5</depth>
          <value>5.6521740814913879e-01</value></_>
        <_>
          <depth>5</depth>
          <value>3.3333334191278979e-01</value></_>
        <_>
          <depth>4</depth>
          <value>5.0000001490116117e-02</value>
          <splits>
            <_><var>7</var>
              <quality>2.2839507460594177e-01</quality>
              <le>4.0635892748832703e-01</le></_></splits></_>
        <_>
          <depth>5</depth>
          <value>3.3333334326744080e-01</value></_>
        <_>
          <depth>5</depth>
          <value>1.8518519070413377e-02</value></_>
        <_>
          <depth>2</depth>
          <value>4.3025363560604012e-02</value>
          <splits>
            <_><var>7</var>
              <quality>3.8123219013214111e+00</quality>
              <le>6.0887950658798218e-01</le></_></splits></_>
        <_>
          <depth>3</depth>
          <value>3.3890437365906481e-02</value>
          <splits>
            <_><var>5</var>
              <quality>5.3268890380859375e+00</quality>
              <le>-6.3236176967620850e-01</le></_></splits></_>
        <_>
          <depth>4</depth>
          <value>1.1994003355949894e-02</value>
          <splits>
            <_><var>5</var>
              <quality>5.0181418657302856e-01</quality>
              <le>-6.6231369972229004e-01</le></_></splits></_>
        <_>
          <depth>5</depth>
          <value>5.3590569657144824e-03</value></_>
        <_>
          <depth>5</depth>
          <value>1.0370370679431491e-01</value></_>
        <_>
          <depth>4</depth>
          <value>3.2026144686867208e-01</value>
          <splits>
            <_><var>1</var>
              <quality>7.2286744117736816e+00</quality>
              <le>3.8113842010498047e+00</le></_></splits></_>
        <_>
          <depth>5</depth>
          <value>1.6129032642610611e-01</value></_>
        <_>
          <depth>5</depth>
          <value>5.6666668355464933e-01</value></_>
        <_>
          <depth>3</depth>
          <value>4.0740741954909432e-01</value>
          <splits>
            <_><var>1</var>
              <quality>4.4814815521240234e+00</quality>
              <le>3.6124517917633057e+00</le></_></splits></_>
        <_>
          <depth>4</depth>
          <value>0.</value></_>
        <_>
          <depth>4</depth>
          <value>6.1111112932364142e-01</value>
          <splits>
            <_><var>6</var>
              <quality>4.8888893127441406e+00</quality>
              <le>2.4328008294105530e-01</le></_></splits></_>
        <_>
          <depth>5</depth>
          <value>6.6666668653488159e-01</value></_>
        <_>
          <depth>5</depth>
          <value>0.</value></_>
        <_>
          <depth>1</depth>
          <value>9.3958333339542155e-01</value>
          <splits>
            <_><var>8</var>
              <quality>2.8425347900390625e+02</quality>
              <le>1.5262553095817566e-01</le></_></splits></_>
        <_>
          <depth>2</depth>
          <value>8.4895833348855376e-01</value>
          <splits>
            <_><var>6</var>
              <quality>9.4179069519042969e+01</quality>
              <le>3.6206749081611633e-01</le></_></splits></_>
        <_>
          <depth>3</depth>
          <value>5.9999999999999998e-01</value>
          <splits>
            <_><var>6</var>
              <quality>1.1666666984558105e+01</quality>
              <le>3.3999246358871460e-01</le></_></splits></_>
        <_>
          <depth>4</depth>
          <value>1.</value></_>
        <_>
          <depth>4</depth>
          <value>3.3333333333333331e-01</value>
          <splits>
            <_><var>6</var>
              <quality>3.5714285373687744e+00</quality>
              <le>3.4644973278045654e-01</le></_></splits></_>
        <_>
          <depth>5</depth>
          <value>0.</value></_>
        <_>
          <depth>5</depth>
          <value>7.1428571428571430e-01</value></_>
        <_>
          <depth>3</depth>
          <value>9.0938511346150375e-01</value>
          <splits>
            <_><var>5</var>
              <quality>8.6531822204589844e+01</quality>
              <le>-6.5764057636260986e-01</le></_></splits></_>
        <_>
          <depth>4</depth>
          <value>6.9565217391304346e-01</value>
          <splits>
            <_><var>2</var>
              <quality>1.2769230842590332e+01</quality>
              <le>5.4546346664428711e+00</le></_></splits></_>
        <_>
          <depth>5</depth>
          <value>4.6153846153846156e-01</value></_>
        <_>
          <depth>5</depth>
          <value>1.</value></_>
        <_>
          <depth>4</depth>
          <value>9.7083333358168600e-01</value>
          <splits>
            <_><var>0</var>
              <quality>7.5673614501953125e+01</quality>
              <le>4.7154750823974609e+00</le></_></splits></_>
        <_>
          <depth>5</depth>
          <value>8.5416666790843010e-01</value></_>
        <_>
          <depth>5</depth>
          <value>1.</value></_>
        <_>
          <depth>2</depth>
          <value>1.</value></_></nodes></_>
    <_>
      <nodes>
        <_>
          <depth>0</depth>
          <value>2.6602086569175637e-01</value>
          <splits>
            <_><var>1</var>
              <quality>1.5273373413085938e+02</quality>
              <le>4.1175823211669922e+00</le></_></splits></_>
        <_>
          <depth>1</depth>
          <value>1.7117117264786283e-01</value>
          <splits>
            <_><var>2</var>
              <quality>1.2363416290283203e+02</quality>
              <le>5.2035388946533203e+00</le></_></splits></_>
        <_>
          <depth>2</depth>
          <value>6.7278289132648050e-02</value>
          <splits>
            <_><var>8</var>
              <quality>1.1356132507324219e+01</quality>
              <le>1.2708081305027008e-01</le></_></splits></_>
        <_>
          <depth>3</depth>
          <value>2.6800670703152316e-02</value>
          <splits>
            <_><var>2</var>
              <quality>1.3113116025924683e+00</quality>
              <le>4.9858770370483398e+00</le></_></splits></_>
        <_>
          <depth>4</depth>
          <value>2.1907217147731289e-02</value>
          <splits>
            <_><var>0</var>
              <quality>1.1066892147064209e+00</quality>
              <le>5.0661187171936035e+00</le></_></splits></_>
        <_>
          <depth>5</depth>
          <value>1.6777042442599668e-02</value></_>
        <_>
          <depth>5</depth>
          <value>2.0634921249889193e-01</value></_>
        <_>
          <depth>4</depth>
          <value>2.1666666865348816e-01</value>
          <splits>
            <_><var>7</var>
              <quality>2.3024692535400391e+00</quality>
              <le>4.3795627355575562e-01</le></_></splits></_>
        <_>
          <depth>5</depth>
          <value>1.</value></_>
        <_>
          <depth>5</depth>
          <value>1.2962963183720908e-01</value></_>
        <_>
          <depth>3</depth>
          <value>2.4144144734820805e-01</value>
          <splits>
            <_><var>7</var>
              <quality>1.2740424156188965e+01</quality>
              <le>5.7897138595581055e-01</le></_></splits></_>
        <_>
          <depth>4</depth>
          <value>2.9111111819744112e-01</value>
          <splits>
            <_><var>0</var>
              <quality>1.3558642387390137e+01</quality>
              <le>3.9877147674560547e+00</le></_></splits></_>
        <_>
          <depth>5</depth>
          <value>1.5740741209851372e-01</value></_>
        <_>
          <depth>5</depth>
          <value>3.3333334117604974e-01</value></_>
        <_>
          <depth>4</depth>
          <value>2.8571429422923497e-02</value>
          <splits>
            <_><var>8</var>
              <quality>9.0909093618392944e-02</quality>
              <le>1.4639241993427277e-01</le></_></splits></_>
        <_>
          <depth>5</depth>
          <value>0.</value></_>
        <_>
          <depth>5</depth>
          <value>9.0909093618392944e-02</value></_>
        <_>
          <depth>2</depth>
          <value>9.6124031007751942e-01</value>
          <splits>
            <_><var>8</var>
              <quality>1.2012500000000000e+02</quality>
              <le>1.0287719219923019e-01</le></_></splits></_>
        <_>
          <depth>3</depth>
          <value>0.</value></_>
        <_>
          <depth>3</depth>
          <value>9.6875000000000000e-01</value>
          <splits>
            <_><var>2</var>
              <quality>1.2036363983154297e+02</quality>
              <le>5.8309116363525391e+00</le></_></splits></_>
        <_>
          <depth>4</depth>
          <value>1.</value></_>
        <_>
          <depth>4</depth>
          <value>9.0909090909090906e-01</value>
          <splits>
            <_><var>2</var>
              <quality>3.9024391174316406e+01</quality>
              <le>5.8512167930603027e+00</le></_></splits></_>
        <_>
          <depth>5</depth>
          <value>0.</value></_>
        <_>
          <depth>5</depth>
          <value>9.7560975609756095e-01</value></_>
        <_>
          <depth>1</depth>
          <value>7.1982758672072966e-01</value>
          <splits>
            <_><var>2</var>
              <quality>1.6224139404296875e+02</quality>
              <le>5.1707057952880859e+00</le></_></splits></_>
        <_>
          <depth>2</depth>
          <value>5.8823531164842492e-02</value>
          <splits>
            <_><var>3</var>
              <quality>1.8055557012557983e+00</quality>
              <le>2.9435569047927856e-01</le></_></splits></_>
        <_>
          <depth>3</depth>
          <value>6.6666668653488159e-01</value></_>
        <_>
          <depth>3</depth>
          <value>2.0833333954215050e-02</value>
          <splits>
            <_><var>0</var>
              <quality>2.5396826863288879e-01</quality>
              <le>5.2110919952392578e+00</le></_></splits></_>
        <_>
          <depth>4</depth>
          <value>0.</value></_>
        <_>
          <depth>4</depth>
          <value>1.9047619615282332e-01</value></_>
        <_>
          <depth>2</depth>
          <value>9.9390243902439024e-01</value>
          <splits>
            <_><var>5</var>
              <quality>1.6250000000000000e+02</quality>
              <le>-7.8133940696716309e-01</le></_></splits></_>
        <_>
          <depth>3</depth>
          <value>5.0000000000000000e-01</value></_>
        <_>
          <depth>3</depth>
          <value>1.</value></_></nodes></_>
    <_>
      <nodes>
        <_>
          <depth>0</depth>
          <value>2.5931445730158897e-01</value>
          <splits>
            <_><var>5</var>
              <quality>2.2091244506835938e+02</quality>
              <le>-6.2917333841323853e-01</le></_></splits></_>
        <_>
          <depth>1</depth>
          <value>5.5614595015421431e-02</value>
          <splits>
            <_><var>2</var>
              <quality>2.9580366134643555e+01</quality>
              <le>5.2317228317260742e+00</le></_></splits></_>
        <_>
          <depth>2</depth>
          <value>2.4542125175287435e-02</value>
          <splits>
            <_><var>8</var>
              <quality>7.5381565093994141e-01</quality>
              <le>1.1848402768373489e-01</le></_></splits></_>
        <_>
          <depth>3</depth>
          <value>1.8158236520918119e-02</value>
          <splits>
            <_><var>2</var>
              <quality>7.5991028547286987e-01</quality>
              <le>5.1253118515014648e+00</le></_></splits></_>
        <_>
          <depth>4</depth>
          <value>1.5706806750821818e-02</value>
          <splits>
            <_><var>1</var>
              <quality>3.8713160157203674e-01</quality>
              <le>3.5130133628845215e+00</le></_></splits></_>
        <_>
          <depth>5</depth>
          <value>4.7930284652834623e-02</value></_>
        <_>
          <depth>5</depth>
          <value>7.6377525462261392e-03</value></_>
        <_>
          <depth>4</depth>
          <value>2.8571428571428570e-01</value></_>
        <_>
          <depth>3</depth>
          <value>5.9952039941609338e-02</value>
          <splits>
            <_><var>8</var>
              <quality>1.6282681226730347e+00</quality>
              <le>1.1850038170814514e-01</le></_></splits></_>
        <_>
          <depth>4</depth>
          <value>6.6666668653488159e-01</value></_>
        <_>
          <depth>4</depth>
          <value>4.6568628619698918e-02</value>
          <splits>
            <_><var>7</var>
              <quality>9.4223588705062866e-01</quality>
              <le>5.4237467050552368e-01</le></_></splits></_>
        <_>
          <depth>5</depth>
          <value>1.8518518960034405e-01</value></_>
        <_>
          <depth>5</depth>
          <value>1.2232416266695075e-02</value></_>
        <_>
          <depth>2</depth>
          <value>9.6774193548387100e-01</value>
          <splits>
            <_><var>5</var>
              <quality>2.9142856597900391e+01</quality>
              <le>-7.8133940696716309e-01</le></_></splits></_>
        <_>
          <depth>3</depth>
          <value>8.5714285714285710e-01</value></_>
        <_>
          <depth>3</depth>
          <value>1.</value></_>
        <_>
          <depth>1</depth>
          <value>7.3732336107037610e-01</value>
          <splits>
            <_><var>2</var>
              <quality>2.6191952514648438e+02</quality>
              <le>5.1808729171752930e+00</le></_></splits></_>
        <_>
          <depth>2</depth>
          <value>2.8297362889317301e-01</value>
          <splits>
            <_><var>2</var>
              <quality>1.2578140258789063e+01</quality>
              <le>2.7360491752624512e+00</le></_></splits></_>
        <_>
          <depth>3</depth>
          <value>0.</value></_>
        <_>
          <depth>3</depth>
          <value>3.1978320663537435e-01</value>
          <splits>
            <_><var>1</var>
              <quality>1.3432842254638672e+01</quality>
              <le>3.8237347602844238e+00</le></_></splits></_>
        <_>
          <depth>4</depth>
          <value>2.9498525873749659e-01</value>
          <splits>
            <_><var>5</var>
              <quality>1.1362290382385254e+01</quality>
              <le>-5.5293542146682739e-01</le></_></splits></_>
        <_>
          <depth>5</depth>
          <value>1.1764706057660720e-01</value></_>
        <_>
          <depth>5</depth>
          <value>3.7130802756623377e-01</value></_>
        <_>
          <depth>4</depth>
          <value>6.0000001788139345e-01</value></_>
        <_>
          <depth>2</depth>
          <value>9.7837150142393037e-01</value>
          <splits>
            <_><var>8</var>
              <quality>2.5114411926269531e+02</quality>
              <le>1.1834445595741272e-01</le></_></splits></_>
        <_>
          <depth>3</depth>
          <value>8.9166666716337206e-01</value>
          <splits>
            <_><var>4</var>
              <quality>3.3419754028320313e+01</quality>
              <le>-1.1477037332952023e-03</le></_></splits></_>
        <_>
          <depth>4</depth>
          <value>1.</value></_>
        <_>
          <depth>4</depth>
          <value>5.1851852072609794e-01</value></_>
        <_>
          <depth>3</depth>
          <value>9.9399399408349043e-01</value>
          <splits>
            <_><var>3</var>
              <quality>2.1935986328125000e+02</quality>
              <le>3.5750502347946167e-01</le></_></splits></_>
        <_>
          <depth>4</depth>
          <value>1.</value></_>
        <_>
          <depth>4</depth>
          <value>9.8009950278410274e-01</value>
          <splits>
            <_><var>4</var>
              <quality>6.4668403625488281e+01</quality>
              <le>1.6367186605930328e-01</le></_></splits></_>
        <_>
          <depth>5</depth>
          <value>9.9479166697710752e-01</value></_>
        <_>
          <depth>5</depth>
          <value>6.6666666666666663e-01</value></_></nodes></_>
    <_>
      <nodes>
        <_>
          <depth>0</depth>
          <value>2.6055638458796299e-01</value>
          <splits>
            <_><var>5</var>
              <quality>2.3364413452148438e+02</quality>
              <le>-6.3023531436920166e-01</le></_></splits></_>
        <_>
          <depth>1</depth>
          <value>3.5242291241227790e-02</value>
          <splits>
            <_><var>7</var>
              <quality>1.0230420112609863e+01</quality>
              <le>3.8063710927963257e-01</le></_></splits></_>
        <_>
          <depth>2</depth>
          <value>9.3939394029704004e-01</value>
          <splits>
            <_><var>1</var>
              <quality>1.0111110687255859e+01</quality>
              <le>4.1867461204528809e+00</le></_></splits></_>
        <_>
          <depth>3</depth>
          <value>3.3333334326744080e-01</value></_>
        <_>
          <depth>3</depth>
          <value>1.</value></_>
        <_>
          <depth>2</depth>
          <value>2.4154589859272459e-02</value>
          <splits>
            <_><var>2</var>
              <quality>3.5497527122497559e+00</quality>
              <le>5.2270898818969727e+00</le></_></splits></_>
        <_>
          <depth>3</depth>
          <value>1.7682468514410153e-02</value>
          <splits>
            <_><var>2</var>
              <quality>6.3148164749145508e-01</quality>
              <le>4.8720941543579102e+00</le></_></splits></_>
        <_>
          <depth>4</depth>
          <value>1.0269576686031552e-02</value>
          <splits>
            <_><var>5</var>
              <quality>1.4193630218505859e-01</quality>
              <le>-6.5686511993408203e-01</le></_></splits></_>
        <_>
          <depth>5</depth>
          <value>8.1521741559971942e-03</value></_>
        <_>
          <depth>5</depth>
          <value>4.6511629293131275e-02</value></_>
        <_>
          <depth>4</depth>
          <value>7.1651092199521649e-02</value>
          <splits>
            <_><var>0</var>
              <quality>1.5467836856842041e+00</quality>
              <le>4.5695557594299316e+00</le></_></splits></_>
        <_>
          <depth>5</depth>
          <value>2.0175439119338989e-01</value></_>
        <_>
          <depth>5</depth>
          <value>0.</value></_>
        <_>
          <depth>3</depth>
          <value>5.4545454545454541e-01</value>
          <splits>
            <_><var>1</var>
              <quality>4.3666667938232422e+00</quality>
              <le>4.1744155883789063e+00</le></_></splits></_>
        <_>
          <depth>4</depth>
          <value>8.3333333333333337e-01</value></_>
        <_>
          <depth>4</depth>
          <value>2.0000000000000001e-01</value></_>
        <_>
          <depth>1</depth>
          <value>7.3195084716592518e-01</value>
          <splits>
            <_><var>5</var>
              <quality>2.3859808349609375e+02</quality>
              <le>-5.2344989776611328e-01</le></_></splits></_>
        <_>
          <depth>2</depth>
          <value>5.6823266532597128e-01</value>
          <splits>
            <_><var>0</var>
              <quality>5.7444381713867188e+01</quality>
              <le>4.7411031723022461e+00</le></_></splits></_>
        <_>
          <depth>3</depth>
          <value>3.5984848879955034e-01</value>
          <splits>
            <_><var>1</var>
              <quality>1.3678075790405273e+01</quality>
              <le>3.7394218444824219e+00</le></_></splits></_>
        <_>
          <depth>4</depth>
          <value>2.3809524253010750e-01</value>
          <splits>
            <_><var>2</var>
              <quality>6.5274076461791992e+00</quality>
              <le>4.9767837524414063e+00</le></_></splits></_>
        <_>
          <depth>5</depth>
          <value>1.5333333790302275e-01</value></_>
        <_>
          <depth>5</depth>
          <value>9.4444444775581360e-01</value></_>
        <_>
          <depth>4</depth>
          <value>5.7291666977107525e-01</value>
          <splits>
            <_><var>5</var>
              <quality>1.2781263351440430e+01</quality>
              <le>-5.6667888164520264e-01</le></_></splits></_>
        <_>
          <depth>5</depth>
          <value>8.2352941527086143e-01</value></_>
        <_>
          <depth>5</depth>
          <value>2.8888889153798419e-01</value></_>
        <_>
          <depth>3</depth>
          <value>8.6885246097064406e-01</value>
          <splits>
            <_><var>5</var>
              <quality>4.6930160522460938e+01</quality>
              <le>-5.2730011940002441e-01</le></_></splits></_>
        <_>
          <depth>4</depth>
          <value>9.0476190618106300e-01</value>
          <splits>
            <_><var>4</var>
              <quality>4.6402858734130859e+01</quality>
              <le>-5.9635698795318604e-02</le></_></splits></_>
        <_>
          <depth>5</depth>
          <value>7.5925926036304903e-01</value></_>
        <_>
          <depth>5</depth>
          <value>9.7368421209485911e-01</value></_>
        <_>
          <depth>4</depth>
          <value>4.6666667461395261e-01</value></_>
        <_>
          <depth>2</depth>
          <value>8.1754386153137470e-01</value>
          <splits>
            <_><var>6</var>
              <quality>1.9336437988281250e+02</quality>
              <le>3.7939202785491943e-01</le></_></splits></_>
        <_>
          <depth>3</depth>
          <value>8.5695006936667906e-01</value>
          <splits>
            <_><var>2</var>
              <quality>2.0086164855957031e+02</quality>
              <le>4.9748625755310059e+00</le></_></splits></_>
        <_>
          <depth>4</depth>
          <value>2.9251701552040721e-01</value>
          <splits>
            <_><var>2</var>
              <quality>4.6921300888061523e+00</quality>
              <le>3.4546840190887451e+00</le></_></splits></_>
        <_>
          <depth>5</depth>
          <value>2.2222222884496054e-01</value></_>
        <_>
          <depth>5</depth>
          <value>4.3750001303851604e-01</value></_>
        <_>
          <depth>4</depth>
          <value>9.9663299683368567e-01</value>
          <splits>
            <_><var>4</var>
              <quality>1.9670085144042969e+02</quality>
              <le>1.2075096368789673e-01</le></_></splits></_>
        <_>
          <depth>5</depth>
          <value>9.4871795177459717e-01</value></_>
        <_>
          <depth>5</depth>
          <value>1.</value></_>
        <_>
          <depth>3</depth>
          <value>5.6140351060189697e-01</value>
          <splits>
            <_><var>5</var>
              <quality>1.3157194137573242e+01</quality>
              <le>-4.4633305072784424e-01</le></_></splits></_>
        <_>
          <depth>4</depth>
          <value>6.4516129128394584e-01</value>
          <splits>
            <_><var>4</var>
              <quality>1.4234073638916016e+01</quality>
              <le>-5.1224663853645325e-02</le></_></splits></_>
        <_>
          <depth>5</depth>
          <value>2.2222222387790680e-01</value></_>
        <_>
          <depth>5</depth>
          <value>7.4666666746139532e-01</value></_>
        <_>
          <depth>4</depth>
          <value>1.9047619615282332e-01</value></_></nodes></_>
    <_>
      <nodes>
        <_>
          <depth>0</depth>
          <value>2.5086935037738700e-01</value>
          <splits>
            <_><var>1</var>
              <quality>1.5245318603515625e+02</quality>
              <le>4.2936763763427734e+00</le></_></splits></_>
        <_>
          <depth>1</depth>
          <value>1.7374410341919511e-01</value>
          <splits>
            <_><var>2</var>
              <quality>1.4481248474121094e+02</quality>
              <le>5.2317228317260742e+00</le></_></splits></_>
        <_>
          <depth>2</depth>
          <value>5.6301984843045418e-02</value>
          <splits>
            <_><var>4</var>
              <quality>4.6293768882751465e+00</quality>
              <le>4.3777170777320862e-01</le></_></splits></_>
        <_>
          <depth>3</depth>
          <value>5.1707318439716245e-02</value>
          <splits>
            <_><var>8</var>
              <quality>6.7779197692871094e+00</quality>
              <le>1.3866145908832550e-01</le></_></splits></_>
        <_>
          <depth>4</depth>
          <value>3.0730297243517547e-02</value>
          <splits>
            <_><var>2</var>
              <quality>1.9587298631668091e+00</quality>
              <le>4.9858770370483398e+00</le></_></splits></_>
        <_>
          <depth>5</depth>
          <value>2.3132348053826950e-02</value></_>
        <_>
          <depth>5</depth>
          <value>1.8604651440021602e-01</value></_>
        <_>
          <depth>4</depth>
          <value>2.3948220720568908e-01</value>
          <splits>
            <_><var>1</var>
              <quality>6.8662133216857910e+00</quality>
              <le>3.8237845897674561e+00</le></_></splits></_>
        <_>
          <depth>5</depth>
          <value>2.1768708070930171e-01</value></_>
        <_>
          <depth>5</depth>
          <value>6.6666668653488159e-01</value></_>
        <_>
          <depth>3</depth>
          <value>3.3333334151436300e-01</value>
          <splits>
            <_><var>5</var>
              <quality>3.6158730983734131e+00</quality>
              <le>-5.5464965105056763e-01</le></_></splits></_>
        <_>
          <depth>4</depth>
          <value>6.6666668653488165e-02</value></_>
        <_>
          <depth>4</depth>
          <value>7.1428573131561279e-01</value></_>
        <_>
          <depth>2</depth>
          <value>9.4339622641509435e-01</value>
          <splits>
            <_><var>5</var>
              <quality>1.4230645751953125e+02</quality>
              <le>-5.2341580390930176e-01</le></_></splits></_>
        <_>
          <depth>3</depth>
          <value>8.5483870967741937e-01</value>
          <splits>
            <_><var>0</var>
              <quality>4.6382354736328125e+01</quality>
              <le>4.7650504112243652e+00</le></_></splits></_>
        <_>
          <depth>4</depth>
          <value>7.3529411764705888e-01</value>
          <splits>
            <_><var>5</var>
              <quality>2.0833333969116211e+01</quality>
              <le>-5.2668333053588867e-01</le></_></splits></_>
        <_>
          <depth>5</depth>
          <value>8.3333333333333337e-01</value></_>
        <_>
          <depth>5</depth>
          <value>0.</value></_>
        <_>
          <depth>4</depth>
          <value>1.</value></_>
        <_>
          <depth>3</depth>
          <value>1.</value></_>
        <_>
          <depth>1</depth>
          <value>9.0780141843971629e-01</value>
          <splits>
            <_><var>3</var>
              <quality>1.1867391204833984e+02</quality>
              <le>4.4589042663574219e-01</le></_></splits></_>
        <_>
          <depth>2</depth>
          <value>1.</value></_>
        <_>
          <depth>2</depth>
          <value>7.1739130434782605e-01</value>
          <splits>
            <_><var>5</var>
              <quality>2.9941177368164063e+01</quality>
              <le>-6.6832423210144043e-01</le></_></splits></_>
        <_>
          <depth>3</depth>
          <value>2.3529411764705882e-01</value>
          <splits>
            <_><var>3</var>
              <quality>3.2000000476837158e+00</quality>
              <le>8.3401131629943848e-01</le></_></splits></_>
        <_>
          <depth>4</depth>
          <value>0.</value></_>
        <_>
          <depth>4</depth>
          <value>8.0000000000000004e-01</value></_>
        <_>
          <depth>3</depth>
          <value>1.</value></_></nodes></_>
    <_>
      <nodes>
        <_>
          <depth>0</depth>
          <value>2.6080477031172655e-01</value>
          <splits>
            <_><var>5</var>
              <quality>2.2124943542480469e+02</quality>
              <le>-6.2917333841323853e-01</le></_></splits></_>
        <_>
          <depth>1</depth>
          <value>5.6207755809150869e-02</value>
          <splits>
            <_><var>1</var>
              <quality>1.6853166580200195e+01</quality>
              <le>4.3236255645751953e+00</le></_></splits></_>
        <_>
          <depth>2</depth>
          <value>3.4836817594251224e-02</value>
          <splits>
            <_><var>0</var>
              <quality>1.2118017196655273e+01</quality>
              <le>5.1047010421752930e+00</le></_></splits></_>
        <_>
          <depth>3</depth>
          <value>2.1577381528913975e-02</value>
          <splits>
            <_><var>2</var>
              <quality>1.1534308195114136e+00</quality>
              <le>4.9042434692382813e+00</le></_></splits></_>
        <_>
          <depth>4</depth>
          <value>1.2976480516494046e-02</value>
          <splits>
            <_><var>7</var>
              <quality>3.2923835515975952e-01</quality>
              <le>4.1199296712875366e-01</le></_></splits></_>
        <_>
          <depth>5</depth>
          <value>1.6666667163372040e-01</value></_>
        <_>
          <depth>5</depth>
          <value>1.1466011807725236e-02</value></_>
        <_>
          <depth>4</depth>
          <value>1.1711711980201103e-01</value>
          <splits>
            <_><var>1</var>
              <quality>2.2762963771820068e+00</quality>
              <le>3.9370238780975342e+00</le></_></splits></_>
        <_>
          <depth>5</depth>
          <value>3.0555556217829388e-01</value></_>
        <_>
          <depth>5</depth>
          <value>2.6666667461395264e-02</value></_>
        <_>
          <depth>3</depth>
          <value>9.4871794948211086e-01</value>
          <splits>
            <_><var>4</var>
              <quality>1.2111110687255859e+01</quality>
              <le>-1.5675318241119385e-01</le></_></splits></_>
        <_>
          <depth>4</depth>
          <value>3.3333334326744080e-01</value></_>
        <_>
          <depth>4</depth>
          <value>1.</value></_>
        <_>
          <depth>2</depth>
          <value>7.5000000000000000e-01</value>
          <splits>
            <_><var>2</var>
              <quality>21.</quality>
              <le>5.1159901618957520e+00</le></_></splits></_>
        <_>
          <depth>3</depth>
          <value>0.</value></_>
        <_>
          <depth>3</depth>
          <value>1.</value></_>
        <_>
          <depth>1</depth>
          <value>7.3415638164237695e-01</value>
          <splits>
            <_><var>5</var>
              <quality>2.2328851318359375e+02</quality>
              <le>-4.5992988348007202e-01</le></_></splits></_>
        <_>
          <depth>2</depth>
          <value>6.4156206818804085e-01</value>
          <splits>
            <_><var>4</var>
              <quality>9.9785682678222656e+01</quality>
              <le>2.8716826438903809e-01</le></_></splits></_>
        <_>
          <depth>3</depth>
          <value>6.6074074440532260e-01</value>
          <splits>
            <_><var>0</var>
              <quality>1.0058418273925781e+02</quality>
              <le>5.0230646133422852e+00</le></_></splits></_>
        <_>
          <depth>4</depth>
          <value>6.0536398867080954e-01</value>
          <splits>
            <_><var>2</var>
              <quality>7.8543090820312500e+01</quality>
              <le>4.9888548851013184e+00</le></_></splits></_>
        <_>
          <depth>5</depth>
          <value>2.8205129045706528e-01</value></_>
        <_>
          <depth>5</depth>
          <value>8.6805555596947670e-01</value></_>
        <_>
          <depth>4</depth>
          <value>8.4967320514660261e-01</value>
          <splits>
            <_><var>7</var>
              <quality>3.8310459136962891e+01</quality>
              <le>4.0979105234146118e-01</le></_></splits></_>
        <_>
          <depth>5</depth>
          <value>6.0784314134541684e-01</value></_>
        <_>
          <depth>5</depth>
          <value>9.7058823704719543e-01</value></_>
        <_>
          <depth>3</depth>
          <value>3.3333334326744080e-01</value>
          <splits>
            <_><var>1</var>
              <quality>2.7222223281860352e+00</quality>
              <le>3.7672572135925293e+00</le></_></splits></_>
        <_>
          <depth>4</depth>
          <value>8.3333335816860199e-02</value></_>
        <_>
          <depth>4</depth>
          <value>6.6666668653488159e-01</value></_>
        <_>
          <depth>2</depth>
          <value>8.6746988113386081e-01</value>
          <splits>
            <_><var>2</var>
              <quality>1.3761289978027344e+02</quality>
              <le>4.7928571701049805e+00</le></_></splits></_>
        <_>
          <depth>3</depth>
          <value>2.9032258929744842e-01</value>
          <splits>
            <_><var>2</var>
              <quality>2.8928573131561279e+00</quality>
              <le>2.7973613739013672e+00</le></_></splits></_>
        <_>
          <depth>4</depth>
          <value>0.</value></_>
        <_>
          <depth>4</depth>
          <value>3.2142858100788935e-01</value>
          <splits>
            <_><var>3</var>
              <quality>3.2751324176788330e+00</quality>
              <le>2.0990255475044250e-01</le></_></splits></_>
        <_>
          <depth>5</depth>
          <value>2.5396826153709773e-01</value></_>
        <_>
          <depth>5</depth>
          <value>5.2380953942026409e-01</value></_>
        <_>
          <depth>3</depth>
          <value>1.</value></_></nodes></_>
    <_>
      <nodes>
        <_>
          <depth>0</depth>
          <value>2.8117238073963702e-01</value>
          <splits>
            <_><var>1</var>
              <quality>1.7931001281738281e+02</quality>
              <le>4.1182365417480469e+00</le></_></splits></_>
        <_>
          <depth>1</depth>
          <value>1.6941392080578613e-01</value>
          <splits>
            <_><var>2</var>
              <quality>1.2771733093261719e+02</quality>
              <le>5.2035388946533203e+00</le></_></splits></_>
        <_>
          <depth>2</depth>
          <value>5.6893544265737082e-02</value>
          <splits>
            <_><var>5</var>
              <quality>9.5169801712036133e+00</quality>
              <le>-6.5686511993408203e-01</le></_></splits></_>
        <_>
          <depth>3</depth>
